genomestart 3
trait 1 0 0 0 0 0 0 0 0 
node 1 0 1 1
node 2 0 1 1
node 3 0 1 1
node 4 0 1 1
node 5 0 1 1
node 6 0 1 1
node 7 0 1 1
node 8 0 1 1
node 9 0 1 1
node 10 0 1 1
node 11 0 1 1
node 12 0 1 1
node 13 0 1 3
node 14 0 0 2
node 15 0 0 2
gene 1 1 14 1.14935 0 1 0 1
gene 1 2 14 1.59666 0 2 0 1
gene 1 3 14 -4.1958 0 3 0 1
gene 1 4 14 -4.40474 0 4 0 1
gene 1 5 14 -0.509499 0 5 0 1
gene 1 6 14 -6.77881 0 6 0 1
gene 1 7 14 -5.68049 0 7 0 1
gene 1 8 14 -0.127796 0 8 0 1
gene 1 9 14 2.34595 0 9 0 1
gene 1 10 14 7.37991 0 10 0 1
gene 1 11 14 4.93465 0 11 0 1
gene 1 12 14 -7.34891 0 12 0 1
gene 1 13 14 -3.67077 0 13 0 1
gene 1 1 15 0.833913 0 14 0 1
gene 1 2 15 -7.60921 0 15 0 1
gene 1 3 15 -3.38431 0 16 0 1
gene 1 4 15 9.83234 0 17 0 1
gene 1 5 15 -1.51917 0 18 0 1
gene 1 6 15 2.9809 0 19 0 1
gene 1 7 15 -7.14919 0 20 0 1
gene 1 8 15 3.77986 0 21 0 1
gene 1 9 15 -1.6829 0 22 0 1
gene 1 10 15 3.92715 0 23 0 1
gene 1 11 15 2.54081 0 24 0 1
gene 1 12 15 -3.69941 0 25 0 1
gene 1 13 15 -2.6367 0 26 0 1
genomeend 3
