genomestart 3
trait 1 0 0 0 0 0 0 0 0 
node 1 0 1 1
node 2 0 1 1
node 3 0 1 1
node 4 0 1 1
node 5 0 1 1
node 6 0 1 1
node 7 0 1 1
node 8 0 1 1
node 9 0 1 1
node 10 0 1 1
node 11 0 1 1
node 12 0 1 1
node 13 0 1 3
node 14 0 0 2
node 15 0 0 2
gene 1 1 14 0.959726 0 1 0 1
gene 1 2 14 -3.71224 0 2 0 1
gene 1 3 14 -0.857092 0 3 0 1
gene 1 4 14 -0.510905 0 4 0 1
gene 1 5 14 1.34112 0 5 0 1
gene 1 6 14 -2.72518 0 6 0 1
gene 1 7 14 -3.61436 0 7 0 1
gene 1 8 14 0.0889554 0 8 0 1
gene 1 9 14 -0.770081 0 9 0 1
gene 1 10 14 6.09677 0 10 0 1
gene 1 11 14 2.62236 0 11 0 1
gene 1 12 14 -5.01767 0 12 0 1
gene 1 13 14 -4.65613 0 13 0 1
gene 1 1 15 3.29753 0 14 0 1
gene 1 2 15 -5.69752 0 15 0 1
gene 1 3 15 0.221903 0 16 0 1
gene 1 4 15 6.11173 0 17 0 1
gene 1 5 15 -1.36462 0 18 0 1
gene 1 6 15 -0.618828 0 19 0 1
gene 1 7 15 -1.19656 0 20 0 1
gene 1 8 15 3.51219 0 21 0 1
gene 1 9 15 -0.752113 0 22 0 1
gene 1 10 15 -0.350975 0 23 0 1
gene 1 11 15 2.01761 0 24 0 1
gene 1 12 15 -2.81654 0 25 0 1
gene 1 13 15 -2.25405 0 26 0 1
genomeend 3
