genomestart 2
trait 1 0 0 0 0 0 0 0 0 
node 1 0 1 1
node 2 0 1 1
node 3 0 1 1
node 4 0 1 1
node 5 0 1 1
node 6 0 1 1
node 7 0 1 1
node 8 0 1 1
node 9 0 1 1
node 10 0 1 1
node 11 0 1 1
node 12 0 1 1
node 13 0 1 1
node 14 0 1 1
node 15 0 1 1
node 16 0 1 1
node 17 0 1 1
node 18 0 1 1
node 19 0 1 1
node 20 0 1 1
node 21 0 1 1
node 22 0 1 1
node 23 0 1 1
node 24 0 1 1
node 25 0 1 1
node 26 0 1 1
node 27 0 1 3
node 28 0 0 2
node 29 0 0 2
node 30 0 0 2
gene 1 1 28 -0.702818 0 1 0 1
gene 1 2 28 -2.98575 0 2 0 1
gene 1 3 28 0.129558 0 3 0 1
gene 1 4 28 0.864991 0 4 0 1
gene 1 5 28 -1.07465 0 5 0 1
gene 1 6 28 0.309483 0 6 0 1
gene 1 7 28 -0.244639 0 7 0 1
gene 1 8 28 0.836999 0 8 0 1
gene 1 9 28 -0.682286 0 9 0 1
gene 1 10 28 0.173752 0 10 0 1
gene 1 11 28 0.838826 0 11 0 1
gene 1 12 28 0.821886 0 12 0 1
gene 1 13 28 -0.852682 0 13 0 1
gene 1 14 28 0.752235 0 14 0 1
gene 1 15 28 0.381604 0 15 0 1
gene 1 16 28 1.57522 0 16 0 1
gene 1 17 28 1.17483 0 17 0 1
gene 1 18 28 0.0751791 0 18 0 1
gene 1 19 28 -1.12553 0 19 0 1
gene 1 20 28 -0.378935 0 20 0 1
gene 1 21 28 0.502828 0 21 0 1
gene 1 22 28 -1.67468 0 22 0 1
gene 1 23 28 -1.68392 0 23 0 1
gene 1 24 28 -0.776797 0 24 0 1
gene 1 25 28 2.38748 0 25 0 1
gene 1 26 28 -0.778975 0 26 0 1
gene 1 27 28 -0.520084 0 27 0 1
gene 1 1 29 0.15457 0 28 0 1
gene 1 2 29 0.0623903 0 29 0 1
gene 1 3 29 -1.07606 0 30 0 1
gene 1 4 29 0.138147 0 31 0 1
gene 1 5 29 -0.636869 0 32 0 1
gene 1 6 29 1.88408 0 33 0 1
gene 1 7 29 0.479409 0 34 0 1
gene 1 8 29 0.324096 0 35 0 1
gene 1 9 29 0.205142 0 36 0 1
gene 1 10 29 -0.632148 0 37 0 1
gene 1 11 29 -0.162431 0 38 0 1
gene 1 12 29 -0.758743 0 39 0 1
gene 1 13 29 0.997763 0 40 0 1
gene 1 14 29 0.772676 0 41 0 1
gene 1 15 29 -2.01422 0 42 0 1
gene 1 16 29 0.926727 0 43 0 1
gene 1 17 29 1.39869 0 44 0 1
gene 1 18 29 -0.312028 0 45 0 1
gene 1 19 29 -0.945222 0 46 0 1
gene 1 20 29 0.277851 0 47 0 1
gene 1 21 29 -0.666206 0 48 0 1
gene 1 22 29 -0.52807 0 49 0 1
gene 1 23 29 -1.16628 0 50 0 1
gene 1 24 29 -0.440763 0 51 0 1
gene 1 25 29 1.28084 0 52 0 1
gene 1 26 29 0.891787 0 53 0 1
gene 1 27 29 -0.370287 0 54 0 1
gene 1 1 30 -1.29537 0 55 0 1
gene 1 2 30 0.691369 0 56 0 1
gene 1 3 30 1.5551 0 57 0 1
gene 1 4 30 -0.411393 0 58 0 1
gene 1 5 30 0.417698 0 59 0 1
gene 1 6 30 0.862293 0 60 0 1
gene 1 7 30 1.06469 0 61 0 1
gene 1 8 30 1.91565 0 62 0 1
gene 1 9 30 0.117658 0 63 0 1
gene 1 10 30 0.357992 0 64 0 1
gene 1 11 30 -1.12288 0 65 0 1
gene 1 12 30 -0.823103 0 66 0 1
gene 1 13 30 -0.279211 0 67 0 1
gene 1 14 30 0.150232 0 68 0 1
gene 1 15 30 1.33327 0 69 0 1
gene 1 16 30 -1.43579 0 70 0 1
gene 1 17 30 -0.0467008 0 71 0 1
gene 1 18 30 -0.513103 0 72 0 1
gene 1 19 30 0.0146251 0 73 0 1
gene 1 20 30 0.234228 0 74 0 1
gene 1 21 30 -1.22054 0 75 0 1
gene 1 22 30 0.140458 0 76 0 1
gene 1 23 30 1.00321 0 77 0 1
gene 1 24 30 0.427164 0 78 0 1
gene 1 25 30 0.708365 0 79 0 1
gene 1 26 30 -1.69473 0 80 0 1
gene 1 27 30 0.182576 0 81 0 1
genomeend 2
