genomestart 7
trait 1 0 0 0 0 0 0 0 0 
node 1 0 1 1
node 2 0 1 1
node 3 0 1 1
node 4 0 1 1
node 5 0 1 1
node 6 0 1 1
node 7 0 1 1
node 8 0 1 1
node 9 0 1 1
node 10 0 1 1
node 11 0 1 1
node 12 0 1 1
node 13 0 1 3
node 14 0 0 2
node 15 0 0 2
gene 1 1 14 -0.25547 0 1 0 1
gene 1 2 14 2.32405 0 2 0 1
gene 1 3 14 -1.65424 0 3 0 1
gene 1 4 14 3.776 0 4 0 1
gene 1 5 14 4.19295 0 5 0 1
gene 1 6 14 5.15933 0 6 0 1
gene 1 7 14 -4.94964 0 7 0 1
gene 1 8 14 -7.42676 0 8 0 1
gene 1 9 14 2.50723 0 9 0 1
gene 1 10 14 -2.31463 0 10 0 1
gene 1 11 14 4.90609 0 11 0 1
gene 1 12 14 7.35392 0 12 0 1
gene 1 13 14 -3.24891 0 13 0 1
gene 1 1 15 0.904268 0 14 0 1
gene 1 2 15 1.95406 0 15 0 1
gene 1 3 15 1.70663 0 16 0 1
gene 1 4 15 3.52578 0 17 0 1
gene 1 5 15 -1.10555 0 18 0 1
gene 1 6 15 2.89041 0 19 0 1
gene 1 7 15 3.46104 0 20 0 1
gene 1 8 15 -2.74882 0 21 0 1
gene 1 9 15 2.05985 0 22 0 1
gene 1 10 15 2.02947 0 23 0 1
gene 1 11 15 2.35784 0 24 0 1
gene 1 12 15 3.64118 0 25 0 1
gene 1 13 15 -5.61035 0 26 0 1
genomeend 7
