genomestart 2
trait 1 0 0 0 0 0 0 0 0 
node 1 0 1 1
node 2 0 1 1
node 3 0 1 1
node 4 0 1 1
node 5 0 1 1
node 6 0 1 1
node 7 0 1 1
node 8 0 1 1
node 9 0 1 1
node 10 0 1 1
node 11 0 1 1
node 12 0 1 1
node 13 0 1 1
node 14 0 1 1
node 15 0 1 1
node 16 0 1 1
node 17 0 1 1
node 18 0 1 1
node 19 0 1 1
node 20 0 1 1
node 21 0 1 1
node 22 0 1 1
node 23 0 1 1
node 24 0 1 1
node 25 0 1 1
node 26 0 1 1
node 27 0 1 3
node 28 0 0 2
node 29 0 0 2
node 30 0 0 2
gene 1 1 28 -0.201498 0 1 0 1
gene 1 2 28 -1.10432 0 2 0 1
gene 1 3 28 0.949446 0 3 0 1
gene 1 4 28 1.4518 0 4 0 1
gene 1 5 28 -1.86647 0 5 0 1
gene 1 6 28 -1.00331 0 6 0 1
gene 1 7 28 -0.58712 0 7 0 1
gene 1 8 28 0.329685 0 8 0 1
gene 1 9 28 -3.34977 0 9 0 1
gene 1 10 28 0.0919974 0 10 0 1
gene 1 11 28 0.0469514 0 11 0 1
gene 1 12 28 -0.430075 0 12 0 1
gene 1 13 28 -1.01615 0 13 0 1
gene 1 14 28 3.39156 0 14 0 1
gene 1 15 28 0.657366 0 15 0 1
gene 1 16 28 1.47022 0 16 0 1
gene 1 17 28 0.555268 0 17 0 1
gene 1 18 28 -1.34162 0 18 0 1
gene 1 19 28 -2.25198 0 19 0 1
gene 1 20 28 -0.18785 0 20 0 1
gene 1 21 28 -0.120071 0 21 0 1
gene 1 22 28 0.49974 0 22 0 1
gene 1 23 28 -1.27085 0 23 0 1
gene 1 24 28 1.69573 0 24 0 1
gene 1 25 28 2.34131 0 25 0 1
gene 1 26 28 1.03954 0 26 0 1
gene 1 27 28 -2.61427 0 27 0 1
gene 1 1 29 0.180171 0 28 0 1
gene 1 2 29 0.843942 0 29 0 1
gene 1 3 29 -1.00682 0 30 0 1
gene 1 4 29 0.695946 0 31 0 1
gene 1 5 29 0.434673 0 32 0 1
gene 1 6 29 3.02657 0 33 0 1
gene 1 7 29 3.61452 0 34 0 1
gene 1 8 29 -1.97619 0 35 0 1
gene 1 9 29 0.907355 0 36 0 1
gene 1 10 29 -1.80023 0 37 0 1
gene 1 11 29 2.57729 0 38 0 1
gene 1 12 29 -0.882736 0 39 0 1
gene 1 13 29 0.792875 0 40 0 1
gene 1 14 29 2.40065 0 41 0 1
gene 1 15 29 0.47123 0 42 0 1
gene 1 16 29 2.40916 0 43 0 1
gene 1 17 29 1.53133 0 44 0 1
gene 1 18 29 -2.04345 0 45 0 1
gene 1 19 29 0.109244 0 46 0 1
gene 1 20 29 -0.826027 0 47 0 1
gene 1 21 29 2.29807 0 48 0 1
gene 1 22 29 0.0294937 0 49 0 1
gene 1 23 29 -2.26112 0 50 0 1
gene 1 24 29 -3.95222 0 51 0 1
gene 1 25 29 2.02759 0 52 0 1
gene 1 26 29 2.54566 0 53 0 1
gene 1 27 29 3.23726 0 54 0 1
gene 1 1 30 -1.80456 0 55 0 1
gene 1 2 30 -0.207229 0 56 0 1
gene 1 3 30 2.69753 0 57 0 1
gene 1 4 30 -2.56651 0 58 0 1
gene 1 5 30 -0.650914 0 59 0 1
gene 1 6 30 -0.0585303 0 60 0 1
gene 1 7 30 4.21034 0 61 0 1
gene 1 8 30 1.29027 0 62 0 1
gene 1 9 30 -1.33152 0 63 0 1
gene 1 10 30 0.423147 0 64 0 1
gene 1 11 30 -1.01339 0 65 0 1
gene 1 12 30 -0.518884 0 66 0 1
gene 1 13 30 0.018816 0 67 0 1
gene 1 14 30 1.29291 0 68 0 1
gene 1 15 30 3.12549 0 69 0 1
gene 1 16 30 -1.08556 0 70 0 1
gene 1 17 30 1.78272 0 71 0 1
gene 1 18 30 -2.4954 0 72 0 1
gene 1 19 30 -1.34407 0 73 0 1
gene 1 20 30 -1.57364 0 74 0 1
gene 1 21 30 0.525654 0 75 0 1
gene 1 22 30 0.626537 0 76 0 1
gene 1 23 30 0.791745 0 77 0 1
gene 1 24 30 2.28852 0 78 0 1
gene 1 25 30 0.847476 0 79 0 1
gene 1 26 30 -0.823102 0 80 0 1
gene 1 27 30 0.964022 0 81 0 1
genomeend 2
