genomestart 2
trait 1 0 0 0 0 0 0 0 0 
node 1 0 1 1
node 2 0 1 1
node 3 0 1 1
node 4 0 1 1
node 5 0 1 1
node 6 0 1 1
node 7 0 1 1
node 8 0 1 1
node 9 0 1 1
node 10 0 1 1
node 11 0 1 1
node 12 0 1 1
node 13 0 1 1
node 14 0 1 1
node 15 0 1 1
node 16 0 1 1
node 17 0 1 1
node 18 0 1 1
node 19 0 1 1
node 20 0 1 1
node 21 0 1 1
node 22 0 1 1
node 23 0 1 1
node 24 0 1 1
node 25 0 1 1
node 26 0 1 1
node 27 0 1 3
node 28 0 0 2
node 29 0 0 2
node 30 0 0 2
gene 1 1 28 -0.274299 0 1 0 1
gene 1 2 28 -1.41342 0 2 0 1
gene 1 3 28 1.14942 0 3 0 1
gene 1 4 28 1.21686 0 4 0 1
gene 1 5 28 -2.16179 0 5 0 1
gene 1 6 28 -1.44116 0 6 0 1
gene 1 7 28 -0.708067 0 7 0 1
gene 1 8 28 0.804081 0 8 0 1
gene 1 9 28 -3.68816 0 9 0 1
gene 1 10 28 -0.260325 0 10 0 1
gene 1 11 28 0.28965 0 11 0 1
gene 1 12 28 -0.452511 0 12 0 1
gene 1 13 28 -0.871385 0 13 0 1
gene 1 14 28 3.35069 0 14 0 1
gene 1 15 28 0.327797 0 15 0 1
gene 1 16 28 1.82405 0 16 0 1
gene 1 17 28 0.166273 0 17 0 1
gene 1 18 28 -0.844872 0 18 0 1
gene 1 19 28 -2.3219 0 19 0 1
gene 1 20 28 -0.00631024 0 20 0 1
gene 1 21 28 0.0774123 0 21 0 1
gene 1 22 28 -0.472582 0 22 0 1
gene 1 23 28 -1.02501 0 23 0 1
gene 1 24 28 1.32593 0 24 0 1
gene 1 25 28 1.45578 0 25 0 1
gene 1 26 28 1.11649 0 26 0 1
gene 1 27 28 -2.25194 0 27 0 1
gene 1 1 29 0.502209 0 28 0 1
gene 1 2 29 1.28407 0 29 0 1
gene 1 3 29 -1.62631 0 30 0 1
gene 1 4 29 0.724845 0 31 0 1
gene 1 5 29 0.36516 0 32 0 1
gene 1 6 29 3.16375 0 33 0 1
gene 1 7 29 3.15906 0 34 0 1
gene 1 8 29 -2.64923 0 35 0 1
gene 1 9 29 0.729205 0 36 0 1
gene 1 10 29 -2.40327 0 37 0 1
gene 1 11 29 2.33257 0 38 0 1
gene 1 12 29 -0.516817 0 39 0 1
gene 1 13 29 -0.0763712 0 40 0 1
gene 1 14 29 1.8147 0 41 0 1
gene 1 15 29 0.697308 0 42 0 1
gene 1 16 29 2.75533 0 43 0 1
gene 1 17 29 1.42081 0 44 0 1
gene 1 18 29 -2.3445 0 45 0 1
gene 1 19 29 0.180058 0 46 0 1
gene 1 20 29 -0.661008 0 47 0 1
gene 1 21 29 1.33755 0 48 0 1
gene 1 22 29 0.537241 0 49 0 1
gene 1 23 29 -1.76971 0 50 0 1
gene 1 24 29 -3.77028 0 51 0 1
gene 1 25 29 2.04649 0 52 0 1
gene 1 26 29 2.95393 0 53 0 1
gene 1 27 29 2.94997 0 54 0 1
gene 1 1 30 -1.94823 0 55 0 1
gene 1 2 30 0.32204 0 56 0 1
gene 1 3 30 2.40617 0 57 0 1
gene 1 4 30 -1.91616 0 58 0 1
gene 1 5 30 -1.39804 0 59 0 1
gene 1 6 30 -0.435585 0 60 0 1
gene 1 7 30 4.4805 0 61 0 1
gene 1 8 30 1.51616 0 62 0 1
gene 1 9 30 -1.40861 0 63 0 1
gene 1 10 30 0.0950199 0 64 0 1
gene 1 11 30 -0.0752158 0 65 0 1
gene 1 12 30 0.938738 0 66 0 1
gene 1 13 30 0.0101227 0 67 0 1
gene 1 14 30 1.27734 0 68 0 1
gene 1 15 30 2.99083 0 69 0 1
gene 1 16 30 -0.82641 0 70 0 1
gene 1 17 30 1.59911 0 71 0 1
gene 1 18 30 -2.27853 0 72 0 1
gene 1 19 30 -1.47727 0 73 0 1
gene 1 20 30 -1.10028 0 74 0 1
gene 1 21 30 0.583963 0 75 0 1
gene 1 22 30 0.194335 0 76 0 1
gene 1 23 30 0.837005 0 77 0 1
gene 1 24 30 2.11652 0 78 0 1
gene 1 25 30 0.688883 0 79 0 1
gene 1 26 30 -0.42132 0 80 0 1
gene 1 27 30 0.82795 0 81 0 1
genomeend 2
