genomestart 2
trait 1 0 0 0 0 0 0 0 0 
node 1 0 1 1
node 2 0 1 1
node 3 0 1 1
node 4 0 1 1
node 5 0 1 1
node 6 0 1 1
node 7 0 1 1
node 8 0 1 1
node 9 0 1 1
node 10 0 1 1
node 11 0 1 1
node 12 0 1 1
node 13 0 1 1
node 14 0 1 1
node 15 0 1 1
node 16 0 1 1
node 17 0 1 1
node 18 0 1 1
node 19 0 1 1
node 20 0 1 1
node 21 0 1 1
node 22 0 1 1
node 23 0 1 1
node 24 0 1 1
node 25 0 1 1
node 26 0 1 1
node 27 0 1 3
node 28 0 0 2
node 29 0 0 2
node 30 0 0 2
gene 1 1 28 -0.445281 0 1 0 1
gene 1 2 28 -1.61582 0 2 0 1
gene 1 3 28 0.323908 0 3 0 1
gene 1 4 28 0.0925998 0 4 0 1
gene 1 5 28 -0.643699 0 5 0 1
gene 1 6 28 -0.9505 0 6 0 1
gene 1 7 28 -0.888554 0 7 0 1
gene 1 8 28 0.856848 0 8 0 1
gene 1 9 28 0.587025 0 9 0 1
gene 1 10 28 -0.284896 0 10 0 1
gene 1 11 28 1.11418 0 11 0 1
gene 1 12 28 1.40307 0 12 0 1
gene 1 13 28 -0.425889 0 13 0 1
gene 1 14 28 0.452909 0 14 0 1
gene 1 15 28 -0.244898 0 15 0 1
gene 1 16 28 0.508866 0 16 0 1
gene 1 17 28 -0.0758772 0 17 0 1
gene 1 18 28 0.593683 0 18 0 1
gene 1 19 28 -0.339098 0 19 0 1
gene 1 20 28 0.132706 0 20 0 1
gene 1 21 28 0.94876 0 21 0 1
gene 1 22 28 -0.69585 0 22 0 1
gene 1 23 28 -0.608301 0 23 0 1
gene 1 24 28 -0.0789432 0 24 0 1
gene 1 25 28 1.81427 0 25 0 1
gene 1 26 28 -1.2272 0 26 0 1
gene 1 27 28 0.256173 0 27 0 1
gene 1 1 29 0.69004 0 28 0 1
gene 1 2 29 -0.0966892 0 29 0 1
gene 1 3 29 -0.657753 0 30 0 1
gene 1 4 29 0.150934 0 31 0 1
gene 1 5 29 -0.9118 0 32 0 1
gene 1 6 29 0.0476061 0 33 0 1
gene 1 7 29 -0.633541 0 34 0 1
gene 1 8 29 0.935619 0 35 0 1
gene 1 9 29 0.375657 0 36 0 1
gene 1 10 29 -0.72561 0 37 0 1
gene 1 11 29 -0.1487 0 38 0 1
gene 1 12 29 0.228506 0 39 0 1
gene 1 13 29 0.483909 0 40 0 1
gene 1 14 29 2.03299 0 41 0 1
gene 1 15 29 -0.938709 0 42 0 1
gene 1 16 29 1.01545 0 43 0 1
gene 1 17 29 0.861714 0 44 0 1
gene 1 18 29 0.269539 0 45 0 1
gene 1 19 29 1.09069 0 46 0 1
gene 1 20 29 -0.97584 0 47 0 1
gene 1 21 29 -0.820318 0 48 0 1
gene 1 22 29 -0.15336 0 49 0 1
gene 1 23 29 -1.70578 0 50 0 1
gene 1 24 29 1.2511 0 51 0 1
gene 1 25 29 -0.287604 0 52 0 1
gene 1 26 29 -0.0287863 0 53 0 1
gene 1 27 29 -0.391974 0 54 0 1
gene 1 1 30 -0.355952 0 55 0 1
gene 1 2 30 0.316342 0 56 0 1
gene 1 3 30 1.26448 0 57 0 1
gene 1 4 30 0.260875 0 58 0 1
gene 1 5 30 0.24222 0 59 0 1
gene 1 6 30 0.276889 0 60 0 1
gene 1 7 30 1.09573 0 61 0 1
gene 1 8 30 0.903411 0 62 0 1
gene 1 9 30 -0.155804 0 63 0 1
gene 1 10 30 0.0116647 0 64 0 1
gene 1 11 30 -0.582689 0 65 0 1
gene 1 12 30 -0.0248548 0 66 0 1
gene 1 13 30 -0.0678474 0 67 0 1
gene 1 14 30 0.194125 0 68 0 1
gene 1 15 30 0.300911 0 69 0 1
gene 1 16 30 -0.583327 0 70 0 1
gene 1 17 30 0.236692 0 71 0 1
gene 1 18 30 -0.638223 0 72 0 1
gene 1 19 30 0.335517 0 73 0 1
gene 1 20 30 -0.056306 0 74 0 1
gene 1 21 30 0.395384 0 75 0 1
gene 1 22 30 0.553912 0 76 0 1
gene 1 23 30 -0.22086 0 77 0 1
gene 1 24 30 0.225592 0 78 0 1
gene 1 25 30 0.603389 0 79 0 1
gene 1 26 30 -1.03798 0 80 0 1
gene 1 27 30 0.209682 0 81 0 1
genomeend 2
