genomestart 2
trait 1 0 0 0 0 0 0 0 0 
node 1 0 1 1
node 2 0 1 1
node 3 0 1 1
node 4 0 1 1
node 5 0 1 1
node 6 0 1 1
node 7 0 1 1
node 8 0 1 1
node 9 0 1 1
node 10 0 1 1
node 11 0 1 1
node 12 0 1 1
node 13 0 1 1
node 14 0 1 1
node 15 0 1 1
node 16 0 1 1
node 17 0 1 1
node 18 0 1 1
node 19 0 1 1
node 20 0 1 1
node 21 0 1 1
node 22 0 1 1
node 23 0 1 1
node 24 0 1 1
node 25 0 1 1
node 26 0 1 1
node 27 0 1 3
node 28 0 0 2
node 29 0 0 2
node 30 0 0 2
gene 1 1 28 -0.883668 0 1 0 1
gene 1 2 28 -0.432759 0 2 0 1
gene 1 3 28 1.52405 0 3 0 1
gene 1 4 28 0.0521075 0 4 0 1
gene 1 5 28 -1.27572 0 5 0 1
gene 1 6 28 -0.883015 0 6 0 1
gene 1 7 28 -1.08592 0 7 0 1
gene 1 8 28 1.8311 0 8 0 1
gene 1 9 28 -2.5943 0 9 0 1
gene 1 10 28 -0.197099 0 10 0 1
gene 1 11 28 0.419802 0 11 0 1
gene 1 12 28 -0.0905849 0 12 0 1
gene 1 13 28 0.230478 0 13 0 1
gene 1 14 28 3.83852 0 14 0 1
gene 1 15 28 0.181074 0 15 0 1
gene 1 16 28 1.69707 0 16 0 1
gene 1 17 28 0.670562 0 17 0 1
gene 1 18 28 -0.606796 0 18 0 1
gene 1 19 28 -1.45569 0 19 0 1
gene 1 20 28 0.33311 0 20 0 1
gene 1 21 28 0.486588 0 21 0 1
gene 1 22 28 -1.30272 0 22 0 1
gene 1 23 28 -1.80339 0 23 0 1
gene 1 24 28 0.942135 0 24 0 1
gene 1 25 28 1.63869 0 25 0 1
gene 1 26 28 1.16183 0 26 0 1
gene 1 27 28 -1.32567 0 27 0 1
gene 1 1 29 0.250708 0 28 0 1
gene 1 2 29 0.488017 0 29 0 1
gene 1 3 29 -1.23207 0 30 0 1
gene 1 4 29 1.01288 0 31 0 1
gene 1 5 29 1.84886 0 32 0 1
gene 1 6 29 2.76043 0 33 0 1
gene 1 7 29 2.74321 0 34 0 1
gene 1 8 29 -2.66495 0 35 0 1
gene 1 9 29 0.8626 0 36 0 1
gene 1 10 29 -2.57091 0 37 0 1
gene 1 11 29 0.928387 0 38 0 1
gene 1 12 29 -1.97884 0 39 0 1
gene 1 13 29 0.133258 0 40 0 1
gene 1 14 29 2.2897 0 41 0 1
gene 1 15 29 0.326856 0 42 0 1
gene 1 16 29 2.44565 0 43 0 1
gene 1 17 29 -0.117239 0 44 0 1
gene 1 18 29 -2.05543 0 45 0 1
gene 1 19 29 0.648071 0 46 0 1
gene 1 20 29 -0.693598 0 47 0 1
gene 1 21 29 1.40669 0 48 0 1
gene 1 22 29 0.357685 0 49 0 1
gene 1 23 29 -0.945426 0 50 0 1
gene 1 24 29 -2.52138 0 51 0 1
gene 1 25 29 1.97015 0 52 0 1
gene 1 26 29 2.62019 0 53 0 1
gene 1 27 29 2.52322 0 54 0 1
gene 1 1 30 -2.46283 0 55 0 1
gene 1 2 30 0.471165 0 56 0 1
gene 1 3 30 1.92665 0 57 0 1
gene 1 4 30 -1.87493 0 58 0 1
gene 1 5 30 -0.679054 0 59 0 1
gene 1 6 30 -0.512431 0 60 0 1
gene 1 7 30 3.07043 0 61 0 1
gene 1 8 30 1.65383 0 62 0 1
gene 1 9 30 -0.967653 0 63 0 1
gene 1 10 30 -0.273136 0 64 0 1
gene 1 11 30 -0.354705 0 65 0 1
gene 1 12 30 -0.133526 0 66 0 1
gene 1 13 30 -0.23542 0 67 0 1
gene 1 14 30 0.652182 0 68 0 1
gene 1 15 30 2.57996 0 69 0 1
gene 1 16 30 -1.19334 0 70 0 1
gene 1 17 30 1.6311 0 71 0 1
gene 1 18 30 -1.83769 0 72 0 1
gene 1 19 30 -1.22758 0 73 0 1
gene 1 20 30 -0.206176 0 74 0 1
gene 1 21 30 0.42073 0 75 0 1
gene 1 22 30 -0.288922 0 76 0 1
gene 1 23 30 0.671012 0 77 0 1
gene 1 24 30 2.15458 0 78 0 1
gene 1 25 30 0.369781 0 79 0 1
gene 1 26 30 -1.37463 0 80 0 1
gene 1 27 30 1.1257 0 81 0 1
genomeend 2
