genomestart 3
trait 1 0 0 0 0 0 0 0 0 
node 1 0 1 1
node 2 0 1 1
node 3 0 1 1
node 4 0 1 1
node 5 0 1 1
node 6 0 1 1
node 7 0 1 1
node 8 0 1 1
node 9 0 1 1
node 10 0 1 1
node 11 0 1 1
node 12 0 1 1
node 13 0 1 3
node 14 0 0 2
node 15 0 0 2
gene 1 1 14 1.70353 0 1 0 1
gene 1 2 14 0.0419073 0 2 0 1
gene 1 3 14 -1.32456 0 3 0 1
gene 1 4 14 -1.2424 0 4 0 1
gene 1 5 14 1.08497 0 5 0 1
gene 1 6 14 -2.92184 0 6 0 1
gene 1 7 14 -5.36812 0 7 0 1
gene 1 8 14 0.0410538 0 8 0 1
gene 1 9 14 -0.422903 0 9 0 1
gene 1 10 14 6.81134 0 10 0 1
gene 1 11 14 3.45179 0 11 0 1
gene 1 12 14 -3.8586 0 12 0 1
gene 1 13 14 -5.24885 0 13 0 1
gene 1 1 15 1.79689 0 14 0 1
gene 1 2 15 -5.83451 0 15 0 1
gene 1 3 15 -0.868266 0 16 0 1
gene 1 4 15 6.70359 0 17 0 1
gene 1 5 15 -3.85874 0 18 0 1
gene 1 6 15 1.13535 0 19 0 1
gene 1 7 15 -2.50638 0 20 0 1
gene 1 8 15 0.115121 0 21 0 1
gene 1 9 15 -1.21229 0 22 0 1
gene 1 10 15 0.698862 0 23 0 1
gene 1 11 15 3.29306 0 24 0 1
gene 1 12 15 -2.92719 0 25 0 1
gene 1 13 15 -1.33074 0 26 0 1
genomeend 3
