genomestart 0
trait 1 0 0 0 0 0 0 0 0 
node 1 0 1 1
node 2 0 1 1
node 3 0 1 1
node 4 0 1 1
node 5 0 1 1
node 6 0 1 1
node 7 0 1 1
node 8 0 1 1
node 9 0 1 1
node 10 0 1 1
node 11 0 1 1
node 12 0 1 1
node 13 0 1 1
node 14 0 1 1
node 15 0 1 1
node 16 0 1 1
node 17 0 1 1
node 18 0 1 1
node 19 0 1 1
node 20 0 1 1
node 21 0 1 1
node 22 0 1 1
node 23 0 1 1
node 24 0 1 1
node 25 0 1 3
node 26 0 0 2
node 27 0 0 2
node 28 1 0 0
node 29 1 0 0
node 30 1 0 0
node 31 1 0 0
node 32 1 0 0
gene 1 1 26 -0.406656 0 1 -0.406656 1
gene 1 2 26 0.906217 0 2 0.906217 1
gene 1 3 26 -0.67457 0 3 -0.67457 1
gene 1 4 26 -0.946038 0 4 -0.946038 1
gene 1 5 26 -1.00679 0 5 -1.00679 1
gene 1 6 26 -0.782333 0 6 -0.782333 1
gene 1 7 26 1.80211 0 7 1.80211 1
gene 1 8 26 -1.65543 0 8 -1.65543 1
gene 1 9 26 1.61646 0 9 1.61646 1
gene 1 10 26 -1.29239 0 10 -1.29239 1
gene 1 11 26 -0.914392 0 11 -0.914392 0
gene 1 12 26 2.10932 0 12 2.10932 1
gene 1 13 26 0.176874 0 13 0.176874 1
gene 1 14 26 1.49818 0 14 1.49818 1
gene 1 15 26 -0.292227 0 15 -0.292227 1
gene 1 16 26 2.16018 0 16 2.16018 1
gene 1 17 26 1.0368 0 17 1.0368 1
gene 1 18 26 0.962494 0 18 0.962494 1
gene 1 19 26 -0.345606 0 19 -0.345606 1
gene 1 20 26 0.891215 0 20 0.891215 1
gene 1 21 26 -1.00837 0 21 -1.00837 1
gene 1 22 26 -0.192265 0 22 -0.192265 1
gene 1 23 26 -0.480835 0 23 -0.480835 1
gene 1 24 26 -0.148035 0 24 -0.148035 1
gene 1 25 26 -0.326485 0 25 -0.326485 1
gene 1 1 27 1.48923 0 26 1.48923 1
gene 1 2 27 0.271133 0 27 0.271133 1
gene 1 3 27 -0.279531 0 28 -0.279531 1
gene 1 4 27 -1.18773 0 29 -1.18773 1
gene 1 5 27 -1.01241 0 30 -1.01241 1
gene 1 6 27 0.19959 0 31 0.19959 1
gene 1 7 27 1.32996 0 32 1.32996 1
gene 1 8 27 0.702897 0 33 0.702897 1
gene 1 9 27 0.742743 0 34 0.742743 0
gene 1 10 27 -1.17673 0 35 -1.17673 1
gene 1 11 27 -1.44675 0 36 -1.44675 1
gene 1 12 27 -0.41882 0 37 -0.41882 1
gene 1 13 27 -1.36686 0 38 -1.36686 1
gene 1 14 27 -1.36451 0 39 -1.36451 1
gene 1 15 27 -0.512041 0 40 -0.512041 1
gene 1 16 27 0.154822 0 41 0.154822 1
gene 1 17 27 -1.01333 0 42 -1.01333 1
gene 1 18 27 -0.198201 0 43 -0.198201 0
gene 1 19 27 0.198212 0 44 0.198212 1
gene 1 20 27 1.25594 0 45 1.25594 0
gene 1 21 27 -1.74106 0 46 -1.74106 1
gene 1 22 27 0.262694 0 47 0.262694 1
gene 1 23 27 0.105337 0 48 0.105337 1
gene 1 24 27 -0.877686 0 49 -0.877686 1
gene 1 10 28 1.75413 0 50 1.75413 1
gene 1 25 27 0.327035 0 50 0.327035 1
gene 1 28 26 -0.263541 0 51 -0.263541 1
gene 1 9 29 0.678059 0 52 0.678059 1
gene 1 29 27 -0.580314 0 53 -0.580314 1
gene 1 11 30 1.14446 0 54 1.14446 1
gene 1 30 26 0.436894 0 55 0.436894 1
gene 1 20 31 0.511834 0 56 0.511834 1
gene 1 31 27 0.444165 0 57 0.444165 1
gene 1 18 32 1 0 58 0 1
gene 1 32 27 -0.198201 0 59 0 1
genomeend 0
