genomestart 2
trait 1 0 0 0 0 0 0 0 0 
node 1 0 1 1
node 2 0 1 1
node 3 0 1 1
node 4 0 1 1
node 5 0 1 1
node 6 0 1 1
node 7 0 1 1
node 8 0 1 1
node 9 0 1 1
node 10 0 1 1
node 11 0 1 1
node 12 0 1 1
node 13 0 1 1
node 14 0 1 1
node 15 0 1 1
node 16 0 1 1
node 17 0 1 1
node 18 0 1 1
node 19 0 1 1
node 20 0 1 1
node 21 0 1 1
node 22 0 1 1
node 23 0 1 1
node 24 0 1 1
node 25 0 1 1
node 26 0 1 1
node 27 0 1 3
node 28 0 0 2
node 29 0 0 2
node 30 0 0 2
gene 1 1 28 -1.05471 0 1 0 1
gene 1 2 28 -3.15932 0 2 0 1
gene 1 3 28 0.851148 0 3 0 1
gene 1 4 28 0.746144 0 4 0 1
gene 1 5 28 -1.35938 0 5 0 1
gene 1 6 28 0.718669 0 6 0 1
gene 1 7 28 -0.274678 0 7 0 1
gene 1 8 28 0.788067 0 8 0 1
gene 1 9 28 -0.477107 0 9 0 1
gene 1 10 28 0.172893 0 10 0 1
gene 1 11 28 1.33083 0 11 0 1
gene 1 12 28 0.909566 0 12 0 1
gene 1 13 28 -1.3295 0 13 0 1
gene 1 14 28 0.743309 0 14 0 1
gene 1 15 28 0.700831 0 15 0 1
gene 1 16 28 1.55838 0 16 0 1
gene 1 17 28 0.712499 0 17 0 1
gene 1 18 28 0.171689 0 18 0 1
gene 1 19 28 -0.99161 0 19 0 1
gene 1 20 28 -0.0268444 0 20 0 1
gene 1 21 28 -0.0489086 0 21 0 1
gene 1 22 28 -1.55666 0 22 0 1
gene 1 23 28 -1.70413 0 23 0 1
gene 1 24 28 -0.381452 0 24 0 1
gene 1 25 28 2.35333 0 25 0 1
gene 1 26 28 -0.69053 0 26 0 1
gene 1 27 28 -0.519217 0 27 0 1
gene 1 1 29 -0.307346 0 28 0 1
gene 1 2 29 0.43509 0 29 0 1
gene 1 3 29 -1.72039 0 30 0 1
gene 1 4 29 0.224768 0 31 0 1
gene 1 5 29 -0.207278 0 32 0 1
gene 1 6 29 1.83358 0 33 0 1
gene 1 7 29 0.200951 0 34 0 1
gene 1 8 29 0.0189208 0 35 0 1
gene 1 9 29 0.256758 0 36 0 1
gene 1 10 29 -0.624536 0 37 0 1
gene 1 11 29 0.269196 0 38 0 1
gene 1 12 29 -0.783334 0 39 0 1
gene 1 13 29 1.18224 0 40 0 1
gene 1 14 29 0.675389 0 41 0 1
gene 1 15 29 -2.16986 0 42 0 1
gene 1 16 29 0.719812 0 43 0 1
gene 1 17 29 1.21042 0 44 0 1
gene 1 18 29 -0.318536 0 45 0 1
gene 1 19 29 -1.27533 0 46 0 1
gene 1 20 29 0.176798 0 47 0 1
gene 1 21 29 -0.748 0 48 0 1
gene 1 22 29 -0.342384 0 49 0 1
gene 1 23 29 -1.25101 0 50 0 1
gene 1 24 29 -0.616193 0 51 0 1
gene 1 25 29 1.27074 0 52 0 1
gene 1 26 29 0.844615 0 53 0 1
gene 1 27 29 -0.252791 0 54 0 1
gene 1 1 30 -1.86583 0 55 0 1
gene 1 2 30 0.475233 0 56 0 1
gene 1 3 30 1.55872 0 57 0 1
gene 1 4 30 -0.153991 0 58 0 1
gene 1 5 30 0.303319 0 59 0 1
gene 1 6 30 1.25783 0 60 0 1
gene 1 7 30 0.723368 0 61 0 1
gene 1 8 30 1.49655 0 62 0 1
gene 1 9 30 0.0169465 0 63 0 1
gene 1 10 30 0.461654 0 64 0 1
gene 1 11 30 -1.31999 0 65 0 1
gene 1 12 30 -0.644415 0 66 0 1
gene 1 13 30 0.125436 0 67 0 1
gene 1 14 30 -1.00271 0 68 0 1
gene 1 15 30 1.12444 0 69 0 1
gene 1 16 30 -1.57852 0 70 0 1
gene 1 17 30 0.180582 0 71 0 1
gene 1 18 30 -0.231197 0 72 0 1
gene 1 19 30 -0.208191 0 73 0 1
gene 1 20 30 0.771504 0 74 0 1
gene 1 21 30 -1.89485 0 75 0 1
gene 1 22 30 -0.510015 0 76 0 1
gene 1 23 30 1.01803 0 77 0 1
gene 1 24 30 0.828349 0 78 0 1
gene 1 25 30 0.723112 0 79 0 1
gene 1 26 30 -1.36642 0 80 0 1
gene 1 27 30 0.248137 0 81 0 1
genomeend 2
