genomestart 2
trait 1 0 0 0 0 0 0 0 0 
node 1 0 1 1
node 2 0 1 1
node 3 0 1 1
node 4 0 1 1
node 5 0 1 1
node 6 0 1 1
node 7 0 1 1
node 8 0 1 1
node 9 0 1 1
node 10 0 1 1
node 11 0 1 1
node 12 0 1 1
node 13 0 1 1
node 14 0 1 1
node 15 0 1 1
node 16 0 1 1
node 17 0 1 1
node 18 0 1 1
node 19 0 1 1
node 20 0 1 1
node 21 0 1 1
node 22 0 1 1
node 23 0 1 1
node 24 0 1 1
node 25 0 1 1
node 26 0 1 1
node 27 0 1 3
node 28 0 0 2
node 29 0 0 2
node 30 0 0 2
gene 1 1 28 -0.809758 0 1 0 1
gene 1 2 28 -1.54219 0 2 0 1
gene 1 3 28 0.840751 0 3 0 1
gene 1 4 28 0.878998 0 4 0 1
gene 1 5 28 -2.42912 0 5 0 1
gene 1 6 28 0.255341 0 6 0 1
gene 1 7 28 -0.21111 0 7 0 1
gene 1 8 28 -0.609611 0 8 0 1
gene 1 9 28 -2.86712 0 9 0 1
gene 1 10 28 0.469188 0 10 0 1
gene 1 11 28 0.946866 0 11 0 1
gene 1 12 28 0.412461 0 12 0 1
gene 1 13 28 -1.31265 0 13 0 1
gene 1 14 28 2.76973 0 14 0 1
gene 1 15 28 0.395941 0 15 0 1
gene 1 16 28 -0.386787 0 16 0 1
gene 1 17 28 -0.125067 0 17 0 1
gene 1 18 28 -0.444706 0 18 0 1
gene 1 19 28 -1.73945 0 19 0 1
gene 1 20 28 -1.04785 0 20 0 1
gene 1 21 28 -0.350083 0 21 0 1
gene 1 22 28 0.351914 0 22 0 1
gene 1 23 28 -2.48396 0 23 0 1
gene 1 24 28 2.50614 0 24 0 1
gene 1 25 28 1.46155 0 25 0 1
gene 1 26 28 0.535813 0 26 0 1
gene 1 27 28 -1.5329 0 27 0 1
gene 1 1 29 1.17199 0 28 0 1
gene 1 2 29 1.01535 0 29 0 1
gene 1 3 29 -1.13612 0 30 0 1
gene 1 4 29 0.677603 0 31 0 1
gene 1 5 29 -0.114604 0 32 0 1
gene 1 6 29 3.38096 0 33 0 1
gene 1 7 29 3.98681 0 34 0 1
gene 1 8 29 -0.825624 0 35 0 1
gene 1 9 29 2.18131 0 36 0 1
gene 1 10 29 -1.25374 0 37 0 1
gene 1 11 29 2.21073 0 38 0 1
gene 1 12 29 -0.185864 0 39 0 1
gene 1 13 29 1.41568 0 40 0 1
gene 1 14 29 2.08493 0 41 0 1
gene 1 15 29 1.3184 0 42 0 1
gene 1 16 29 1.90928 0 43 0 1
gene 1 17 29 1.54442 0 44 0 1
gene 1 18 29 -2.5822 0 45 0 1
gene 1 19 29 -0.628331 0 46 0 1
gene 1 20 29 -2.32589 0 47 0 1
gene 1 21 29 2.15442 0 48 0 1
gene 1 22 29 -0.233854 0 49 0 1
gene 1 23 29 -2.57976 0 50 0 1
gene 1 24 29 -3.35112 0 51 0 1
gene 1 25 29 0.116575 0 52 0 1
gene 1 26 29 2.41327 0 53 0 1
gene 1 27 29 2.44726 0 54 0 1
gene 1 1 30 -2.20171 0 55 0 1
gene 1 2 30 -0.429949 0 56 0 1
gene 1 3 30 3.06725 0 57 0 1
gene 1 4 30 -2.68983 0 58 0 1
gene 1 5 30 -0.544867 0 59 0 1
gene 1 6 30 0.900359 0 60 0 1
gene 1 7 30 3.9049 0 61 0 1
gene 1 8 30 1.1205 0 62 0 1
gene 1 9 30 -2.44252 0 63 0 1
gene 1 10 30 -1.04733 0 64 0 1
gene 1 11 30 -1.55238 0 65 0 1
gene 1 12 30 1.22877 0 66 0 1
gene 1 13 30 -0.034787 0 67 0 1
gene 1 14 30 0.805695 0 68 0 1
gene 1 15 30 2.1658 0 69 0 1
gene 1 16 30 -2.50798 0 70 0 1
gene 1 17 30 1.71705 0 71 0 1
gene 1 18 30 -2.3391 0 72 0 1
gene 1 19 30 -0.901119 0 73 0 1
gene 1 20 30 -2.75697 0 74 0 1
gene 1 21 30 0.633337 0 75 0 1
gene 1 22 30 0.465012 0 76 0 1
gene 1 23 30 0.214063 0 77 0 1
gene 1 24 30 1.13211 0 78 0 1
gene 1 25 30 1.03571 0 79 0 1
gene 1 26 30 0.199805 0 80 0 1
gene 1 27 30 2.35271 0 81 0 1
genomeend 2
