genomestart 2
trait 1 0 0 0 0 0 0 0 0 
node 1 0 1 1
node 2 0 1 1
node 3 0 1 1
node 4 0 1 1
node 5 0 1 1
node 6 0 1 1
node 7 0 1 1
node 8 0 1 1
node 9 0 1 1
node 10 0 1 1
node 11 0 1 1
node 12 0 1 1
node 13 0 1 1
node 14 0 1 1
node 15 0 1 1
node 16 0 1 1
node 17 0 1 1
node 18 0 1 1
node 19 0 1 1
node 20 0 1 1
node 21 0 1 1
node 22 0 1 1
node 23 0 1 1
node 24 0 1 1
node 25 0 1 1
node 26 0 1 1
node 27 0 1 3
node 28 0 0 2
node 29 0 0 2
node 30 0 0 2
gene 1 1 28 -1.33971 0 1 0 1
gene 1 2 28 -2.44141 0 2 0 1
gene 1 3 28 0.807673 0 3 0 1
gene 1 4 28 0.392087 0 4 0 1
gene 1 5 28 -0.965737 0 5 0 1
gene 1 6 28 0.250506 0 6 0 1
gene 1 7 28 -0.877709 0 7 0 1
gene 1 8 28 0.77952 0 8 0 1
gene 1 9 28 -0.688047 0 9 0 1
gene 1 10 28 0.108861 0 10 0 1
gene 1 11 28 0.732235 0 11 0 1
gene 1 12 28 0.334682 0 12 0 1
gene 1 13 28 -0.606741 0 13 0 1
gene 1 14 28 1.14666 0 14 0 1
gene 1 15 28 0.885287 0 15 0 1
gene 1 16 28 1.34665 0 16 0 1
gene 1 17 28 0.271439 0 17 0 1
gene 1 18 28 0.0185502 0 18 0 1
gene 1 19 28 -0.725509 0 19 0 1
gene 1 20 28 -0.379935 0 20 0 1
gene 1 21 28 0.298585 0 21 0 1
gene 1 22 28 -2.11949 0 22 0 1
gene 1 23 28 -2.02559 0 23 0 1
gene 1 24 28 -0.442676 0 24 0 1
gene 1 25 28 2.74431 0 25 0 1
gene 1 26 28 -0.195949 0 26 0 1
gene 1 27 28 -1.16531 0 27 0 1
gene 1 1 29 -0.859988 0 28 0 1
gene 1 2 29 -0.0871416 0 29 0 1
gene 1 3 29 -1.82081 0 30 0 1
gene 1 4 29 0.490557 0 31 0 1
gene 1 5 29 0.0990802 0 32 0 1
gene 1 6 29 1.96494 0 33 0 1
gene 1 7 29 0.55532 0 34 0 1
gene 1 8 29 -0.201125 0 35 0 1
gene 1 9 29 1.15466 0 36 0 1
gene 1 10 29 -0.511238 0 37 0 1
gene 1 11 29 0.170564 0 38 0 1
gene 1 12 29 -1.18048 0 39 0 1
gene 1 13 29 0.112757 0 40 0 1
gene 1 14 29 0.990854 0 41 0 1
gene 1 15 29 -1.97114 0 42 0 1
gene 1 16 29 1.35736 0 43 0 1
gene 1 17 29 1.15403 0 44 0 1
gene 1 18 29 -1.34065 0 45 0 1
gene 1 19 29 -0.849434 0 46 0 1
gene 1 20 29 -0.371605 0 47 0 1
gene 1 21 29 -0.746674 0 48 0 1
gene 1 22 29 -0.344499 0 49 0 1
gene 1 23 29 -1.27882 0 50 0 1
gene 1 24 29 -1.00297 0 51 0 1
gene 1 25 29 1.38953 0 52 0 1
gene 1 26 29 1.47052 0 53 0 1
gene 1 27 29 0.0220631 0 54 0 1
gene 1 1 30 -2.34925 0 55 0 1
gene 1 2 30 0.528658 0 56 0 1
gene 1 3 30 1.53407 0 57 0 1
gene 1 4 30 -0.33709 0 58 0 1
gene 1 5 30 0.365021 0 59 0 1
gene 1 6 30 0.801225 0 60 0 1
gene 1 7 30 0.83814 0 61 0 1
gene 1 8 30 1.21062 0 62 0 1
gene 1 9 30 0.0170365 0 63 0 1
gene 1 10 30 -0.199779 0 64 0 1
gene 1 11 30 -1.08596 0 65 0 1
gene 1 12 30 -0.39513 0 66 0 1
gene 1 13 30 -0.429823 0 67 0 1
gene 1 14 30 -1.06048 0 68 0 1
gene 1 15 30 0.932715 0 69 0 1
gene 1 16 30 -1.82528 0 70 0 1
gene 1 17 30 0.00931479 0 71 0 1
gene 1 18 30 -0.71806 0 72 0 1
gene 1 19 30 -0.800727 0 73 0 1
gene 1 20 30 0.966042 0 74 0 1
gene 1 21 30 -1.3855 0 75 0 1
gene 1 22 30 -0.675579 0 76 0 1
gene 1 23 30 0.644575 0 77 0 1
gene 1 24 30 0.814237 0 78 0 1
gene 1 25 30 1.28722 0 79 0 1
gene 1 26 30 -1.55157 0 80 0 1
gene 1 27 30 0.281419 0 81 0 1
genomeend 2
