genomestart 3
trait 1 0 0 0 0 0 0 0 0 
node 1 0 1 1
node 2 0 1 1
node 3 0 1 1
node 4 0 1 1
node 5 0 1 1
node 6 0 1 1
node 7 0 1 1
node 8 0 1 1
node 9 0 1 1
node 10 0 1 1
node 11 0 1 1
node 12 0 1 1
node 13 0 1 3
node 14 0 0 2
node 15 0 0 2
gene 1 1 14 1.10164 0 1 0 1
gene 1 2 14 2.09913 0 2 0 1
gene 1 3 14 -3.88696 0 3 0 1
gene 1 4 14 -3.65847 0 4 0 1
gene 1 5 14 -0.282415 0 5 0 1
gene 1 6 14 -6.6759 0 6 0 1
gene 1 7 14 -6.73433 0 7 0 1
gene 1 8 14 -0.342782 0 8 0 1
gene 1 9 14 2.17546 0 9 0 1
gene 1 10 14 8.37079 0 10 0 1
gene 1 11 14 4.66362 0 11 0 1
gene 1 12 14 -6.34195 0 12 0 1
gene 1 13 14 -5.27499 0 13 0 1
gene 1 1 15 0.421091 0 14 0 1
gene 1 2 15 -6.6601 0 15 0 1
gene 1 3 15 -3.4181 0 16 0 1
gene 1 4 15 9.75044 0 17 0 1
gene 1 5 15 -2.56326 0 18 0 1
gene 1 6 15 1.50996 0 19 0 1
gene 1 7 15 -7.73963 0 20 0 1
gene 1 8 15 4.62014 0 21 0 1
gene 1 9 15 -1.99881 0 22 0 1
gene 1 10 15 3.80673 0 23 0 1
gene 1 11 15 2.53569 0 24 0 1
gene 1 12 15 -3.28551 0 25 0 1
gene 1 13 15 -1.31641 0 26 0 1
genomeend 3
