genomestart 2
trait 1 0 0 0 0 0 0 0 0 
node 1 0 1 1
node 2 0 1 1
node 3 0 1 1
node 4 0 1 1
node 5 0 1 1
node 6 0 1 1
node 7 0 1 1
node 8 0 1 1
node 9 0 1 1
node 10 0 1 1
node 11 0 1 1
node 12 0 1 1
node 13 0 1 1
node 14 0 1 1
node 15 0 1 1
node 16 0 1 1
node 17 0 1 1
node 18 0 1 1
node 19 0 1 1
node 20 0 1 1
node 21 0 1 1
node 22 0 1 1
node 23 0 1 1
node 24 0 1 1
node 25 0 1 1
node 26 0 1 1
node 27 0 1 3
node 28 0 0 2
node 29 0 0 2
node 30 0 0 2
gene 1 1 28 -1.24402 0 1 0 1
gene 1 2 28 -0.0446924 0 2 0 1
gene 1 3 28 1.22903 0 3 0 1
gene 1 4 28 -0.0168426 0 4 0 1
gene 1 5 28 -0.690779 0 5 0 1
gene 1 6 28 -0.681886 0 6 0 1
gene 1 7 28 -1.34982 0 7 0 1
gene 1 8 28 3.64415 0 8 0 1
gene 1 9 28 -2.09775 0 9 0 1
gene 1 10 28 0.382877 0 10 0 1
gene 1 11 28 0.000320885 0 11 0 1
gene 1 12 28 -0.745402 0 12 0 1
gene 1 13 28 0.542483 0 13 0 1
gene 1 14 28 4.49091 0 14 0 1
gene 1 15 28 0.120422 0 15 0 1
gene 1 16 28 1.82329 0 16 0 1
gene 1 17 28 0.284281 0 17 0 1
gene 1 18 28 -1.02242 0 18 0 1
gene 1 19 28 -1.43102 0 19 0 1
gene 1 20 28 0.245121 0 20 0 1
gene 1 21 28 0.824577 0 21 0 1
gene 1 22 28 -0.879723 0 22 0 1
gene 1 23 28 -2.52239 0 23 0 1
gene 1 24 28 0.485743 0 24 0 1
gene 1 25 28 1.88007 0 25 0 1
gene 1 26 28 0.771841 0 26 0 1
gene 1 27 28 -1.99897 0 27 0 1
gene 1 1 29 0.323923 0 28 0 1
gene 1 2 29 1.10088 0 29 0 1
gene 1 3 29 -1.0057 0 30 0 1
gene 1 4 29 1.09265 0 31 0 1
gene 1 5 29 2.05079 0 32 0 1
gene 1 6 29 2.2615 0 33 0 1
gene 1 7 29 2.77872 0 34 0 1
gene 1 8 29 -1.74458 0 35 0 1
gene 1 9 29 0.376628 0 36 0 1
gene 1 10 29 -2.13693 0 37 0 1
gene 1 11 29 0.873051 0 38 0 1
gene 1 12 29 -1.87034 0 39 0 1
gene 1 13 29 0.422228 0 40 0 1
gene 1 14 29 1.71147 0 41 0 1
gene 1 15 29 0.329987 0 42 0 1
gene 1 16 29 1.73062 0 43 0 1
gene 1 17 29 0.542846 0 44 0 1
gene 1 18 29 -2.63516 0 45 0 1
gene 1 19 29 0.368301 0 46 0 1
gene 1 20 29 -0.671772 0 47 0 1
gene 1 21 29 1.40549 0 48 0 1
gene 1 22 29 -1.03856 0 49 0 1
gene 1 23 29 -0.608103 0 50 0 1
gene 1 24 29 -2.8345 0 51 0 1
gene 1 25 29 1.59688 0 52 0 1
gene 1 26 29 2.2189 0 53 0 1
gene 1 27 29 2.00696 0 54 0 1
gene 1 1 30 -2.88285 0 55 0 1
gene 1 2 30 0.922633 0 56 0 1
gene 1 3 30 2.40079 0 57 0 1
gene 1 4 30 -0.507932 0 58 0 1
gene 1 5 30 -0.270464 0 59 0 1
gene 1 6 30 -0.766927 0 60 0 1
gene 1 7 30 3.37405 0 61 0 1
gene 1 8 30 1.54146 0 62 0 1
gene 1 9 30 0.148225 0 63 0 1
gene 1 10 30 -1.14185 0 64 0 1
gene 1 11 30 -1.58824 0 65 0 1
gene 1 12 30 -0.152087 0 66 0 1
gene 1 13 30 0.11634 0 67 0 1
gene 1 14 30 0.282968 0 68 0 1
gene 1 15 30 3.30386 0 69 0 1
gene 1 16 30 -1.60698 0 70 0 1
gene 1 17 30 1.50253 0 71 0 1
gene 1 18 30 -1.45838 0 72 0 1
gene 1 19 30 -1.88508 0 73 0 1
gene 1 20 30 -0.869439 0 74 0 1
gene 1 21 30 1.23049 0 75 0 1
gene 1 22 30 -1.42792 0 76 0 1
gene 1 23 30 1.57357 0 77 0 1
gene 1 24 30 2.55905 0 78 0 1
gene 1 25 30 -0.360772 0 79 0 1
gene 1 26 30 -0.869132 0 80 0 1
gene 1 27 30 1.80093 0 81 0 1
genomeend 2
