genomestart 2
trait 1 0 0 0 0 0 0 0 0 
node 1 0 1 1
node 2 0 1 1
node 3 0 1 1
node 4 0 1 1
node 5 0 1 1
node 6 0 1 1
node 7 0 1 1
node 8 0 1 1
node 9 0 1 1
node 10 0 1 1
node 11 0 1 1
node 12 0 1 1
node 13 0 1 1
node 14 0 1 1
node 15 0 1 1
node 16 0 1 1
node 17 0 1 1
node 18 0 1 1
node 19 0 1 1
node 20 0 1 1
node 21 0 1 1
node 22 0 1 1
node 23 0 1 1
node 24 0 1 1
node 25 0 1 1
node 26 0 1 1
node 27 0 1 3
node 28 0 0 2
node 29 0 0 2
node 30 0 0 2
gene 1 1 28 -0.586607 0 1 0 1
gene 1 2 28 -1.18971 0 2 0 1
gene 1 3 28 1.14345 0 3 0 1
gene 1 4 28 1.16004 0 4 0 1
gene 1 5 28 -1.97993 0 5 0 1
gene 1 6 28 -0.0634513 0 6 0 1
gene 1 7 28 -0.181939 0 7 0 1
gene 1 8 28 -0.275768 0 8 0 1
gene 1 9 28 -3.46175 0 9 0 1
gene 1 10 28 0.42873 0 10 0 1
gene 1 11 28 0.45946 0 11 0 1
gene 1 12 28 -0.194047 0 12 0 1
gene 1 13 28 -1.368 0 13 0 1
gene 1 14 28 3.56767 0 14 0 1
gene 1 15 28 0.801967 0 15 0 1
gene 1 16 28 0.363919 0 16 0 1
gene 1 17 28 0.0319249 0 17 0 1
gene 1 18 28 -0.895718 0 18 0 1
gene 1 19 28 -1.69317 0 19 0 1
gene 1 20 28 -0.578292 0 20 0 1
gene 1 21 28 0.0563723 0 21 0 1
gene 1 22 28 0.0999427 0 22 0 1
gene 1 23 28 -1.27338 0 23 0 1
gene 1 24 28 1.36129 0 24 0 1
gene 1 25 28 2.0333 0 25 0 1
gene 1 26 28 0.876115 0 26 0 1
gene 1 27 28 -2.80174 0 27 0 1
gene 1 1 29 0.147314 0 28 0 1
gene 1 2 29 0.226019 0 29 0 1
gene 1 3 29 -0.892007 0 30 0 1
gene 1 4 29 0.458164 0 31 0 1
gene 1 5 29 -0.0836375 0 32 0 1
gene 1 6 29 3.29601 0 33 0 1
gene 1 7 29 3.71538 0 34 0 1
gene 1 8 29 -1.97274 0 35 0 1
gene 1 9 29 1.67724 0 36 0 1
gene 1 10 29 -1.6662 0 37 0 1
gene 1 11 29 2.60512 0 38 0 1
gene 1 12 29 -1.12266 0 39 0 1
gene 1 13 29 0.324841 0 40 0 1
gene 1 14 29 2.05052 0 41 0 1
gene 1 15 29 1.45218 0 42 0 1
gene 1 16 29 1.84435 0 43 0 1
gene 1 17 29 2.17129 0 44 0 1
gene 1 18 29 -1.84516 0 45 0 1
gene 1 19 29 0.152712 0 46 0 1
gene 1 20 29 -1.61224 0 47 0 1
gene 1 21 29 1.9939 0 48 0 1
gene 1 22 29 -0.817548 0 49 0 1
gene 1 23 29 -2.54154 0 50 0 1
gene 1 24 29 -3.73546 0 51 0 1
gene 1 25 29 1.66756 0 52 0 1
gene 1 26 29 2.83237 0 53 0 1
gene 1 27 29 3.2391 0 54 0 1
gene 1 1 30 -2.22001 0 55 0 1
gene 1 2 30 -0.454631 0 56 0 1
gene 1 3 30 3.23806 0 57 0 1
gene 1 4 30 -2.63664 0 58 0 1
gene 1 5 30 -0.109588 0 59 0 1
gene 1 6 30 0.394452 0 60 0 1
gene 1 7 30 4.41788 0 61 0 1
gene 1 8 30 0.700242 0 62 0 1
gene 1 9 30 -1.77489 0 63 0 1
gene 1 10 30 0.568612 0 64 0 1
gene 1 11 30 -1.75133 0 65 0 1
gene 1 12 30 -0.207267 0 66 0 1
gene 1 13 30 0.451407 0 67 0 1
gene 1 14 30 1.23379 0 68 0 1
gene 1 15 30 2.90569 0 69 0 1
gene 1 16 30 -1.44917 0 70 0 1
gene 1 17 30 1.47003 0 71 0 1
gene 1 18 30 -2.332 0 72 0 1
gene 1 19 30 -1.12026 0 73 0 1
gene 1 20 30 -1.33204 0 74 0 1
gene 1 21 30 1.09955 0 75 0 1
gene 1 22 30 0.0982971 0 76 0 1
gene 1 23 30 0.279806 0 77 0 1
gene 1 24 30 2.2369 0 78 0 1
gene 1 25 30 0.902144 0 79 0 1
gene 1 26 30 -0.483889 0 80 0 1
gene 1 27 30 1.77022 0 81 0 1
genomeend 2
