genomestart 3
trait 1 0 0 0 0 0 0 0 0 
node 1 0 1 1
node 2 0 1 1
node 3 0 1 1
node 4 0 1 1
node 5 0 1 1
node 6 0 1 1
node 7 0 1 1
node 8 0 1 1
node 9 0 1 1
node 10 0 1 1
node 11 0 1 1
node 12 0 1 1
node 13 0 1 3
node 14 0 0 2
node 15 0 0 2
gene 1 1 14 -3.04297 0 1 0 1
gene 1 2 14 -4.62633 0 2 0 1
gene 1 3 14 2.64729 0 3 0 1
gene 1 4 14 -2.04606 0 4 0 1
gene 1 5 14 1.6159 0 5 0 1
gene 1 6 14 -2.22846 0 6 0 1
gene 1 7 14 -3.68053 0 7 0 1
gene 1 8 14 -4.01746 0 8 0 1
gene 1 9 14 0.778244 0 9 0 1
gene 1 10 14 4.33164 0 10 0 1
gene 1 11 14 4.07597 0 11 0 1
gene 1 12 14 -7.01068 0 12 0 1
gene 1 13 14 -2.99129 0 13 0 1
gene 1 1 15 4.92236 0 14 0 1
gene 1 2 15 -6.9419 0 15 0 1
gene 1 3 15 -0.362785 0 16 0 1
gene 1 4 15 8.3772 0 17 0 1
gene 1 5 15 -2.87798 0 18 0 1
gene 1 6 15 3.0541 0 19 0 1
gene 1 7 15 -2.19473 0 20 0 1
gene 1 8 15 1.72181 0 21 0 1
gene 1 9 15 -0.928905 0 22 0 1
gene 1 10 15 1.74711 0 23 0 1
gene 1 11 15 3.4663 0 24 0 1
gene 1 12 15 -1.51001 0 25 0 1
gene 1 13 15 -2.94777 0 26 0 1
genomeend 3
