genomestart 3
trait 1 0 0 0 0 0 0 0 0 
node 1 0 1 1
node 2 0 1 1
node 3 0 1 1
node 4 0 1 1
node 5 0 1 1
node 6 0 1 1
node 7 0 1 1
node 8 0 1 1
node 9 0 1 1
node 10 0 1 1
node 11 0 1 1
node 12 0 1 1
node 13 0 1 3
node 14 0 0 2
node 15 0 0 2
gene 1 1 14 1.41128 0 1 0 1
gene 1 2 14 1.62426 0 2 0 1
gene 1 3 14 -2.78488 0 3 0 1
gene 1 4 14 -5.79956 0 4 0 1
gene 1 5 14 1.19783 0 5 0 1
gene 1 6 14 -8.00052 0 6 0 1
gene 1 7 14 -6.08791 0 7 0 1
gene 1 8 14 -0.660464 0 8 0 1
gene 1 9 14 3.84564 0 9 0 1
gene 1 10 14 8.47023 0 10 0 1
gene 1 11 14 5.65122 0 11 0 1
gene 1 12 14 -7.19729 0 12 0 1
gene 1 13 14 -4.77877 0 13 0 1
gene 1 1 15 -0.829805 0 14 0 1
gene 1 2 15 -8.63067 0 15 0 1
gene 1 3 15 -5.95034 0 16 0 1
gene 1 4 15 10.9442 0 17 0 1
gene 1 5 15 -0.950504 0 18 0 1
gene 1 6 15 -0.442762 0 19 0 1
gene 1 7 15 -6.94424 0 20 0 1
gene 1 8 15 2.70077 0 21 0 1
gene 1 9 15 -2.41878 0 22 0 1
gene 1 10 15 2.19905 0 23 0 1
gene 1 11 15 1.38329 0 24 0 1
gene 1 12 15 -5.65938 0 25 0 1
gene 1 13 15 -1.85508 0 26 0 1
genomeend 3
