genomestart 3
trait 1 0 0 0 0 0 0 0 0 
node 1 0 1 1
node 2 0 1 1
node 3 0 1 1
node 4 0 1 1
node 5 0 1 1
node 6 0 1 1
node 7 0 1 1
node 8 0 1 1
node 9 0 1 1
node 10 0 1 1
node 11 0 1 1
node 12 0 1 1
node 13 0 1 3
node 14 0 0 2
node 15 0 0 2
gene 1 1 14 0.893772 0 1 0 1
gene 1 2 14 -3.18648 0 2 0 1
gene 1 3 14 0.372879 0 3 0 1
gene 1 4 14 -3.34046 0 4 0 1
gene 1 5 14 -0.427821 0 5 0 1
gene 1 6 14 -4.18025 0 6 0 1
gene 1 7 14 -6.87221 0 7 0 1
gene 1 8 14 -1.60716 0 8 0 1
gene 1 9 14 -1.18863 0 9 0 1
gene 1 10 14 5.20207 0 10 0 1
gene 1 11 14 1.95223 0 11 0 1
gene 1 12 14 -3.10334 0 12 0 1
gene 1 13 14 -5.21107 0 13 0 1
gene 1 1 15 4.13109 0 14 0 1
gene 1 2 15 -4.78902 0 15 0 1
gene 1 3 15 -0.332329 0 16 0 1
gene 1 4 15 6.65895 0 17 0 1
gene 1 5 15 -1.85418 0 18 0 1
gene 1 6 15 0.871151 0 19 0 1
gene 1 7 15 -0.754508 0 20 0 1
gene 1 8 15 2.14206 0 21 0 1
gene 1 9 15 -2.96609 0 22 0 1
gene 1 10 15 0.93696 0 23 0 1
gene 1 11 15 3.56784 0 24 0 1
gene 1 12 15 -2.29618 0 25 0 1
gene 1 13 15 -3.11452 0 26 0 1
genomeend 3
