genomestart 3
trait 1 0 0 0 0 0 0 0 0 
node 1 0 1 1
node 2 0 1 1
node 3 0 1 1
node 4 0 1 1
node 5 0 1 1
node 6 0 1 1
node 7 0 1 1
node 8 0 1 1
node 9 0 1 1
node 10 0 1 1
node 11 0 1 1
node 12 0 1 1
node 13 0 1 3
node 14 0 0 2
node 15 0 0 2
gene 1 1 14 1.37025 0 1 0 1
gene 1 2 14 2.22852 0 2 0 1
gene 1 3 14 -3.9546 0 3 0 1
gene 1 4 14 -4.24956 0 4 0 1
gene 1 5 14 -0.742543 0 5 0 1
gene 1 6 14 -6.01886 0 6 0 1
gene 1 7 14 -5.67929 0 7 0 1
gene 1 8 14 -0.539658 0 8 0 1
gene 1 9 14 2.51365 0 9 0 1
gene 1 10 14 9.65448 0 10 0 1
gene 1 11 14 4.83372 0 11 0 1
gene 1 12 14 -7.21498 0 12 0 1
gene 1 13 14 -4.80913 0 13 0 1
gene 1 1 15 -1.29576 0 14 0 1
gene 1 2 15 -7.15225 0 15 0 1
gene 1 3 15 -4.55627 0 16 0 1
gene 1 4 15 10.4675 0 17 0 1
gene 1 5 15 -1.78507 0 18 0 1
gene 1 6 15 0.760535 0 19 0 1
gene 1 7 15 -8.48629 0 20 0 1
gene 1 8 15 3.38251 0 21 0 1
gene 1 9 15 -2.3007 0 22 0 1
gene 1 10 15 3.26521 0 23 0 1
gene 1 11 15 2.33765 0 24 0 1
gene 1 12 15 -4.13877 0 25 0 1
gene 1 13 15 -1.88398 0 26 0 1
genomeend 3
