genomestart 2
trait 1 0 0 0 0 0 0 0 0 
node 1 0 1 1
node 2 0 1 1
node 3 0 1 1
node 4 0 1 1
node 5 0 1 1
node 6 0 1 1
node 7 0 1 1
node 8 0 1 1
node 9 0 1 1
node 10 0 1 1
node 11 0 1 1
node 12 0 1 1
node 13 0 1 1
node 14 0 1 1
node 15 0 1 1
node 16 0 1 1
node 17 0 1 1
node 18 0 1 1
node 19 0 1 1
node 20 0 1 1
node 21 0 1 1
node 22 0 1 1
node 23 0 1 1
node 24 0 1 1
node 25 0 1 1
node 26 0 1 1
node 27 0 1 3
node 28 0 0 2
node 29 0 0 2
node 30 0 0 2
gene 1 1 28 -0.848612 0 1 0 1
gene 1 2 28 -1.38614 0 2 0 1
gene 1 3 28 0.913019 0 3 0 1
gene 1 4 28 1.19067 0 4 0 1
gene 1 5 28 -2.11639 0 5 0 1
gene 1 6 28 0.507273 0 6 0 1
gene 1 7 28 0.0188661 0 7 0 1
gene 1 8 28 -0.812944 0 8 0 1
gene 1 9 28 -2.57442 0 9 0 1
gene 1 10 28 0.545703 0 10 0 1
gene 1 11 28 0.915845 0 11 0 1
gene 1 12 28 0.740333 0 12 0 1
gene 1 13 28 -1.60181 0 13 0 1
gene 1 14 28 3.12508 0 14 0 1
gene 1 15 28 0.903695 0 15 0 1
gene 1 16 28 -0.299484 0 16 0 1
gene 1 17 28 0.0705346 0 17 0 1
gene 1 18 28 -0.189595 0 18 0 1
gene 1 19 28 -1.76327 0 19 0 1
gene 1 20 28 -1.09011 0 20 0 1
gene 1 21 28 -0.451563 0 21 0 1
gene 1 22 28 -0.0988002 0 22 0 1
gene 1 23 28 -2.66995 0 23 0 1
gene 1 24 28 2.41261 0 24 0 1
gene 1 25 28 1.41964 0 25 0 1
gene 1 26 28 0.098665 0 26 0 1
gene 1 27 28 -1.41058 0 27 0 1
gene 1 1 29 1.35102 0 28 0 1
gene 1 2 29 1.14328 0 29 0 1
gene 1 3 29 -0.721608 0 30 0 1
gene 1 4 29 0.147191 0 31 0 1
gene 1 5 29 -0.372761 0 32 0 1
gene 1 6 29 3.4974 0 33 0 1
gene 1 7 29 4.25689 0 34 0 1
gene 1 8 29 -0.877398 0 35 0 1
gene 1 9 29 2.19712 0 36 0 1
gene 1 10 29 -1.52122 0 37 0 1
gene 1 11 29 1.99039 0 38 0 1
gene 1 12 29 -0.0115728 0 39 0 1
gene 1 13 29 1.37106 0 40 0 1
gene 1 14 29 1.6441 0 41 0 1
gene 1 15 29 0.75202 0 42 0 1
gene 1 16 29 2.08692 0 43 0 1
gene 1 17 29 1.62732 0 44 0 1
gene 1 18 29 -2.62103 0 45 0 1
gene 1 19 29 -0.529487 0 46 0 1
gene 1 20 29 -2.6172 0 47 0 1
gene 1 21 29 1.92591 0 48 0 1
gene 1 22 29 -0.570508 0 49 0 1
gene 1 23 29 -2.9428 0 50 0 1
gene 1 24 29 -3.32303 0 51 0 1
gene 1 25 29 0.0416826 0 52 0 1
gene 1 26 29 2.48548 0 53 0 1
gene 1 27 29 2.15468 0 54 0 1
gene 1 1 30 -1.90618 0 55 0 1
gene 1 2 30 -0.475459 0 56 0 1
gene 1 3 30 3.26705 0 57 0 1
gene 1 4 30 -2.52235 0 58 0 1
gene 1 5 30 -0.308832 0 59 0 1
gene 1 6 30 0.769926 0 60 0 1
gene 1 7 30 3.89096 0 61 0 1
gene 1 8 30 0.801454 0 62 0 1
gene 1 9 30 -2.62152 0 63 0 1
gene 1 10 30 -1.19901 0 64 0 1
gene 1 11 30 -1.80768 0 65 0 1
gene 1 12 30 1.49383 0 66 0 1
gene 1 13 30 -0.150622 0 67 0 1
gene 1 14 30 0.517965 0 68 0 1
gene 1 15 30 2.06858 0 69 0 1
gene 1 16 30 -2.58866 0 70 0 1
gene 1 17 30 1.869 0 71 0 1
gene 1 18 30 -2.53909 0 72 0 1
gene 1 19 30 -0.352841 0 73 0 1
gene 1 20 30 -2.93095 0 74 0 1
gene 1 21 30 1.16718 0 75 0 1
gene 1 22 30 0.172043 0 76 0 1
gene 1 23 30 0.0735105 0 77 0 1
gene 1 24 30 1.30895 0 78 0 1
gene 1 25 30 1.20231 0 79 0 1
gene 1 26 30 0.0285599 0 80 0 1
gene 1 27 30 2.19609 0 81 0 1
genomeend 2
