genomestart 3
trait 1 0 0 0 0 0 0 0 0 
node 1 0 1 1
node 2 0 1 1
node 3 0 1 1
node 4 0 1 1
node 5 0 1 1
node 6 0 1 1
node 7 0 1 1
node 8 0 1 1
node 9 0 1 1
node 10 0 1 1
node 11 0 1 1
node 12 0 1 1
node 13 0 1 3
node 14 0 0 2
node 15 0 0 2
gene 1 1 14 0.774376 0 1 0 1
gene 1 2 14 2.61353 0 2 0 1
gene 1 3 14 -4.42973 0 3 0 1
gene 1 4 14 -3.00477 0 4 0 1
gene 1 5 14 -0.0476404 0 5 0 1
gene 1 6 14 -6.42674 0 6 0 1
gene 1 7 14 -6.93498 0 7 0 1
gene 1 8 14 -0.574983 0 8 0 1
gene 1 9 14 1.92261 0 9 0 1
gene 1 10 14 7.99056 0 10 0 1
gene 1 11 14 3.58594 0 11 0 1
gene 1 12 14 -6.48484 0 12 0 1
gene 1 13 14 -5.92798 0 13 0 1
gene 1 1 15 -0.130482 0 14 0 1
gene 1 2 15 -7.3227 0 15 0 1
gene 1 3 15 -2.61866 0 16 0 1
gene 1 4 15 9.19746 0 17 0 1
gene 1 5 15 -2.62595 0 18 0 1
gene 1 6 15 1.51475 0 19 0 1
gene 1 7 15 -8.26804 0 20 0 1
gene 1 8 15 4.61629 0 21 0 1
gene 1 9 15 -1.39746 0 22 0 1
gene 1 10 15 4.48817 0 23 0 1
gene 1 11 15 2.62852 0 24 0 1
gene 1 12 15 -3.7132 0 25 0 1
gene 1 13 15 -1.19301 0 26 0 1
genomeend 3
