genomestart 0
trait 1 0 0 0 0 0 0 0 0 
node 1 0 1 1
node 2 0 1 1
node 3 0 1 1
node 4 0 1 1
node 5 0 1 1
node 6 0 1 1
node 7 0 1 1
node 8 0 1 1
node 9 0 1 1
node 10 0 1 1
node 11 0 1 1
node 12 0 1 1
node 13 0 1 1
node 14 0 1 1
node 15 0 1 1
node 16 0 1 1
node 17 0 1 1
node 18 0 1 1
node 19 0 1 1
node 20 0 1 1
node 21 0 1 1
node 22 0 1 1
node 23 0 1 1
node 24 0 1 1
node 25 0 1 3
node 26 0 0 2
node 27 0 0 2
node 28 1 0 0
node 29 1 0 0
node 30 1 0 0
node 31 1 0 0
gene 1 1 26 -1.02749 0 1 -1.02749 1
gene 1 2 26 0.64497 0 2 0.64497 1
gene 1 3 26 0.244705 0 3 0.244705 1
gene 1 4 26 -0.916898 0 4 -0.916898 1
gene 1 5 26 -1.00181 0 5 -1.00181 1
gene 1 6 26 -1.77173 0 6 -1.77173 1
gene 1 7 26 1.46791 0 7 1.46791 1
gene 1 8 26 -1.56827 0 8 -1.56827 1
gene 1 9 26 0.967667 0 9 0.967667 1
gene 1 10 26 -0.996407 0 10 -0.996407 1
gene 1 11 26 -0.00304404 0 11 -0.00304404 0
gene 1 12 26 1.11132 0 12 1.11132 1
gene 1 13 26 0.481774 0 13 0.481774 1
gene 1 14 26 0.504963 0 14 0.504963 1
gene 1 15 26 -0.727022 0 15 -0.727022 1
gene 1 16 26 1.16578 0 16 1.16578 1
gene 1 17 26 0.694 0 17 0.694 1
gene 1 18 26 0.565345 0 18 0.565345 1
gene 1 19 26 -0.569241 0 19 -0.569241 1
gene 1 20 26 0.352686 0 20 0.352686 1
gene 1 21 26 -0.209239 0 21 -0.209239 1
gene 1 22 26 -0.339801 0 22 -0.339801 1
gene 1 23 26 -1.17117 0 23 -1.17117 1
gene 1 24 26 -0.171555 0 24 -0.171555 1
gene 1 25 26 0.65555 0 25 0.65555 1
gene 1 1 27 1.41964 0 26 1.41964 1
gene 1 2 27 0.353163 0 27 0.353163 1
gene 1 3 27 -0.210439 0 28 -0.210439 1
gene 1 4 27 -1.12783 0 29 -1.12783 1
gene 1 5 27 -0.737406 0 30 -0.737406 1
gene 1 6 27 0.42493 0 31 0.42493 1
gene 1 7 27 1.29151 0 32 1.29151 1
gene 1 8 27 0.298489 0 33 0.298489 1
gene 1 9 27 0.411942 0 34 0.411942 0
gene 1 10 27 -0.552676 0 35 -0.552676 1
gene 1 11 27 -1.06542 0 36 -1.06542 1
gene 1 12 27 -0.212915 0 37 -0.212915 1
gene 1 13 27 -0.622253 0 38 -0.622253 1
gene 1 14 27 -0.382369 0 39 -0.382369 1
gene 1 15 27 0.200539 0 40 0.200539 1
gene 1 16 27 0.646008 0 41 0.646008 1
gene 1 17 27 -0.435899 0 42 -0.435899 1
gene 1 18 27 0.24786 0 43 0.24786 1
gene 1 19 27 -0.184574 0 44 -0.184574 1
gene 1 20 27 0.923833 0 45 0.923833 0
gene 1 21 27 -0.844122 0 46 -0.844122 1
gene 1 22 27 0.490506 0 47 0.490506 1
gene 1 23 27 0.549119 0 48 0.549119 1
gene 1 24 27 -0.877686 0 49 -0.877686 1
gene 1 10 28 1 0 50 1 1
gene 1 25 27 -0.515469 0 50 -0.515469 1
gene 1 28 26 -0.372113 0 51 -0.372113 1
gene 1 9 29 0.196192 0 52 0.196192 1
gene 1 29 27 -0.989843 0 53 -0.989843 1
gene 1 11 30 1 0 54 1 1
gene 1 30 26 0.436894 0 55 0.436894 1
gene 1 20 31 1 0 56 1 1
gene 1 31 27 0.444165 0 57 0.444165 1
genomeend 0
