genomestart 2
trait 1 0 0 0 0 0 0 0 0 
node 1 0 1 1
node 2 0 1 1
node 3 0 1 1
node 4 0 1 1
node 5 0 1 1
node 6 0 1 1
node 7 0 1 1
node 8 0 1 1
node 9 0 1 1
node 10 0 1 1
node 11 0 1 1
node 12 0 1 1
node 13 0 1 1
node 14 0 1 1
node 15 0 1 1
node 16 0 1 1
node 17 0 1 1
node 18 0 1 1
node 19 0 1 1
node 20 0 1 1
node 21 0 1 1
node 22 0 1 1
node 23 0 1 1
node 24 0 1 1
node 25 0 1 1
node 26 0 1 1
node 27 0 1 3
node 28 0 0 2
node 29 0 0 2
node 30 0 0 2
gene 1 1 28 -0.649901 0 1 0 1
gene 1 2 28 -1.39023 0 2 0 1
gene 1 3 28 0.341385 0 3 0 1
gene 1 4 28 1.09451 0 4 0 1
gene 1 5 28 -2.6612 0 5 0 1
gene 1 6 28 0.181888 0 6 0 1
gene 1 7 28 -0.219215 0 7 0 1
gene 1 8 28 -0.133856 0 8 0 1
gene 1 9 28 -2.66863 0 9 0 1
gene 1 10 28 0.604403 0 10 0 1
gene 1 11 28 1.24968 0 11 0 1
gene 1 12 28 0.652116 0 12 0 1
gene 1 13 28 -1.49396 0 13 0 1
gene 1 14 28 2.30636 0 14 0 1
gene 1 15 28 0.391969 0 15 0 1
gene 1 16 28 -0.430968 0 16 0 1
gene 1 17 28 0.0858299 0 17 0 1
gene 1 18 28 -0.569108 0 18 0 1
gene 1 19 28 -1.90226 0 19 0 1
gene 1 20 28 -1.36086 0 20 0 1
gene 1 21 28 0.329916 0 21 0 1
gene 1 22 28 0.125562 0 22 0 1
gene 1 23 28 -2.47417 0 23 0 1
gene 1 24 28 2.4102 0 24 0 1
gene 1 25 28 1.77442 0 25 0 1
gene 1 26 28 0.509216 0 26 0 1
gene 1 27 28 -2.03981 0 27 0 1
gene 1 1 29 0.894312 0 28 0 1
gene 1 2 29 1.20927 0 29 0 1
gene 1 3 29 -1.45837 0 30 0 1
gene 1 4 29 0.654811 0 31 0 1
gene 1 5 29 0.127848 0 32 0 1
gene 1 6 29 3.21344 0 33 0 1
gene 1 7 29 3.31176 0 34 0 1
gene 1 8 29 -1.36996 0 35 0 1
gene 1 9 29 1.74743 0 36 0 1
gene 1 10 29 -1.54746 0 37 0 1
gene 1 11 29 2.12239 0 38 0 1
gene 1 12 29 -0.227545 0 39 0 1
gene 1 13 29 1.20081 0 40 0 1
gene 1 14 29 1.71679 0 41 0 1
gene 1 15 29 1.17359 0 42 0 1
gene 1 16 29 1.82278 0 43 0 1
gene 1 17 29 1.86957 0 44 0 1
gene 1 18 29 -2.81444 0 45 0 1
gene 1 19 29 -0.21459 0 46 0 1
gene 1 20 29 -2.30912 0 47 0 1
gene 1 21 29 2.30925 0 48 0 1
gene 1 22 29 -0.274627 0 49 0 1
gene 1 23 29 -2.53189 0 50 0 1
gene 1 24 29 -3.50922 0 51 0 1
gene 1 25 29 0.579885 0 52 0 1
gene 1 26 29 2.58198 0 53 0 1
gene 1 27 29 2.31464 0 54 0 1
gene 1 1 30 -2.1755 0 55 0 1
gene 1 2 30 -0.470929 0 56 0 1
gene 1 3 30 2.96301 0 57 0 1
gene 1 4 30 -2.67263 0 58 0 1
gene 1 5 30 -0.317765 0 59 0 1
gene 1 6 30 0.927355 0 60 0 1
gene 1 7 30 4.05986 0 61 0 1
gene 1 8 30 1.06646 0 62 0 1
gene 1 9 30 -2.08937 0 63 0 1
gene 1 10 30 -0.591838 0 64 0 1
gene 1 11 30 -1.4217 0 65 0 1
gene 1 12 30 1.17452 0 66 0 1
gene 1 13 30 0.563983 0 67 0 1
gene 1 14 30 1.04012 0 68 0 1
gene 1 15 30 2.32468 0 69 0 1
gene 1 16 30 -2.50523 0 70 0 1
gene 1 17 30 1.74622 0 71 0 1
gene 1 18 30 -2.15752 0 72 0 1
gene 1 19 30 -0.840191 0 73 0 1
gene 1 20 30 -2.40301 0 74 0 1
gene 1 21 30 0.473965 0 75 0 1
gene 1 22 30 0.123489 0 76 0 1
gene 1 23 30 -0.253124 0 77 0 1
gene 1 24 30 1.14492 0 78 0 1
gene 1 25 30 0.94471 0 79 0 1
gene 1 26 30 -0.15829 0 80 0 1
gene 1 27 30 2.05278 0 81 0 1
genomeend 2
