genomestart 3
trait 1 0 0 0 0 0 0 0 0 
node 1 0 1 1
node 2 0 1 1
node 3 0 1 1
node 4 0 1 1
node 5 0 1 1
node 6 0 1 1
node 7 0 1 1
node 8 0 1 1
node 9 0 1 1
node 10 0 1 1
node 11 0 1 1
node 12 0 1 1
node 13 0 1 3
node 14 0 0 2
node 15 0 0 2
gene 1 1 14 2.25441 0 1 0 1
gene 1 2 14 0.798628 0 2 0 1
gene 1 3 14 -3.7728 0 3 0 1
gene 1 4 14 -4.20126 0 4 0 1
gene 1 5 14 -0.679666 0 5 0 1
gene 1 6 14 -6.64884 0 6 0 1
gene 1 7 14 -5.60129 0 7 0 1
gene 1 8 14 -0.0686269 0 8 0 1
gene 1 9 14 2.81581 0 9 0 1
gene 1 10 14 7.20338 0 10 0 1
gene 1 11 14 4.61004 0 11 0 1
gene 1 12 14 -7.79465 0 12 0 1
gene 1 13 14 -3.80191 0 13 0 1
gene 1 1 15 1.2636 0 14 0 1
gene 1 2 15 -7.50369 0 15 0 1
gene 1 3 15 -3.47971 0 16 0 1
gene 1 4 15 10.1152 0 17 0 1
gene 1 5 15 -2.03316 0 18 0 1
gene 1 6 15 2.62236 0 19 0 1
gene 1 7 15 -7.01039 0 20 0 1
gene 1 8 15 2.72977 0 21 0 1
gene 1 9 15 -1.34213 0 22 0 1
gene 1 10 15 4.53441 0 23 0 1
gene 1 11 15 2.48053 0 24 0 1
gene 1 12 15 -2.86986 0 25 0 1
gene 1 13 15 -3.04505 0 26 0 1
genomeend 3
