genomestart 3
trait 1 0 0 0 0 0 0 0 0 
node 1 0 1 1
node 2 0 1 1
node 3 0 1 1
node 4 0 1 1
node 5 0 1 1
node 6 0 1 1
node 7 0 1 1
node 8 0 1 1
node 9 0 1 1
node 10 0 1 1
node 11 0 1 1
node 12 0 1 1
node 13 0 1 3
node 14 0 0 2
node 15 0 0 2
gene 1 1 14 -0.721634 0 1 0 1
gene 1 2 14 -4.74756 0 2 0 1
gene 1 3 14 1.08682 0 3 0 1
gene 1 4 14 -1.11079 0 4 0 1
gene 1 5 14 -1.27267 0 5 0 1
gene 1 6 14 -1.10679 0 6 0 1
gene 1 7 14 -2.83161 0 7 0 1
gene 1 8 14 -5.044 0 8 0 1
gene 1 9 14 -2.55611 0 9 0 1
gene 1 10 14 2.30664 0 10 0 1
gene 1 11 14 1.26082 0 11 0 1
gene 1 12 14 -4.70284 0 12 0 1
gene 1 13 14 -3.52246 0 13 0 1
gene 1 1 15 2.7744 0 14 0 1
gene 1 2 15 -3.69647 0 15 0 1
gene 1 3 15 -0.726187 0 16 0 1
gene 1 4 15 8.67603 0 17 0 1
gene 1 5 15 -3.52018 0 18 0 1
gene 1 6 15 2.49433 0 19 0 1
gene 1 7 15 -3.33357 0 20 0 1
gene 1 8 15 2.83069 0 21 0 1
gene 1 9 15 -1.51916 0 22 0 1
gene 1 10 15 -0.309744 0 23 0 1
gene 1 11 15 4.53695 0 24 0 1
gene 1 12 15 -2.25829 0 25 0 1
gene 1 13 15 -1.0044 0 26 0 1
genomeend 3
