genomestart 2
trait 1 0 0 0 0 0 0 0 0 
node 1 0 1 1
node 2 0 1 1
node 3 0 1 1
node 4 0 1 1
node 5 0 1 1
node 6 0 1 1
node 7 0 1 1
node 8 0 1 1
node 9 0 1 1
node 10 0 1 1
node 11 0 1 1
node 12 0 1 1
node 13 0 1 1
node 14 0 1 1
node 15 0 1 1
node 16 0 1 1
node 17 0 1 1
node 18 0 1 1
node 19 0 1 1
node 20 0 1 1
node 21 0 1 1
node 22 0 1 1
node 23 0 1 1
node 24 0 1 1
node 25 0 1 1
node 26 0 1 1
node 27 0 1 3
node 28 0 0 2
node 29 0 0 2
node 30 0 0 2
gene 1 1 28 -0.281543 0 1 0 1
gene 1 2 28 -2.35408 0 2 0 1
gene 1 3 28 0.325997 0 3 0 1
gene 1 4 28 0.997995 0 4 0 1
gene 1 5 28 -0.91471 0 5 0 1
gene 1 6 28 0.0169612 0 6 0 1
gene 1 7 28 -0.923179 0 7 0 1
gene 1 8 28 0.260733 0 8 0 1
gene 1 9 28 0.152523 0 9 0 1
gene 1 10 28 -0.145628 0 10 0 1
gene 1 11 28 0.994465 0 11 0 1
gene 1 12 28 1.18959 0 12 0 1
gene 1 13 28 -1.02179 0 13 0 1
gene 1 14 28 0.476437 0 14 0 1
gene 1 15 28 -0.14522 0 15 0 1
gene 1 16 28 1.02044 0 16 0 1
gene 1 17 28 0.764519 0 17 0 1
gene 1 18 28 -0.347372 0 18 0 1
gene 1 19 28 -0.496901 0 19 0 1
gene 1 20 28 0.100503 0 20 0 1
gene 1 21 28 0.358167 0 21 0 1
gene 1 22 28 -1.64185 0 22 0 1
gene 1 23 28 -1.35701 0 23 0 1
gene 1 24 28 -0.0567507 0 24 0 1
gene 1 25 28 2.23141 0 25 0 1
gene 1 26 28 -1.48371 0 26 0 1
gene 1 27 28 0.0243536 0 27 0 1
gene 1 1 29 0.413978 0 28 0 1
gene 1 2 29 0.0756097 0 29 0 1
gene 1 3 29 -0.792812 0 30 0 1
gene 1 4 29 0.4453 0 31 0 1
gene 1 5 29 -0.57165 0 32 0 1
gene 1 6 29 1.47955 0 33 0 1
gene 1 7 29 0.0952134 0 34 0 1
gene 1 8 29 0.352012 0 35 0 1
gene 1 9 29 -0.231675 0 36 0 1
gene 1 10 29 -0.882797 0 37 0 1
gene 1 11 29 -0.94568 0 38 0 1
gene 1 12 29 0.07848 0 39 0 1
gene 1 13 29 0.953752 0 40 0 1
gene 1 14 29 1.75547 0 41 0 1
gene 1 15 29 -2.71281 0 42 0 1
gene 1 16 29 0.491214 0 43 0 1
gene 1 17 29 1.43389 0 44 0 1
gene 1 18 29 0.722213 0 45 0 1
gene 1 19 29 0.341287 0 46 0 1
gene 1 20 29 -0.0238602 0 47 0 1
gene 1 21 29 -0.856043 0 48 0 1
gene 1 22 29 -0.748301 0 49 0 1
gene 1 23 29 -0.497836 0 50 0 1
gene 1 24 29 1.06609 0 51 0 1
gene 1 25 29 1.05552 0 52 0 1
gene 1 26 29 0.0837974 0 53 0 1
gene 1 27 29 -0.427221 0 54 0 1
gene 1 1 30 -0.810254 0 55 0 1
gene 1 2 30 0.296995 0 56 0 1
gene 1 3 30 0.88644 0 57 0 1
gene 1 4 30 -0.183315 0 58 0 1
gene 1 5 30 0.187908 0 59 0 1
gene 1 6 30 0.535829 0 60 0 1
gene 1 7 30 0.778639 0 61 0 1
gene 1 8 30 1.35841 0 62 0 1
gene 1 9 30 0.474241 0 63 0 1
gene 1 10 30 0.47484 0 64 0 1
gene 1 11 30 -0.709279 0 65 0 1
gene 1 12 30 -0.767682 0 66 0 1
gene 1 13 30 0.425357 0 67 0 1
gene 1 14 30 0.480736 0 68 0 1
gene 1 15 30 1.02218 0 69 0 1
gene 1 16 30 -1.10127 0 70 0 1
gene 1 17 30 -0.246749 0 71 0 1
gene 1 18 30 -0.541171 0 72 0 1
gene 1 19 30 0.516235 0 73 0 1
gene 1 20 30 -0.129744 0 74 0 1
gene 1 21 30 -1.09495 0 75 0 1
gene 1 22 30 0.428001 0 76 0 1
gene 1 23 30 0.10316 0 77 0 1
gene 1 24 30 0.283517 0 78 0 1
gene 1 25 30 0.332108 0 79 0 1
gene 1 26 30 -1.81013 0 80 0 1
gene 1 27 30 0.407358 0 81 0 1
genomeend 2
