genomestart 2
trait 1 0 0 0 0 0 0 0 0 
node 1 0 1 1
node 2 0 1 1
node 3 0 1 1
node 4 0 1 1
node 5 0 1 1
node 6 0 1 1
node 7 0 1 1
node 8 0 1 1
node 9 0 1 1
node 10 0 1 1
node 11 0 1 1
node 12 0 1 1
node 13 0 1 1
node 14 0 1 1
node 15 0 1 1
node 16 0 1 1
node 17 0 1 1
node 18 0 1 1
node 19 0 1 1
node 20 0 1 1
node 21 0 1 1
node 22 0 1 1
node 23 0 1 1
node 24 0 1 1
node 25 0 1 1
node 26 0 1 1
node 27 0 1 3
node 28 0 0 2
node 29 0 0 2
node 30 0 0 2
gene 1 1 28 -1.27718 0 1 0 1
gene 1 2 28 -1.83662 0 2 0 1
gene 1 3 28 1.34577 0 3 0 1
gene 1 4 28 0.688653 0 4 0 1
gene 1 5 28 -1.54104 0 5 0 1
gene 1 6 28 -0.563061 0 6 0 1
gene 1 7 28 -1.38775 0 7 0 1
gene 1 8 28 1.28264 0 8 0 1
gene 1 9 28 -1.71783 0 9 0 1
gene 1 10 28 0.157416 0 10 0 1
gene 1 11 28 0.353622 0 11 0 1
gene 1 12 28 0.596474 0 12 0 1
gene 1 13 28 -0.182238 0 13 0 1
gene 1 14 28 2.10192 0 14 0 1
gene 1 15 28 -0.112257 0 15 0 1
gene 1 16 28 1.49279 0 16 0 1
gene 1 17 28 0.845646 0 17 0 1
gene 1 18 28 -0.0719375 0 18 0 1
gene 1 19 28 -0.869126 0 19 0 1
gene 1 20 28 -0.380553 0 20 0 1
gene 1 21 28 0.420315 0 21 0 1
gene 1 22 28 -1.72879 0 22 0 1
gene 1 23 28 -1.81035 0 23 0 1
gene 1 24 28 0.243867 0 24 0 1
gene 1 25 28 3.08911 0 25 0 1
gene 1 26 28 0.557626 0 26 0 1
gene 1 27 28 -0.97739 0 27 0 1
gene 1 1 29 -0.404732 0 28 0 1
gene 1 2 29 0.52986 0 29 0 1
gene 1 3 29 -0.53839 0 30 0 1
gene 1 4 29 0.749392 0 31 0 1
gene 1 5 29 0.567414 0 32 0 1
gene 1 6 29 1.9602 0 33 0 1
gene 1 7 29 0.664504 0 34 0 1
gene 1 8 29 -0.832251 0 35 0 1
gene 1 9 29 0.855246 0 36 0 1
gene 1 10 29 -1.21681 0 37 0 1
gene 1 11 29 -0.455868 0 38 0 1
gene 1 12 29 -0.55479 0 39 0 1
gene 1 13 29 -0.3738 0 40 0 1
gene 1 14 29 1.09406 0 41 0 1
gene 1 15 29 -1.06697 0 42 0 1
gene 1 16 29 1.55278 0 43 0 1
gene 1 17 29 -0.0625165 0 44 0 1
gene 1 18 29 -1.23334 0 45 0 1
gene 1 19 29 -0.92096 0 46 0 1
gene 1 20 29 -1.20808 0 47 0 1
gene 1 21 29 0.602534 0 48 0 1
gene 1 22 29 0.327349 0 49 0 1
gene 1 23 29 -0.231159 0 50 0 1
gene 1 24 29 -1.21631 0 51 0 1
gene 1 25 29 1.29406 0 52 0 1
gene 1 26 29 1.99955 0 53 0 1
gene 1 27 29 0.781013 0 54 0 1
gene 1 1 30 -2.5951 0 55 0 1
gene 1 2 30 0.515315 0 56 0 1
gene 1 3 30 1.96659 0 57 0 1
gene 1 4 30 -1.066 0 58 0 1
gene 1 5 30 -0.0853871 0 59 0 1
gene 1 6 30 0.546114 0 60 0 1
gene 1 7 30 1.48745 0 61 0 1
gene 1 8 30 1.37703 0 62 0 1
gene 1 9 30 -0.773692 0 63 0 1
gene 1 10 30 0.644872 0 64 0 1
gene 1 11 30 -2.03184 0 65 0 1
gene 1 12 30 0.0467786 0 66 0 1
gene 1 13 30 -0.587174 0 67 0 1
gene 1 14 30 -0.471768 0 68 0 1
gene 1 15 30 1.37507 0 69 0 1
gene 1 16 30 -1.88231 0 70 0 1
gene 1 17 30 0.0225936 0 71 0 1
gene 1 18 30 -1.15753 0 72 0 1
gene 1 19 30 -1.09824 0 73 0 1
gene 1 20 30 0.961658 0 74 0 1
gene 1 21 30 -1.77038 0 75 0 1
gene 1 22 30 -0.563387 0 76 0 1
gene 1 23 30 0.64678 0 77 0 1
gene 1 24 30 0.52669 0 78 0 1
gene 1 25 30 1.40172 0 79 0 1
gene 1 26 30 -2.25056 0 80 0 1
gene 1 27 30 1.04915 0 81 0 1
genomeend 2
