genomestart 2
trait 1 0 0 0 0 0 0 0 0 
node 1 0 1 1
node 2 0 1 1
node 3 0 1 1
node 4 0 1 1
node 5 0 1 1
node 6 0 1 1
node 7 0 1 1
node 8 0 1 1
node 9 0 1 1
node 10 0 1 1
node 11 0 1 1
node 12 0 1 1
node 13 0 1 1
node 14 0 1 1
node 15 0 1 1
node 16 0 1 1
node 17 0 1 1
node 18 0 1 1
node 19 0 1 1
node 20 0 1 1
node 21 0 1 1
node 22 0 1 1
node 23 0 1 1
node 24 0 1 1
node 25 0 1 1
node 26 0 1 1
node 27 0 1 3
node 28 0 0 2
node 29 0 0 2
node 30 0 0 2
gene 1 1 28 -1.05827 0 1 0 1
gene 1 2 28 -0.13093 0 2 0 1
gene 1 3 28 0.896038 0 3 0 1
gene 1 4 28 -0.24374 0 4 0 1
gene 1 5 28 -0.629016 0 5 0 1
gene 1 6 28 -1.00275 0 6 0 1
gene 1 7 28 -1.05126 0 7 0 1
gene 1 8 28 2.72002 0 8 0 1
gene 1 9 28 -2.3956 0 9 0 1
gene 1 10 28 0.128536 0 10 0 1
gene 1 11 28 0.223725 0 11 0 1
gene 1 12 28 0.0965921 0 12 0 1
gene 1 13 28 0.652076 0 13 0 1
gene 1 14 28 4.53274 0 14 0 1
gene 1 15 28 0.537275 0 15 0 1
gene 1 16 28 2.00937 0 16 0 1
gene 1 17 28 0.0466567 0 17 0 1
gene 1 18 28 -0.693958 0 18 0 1
gene 1 19 28 -1.52444 0 19 0 1
gene 1 20 28 0.11497 0 20 0 1
gene 1 21 28 1.21114 0 21 0 1
gene 1 22 28 -0.640612 0 22 0 1
gene 1 23 28 -2.00458 0 23 0 1
gene 1 24 28 0.991541 0 24 0 1
gene 1 25 28 2.78165 0 25 0 1
gene 1 26 28 1.23289 0 26 0 1
gene 1 27 28 -1.45195 0 27 0 1
gene 1 1 29 0.563725 0 28 0 1
gene 1 2 29 0.65525 0 29 0 1
gene 1 3 29 -0.922628 0 30 0 1
gene 1 4 29 0.624659 0 31 0 1
gene 1 5 29 1.9389 0 32 0 1
gene 1 6 29 2.31952 0 33 0 1
gene 1 7 29 2.05882 0 34 0 1
gene 1 8 29 -2.03718 0 35 0 1
gene 1 9 29 1.1253 0 36 0 1
gene 1 10 29 -2.27371 0 37 0 1
gene 1 11 29 0.486457 0 38 0 1
gene 1 12 29 -1.78536 0 39 0 1
gene 1 13 29 0.428005 0 40 0 1
gene 1 14 29 2.02524 0 41 0 1
gene 1 15 29 0.779948 0 42 0 1
gene 1 16 29 2.00291 0 43 0 1
gene 1 17 29 0.522445 0 44 0 1
gene 1 18 29 -2.58653 0 45 0 1
gene 1 19 29 0.651173 0 46 0 1
gene 1 20 29 -0.420527 0 47 0 1
gene 1 21 29 1.5484 0 48 0 1
gene 1 22 29 -0.216917 0 49 0 1
gene 1 23 29 -0.904189 0 50 0 1
gene 1 24 29 -3.06978 0 51 0 1
gene 1 25 29 1.59927 0 52 0 1
gene 1 26 29 2.57345 0 53 0 1
gene 1 27 29 2.1093 0 54 0 1
gene 1 1 30 -2.70169 0 55 0 1
gene 1 2 30 0.922233 0 56 0 1
gene 1 3 30 2.31019 0 57 0 1
gene 1 4 30 -1.11513 0 58 0 1
gene 1 5 30 -0.309706 0 59 0 1
gene 1 6 30 -1.06163 0 60 0 1
gene 1 7 30 3.19447 0 61 0 1
gene 1 8 30 1.27645 0 62 0 1
gene 1 9 30 -0.0136636 0 63 0 1
gene 1 10 30 -0.573146 0 64 0 1
gene 1 11 30 -1.03354 0 65 0 1
gene 1 12 30 -0.139601 0 66 0 1
gene 1 13 30 0.456135 0 67 0 1
gene 1 14 30 0.475747 0 68 0 1
gene 1 15 30 2.88849 0 69 0 1
gene 1 16 30 -1.49488 0 70 0 1
gene 1 17 30 1.52302 0 71 0 1
gene 1 18 30 -1.49727 0 72 0 1
gene 1 19 30 -1.89964 0 73 0 1
gene 1 20 30 -0.286197 0 74 0 1
gene 1 21 30 0.291725 0 75 0 1
gene 1 22 30 -0.71365 0 76 0 1
gene 1 23 30 1.37402 0 77 0 1
gene 1 24 30 2.18219 0 78 0 1
gene 1 25 30 0.136619 0 79 0 1
gene 1 26 30 -1.12546 0 80 0 1
gene 1 27 30 1.47027 0 81 0 1
genomeend 2
