genomestart 2
trait 1 0 0 0 0 0 0 0 0 
node 1 0 1 1
node 2 0 1 1
node 3 0 1 1
node 4 0 1 1
node 5 0 1 1
node 6 0 1 1
node 7 0 1 1
node 8 0 1 1
node 9 0 1 1
node 10 0 1 1
node 11 0 1 1
node 12 0 1 1
node 13 0 1 1
node 14 0 1 1
node 15 0 1 1
node 16 0 1 1
node 17 0 1 1
node 18 0 1 1
node 19 0 1 1
node 20 0 1 1
node 21 0 1 1
node 22 0 1 1
node 23 0 1 1
node 24 0 1 1
node 25 0 1 1
node 26 0 1 1
node 27 0 1 3
node 28 0 0 2
node 29 0 0 2
node 30 0 0 2
gene 1 1 28 -0.373211 0 1 0 1
gene 1 2 28 -1.44528 0 2 0 1
gene 1 3 28 0.680809 0 3 0 1
gene 1 4 28 0.654526 0 4 0 1
gene 1 5 28 -3.07762 0 5 0 1
gene 1 6 28 0.0692363 0 6 0 1
gene 1 7 28 -0.0152236 0 7 0 1
gene 1 8 28 0.085613 0 8 0 1
gene 1 9 28 -2.49928 0 9 0 1
gene 1 10 28 0.540283 0 10 0 1
gene 1 11 28 0.841154 0 11 0 1
gene 1 12 28 0.299472 0 12 0 1
gene 1 13 28 -1.56286 0 13 0 1
gene 1 14 28 2.73244 0 14 0 1
gene 1 15 28 0.247976 0 15 0 1
gene 1 16 28 -0.395582 0 16 0 1
gene 1 17 28 0.272428 0 17 0 1
gene 1 18 28 -0.269762 0 18 0 1
gene 1 19 28 -1.55882 0 19 0 1
gene 1 20 28 -0.731923 0 20 0 1
gene 1 21 28 0.439305 0 21 0 1
gene 1 22 28 0.648792 0 22 0 1
gene 1 23 28 -2.33717 0 23 0 1
gene 1 24 28 2.39917 0 24 0 1
gene 1 25 28 2.02316 0 25 0 1
gene 1 26 28 0.660755 0 26 0 1
gene 1 27 28 -2.30142 0 27 0 1
gene 1 1 29 0.738332 0 28 0 1
gene 1 2 29 1.58386 0 29 0 1
gene 1 3 29 -1.06115 0 30 0 1
gene 1 4 29 1.14225 0 31 0 1
gene 1 5 29 0.374487 0 32 0 1
gene 1 6 29 2.89195 0 33 0 1
gene 1 7 29 3.7283 0 34 0 1
gene 1 8 29 -1.83697 0 35 0 1
gene 1 9 29 2.37277 0 36 0 1
gene 1 10 29 -1.3565 0 37 0 1
gene 1 11 29 2.32685 0 38 0 1
gene 1 12 29 -0.257159 0 39 0 1
gene 1 13 29 1.28168 0 40 0 1
gene 1 14 29 1.35573 0 41 0 1
gene 1 15 29 1.87019 0 42 0 1
gene 1 16 29 1.82026 0 43 0 1
gene 1 17 29 2.09312 0 44 0 1
gene 1 18 29 -2.39668 0 45 0 1
gene 1 19 29 0.0303955 0 46 0 1
gene 1 20 29 -2.08916 0 47 0 1
gene 1 21 29 1.91274 0 48 0 1
gene 1 22 29 -0.309858 0 49 0 1
gene 1 23 29 -2.52426 0 50 0 1
gene 1 24 29 -3.56157 0 51 0 1
gene 1 25 29 1.08206 0 52 0 1
gene 1 26 29 2.76813 0 53 0 1
gene 1 27 29 2.22005 0 54 0 1
gene 1 1 30 -2.05459 0 55 0 1
gene 1 2 30 -0.521873 0 56 0 1
gene 1 3 30 3.02853 0 57 0 1
gene 1 4 30 -2.47059 0 58 0 1
gene 1 5 30 -0.124729 0 59 0 1
gene 1 6 30 1.03659 0 60 0 1
gene 1 7 30 4.18256 0 61 0 1
gene 1 8 30 1.7284 0 62 0 1
gene 1 9 30 -2.02654 0 63 0 1
gene 1 10 30 -0.122805 0 64 0 1
gene 1 11 30 -1.79188 0 65 0 1
gene 1 12 30 0.652132 0 66 0 1
gene 1 13 30 0.267249 0 67 0 1
gene 1 14 30 1.51452 0 68 0 1
gene 1 15 30 3.01161 0 69 0 1
gene 1 16 30 -2.96781 0 70 0 1
gene 1 17 30 1.61935 0 71 0 1
gene 1 18 30 -2.17493 0 72 0 1
gene 1 19 30 -0.582528 0 73 0 1
gene 1 20 30 -2.26888 0 74 0 1
gene 1 21 30 0.549199 0 75 0 1
gene 1 22 30 0.283675 0 76 0 1
gene 1 23 30 -0.588309 0 77 0 1
gene 1 24 30 1.15335 0 78 0 1
gene 1 25 30 0.929102 0 79 0 1
gene 1 26 30 -0.559711 0 80 0 1
gene 1 27 30 2.17449 0 81 0 1
genomeend 2
