genomestart 3
trait 1 0 0 0 0 0 0 0 0 
node 1 0 1 1
node 2 0 1 1
node 3 0 1 1
node 4 0 1 1
node 5 0 1 1
node 6 0 1 1
node 7 0 1 1
node 8 0 1 1
node 9 0 1 1
node 10 0 1 1
node 11 0 1 1
node 12 0 1 1
node 13 0 1 3
node 14 0 0 2
node 15 0 0 2
gene 1 1 14 -1.27169 0 1 0 1
gene 1 2 14 -5.01695 0 2 0 1
gene 1 3 14 1.38602 0 3 0 1
gene 1 4 14 -1.5969 0 4 0 1
gene 1 5 14 -1.11218 0 5 0 1
gene 1 6 14 -1.96973 0 6 0 1
gene 1 7 14 -3.29128 0 7 0 1
gene 1 8 14 -5.32638 0 8 0 1
gene 1 9 14 -1.91811 0 9 0 1
gene 1 10 14 2.25055 0 10 0 1
gene 1 11 14 1.19127 0 11 0 1
gene 1 12 14 -4.67682 0 12 0 1
gene 1 13 14 -4.00227 0 13 0 1
gene 1 1 15 2.21115 0 14 0 1
gene 1 2 15 -2.95934 0 15 0 1
gene 1 3 15 -0.891394 0 16 0 1
gene 1 4 15 8.54417 0 17 0 1
gene 1 5 15 -4.39873 0 18 0 1
gene 1 6 15 3.38229 0 19 0 1
gene 1 7 15 -3.06779 0 20 0 1
gene 1 8 15 2.98806 0 21 0 1
gene 1 9 15 -2.00865 0 22 0 1
gene 1 10 15 -0.332724 0 23 0 1
gene 1 11 15 4.18602 0 24 0 1
gene 1 12 15 -1.53316 0 25 0 1
gene 1 13 15 -1.07299 0 26 0 1
genomeend 3
