genomestart 3
trait 1 0 0 0 0 0 0 0 0 
node 1 0 1 1
node 2 0 1 1
node 3 0 1 1
node 4 0 1 1
node 5 0 1 1
node 6 0 1 1
node 7 0 1 1
node 8 0 1 1
node 9 0 1 1
node 10 0 1 1
node 11 0 1 1
node 12 0 1 1
node 13 0 1 3
node 14 0 0 2
node 15 0 0 2
gene 1 1 14 1.80976 0 1 0 1
gene 1 2 14 0.0960959 0 2 0 1
gene 1 3 14 -0.157743 0 3 0 1
gene 1 4 14 -0.892271 0 4 0 1
gene 1 5 14 2.99645 0 5 0 1
gene 1 6 14 -3.78447 0 6 0 1
gene 1 7 14 -5.48446 0 7 0 1
gene 1 8 14 -0.613494 0 8 0 1
gene 1 9 14 -0.317014 0 9 0 1
gene 1 10 14 6.27395 0 10 0 1
gene 1 11 14 4.78511 0 11 0 1
gene 1 12 14 -3.57126 0 12 0 1
gene 1 13 14 -2.94575 0 13 0 1
gene 1 1 15 2.30703 0 14 0 1
gene 1 2 15 -6.08345 0 15 0 1
gene 1 3 15 -0.301926 0 16 0 1
gene 1 4 15 7.80984 0 17 0 1
gene 1 5 15 -3.73535 0 18 0 1
gene 1 6 15 0.935313 0 19 0 1
gene 1 7 15 -1.96562 0 20 0 1
gene 1 8 15 0.0184595 0 21 0 1
gene 1 9 15 -1.2355 0 22 0 1
gene 1 10 15 -0.864101 0 23 0 1
gene 1 11 15 4.32914 0 24 0 1
gene 1 12 15 -2.3381 0 25 0 1
gene 1 13 15 -0.643551 0 26 0 1
genomeend 3
