genomestart 3
trait 1 0 0 0 0 0 0 0 0 
node 1 0 1 1
node 2 0 1 1
node 3 0 1 1
node 4 0 1 1
node 5 0 1 1
node 6 0 1 1
node 7 0 1 1
node 8 0 1 1
node 9 0 1 1
node 10 0 1 1
node 11 0 1 1
node 12 0 1 1
node 13 0 1 3
node 14 0 0 2
node 15 0 0 2
gene 1 1 14 -0.973495 0 1 0 1
gene 1 2 14 -5.53051 0 2 0 1
gene 1 3 14 0.482129 0 3 0 1
gene 1 4 14 -2.70977 0 4 0 1
gene 1 5 14 -1.70275 0 5 0 1
gene 1 6 14 -1.8031 0 6 0 1
gene 1 7 14 -4.35204 0 7 0 1
gene 1 8 14 -4.74059 0 8 0 1
gene 1 9 14 -1.95456 0 9 0 1
gene 1 10 14 3.95264 0 10 0 1
gene 1 11 14 1.41605 0 11 0 1
gene 1 12 14 -4.26816 0 12 0 1
gene 1 13 14 -3.5077 0 13 0 1
gene 1 1 15 1.71684 0 14 0 1
gene 1 2 15 -4.02491 0 15 0 1
gene 1 3 15 -1.46825 0 16 0 1
gene 1 4 15 7.9911 0 17 0 1
gene 1 5 15 -4.57157 0 18 0 1
gene 1 6 15 4.65455 0 19 0 1
gene 1 7 15 -3.37711 0 20 0 1
gene 1 8 15 4.3135 0 21 0 1
gene 1 9 15 -2.4095 0 22 0 1
gene 1 10 15 -0.762935 0 23 0 1
gene 1 11 15 5.88401 0 24 0 1
gene 1 12 15 -1.13976 0 25 0 1
gene 1 13 15 -0.136824 0 26 0 1
genomeend 3
