genomestart 2
trait 1 0 0 0 0 0 0 0 0 
node 1 0 1 1
node 2 0 1 1
node 3 0 1 1
node 4 0 1 1
node 5 0 1 1
node 6 0 1 1
node 7 0 1 1
node 8 0 1 1
node 9 0 1 1
node 10 0 1 1
node 11 0 1 1
node 12 0 1 1
node 13 0 1 1
node 14 0 1 1
node 15 0 1 1
node 16 0 1 1
node 17 0 1 1
node 18 0 1 1
node 19 0 1 1
node 20 0 1 1
node 21 0 1 1
node 22 0 1 1
node 23 0 1 1
node 24 0 1 1
node 25 0 1 1
node 26 0 1 1
node 27 0 1 3
node 28 0 0 2
node 29 0 0 2
node 30 0 0 2
gene 1 1 28 -0.484808 0 1 0 1
gene 1 2 28 -1.27539 0 2 0 1
gene 1 3 28 -0.14609 0 3 0 1
gene 1 4 28 0.315016 0 4 0 1
gene 1 5 28 0.17809 0 5 0 1
gene 1 6 28 -0.526043 0 6 0 1
gene 1 7 28 -0.176263 0 7 0 1
gene 1 8 28 0.479673 0 8 0 1
gene 1 9 28 -0.329768 0 9 0 1
gene 1 10 28 -0.206077 0 10 0 1
gene 1 11 28 0.426283 0 11 0 1
gene 1 12 28 0.685953 0 12 0 1
gene 1 13 28 0.289192 0 13 0 1
gene 1 14 28 0.545514 0 14 0 1
gene 1 15 28 0.23517 0 15 0 1
gene 1 16 28 0.307906 0 16 0 1
gene 1 17 28 -0.53629 0 17 0 1
gene 1 18 28 0.784172 0 18 0 1
gene 1 19 28 0.192045 0 19 0 1
gene 1 20 28 -0.273285 0 20 0 1
gene 1 21 28 0.069904 0 21 0 1
gene 1 22 28 -0.594905 0 22 0 1
gene 1 23 28 0.156412 0 23 0 1
gene 1 24 28 0.0870667 0 24 0 1
gene 1 25 28 1.47844 0 25 0 1
gene 1 26 28 -1.10586 0 26 0 1
gene 1 27 28 0.609089 0 27 0 1
gene 1 1 29 0.0923568 0 28 0 1
gene 1 2 29 0.448725 0 29 0 1
gene 1 3 29 -0.794818 0 30 0 1
gene 1 4 29 0.17506 0 31 0 1
gene 1 5 29 -0.385521 0 32 0 1
gene 1 6 29 0.138218 0 33 0 1
gene 1 7 29 -0.381414 0 34 0 1
gene 1 8 29 0.225762 0 35 0 1
gene 1 9 29 0.110233 0 36 0 1
gene 1 10 29 -0.430446 0 37 0 1
gene 1 11 29 -0.834672 0 38 0 1
gene 1 12 29 0.00645614 0 39 0 1
gene 1 13 29 0.555082 0 40 0 1
gene 1 14 29 1.33587 0 41 0 1
gene 1 15 29 -0.682819 0 42 0 1
gene 1 16 29 0.0240966 0 43 0 1
gene 1 17 29 0.605796 0 44 0 1
gene 1 18 29 0.429493 0 45 0 1
gene 1 19 29 0.808748 0 46 0 1
gene 1 20 29 -1.35566 0 47 0 1
gene 1 21 29 -0.807352 0 48 0 1
gene 1 22 29 -0.466594 0 49 0 1
gene 1 23 29 -0.000316906 0 50 0 1
gene 1 24 29 0.676901 0 51 0 1
gene 1 25 29 -0.267892 0 52 0 1
gene 1 26 29 0.685967 0 53 0 1
gene 1 27 29 -0.455422 0 54 0 1
gene 1 1 30 -0.256461 0 55 0 1
gene 1 2 30 0.11027 0 56 0 1
gene 1 3 30 1.01011 0 57 0 1
gene 1 4 30 0.356075 0 58 0 1
gene 1 5 30 -0.0790389 0 59 0 1
gene 1 6 30 0.256867 0 60 0 1
gene 1 7 30 0.240989 0 61 0 1
gene 1 8 30 0.863141 0 62 0 1
gene 1 9 30 0.539682 0 63 0 1
gene 1 10 30 0.517691 0 64 0 1
gene 1 11 30 -0.0483988 0 65 0 1
gene 1 12 30 -0.308975 0 66 0 1
gene 1 13 30 -0.636237 0 67 0 1
gene 1 14 30 -0.185588 0 68 0 1
gene 1 15 30 0.136602 0 69 0 1
gene 1 16 30 -0.467771 0 70 0 1
gene 1 17 30 0.674618 0 71 0 1
gene 1 18 30 0.00819173 0 72 0 1
gene 1 19 30 0.334807 0 73 0 1
gene 1 20 30 0.150259 0 74 0 1
gene 1 21 30 -0.123094 0 75 0 1
gene 1 22 30 -0.372875 0 76 0 1
gene 1 23 30 -0.102863 0 77 0 1
gene 1 24 30 -0.288362 0 78 0 1
gene 1 25 30 0.422421 0 79 0 1
gene 1 26 30 -0.332734 0 80 0 1
gene 1 27 30 -0.832528 0 81 0 1
genomeend 2
