genomestart 2
trait 1 0 0 0 0 0 0 0 0 
node 1 0 1 1
node 2 0 1 1
node 3 0 1 1
node 4 0 1 1
node 5 0 1 1
node 6 0 1 1
node 7 0 1 1
node 8 0 1 1
node 9 0 1 1
node 10 0 1 1
node 11 0 1 1
node 12 0 1 1
node 13 0 1 1
node 14 0 1 1
node 15 0 1 1
node 16 0 1 1
node 17 0 1 1
node 18 0 1 1
node 19 0 1 1
node 20 0 1 1
node 21 0 1 1
node 22 0 1 1
node 23 0 1 1
node 24 0 1 1
node 25 0 1 1
node 26 0 1 1
node 27 0 1 3
node 28 0 0 2
node 29 0 0 2
node 30 0 0 2
gene 1 1 28 -0.573161 0 1 0 1
gene 1 2 28 -2.05925 0 2 0 1
gene 1 3 28 0.163482 0 3 0 1
gene 1 4 28 0.961836 0 4 0 1
gene 1 5 28 -0.598235 0 5 0 1
gene 1 6 28 0.132379 0 6 0 1
gene 1 7 28 -0.595473 0 7 0 1
gene 1 8 28 0.383406 0 8 0 1
gene 1 9 28 -0.0869342 0 9 0 1
gene 1 10 28 0.236809 0 10 0 1
gene 1 11 28 1.32413 0 11 0 1
gene 1 12 28 1.11922 0 12 0 1
gene 1 13 28 -1.02965 0 13 0 1
gene 1 14 28 0.808303 0 14 0 1
gene 1 15 28 0.193587 0 15 0 1
gene 1 16 28 1.03117 0 16 0 1
gene 1 17 28 0.908938 0 17 0 1
gene 1 18 28 -0.20865 0 18 0 1
gene 1 19 28 -0.823207 0 19 0 1
gene 1 20 28 -0.417646 0 20 0 1
gene 1 21 28 -0.24048 0 21 0 1
gene 1 22 28 -1.58345 0 22 0 1
gene 1 23 28 -1.19849 0 23 0 1
gene 1 24 28 -0.169078 0 24 0 1
gene 1 25 28 2.20319 0 25 0 1
gene 1 26 28 -1.07571 0 26 0 1
gene 1 27 28 -0.173438 0 27 0 1
gene 1 1 29 0.446553 0 28 0 1
gene 1 2 29 0.505834 0 29 0 1
gene 1 3 29 -0.655426 0 30 0 1
gene 1 4 29 0.600551 0 31 0 1
gene 1 5 29 -0.530927 0 32 0 1
gene 1 6 29 1.83094 0 33 0 1
gene 1 7 29 0.336845 0 34 0 1
gene 1 8 29 0.426002 0 35 0 1
gene 1 9 29 0.171701 0 36 0 1
gene 1 10 29 -0.583663 0 37 0 1
gene 1 11 29 -0.643553 0 38 0 1
gene 1 12 29 0.070509 0 39 0 1
gene 1 13 29 1.16117 0 40 0 1
gene 1 14 29 1.07144 0 41 0 1
gene 1 15 29 -2.93202 0 42 0 1
gene 1 16 29 0.660555 0 43 0 1
gene 1 17 29 1.54706 0 44 0 1
gene 1 18 29 0.380307 0 45 0 1
gene 1 19 29 0.0739326 0 46 0 1
gene 1 20 29 0.104165 0 47 0 1
gene 1 21 29 -0.590047 0 48 0 1
gene 1 22 29 -0.833984 0 49 0 1
gene 1 23 29 -0.45458 0 50 0 1
gene 1 24 29 0.518902 0 51 0 1
gene 1 25 29 1.32226 0 52 0 1
gene 1 26 29 0.404403 0 53 0 1
gene 1 27 29 -0.515703 0 54 0 1
gene 1 1 30 -1.01016 0 55 0 1
gene 1 2 30 0.246273 0 56 0 1
gene 1 3 30 1.14858 0 57 0 1
gene 1 4 30 0.0897158 0 58 0 1
gene 1 5 30 0.482017 0 59 0 1
gene 1 6 30 0.77549 0 60 0 1
gene 1 7 30 1.32356 0 61 0 1
gene 1 8 30 1.52282 0 62 0 1
gene 1 9 30 0.379389 0 63 0 1
gene 1 10 30 0.593857 0 64 0 1
gene 1 11 30 -1.08766 0 65 0 1
gene 1 12 30 -1.25291 0 66 0 1
gene 1 13 30 -0.294121 0 67 0 1
gene 1 14 30 0.378869 0 68 0 1
gene 1 15 30 1.42155 0 69 0 1
gene 1 16 30 -1.38963 0 70 0 1
gene 1 17 30 0.00690058 0 71 0 1
gene 1 18 30 -0.693881 0 72 0 1
gene 1 19 30 0.473673 0 73 0 1
gene 1 20 30 -0.279953 0 74 0 1
gene 1 21 30 -1.71835 0 75 0 1
gene 1 22 30 0.0464112 0 76 0 1
gene 1 23 30 0.962885 0 77 0 1
gene 1 24 30 0.195225 0 78 0 1
gene 1 25 30 0.500899 0 79 0 1
gene 1 26 30 -1.53461 0 80 0 1
gene 1 27 30 0.548893 0 81 0 1
genomeend 2
