genomestart 2
trait 1 0 0 0 0 0 0 0 0 
node 1 0 1 1
node 2 0 1 1
node 3 0 1 1
node 4 0 1 1
node 5 0 1 1
node 6 0 1 1
node 7 0 1 1
node 8 0 1 1
node 9 0 1 1
node 10 0 1 1
node 11 0 1 1
node 12 0 1 1
node 13 0 1 1
node 14 0 1 1
node 15 0 1 1
node 16 0 1 1
node 17 0 1 1
node 18 0 1 1
node 19 0 1 1
node 20 0 1 1
node 21 0 1 1
node 22 0 1 1
node 23 0 1 1
node 24 0 1 1
node 25 0 1 1
node 26 0 1 1
node 27 0 1 3
node 28 0 0 2
node 29 0 0 2
node 30 0 0 2
gene 1 1 28 -1.47412 0 1 0 1
gene 1 2 28 -1.6684 0 2 0 1
gene 1 3 28 1.15009 0 3 0 1
gene 1 4 28 0.589724 0 4 0 1
gene 1 5 28 -2.25784 0 5 0 1
gene 1 6 28 0.0238887 0 6 0 1
gene 1 7 28 -1.11995 0 7 0 1
gene 1 8 28 0.125379 0 8 0 1
gene 1 9 28 -0.585767 0 9 0 1
gene 1 10 28 0.793749 0 10 0 1
gene 1 11 28 1.44216 0 11 0 1
gene 1 12 28 1.00758 0 12 0 1
gene 1 13 28 -1.64029 0 13 0 1
gene 1 14 28 1.57983 0 14 0 1
gene 1 15 28 0.927462 0 15 0 1
gene 1 16 28 1.61438 0 16 0 1
gene 1 17 28 1.24515 0 17 0 1
gene 1 18 28 0.371868 0 18 0 1
gene 1 19 28 -0.949475 0 19 0 1
gene 1 20 28 -1.20003 0 20 0 1
gene 1 21 28 0.172293 0 21 0 1
gene 1 22 28 -1.3067 0 22 0 1
gene 1 23 28 -2.4485 0 23 0 1
gene 1 24 28 -0.5583 0 24 0 1
gene 1 25 28 2.99197 0 25 0 1
gene 1 26 28 0.211676 0 26 0 1
gene 1 27 28 -0.899227 0 27 0 1
gene 1 1 29 -1.37725 0 28 0 1
gene 1 2 29 0.335175 0 29 0 1
gene 1 3 29 -0.844011 0 30 0 1
gene 1 4 29 0.524047 0 31 0 1
gene 1 5 29 0.532522 0 32 0 1
gene 1 6 29 2.52409 0 33 0 1
gene 1 7 29 0.469681 0 34 0 1
gene 1 8 29 1.27103 0 35 0 1
gene 1 9 29 0.636442 0 36 0 1
gene 1 10 29 0.163568 0 37 0 1
gene 1 11 29 0.454103 0 38 0 1
gene 1 12 29 -1.23339 0 39 0 1
gene 1 13 29 1.72503 0 40 0 1
gene 1 14 29 1.09129 0 41 0 1
gene 1 15 29 -1.70144 0 42 0 1
gene 1 16 29 1.66508 0 43 0 1
gene 1 17 29 1.02263 0 44 0 1
gene 1 18 29 -0.960189 0 45 0 1
gene 1 19 29 -1.2175 0 46 0 1
gene 1 20 29 -0.270498 0 47 0 1
gene 1 21 29 -1.04165 0 48 0 1
gene 1 22 29 0.517808 0 49 0 1
gene 1 23 29 -1.48774 0 50 0 1
gene 1 24 29 -0.890591 0 51 0 1
gene 1 25 29 1.77746 0 52 0 1
gene 1 26 29 1.55804 0 53 0 1
gene 1 27 29 0.742623 0 54 0 1
gene 1 1 30 -2.14769 0 55 0 1
gene 1 2 30 0.513238 0 56 0 1
gene 1 3 30 1.70066 0 57 0 1
gene 1 4 30 0.437576 0 58 0 1
gene 1 5 30 1.96574 0 59 0 1
gene 1 6 30 0.995644 0 60 0 1
gene 1 7 30 -0.17351 0 61 0 1
gene 1 8 30 1.90972 0 62 0 1
gene 1 9 30 0.0760545 0 63 0 1
gene 1 10 30 -0.484087 0 64 0 1
gene 1 11 30 -1.47562 0 65 0 1
gene 1 12 30 0.26949 0 66 0 1
gene 1 13 30 -1.00208 0 67 0 1
gene 1 14 30 -2.57435 0 68 0 1
gene 1 15 30 1.50193 0 69 0 1
gene 1 16 30 -1.10273 0 70 0 1
gene 1 17 30 -0.638586 0 71 0 1
gene 1 18 30 0.315826 0 72 0 1
gene 1 19 30 -2.15911 0 73 0 1
gene 1 20 30 0.925644 0 74 0 1
gene 1 21 30 -1.35458 0 75 0 1
gene 1 22 30 -0.813282 0 76 0 1
gene 1 23 30 0.570177 0 77 0 1
gene 1 24 30 1.84424 0 78 0 1
gene 1 25 30 1.54899 0 79 0 1
gene 1 26 30 -0.825832 0 80 0 1
gene 1 27 30 1.21506 0 81 0 1
genomeend 2
