genomestart 3
trait 1 0 0 0 0 0 0 0 0 
node 1 0 1 1
node 2 0 1 1
node 3 0 1 1
node 4 0 1 1
node 5 0 1 1
node 6 0 1 1
node 7 0 1 1
node 8 0 1 1
node 9 0 1 1
node 10 0 1 1
node 11 0 1 1
node 12 0 1 1
node 13 0 1 3
node 14 0 0 2
node 15 0 0 2
gene 1 1 14 -3.94069 0 1 0 1
gene 1 2 14 -5.30249 0 2 0 1
gene 1 3 14 1.99434 0 3 0 1
gene 1 4 14 0.613472 0 4 0 1
gene 1 5 14 1.38641 0 5 0 1
gene 1 6 14 -1.65772 0 6 0 1
gene 1 7 14 -4.16671 0 7 0 1
gene 1 8 14 -4.90326 0 8 0 1
gene 1 9 14 3.34169 0 9 0 1
gene 1 10 14 2.8769 0 10 0 1
gene 1 11 14 4.14832 0 11 0 1
gene 1 12 14 -6.47354 0 12 0 1
gene 1 13 14 -2.58435 0 13 0 1
gene 1 1 15 4.52321 0 14 0 1
gene 1 2 15 -7.07795 0 15 0 1
gene 1 3 15 2.20901 0 16 0 1
gene 1 4 15 8.95497 0 17 0 1
gene 1 5 15 -4.45278 0 18 0 1
gene 1 6 15 3.03693 0 19 0 1
gene 1 7 15 -4.56996 0 20 0 1
gene 1 8 15 2.96481 0 21 0 1
gene 1 9 15 -0.608993 0 22 0 1
gene 1 10 15 1.28622 0 23 0 1
gene 1 11 15 1.8649 0 24 0 1
gene 1 12 15 1.01488 0 25 0 1
gene 1 13 15 -3.30696 0 26 0 1
genomeend 3
