genomestart 2
trait 1 0 0 0 0 0 0 0 0 
node 1 0 1 1
node 2 0 1 1
node 3 0 1 1
node 4 0 1 1
node 5 0 1 1
node 6 0 1 1
node 7 0 1 1
node 8 0 1 1
node 9 0 1 1
node 10 0 1 1
node 11 0 1 1
node 12 0 1 1
node 13 0 1 1
node 14 0 1 1
node 15 0 1 1
node 16 0 1 1
node 17 0 1 1
node 18 0 1 1
node 19 0 1 1
node 20 0 1 1
node 21 0 1 1
node 22 0 1 1
node 23 0 1 1
node 24 0 1 1
node 25 0 1 1
node 26 0 1 1
node 27 0 1 3
node 28 0 0 2
node 29 0 0 2
node 30 0 0 2
gene 1 1 28 -0.333643 0 1 0 1
gene 1 2 28 -2.10017 0 2 0 1
gene 1 3 28 0.314575 0 3 0 1
gene 1 4 28 1.1124 0 4 0 1
gene 1 5 28 -0.992759 0 5 0 1
gene 1 6 28 -0.293258 0 6 0 1
gene 1 7 28 -1.25492 0 7 0 1
gene 1 8 28 0.658565 0 8 0 1
gene 1 9 28 0.22683 0 9 0 1
gene 1 10 28 -0.332869 0 10 0 1
gene 1 11 28 0.489481 0 11 0 1
gene 1 12 28 1.0877 0 12 0 1
gene 1 13 28 -0.721643 0 13 0 1
gene 1 14 28 0.346554 0 14 0 1
gene 1 15 28 0.231942 0 15 0 1
gene 1 16 28 1.01169 0 16 0 1
gene 1 17 28 0.261197 0 17 0 1
gene 1 18 28 -0.410023 0 18 0 1
gene 1 19 28 -0.269999 0 19 0 1
gene 1 20 28 -0.193423 0 20 0 1
gene 1 21 28 0.707007 0 21 0 1
gene 1 22 28 -1.391 0 22 0 1
gene 1 23 28 -1.20452 0 23 0 1
gene 1 24 28 -0.360234 0 24 0 1
gene 1 25 28 2.46829 0 25 0 1
gene 1 26 28 -1.42859 0 26 0 1
gene 1 27 28 -0.238903 0 27 0 1
gene 1 1 29 0.431765 0 28 0 1
gene 1 2 29 0.627209 0 29 0 1
gene 1 3 29 -0.754686 0 30 0 1
gene 1 4 29 0.307208 0 31 0 1
gene 1 5 29 -0.443021 0 32 0 1
gene 1 6 29 1.42862 0 33 0 1
gene 1 7 29 -0.171092 0 34 0 1
gene 1 8 29 0.437175 0 35 0 1
gene 1 9 29 -0.0634751 0 36 0 1
gene 1 10 29 -1.3605 0 37 0 1
gene 1 11 29 -0.832671 0 38 0 1
gene 1 12 29 -0.183762 0 39 0 1
gene 1 13 29 0.851945 0 40 0 1
gene 1 14 29 1.74058 0 41 0 1
gene 1 15 29 -2.14548 0 42 0 1
gene 1 16 29 1.14632 0 43 0 1
gene 1 17 29 1.17113 0 44 0 1
gene 1 18 29 0.490163 0 45 0 1
gene 1 19 29 0.472369 0 46 0 1
gene 1 20 29 -0.41631 0 47 0 1
gene 1 21 29 -0.95669 0 48 0 1
gene 1 22 29 -1.14676 0 49 0 1
gene 1 23 29 -1.18663 0 50 0 1
gene 1 24 29 0.874075 0 51 0 1
gene 1 25 29 0.745471 0 52 0 1
gene 1 26 29 -0.123 0 53 0 1
gene 1 27 29 -1.1328 0 54 0 1
gene 1 1 30 -0.631527 0 55 0 1
gene 1 2 30 0.462722 0 56 0 1
gene 1 3 30 1.13965 0 57 0 1
gene 1 4 30 -0.133636 0 58 0 1
gene 1 5 30 -0.230996 0 59 0 1
gene 1 6 30 1.18399 0 60 0 1
gene 1 7 30 0.887647 0 61 0 1
gene 1 8 30 0.933747 0 62 0 1
gene 1 9 30 0.22506 0 63 0 1
gene 1 10 30 0.575379 0 64 0 1
gene 1 11 30 -0.88125 0 65 0 1
gene 1 12 30 -0.395451 0 66 0 1
gene 1 13 30 0.664937 0 67 0 1
gene 1 14 30 0.480244 0 68 0 1
gene 1 15 30 1.26363 0 69 0 1
gene 1 16 30 -1.06596 0 70 0 1
gene 1 17 30 -0.393468 0 71 0 1
gene 1 18 30 -0.745697 0 72 0 1
gene 1 19 30 0.540585 0 73 0 1
gene 1 20 30 0.0631436 0 74 0 1
gene 1 21 30 -0.298964 0 75 0 1
gene 1 22 30 0.713838 0 76 0 1
gene 1 23 30 -0.223344 0 77 0 1
gene 1 24 30 0.426116 0 78 0 1
gene 1 25 30 0.320727 0 79 0 1
gene 1 26 30 -1.51103 0 80 0 1
gene 1 27 30 0.323847 0 81 0 1
genomeend 2
