genomestart 0
trait 1 0 0 0 0 0 0 0 0 
node 1 0 1 1
node 2 0 1 1
node 3 0 1 1
node 4 0 1 1
node 5 0 1 1
node 6 0 1 1
node 7 0 1 1
node 8 0 1 1
node 9 0 1 1
node 10 0 1 1
node 11 0 1 1
node 12 0 1 1
node 13 0 1 1
node 14 0 1 1
node 15 0 1 1
node 16 0 1 1
node 17 0 1 1
node 18 0 1 1
node 19 0 1 1
node 20 0 1 1
node 21 0 1 1
node 22 0 1 1
node 23 0 1 1
node 24 0 1 1
node 25 0 1 3
node 26 0 0 2
node 27 0 0 2
node 28 1 0 0
gene 1 1 26 0.0577462 0 1 0.0577462 1
gene 1 2 26 -2.22693 0 2 -2.22693 1
gene 1 3 26 0.585625 0 3 0.585625 1
gene 1 4 26 0.726103 0 4 0.726103 1
gene 1 5 26 0.106983 0 5 0.106983 1
gene 1 6 26 2.11154 0 6 2.11154 1
gene 1 7 26 -1.39301 0 7 -1.39301 1
gene 1 8 26 -4.35029 0 8 -4.35029 1
gene 1 9 26 0.421208 0 9 0.421208 1
gene 1 10 26 -0.892198 0 10 -0.892198 1
gene 1 11 26 3.51665 0 11 3.51665 1
gene 1 12 26 0.18306 0 12 0.18306 1
gene 1 13 26 -0.727099 0 13 -0.727099 1
gene 1 14 26 -0.666135 0 14 -0.666135 1
gene 1 15 26 1.5267 0 15 1.5267 0
gene 1 16 26 -1.80139 0 16 -1.80139 1
gene 1 17 26 -1.11053 0 17 -1.11053 1
gene 1 18 26 -3.05613 0 18 -3.05613 1
gene 1 19 26 1.21634 0 19 1.21634 1
gene 1 20 26 1.63632 0 20 1.63632 1
gene 1 21 26 0.420417 0 21 0.420417 1
gene 1 22 26 3.29409 0 22 3.29409 1
gene 1 23 26 -3.0144 0 23 -3.0144 1
gene 1 24 26 0.372728 0 24 0.372728 1
gene 1 25 26 2.37466 0 25 2.37466 1
gene 1 1 27 -1.35493 0 26 -1.35493 1
gene 1 2 27 -1.95051 0 27 -1.95051 1
gene 1 3 27 1.24765 0 28 1.24765 1
gene 1 4 27 -2.24151 0 29 -2.24151 1
gene 1 5 27 0.888607 0 30 0.888607 1
gene 1 6 27 1.54837 0 31 1.54837 1
gene 1 7 27 0.691398 0 32 0.691398 1
gene 1 8 27 -1.37129 0 33 -1.37129 1
gene 1 9 27 -2.01213 0 34 -2.01213 1
gene 1 10 27 -1.23253 0 35 -1.23253 1
gene 1 11 27 1.29089 0 36 1.29089 1
gene 1 12 27 -0.538763 0 37 -0.538763 1
gene 1 13 27 1.42299 0 38 1.42299 1
gene 1 14 27 0.0163051 0 39 0.0163051 1
gene 1 15 27 1.73521 0 40 1.73521 1
gene 1 16 27 -2.06458 0 41 -2.06458 1
gene 1 17 27 0.367347 0 42 0.367347 1
gene 1 18 27 -0.49656 0 43 -0.49656 1
gene 1 19 27 -0.0570246 0 44 -0.0570246 1
gene 1 20 27 0.610305 0 45 0.610305 1
gene 1 21 27 -1.82028 0 46 -1.82028 1
gene 1 22 27 0.747749 0 47 0.747749 1
gene 1 23 27 0.0150253 0 48 0.0150253 1
gene 1 24 27 -1.22841 0 49 -1.22841 1
gene 1 15 28 1 0 50 1 1
gene 1 25 27 -0.13539 0 50 -0.13539 1
gene 1 28 26 0.491005 0 51 0.491005 1
genomeend 0
