genomestart 3
trait 1 0 0 0 0 0 0 0 0 
node 1 0 1 1
node 2 0 1 1
node 3 0 1 1
node 4 0 1 1
node 5 0 1 1
node 6 0 1 1
node 7 0 1 1
node 8 0 1 1
node 9 0 1 1
node 10 0 1 1
node 11 0 1 1
node 12 0 1 1
node 13 0 1 3
node 14 0 0 2
node 15 0 0 2
gene 1 1 14 1.21908 0 1 0 1
gene 1 2 14 -3.51902 0 2 0 1
gene 1 3 14 -0.825548 0 3 0 1
gene 1 4 14 -0.457381 0 4 0 1
gene 1 5 14 0.985701 0 5 0 1
gene 1 6 14 -2.90996 0 6 0 1
gene 1 7 14 -4.10471 0 7 0 1
gene 1 8 14 -0.741192 0 8 0 1
gene 1 9 14 -1.29493 0 9 0 1
gene 1 10 14 5.80702 0 10 0 1
gene 1 11 14 2.12832 0 11 0 1
gene 1 12 14 -5.32651 0 12 0 1
gene 1 13 14 -5.63344 0 13 0 1
gene 1 1 15 2.81828 0 14 0 1
gene 1 2 15 -5.07574 0 15 0 1
gene 1 3 15 0.43068 0 16 0 1
gene 1 4 15 5.85444 0 17 0 1
gene 1 5 15 -1.22031 0 18 0 1
gene 1 6 15 -0.332688 0 19 0 1
gene 1 7 15 -1.99092 0 20 0 1
gene 1 8 15 3.72194 0 21 0 1
gene 1 9 15 -0.686824 0 22 0 1
gene 1 10 15 -0.171036 0 23 0 1
gene 1 11 15 2.51314 0 24 0 1
gene 1 12 15 -2.94821 0 25 0 1
gene 1 13 15 -2.65728 0 26 0 1
genomeend 3
