genomestart 2
trait 1 0 0 0 0 0 0 0 0 
node 1 0 1 1
node 2 0 1 1
node 3 0 1 1
node 4 0 1 1
node 5 0 1 1
node 6 0 1 1
node 7 0 1 1
node 8 0 1 1
node 9 0 1 1
node 10 0 1 1
node 11 0 1 1
node 12 0 1 1
node 13 0 1 1
node 14 0 1 1
node 15 0 1 1
node 16 0 1 1
node 17 0 1 1
node 18 0 1 1
node 19 0 1 1
node 20 0 1 1
node 21 0 1 1
node 22 0 1 1
node 23 0 1 1
node 24 0 1 1
node 25 0 1 1
node 26 0 1 1
node 27 0 1 3
node 28 0 0 2
node 29 0 0 2
node 30 0 0 2
gene 1 1 28 -1.37359 0 1 0 1
gene 1 2 28 -1.90676 0 2 0 1
gene 1 3 28 1.37688 0 3 0 1
gene 1 4 28 0.640242 0 4 0 1
gene 1 5 28 -1.34861 0 5 0 1
gene 1 6 28 -0.271965 0 6 0 1
gene 1 7 28 -1.32985 0 7 0 1
gene 1 8 28 1.3141 0 8 0 1
gene 1 9 28 -1.26932 0 9 0 1
gene 1 10 28 -0.058559 0 10 0 1
gene 1 11 28 0.513718 0 11 0 1
gene 1 12 28 0.773925 0 12 0 1
gene 1 13 28 -0.188955 0 13 0 1
gene 1 14 28 1.49947 0 14 0 1
gene 1 15 28 0.0109584 0 15 0 1
gene 1 16 28 1.6471 0 16 0 1
gene 1 17 28 0.606067 0 17 0 1
gene 1 18 28 0.127239 0 18 0 1
gene 1 19 28 -1.10056 0 19 0 1
gene 1 20 28 -0.56806 0 20 0 1
gene 1 21 28 0.606713 0 21 0 1
gene 1 22 28 -1.75555 0 22 0 1
gene 1 23 28 -2.07436 0 23 0 1
gene 1 24 28 -0.271412 0 24 0 1
gene 1 25 28 3.45084 0 25 0 1
gene 1 26 28 0.368199 0 26 0 1
gene 1 27 28 -1.06294 0 27 0 1
gene 1 1 29 -0.501101 0 28 0 1
gene 1 2 29 0.392369 0 29 0 1
gene 1 3 29 -0.747457 0 30 0 1
gene 1 4 29 0.410167 0 31 0 1
gene 1 5 29 0.564625 0 32 0 1
gene 1 6 29 1.71796 0 33 0 1
gene 1 7 29 0.331652 0 34 0 1
gene 1 8 29 -0.652026 0 35 0 1
gene 1 9 29 1.07737 0 36 0 1
gene 1 10 29 -1.21812 0 37 0 1
gene 1 11 29 0.0145386 0 38 0 1
gene 1 12 29 -0.712121 0 39 0 1
gene 1 13 29 -0.0738859 0 40 0 1
gene 1 14 29 1.13755 0 41 0 1
gene 1 15 29 -1.00218 0 42 0 1
gene 1 16 29 1.14034 0 43 0 1
gene 1 17 29 0.0144642 0 44 0 1
gene 1 18 29 -1.28288 0 45 0 1
gene 1 19 29 -0.901767 0 46 0 1
gene 1 20 29 -1.01561 0 47 0 1
gene 1 21 29 -0.278846 0 48 0 1
gene 1 22 29 0.281853 0 49 0 1
gene 1 23 29 -0.541957 0 50 0 1
gene 1 24 29 -0.989285 0 51 0 1
gene 1 25 29 1.41118 0 52 0 1
gene 1 26 29 1.8168 0 53 0 1
gene 1 27 29 0.344632 0 54 0 1
gene 1 1 30 -2.76602 0 55 0 1
gene 1 2 30 0.457569 0 56 0 1
gene 1 3 30 1.65326 0 57 0 1
gene 1 4 30 -0.682447 0 58 0 1
gene 1 5 30 0.527144 0 59 0 1
gene 1 6 30 1.00057 0 60 0 1
gene 1 7 30 1.46628 0 61 0 1
gene 1 8 30 1.751 0 62 0 1
gene 1 9 30 -0.591042 0 63 0 1
gene 1 10 30 0.290874 0 64 0 1
gene 1 11 30 -2.02768 0 65 0 1
gene 1 12 30 -0.194217 0 66 0 1
gene 1 13 30 -1.17825 0 67 0 1
gene 1 14 30 -1.0419 0 68 0 1
gene 1 15 30 0.751715 0 69 0 1
gene 1 16 30 -1.6337 0 70 0 1
gene 1 17 30 -0.0740916 0 71 0 1
gene 1 18 30 -0.591001 0 72 0 1
gene 1 19 30 -1.00365 0 73 0 1
gene 1 20 30 0.987663 0 74 0 1
gene 1 21 30 -1.77291 0 75 0 1
gene 1 22 30 -0.523854 0 76 0 1
gene 1 23 30 0.469582 0 77 0 1
gene 1 24 30 0.168512 0 78 0 1
gene 1 25 30 1.46734 0 79 0 1
gene 1 26 30 -2.19541 0 80 0 1
gene 1 27 30 0.77652 0 81 0 1
genomeend 2
