genomestart 2
trait 1 0 0 0 0 0 0 0 0 
node 1 0 1 1
node 2 0 1 1
node 3 0 1 1
node 4 0 1 1
node 5 0 1 1
node 6 0 1 1
node 7 0 1 1
node 8 0 1 1
node 9 0 1 1
node 10 0 1 1
node 11 0 1 1
node 12 0 1 1
node 13 0 1 1
node 14 0 1 1
node 15 0 1 1
node 16 0 1 1
node 17 0 1 1
node 18 0 1 1
node 19 0 1 1
node 20 0 1 1
node 21 0 1 1
node 22 0 1 1
node 23 0 1 1
node 24 0 1 1
node 25 0 1 1
node 26 0 1 1
node 27 0 1 3
node 28 0 0 2
node 29 0 0 2
node 30 0 0 2
gene 1 1 28 -1.04643 0 1 0 1
gene 1 2 28 -0.420982 0 2 0 1
gene 1 3 28 1.14223 0 3 0 1
gene 1 4 28 0.481128 0 4 0 1
gene 1 5 28 -0.617349 0 5 0 1
gene 1 6 28 -0.746973 0 6 0 1
gene 1 7 28 -1.29446 0 7 0 1
gene 1 8 28 1.80973 0 8 0 1
gene 1 9 28 -3.10983 0 9 0 1
gene 1 10 28 -0.439684 0 10 0 1
gene 1 11 28 -0.00720161 0 11 0 1
gene 1 12 28 -0.478086 0 12 0 1
gene 1 13 28 0.115805 0 13 0 1
gene 1 14 28 3.72078 0 14 0 1
gene 1 15 28 0.232447 0 15 0 1
gene 1 16 28 1.97468 0 16 0 1
gene 1 17 28 0.265215 0 17 0 1
gene 1 18 28 0.226222 0 18 0 1
gene 1 19 28 -1.61634 0 19 0 1
gene 1 20 28 0.408268 0 20 0 1
gene 1 21 28 0.510078 0 21 0 1
gene 1 22 28 -1.20855 0 22 0 1
gene 1 23 28 -1.59057 0 23 0 1
gene 1 24 28 1.48548 0 24 0 1
gene 1 25 28 1.49337 0 25 0 1
gene 1 26 28 1.06689 0 26 0 1
gene 1 27 28 -1.70824 0 27 0 1
gene 1 1 29 0.209563 0 28 0 1
gene 1 2 29 0.535285 0 29 0 1
gene 1 3 29 -1.84266 0 30 0 1
gene 1 4 29 1.10109 0 31 0 1
gene 1 5 29 1.43791 0 32 0 1
gene 1 6 29 3.00106 0 33 0 1
gene 1 7 29 3.4791 0 34 0 1
gene 1 8 29 -2.66986 0 35 0 1
gene 1 9 29 1.1541 0 36 0 1
gene 1 10 29 -2.64997 0 37 0 1
gene 1 11 29 0.962191 0 38 0 1
gene 1 12 29 -1.82638 0 39 0 1
gene 1 13 29 0.139333 0 40 0 1
gene 1 14 29 2.02917 0 41 0 1
gene 1 15 29 0.438849 0 42 0 1
gene 1 16 29 2.46513 0 43 0 1
gene 1 17 29 0.844295 0 44 0 1
gene 1 18 29 -2.12236 0 45 0 1
gene 1 19 29 0.560675 0 46 0 1
gene 1 20 29 -0.359589 0 47 0 1
gene 1 21 29 1.83939 0 48 0 1
gene 1 22 29 0.323101 0 49 0 1
gene 1 23 29 -0.882551 0 50 0 1
gene 1 24 29 -2.24183 0 51 0 1
gene 1 25 29 1.81465 0 52 0 1
gene 1 26 29 2.2319 0 53 0 1
gene 1 27 29 2.60083 0 54 0 1
gene 1 1 30 -2.73074 0 55 0 1
gene 1 2 30 0.440764 0 56 0 1
gene 1 3 30 1.74973 0 57 0 1
gene 1 4 30 -1.66049 0 58 0 1
gene 1 5 30 -1.34431 0 59 0 1
gene 1 6 30 -0.234495 0 60 0 1
gene 1 7 30 2.92479 0 61 0 1
gene 1 8 30 1.54784 0 62 0 1
gene 1 9 30 -1.13534 0 63 0 1
gene 1 10 30 -0.300928 0 64 0 1
gene 1 11 30 -0.924963 0 65 0 1
gene 1 12 30 0.32878 0 66 0 1
gene 1 13 30 -0.0785801 0 67 0 1
gene 1 14 30 0.914326 0 68 0 1
gene 1 15 30 2.23064 0 69 0 1
gene 1 16 30 -1.07491 0 70 0 1
gene 1 17 30 1.79759 0 71 0 1
gene 1 18 30 -1.47218 0 72 0 1
gene 1 19 30 -1.40489 0 73 0 1
gene 1 20 30 -0.280424 0 74 0 1
gene 1 21 30 0.33523 0 75 0 1
gene 1 22 30 -0.145719 0 76 0 1
gene 1 23 30 0.26917 0 77 0 1
gene 1 24 30 2.37692 0 78 0 1
gene 1 25 30 0.319417 0 79 0 1
gene 1 26 30 -1.3447 0 80 0 1
gene 1 27 30 1.57403 0 81 0 1
genomeend 2
