genomestart 2
trait 1 0 0 0 0 0 0 0 0 
node 1 0 1 1
node 2 0 1 1
node 3 0 1 1
node 4 0 1 1
node 5 0 1 1
node 6 0 1 1
node 7 0 1 1
node 8 0 1 1
node 9 0 1 1
node 10 0 1 1
node 11 0 1 1
node 12 0 1 1
node 13 0 1 1
node 14 0 1 1
node 15 0 1 1
node 16 0 1 1
node 17 0 1 1
node 18 0 1 1
node 19 0 1 1
node 20 0 1 1
node 21 0 1 1
node 22 0 1 1
node 23 0 1 1
node 24 0 1 1
node 25 0 1 1
node 26 0 1 1
node 27 0 1 3
node 28 0 0 2
node 29 0 0 2
node 30 0 0 2
gene 1 1 28 -0.81101 0 1 0 1
gene 1 2 28 -1.50072 0 2 0 1
gene 1 3 28 0.860062 0 3 0 1
gene 1 4 28 0.839928 0 4 0 1
gene 1 5 28 -1.74482 0 5 0 1
gene 1 6 28 -0.176582 0 6 0 1
gene 1 7 28 -1.85911 0 7 0 1
gene 1 8 28 1.7626 0 8 0 1
gene 1 9 28 -2.30049 0 9 0 1
gene 1 10 28 -0.12735 0 10 0 1
gene 1 11 28 0.622418 0 11 0 1
gene 1 12 28 1.45199 0 12 0 1
gene 1 13 28 1.01761 0 13 0 1
gene 1 14 28 2.9707 0 14 0 1
gene 1 15 28 0.972208 0 15 0 1
gene 1 16 28 1.47549 0 16 0 1
gene 1 17 28 0.365194 0 17 0 1
gene 1 18 28 -1.13207 0 18 0 1
gene 1 19 28 -1.18513 0 19 0 1
gene 1 20 28 0.357891 0 20 0 1
gene 1 21 28 -0.279856 0 21 0 1
gene 1 22 28 -1.66357 0 22 0 1
gene 1 23 28 -0.841588 0 23 0 1
gene 1 24 28 0.548461 0 24 0 1
gene 1 25 28 2.14792 0 25 0 1
gene 1 26 28 0.580583 0 26 0 1
gene 1 27 28 -0.489824 0 27 0 1
gene 1 1 29 -0.00567785 0 28 0 1
gene 1 2 29 0.993326 0 29 0 1
gene 1 3 29 -1.34761 0 30 0 1
gene 1 4 29 1.72953 0 31 0 1
gene 1 5 29 1.28354 0 32 0 1
gene 1 6 29 1.87831 0 33 0 1
gene 1 7 29 2.55517 0 34 0 1
gene 1 8 29 -2.75955 0 35 0 1
gene 1 9 29 1.15917 0 36 0 1
gene 1 10 29 -1.10892 0 37 0 1
gene 1 11 29 1.1876 0 38 0 1
gene 1 12 29 -2.29675 0 39 0 1
gene 1 13 29 -0.489868 0 40 0 1
gene 1 14 29 0.634134 0 41 0 1
gene 1 15 29 -0.914166 0 42 0 1
gene 1 16 29 2.45576 0 43 0 1
gene 1 17 29 -1.43179 0 44 0 1
gene 1 18 29 -1.94986 0 45 0 1
gene 1 19 29 1.29829 0 46 0 1
gene 1 20 29 -2.10792 0 47 0 1
gene 1 21 29 0.439638 0 48 0 1
gene 1 22 29 -0.0716549 0 49 0 1
gene 1 23 29 1.08055 0 50 0 1
gene 1 24 29 -1.27706 0 51 0 1
gene 1 25 29 1.89201 0 52 0 1
gene 1 26 29 2.34944 0 53 0 1
gene 1 27 29 2.65924 0 54 0 1
gene 1 1 30 -0.995976 0 55 0 1
gene 1 2 30 1.80452 0 56 0 1
gene 1 3 30 0.893424 0 57 0 1
gene 1 4 30 -1.25709 0 58 0 1
gene 1 5 30 0.296477 0 59 0 1
gene 1 6 30 -0.273813 0 60 0 1
gene 1 7 30 2.00008 0 61 0 1
gene 1 8 30 1.21128 0 62 0 1
gene 1 9 30 -0.561176 0 63 0 1
gene 1 10 30 0.219049 0 64 0 1
gene 1 11 30 -1.4975 0 65 0 1
gene 1 12 30 1.20514 0 66 0 1
gene 1 13 30 -1.25076 0 67 0 1
gene 1 14 30 -0.0608345 0 68 0 1
gene 1 15 30 2.32552 0 69 0 1
gene 1 16 30 -0.526197 0 70 0 1
gene 1 17 30 1.31081 0 71 0 1
gene 1 18 30 -2.09344 0 72 0 1
gene 1 19 30 -0.798771 0 73 0 1
gene 1 20 30 0.050957 0 74 0 1
gene 1 21 30 -1.3331 0 75 0 1
gene 1 22 30 -0.811619 0 76 0 1
gene 1 23 30 2.48337 0 77 0 1
gene 1 24 30 2.92445 0 78 0 1
gene 1 25 30 1.26533 0 79 0 1
gene 1 26 30 -1.37964 0 80 0 1
gene 1 27 30 1.04484 0 81 0 1
genomeend 2
