genomestart 0
trait 1 0 0 0 0 0 0 0 0 
node 1 0 1 1
node 2 0 1 1
node 3 0 1 1
node 4 0 1 1
node 5 0 1 1
node 6 0 1 1
node 7 0 1 1
node 8 0 1 1
node 9 0 1 1
node 10 0 1 1
node 11 0 1 1
node 12 0 1 1
node 13 0 1 1
node 14 0 1 1
node 15 0 1 1
node 16 0 1 1
node 17 0 1 1
node 18 0 1 1
node 19 0 1 1
node 20 0 1 1
node 21 0 1 1
node 22 0 1 1
node 23 0 1 1
node 24 0 1 1
node 25 0 1 1
node 26 0 1 1
node 27 0 1 3
node 28 0 0 2
node 29 0 0 2
node 30 0 0 2
gene 1 1 28 0.726882 0 1 0 1
gene 1 2 28 0.263973 0 2 0 1
gene 1 3 28 -0.258005 0 3 0 1
gene 1 4 28 -0.250394 0 4 0 1
gene 1 5 28 -0.0247523 0 5 0 1
gene 1 6 28 0.799734 0 6 0 1
gene 1 7 28 -0.376681 0 7 0 1
gene 1 8 28 -0.475281 0 8 0 1
gene 1 9 28 -0.029196 0 9 0 1
gene 1 10 28 -0.373556 0 10 0 1
gene 1 11 28 -0.153986 0 11 0 1
gene 1 12 28 0.0843763 0 12 0 1
gene 1 13 28 -0.453263 0 13 0 1
gene 1 14 28 -0.120165 0 14 0 1
gene 1 15 28 -0.33976 0 15 0 1
gene 1 16 28 0.391743 0 16 0 1
gene 1 17 28 -0.0529281 0 17 0 1
gene 1 18 28 -0.485171 0 18 0 1
gene 1 19 28 0.0755343 0 19 0 1
gene 1 20 28 0.0725373 0 20 0 1
gene 1 21 28 0.12497 0 21 0 1
gene 1 22 28 -0.49296 0 22 0 1
gene 1 23 28 -0.337224 0 23 0 1
gene 1 24 28 0.150434 0 24 0 1
gene 1 25 28 0.435117 0 25 0 1
gene 1 26 28 0.348775 0 26 0 1
gene 1 27 28 -0.294289 0 27 0 1
gene 1 1 29 0.0969831 0 28 0 1
gene 1 2 29 0.0825386 0 29 0 1
gene 1 3 29 -0.268462 0 30 0 1
gene 1 4 29 0.0965499 0 31 0 1
gene 1 5 29 0.22565 0 32 0 1
gene 1 6 29 -0.103396 0 33 0 1
gene 1 7 29 0.0389881 0 34 0 1
gene 1 8 29 0.142194 0 35 0 1
gene 1 9 29 -0.4313 0 36 0 1
gene 1 10 29 -0.223731 0 37 0 1
gene 1 11 29 -0.0495526 0 38 0 1
gene 1 12 29 0.185804 0 39 0 1
gene 1 13 29 -0.0389816 0 40 0 1
gene 1 14 29 -0.266584 0 41 0 1
gene 1 15 29 -0.486699 0 42 0 1
gene 1 16 29 -0.111839 0 43 0 1
gene 1 17 29 0.18902 0 44 0 1
gene 1 18 29 -0.313126 0 45 0 1
gene 1 19 29 -0.256563 0 46 0 1
gene 1 20 29 -0.151508 0 47 0 1
gene 1 21 29 0.0941971 0 48 0 1
gene 1 22 29 0.0735296 0 49 0 1
gene 1 23 29 -0.21897 0 50 0 1
gene 1 24 29 -0.0325272 0 51 0 1
gene 1 25 29 -0.695482 0 52 0 1
gene 1 26 29 0.313416 0 53 0 1
gene 1 27 29 0.177791 0 54 0 1
gene 1 1 30 -0.104106 0 55 0 1
gene 1 2 30 0.317104 0 56 0 1
gene 1 3 30 0.257217 0 57 0 1
gene 1 4 30 -0.267965 0 58 0 1
gene 1 5 30 -0.043494 0 59 0 1
gene 1 6 30 0.436728 0 60 0 1
gene 1 7 30 0.603929 0 61 0 1
gene 1 8 30 -0.283575 0 62 0 1
gene 1 9 30 -0.0640569 0 63 0 1
gene 1 10 30 -0.130556 0 64 0 1
gene 1 11 30 0.0595186 0 65 0 1
gene 1 12 30 -0.254045 0 66 0 1
gene 1 13 30 -0.268299 0 67 0 1
gene 1 14 30 0.430281 0 68 0 1
gene 1 15 30 -0.0107371 0 69 0 1
gene 1 16 30 -0.430294 0 70 0 1
gene 1 17 30 0.150346 0 71 0 1
gene 1 18 30 -0.236567 0 72 0 1
gene 1 19 30 0.126988 0 73 0 1
gene 1 20 30 -0.199309 0 74 0 1
gene 1 21 30 -0.071096 0 75 0 1
gene 1 22 30 0.011397 0 76 0 1
gene 1 23 30 0.0283971 0 77 0 1
gene 1 24 30 0.111981 0 78 0 1
gene 1 25 30 0.348653 0 79 0 1
gene 1 26 30 -0.291472 0 80 0 1
gene 1 27 30 -0.0524702 0 81 0 1
genomeend 0
