genomestart 2
trait 1 0 0 0 0 0 0 0 0 
node 1 0 1 1
node 2 0 1 1
node 3 0 1 1
node 4 0 1 1
node 5 0 1 1
node 6 0 1 1
node 7 0 1 1
node 8 0 1 1
node 9 0 1 1
node 10 0 1 1
node 11 0 1 1
node 12 0 1 1
node 13 0 1 1
node 14 0 1 1
node 15 0 1 1
node 16 0 1 1
node 17 0 1 1
node 18 0 1 1
node 19 0 1 1
node 20 0 1 1
node 21 0 1 1
node 22 0 1 1
node 23 0 1 1
node 24 0 1 1
node 25 0 1 1
node 26 0 1 1
node 27 0 1 3
node 28 0 0 2
node 29 0 0 2
node 30 0 0 2
gene 1 1 28 -0.585898 0 1 0 1
gene 1 2 28 -1.34101 0 2 0 1
gene 1 3 28 0.360697 0 3 0 1
gene 1 4 28 0.477793 0 4 0 1
gene 1 5 28 -1.51398 0 5 0 1
gene 1 6 28 -0.583005 0 6 0 1
gene 1 7 28 -1.38659 0 7 0 1
gene 1 8 28 0.610769 0 8 0 1
gene 1 9 28 -0.0532368 0 9 0 1
gene 1 10 28 -0.589987 0 10 0 1
gene 1 11 28 0.83075 0 11 0 1
gene 1 12 28 1.3054 0 12 0 1
gene 1 13 28 -0.754028 0 13 0 1
gene 1 14 28 0.21025 0 14 0 1
gene 1 15 28 0.146315 0 15 0 1
gene 1 16 28 0.642897 0 16 0 1
gene 1 17 28 -0.0184962 0 17 0 1
gene 1 18 28 0.0409519 0 18 0 1
gene 1 19 28 -0.60362 0 19 0 1
gene 1 20 28 -0.471529 0 20 0 1
gene 1 21 28 0.547804 0 21 0 1
gene 1 22 28 -1.10994 0 22 0 1
gene 1 23 28 -0.958075 0 23 0 1
gene 1 24 28 -0.698004 0 24 0 1
gene 1 25 28 2.33358 0 25 0 1
gene 1 26 28 -1.01105 0 26 0 1
gene 1 27 28 -0.121592 0 27 0 1
gene 1 1 29 0.899767 0 28 0 1
gene 1 2 29 0.434549 0 29 0 1
gene 1 3 29 -0.564322 0 30 0 1
gene 1 4 29 0.233853 0 31 0 1
gene 1 5 29 -0.388718 0 32 0 1
gene 1 6 29 1.14764 0 33 0 1
gene 1 7 29 -0.150227 0 34 0 1
gene 1 8 29 1.08291 0 35 0 1
gene 1 9 29 -0.00638437 0 36 0 1
gene 1 10 29 -0.982174 0 37 0 1
gene 1 11 29 -0.937519 0 38 0 1
gene 1 12 29 0.0472965 0 39 0 1
gene 1 13 29 1.05804 0 40 0 1
gene 1 14 29 1.71896 0 41 0 1
gene 1 15 29 -1.65204 0 42 0 1
gene 1 16 29 1.47025 0 43 0 1
gene 1 17 29 0.962605 0 44 0 1
gene 1 18 29 0.872251 0 45 0 1
gene 1 19 29 1.15933 0 46 0 1
gene 1 20 29 -0.807127 0 47 0 1
gene 1 21 29 -1.26629 0 48 0 1
gene 1 22 29 -0.439744 0 49 0 1
gene 1 23 29 -1.60758 0 50 0 1
gene 1 24 29 0.456657 0 51 0 1
gene 1 25 29 0.327046 0 52 0 1
gene 1 26 29 -0.171569 0 53 0 1
gene 1 27 29 -0.995102 0 54 0 1
gene 1 1 30 -0.200186 0 55 0 1
gene 1 2 30 0.298499 0 56 0 1
gene 1 3 30 1.44739 0 57 0 1
gene 1 4 30 0.145277 0 58 0 1
gene 1 5 30 0.524002 0 59 0 1
gene 1 6 30 0.855441 0 60 0 1
gene 1 7 30 0.88712 0 61 0 1
gene 1 8 30 0.893488 0 62 0 1
gene 1 9 30 0.213979 0 63 0 1
gene 1 10 30 0.396254 0 64 0 1
gene 1 11 30 -0.825527 0 65 0 1
gene 1 12 30 -0.160741 0 66 0 1
gene 1 13 30 0.550325 0 67 0 1
gene 1 14 30 0.221165 0 68 0 1
gene 1 15 30 0.877858 0 69 0 1
gene 1 16 30 -1.08836 0 70 0 1
gene 1 17 30 -0.142912 0 71 0 1
gene 1 18 30 -0.914024 0 72 0 1
gene 1 19 30 0.385251 0 73 0 1
gene 1 20 30 0.159878 0 74 0 1
gene 1 21 30 -0.604813 0 75 0 1
gene 1 22 30 0.873191 0 76 0 1
gene 1 23 30 0.0154636 0 77 0 1
gene 1 24 30 0.403416 0 78 0 1
gene 1 25 30 0.617835 0 79 0 1
gene 1 26 30 -1.24171 0 80 0 1
gene 1 27 30 0.112238 0 81 0 1
genomeend 2
