genomestart 3
trait 1 0 0 0 0 0 0 0 0 
node 1 0 1 1
node 2 0 1 1
node 3 0 1 1
node 4 0 1 1
node 5 0 1 1
node 6 0 1 1
node 7 0 1 1
node 8 0 1 1
node 9 0 1 1
node 10 0 1 1
node 11 0 1 1
node 12 0 1 1
node 13 0 1 3
node 14 0 0 2
node 15 0 0 2
gene 1 1 14 1.80701 0 1 0 1
gene 1 2 14 -0.283593 0 2 0 1
gene 1 3 14 0.320154 0 3 0 1
gene 1 4 14 -0.49516 0 4 0 1
gene 1 5 14 2.90579 0 5 0 1
gene 1 6 14 -2.95884 0 6 0 1
gene 1 7 14 -5.88057 0 7 0 1
gene 1 8 14 0.120216 0 8 0 1
gene 1 9 14 -0.630167 0 9 0 1
gene 1 10 14 6.15215 0 10 0 1
gene 1 11 14 4.11754 0 11 0 1
gene 1 12 14 -3.83197 0 12 0 1
gene 1 13 14 -3.43244 0 13 0 1
gene 1 1 15 1.78745 0 14 0 1
gene 1 2 15 -6.57957 0 15 0 1
gene 1 3 15 -0.813943 0 16 0 1
gene 1 4 15 7.39371 0 17 0 1
gene 1 5 15 -3.30252 0 18 0 1
gene 1 6 15 0.757097 0 19 0 1
gene 1 7 15 -2.41444 0 20 0 1
gene 1 8 15 -0.386004 0 21 0 1
gene 1 9 15 -1.26455 0 22 0 1
gene 1 10 15 0.0864438 0 23 0 1
gene 1 11 15 4.83733 0 24 0 1
gene 1 12 15 -1.9123 0 25 0 1
gene 1 13 15 -1.80941 0 26 0 1
genomeend 3
