genomestart 2
trait 1 0 0 0 0 0 0 0 0 
node 1 0 1 1
node 2 0 1 1
node 3 0 1 1
node 4 0 1 1
node 5 0 1 1
node 6 0 1 1
node 7 0 1 1
node 8 0 1 1
node 9 0 1 1
node 10 0 1 1
node 11 0 1 1
node 12 0 1 1
node 13 0 1 1
node 14 0 1 1
node 15 0 1 1
node 16 0 1 1
node 17 0 1 1
node 18 0 1 1
node 19 0 1 1
node 20 0 1 1
node 21 0 1 1
node 22 0 1 1
node 23 0 1 1
node 24 0 1 1
node 25 0 1 1
node 26 0 1 1
node 27 0 1 3
node 28 0 0 2
node 29 0 0 2
node 30 0 0 2
gene 1 1 28 -0.475709 0 1 0 1
gene 1 2 28 -1.09688 0 2 0 1
gene 1 3 28 0.832874 0 3 0 1
gene 1 4 28 0.774014 0 4 0 1
gene 1 5 28 -1.60316 0 5 0 1
gene 1 6 28 -0.0681849 0 6 0 1
gene 1 7 28 -1.97283 0 7 0 1
gene 1 8 28 1.9864 0 8 0 1
gene 1 9 28 -2.38135 0 9 0 1
gene 1 10 28 -0.209762 0 10 0 1
gene 1 11 28 0.899458 0 11 0 1
gene 1 12 28 0.985435 0 12 0 1
gene 1 13 28 0.56511 0 13 0 1
gene 1 14 28 3.03374 0 14 0 1
gene 1 15 28 1.19906 0 15 0 1
gene 1 16 28 1.69798 0 16 0 1
gene 1 17 28 1.0035 0 17 0 1
gene 1 18 28 -1.06394 0 18 0 1
gene 1 19 28 -1.28217 0 19 0 1
gene 1 20 28 -0.103607 0 20 0 1
gene 1 21 28 0.0804764 0 21 0 1
gene 1 22 28 -1.38894 0 22 0 1
gene 1 23 28 -0.748138 0 23 0 1
gene 1 24 28 0.41156 0 24 0 1
gene 1 25 28 2.362 0 25 0 1
gene 1 26 28 0.437462 0 26 0 1
gene 1 27 28 -0.40366 0 27 0 1
gene 1 1 29 -0.224341 0 28 0 1
gene 1 2 29 0.69323 0 29 0 1
gene 1 3 29 -1.59442 0 30 0 1
gene 1 4 29 1.89311 0 31 0 1
gene 1 5 29 1.24405 0 32 0 1
gene 1 6 29 2.45797 0 33 0 1
gene 1 7 29 2.51689 0 34 0 1
gene 1 8 29 -2.47175 0 35 0 1
gene 1 9 29 0.746509 0 36 0 1
gene 1 10 29 -1.37371 0 37 0 1
gene 1 11 29 1.45822 0 38 0 1
gene 1 12 29 -2.48669 0 39 0 1
gene 1 13 29 -0.333395 0 40 0 1
gene 1 14 29 0.64659 0 41 0 1
gene 1 15 29 -1.13314 0 42 0 1
gene 1 16 29 2.7561 0 43 0 1
gene 1 17 29 -0.76393 0 44 0 1
gene 1 18 29 -1.82003 0 45 0 1
gene 1 19 29 0.809832 0 46 0 1
gene 1 20 29 -1.79001 0 47 0 1
gene 1 21 29 0.382301 0 48 0 1
gene 1 22 29 -0.181402 0 49 0 1
gene 1 23 29 1.28175 0 50 0 1
gene 1 24 29 -1.86092 0 51 0 1
gene 1 25 29 1.77201 0 52 0 1
gene 1 26 29 2.55169 0 53 0 1
gene 1 27 29 2.61404 0 54 0 1
gene 1 1 30 -0.899137 0 55 0 1
gene 1 2 30 1.75787 0 56 0 1
gene 1 3 30 1.17924 0 57 0 1
gene 1 4 30 -1.00486 0 58 0 1
gene 1 5 30 0.178498 0 59 0 1
gene 1 6 30 -0.458944 0 60 0 1
gene 1 7 30 2.13076 0 61 0 1
gene 1 8 30 1.50459 0 62 0 1
gene 1 9 30 -0.477167 0 63 0 1
gene 1 10 30 0.16281 0 64 0 1
gene 1 11 30 -1.43455 0 65 0 1
gene 1 12 30 0.760507 0 66 0 1
gene 1 13 30 -0.680057 0 67 0 1
gene 1 14 30 0.510358 0 68 0 1
gene 1 15 30 2.15009 0 69 0 1
gene 1 16 30 -0.937084 0 70 0 1
gene 1 17 30 1.14908 0 71 0 1
gene 1 18 30 -2.31974 0 72 0 1
gene 1 19 30 -0.678416 0 73 0 1
gene 1 20 30 -0.157708 0 74 0 1
gene 1 21 30 -1.25018 0 75 0 1
gene 1 22 30 -0.955256 0 76 0 1
gene 1 23 30 2.27034 0 77 0 1
gene 1 24 30 2.72212 0 78 0 1
gene 1 25 30 1.21375 0 79 0 1
gene 1 26 30 -1.29568 0 80 0 1
gene 1 27 30 0.943339 0 81 0 1
genomeend 2
