genomestart 2
trait 1 0 0 0 0 0 0 0 0 
node 1 0 1 1
node 2 0 1 1
node 3 0 1 1
node 4 0 1 1
node 5 0 1 1
node 6 0 1 1
node 7 0 1 1
node 8 0 1 1
node 9 0 1 1
node 10 0 1 1
node 11 0 1 1
node 12 0 1 1
node 13 0 1 1
node 14 0 1 1
node 15 0 1 1
node 16 0 1 1
node 17 0 1 1
node 18 0 1 1
node 19 0 1 1
node 20 0 1 1
node 21 0 1 1
node 22 0 1 1
node 23 0 1 1
node 24 0 1 1
node 25 0 1 1
node 26 0 1 1
node 27 0 1 3
node 28 0 0 2
node 29 0 0 2
node 30 0 0 2
gene 1 1 28 -0.302505 0 1 0 1
gene 1 2 28 -1.19729 0 2 0 1
gene 1 3 28 0.642079 0 3 0 1
gene 1 4 28 0.679177 0 4 0 1
gene 1 5 28 -3.1015 0 5 0 1
gene 1 6 28 -0.147797 0 6 0 1
gene 1 7 28 -0.142975 0 7 0 1
gene 1 8 28 -0.203517 0 8 0 1
gene 1 9 28 -2.73258 0 9 0 1
gene 1 10 28 0.715477 0 10 0 1
gene 1 11 28 0.89258 0 11 0 1
gene 1 12 28 0.283165 0 12 0 1
gene 1 13 28 -1.56878 0 13 0 1
gene 1 14 28 3.365 0 14 0 1
gene 1 15 28 0.285115 0 15 0 1
gene 1 16 28 -0.249532 0 16 0 1
gene 1 17 28 0.239501 0 17 0 1
gene 1 18 28 -0.234144 0 18 0 1
gene 1 19 28 -1.53231 0 19 0 1
gene 1 20 28 -0.625897 0 20 0 1
gene 1 21 28 0.658253 0 21 0 1
gene 1 22 28 0.153484 0 22 0 1
gene 1 23 28 -2.02257 0 23 0 1
gene 1 24 28 2.51347 0 24 0 1
gene 1 25 28 2.11686 0 25 0 1
gene 1 26 28 0.417673 0 26 0 1
gene 1 27 28 -2.76268 0 27 0 1
gene 1 1 29 0.570075 0 28 0 1
gene 1 2 29 0.863991 0 29 0 1
gene 1 3 29 -1.10639 0 30 0 1
gene 1 4 29 0.939523 0 31 0 1
gene 1 5 29 0.203049 0 32 0 1
gene 1 6 29 2.84126 0 33 0 1
gene 1 7 29 3.72599 0 34 0 1
gene 1 8 29 -2.06797 0 35 0 1
gene 1 9 29 1.91724 0 36 0 1
gene 1 10 29 -1.32023 0 37 0 1
gene 1 11 29 2.49446 0 38 0 1
gene 1 12 29 -0.187094 0 39 0 1
gene 1 13 29 1.35254 0 40 0 1
gene 1 14 29 1.67678 0 41 0 1
gene 1 15 29 1.59996 0 42 0 1
gene 1 16 29 1.77132 0 43 0 1
gene 1 17 29 2.32442 0 44 0 1
gene 1 18 29 -2.49185 0 45 0 1
gene 1 19 29 0.482158 0 46 0 1
gene 1 20 29 -2.15463 0 47 0 1
gene 1 21 29 2.10295 0 48 0 1
gene 1 22 29 -0.577118 0 49 0 1
gene 1 23 29 -2.19072 0 50 0 1
gene 1 24 29 -3.67419 0 51 0 1
gene 1 25 29 1.44408 0 52 0 1
gene 1 26 29 2.64558 0 53 0 1
gene 1 27 29 2.84934 0 54 0 1
gene 1 1 30 -2.16042 0 55 0 1
gene 1 2 30 -0.405581 0 56 0 1
gene 1 3 30 2.90131 0 57 0 1
gene 1 4 30 -2.69677 0 58 0 1
gene 1 5 30 -0.311748 0 59 0 1
gene 1 6 30 0.918414 0 60 0 1
gene 1 7 30 4.12387 0 61 0 1
gene 1 8 30 1.15672 0 62 0 1
gene 1 9 30 -1.88192 0 63 0 1
gene 1 10 30 0.594144 0 64 0 1
gene 1 11 30 -1.80978 0 65 0 1
gene 1 12 30 0.182975 0 66 0 1
gene 1 13 30 0.29722 0 67 0 1
gene 1 14 30 1.41366 0 68 0 1
gene 1 15 30 2.45772 0 69 0 1
gene 1 16 30 -2.39536 0 70 0 1
gene 1 17 30 1.90303 0 71 0 1
gene 1 18 30 -2.5429 0 72 0 1
gene 1 19 30 -0.833211 0 73 0 1
gene 1 20 30 -2.10456 0 74 0 1
gene 1 21 30 0.266487 0 75 0 1
gene 1 22 30 0.109037 0 76 0 1
gene 1 23 30 -0.543984 0 77 0 1
gene 1 24 30 1.98856 0 78 0 1
gene 1 25 30 0.843762 0 79 0 1
gene 1 26 30 -0.348404 0 80 0 1
gene 1 27 30 2.00673 0 81 0 1
genomeend 2
