genomestart 2
trait 1 0 0 0 0 0 0 0 0 
node 1 0 1 1
node 2 0 1 1
node 3 0 1 1
node 4 0 1 1
node 5 0 1 1
node 6 0 1 1
node 7 0 1 1
node 8 0 1 1
node 9 0 1 1
node 10 0 1 1
node 11 0 1 1
node 12 0 1 1
node 13 0 1 1
node 14 0 1 1
node 15 0 1 1
node 16 0 1 1
node 17 0 1 1
node 18 0 1 1
node 19 0 1 1
node 20 0 1 1
node 21 0 1 1
node 22 0 1 1
node 23 0 1 1
node 24 0 1 1
node 25 0 1 1
node 26 0 1 1
node 27 0 1 3
node 28 0 0 2
node 29 0 0 2
node 30 0 0 2
gene 1 1 28 -1.17427 0 1 0 1
gene 1 2 28 -1.84014 0 2 0 1
gene 1 3 28 1.80015 0 3 0 1
gene 1 4 28 0.787773 0 4 0 1
gene 1 5 28 -1.50665 0 5 0 1
gene 1 6 28 -0.415576 0 6 0 1
gene 1 7 28 -1.69283 0 7 0 1
gene 1 8 28 1.14042 0 8 0 1
gene 1 9 28 -1.89928 0 9 0 1
gene 1 10 28 -0.325005 0 10 0 1
gene 1 11 28 0.525258 0 11 0 1
gene 1 12 28 0.0955316 0 12 0 1
gene 1 13 28 -0.0866065 0 13 0 1
gene 1 14 28 2.40517 0 14 0 1
gene 1 15 28 0.32475 0 15 0 1
gene 1 16 28 1.89922 0 16 0 1
gene 1 17 28 1.25552 0 17 0 1
gene 1 18 28 0.132246 0 18 0 1
gene 1 19 28 -0.115039 0 19 0 1
gene 1 20 28 -0.465876 0 20 0 1
gene 1 21 28 0.514319 0 21 0 1
gene 1 22 28 -1.67649 0 22 0 1
gene 1 23 28 -1.57739 0 23 0 1
gene 1 24 28 0.138779 0 24 0 1
gene 1 25 28 3.07169 0 25 0 1
gene 1 26 28 0.672733 0 26 0 1
gene 1 27 28 -0.443453 0 27 0 1
gene 1 1 29 -0.711408 0 28 0 1
gene 1 2 29 0.420172 0 29 0 1
gene 1 3 29 -0.377087 0 30 0 1
gene 1 4 29 0.987648 0 31 0 1
gene 1 5 29 1.13684 0 32 0 1
gene 1 6 29 1.78759 0 33 0 1
gene 1 7 29 0.950231 0 34 0 1
gene 1 8 29 -1.19491 0 35 0 1
gene 1 9 29 0.606669 0 36 0 1
gene 1 10 29 -1.42942 0 37 0 1
gene 1 11 29 -0.186038 0 38 0 1
gene 1 12 29 -0.885417 0 39 0 1
gene 1 13 29 -0.171423 0 40 0 1
gene 1 14 29 1.21502 0 41 0 1
gene 1 15 29 -0.857274 0 42 0 1
gene 1 16 29 1.52935 0 43 0 1
gene 1 17 29 0.0553908 0 44 0 1
gene 1 18 29 -1.37926 0 45 0 1
gene 1 19 29 -0.695343 0 46 0 1
gene 1 20 29 -1.14361 0 47 0 1
gene 1 21 29 0.528592 0 48 0 1
gene 1 22 29 0.188109 0 49 0 1
gene 1 23 29 -0.129465 0 50 0 1
gene 1 24 29 -1.05122 0 51 0 1
gene 1 25 29 1.47292 0 52 0 1
gene 1 26 29 1.94169 0 53 0 1
gene 1 27 29 0.807015 0 54 0 1
gene 1 1 30 -1.97567 0 55 0 1
gene 1 2 30 0.402745 0 56 0 1
gene 1 3 30 2.04333 0 57 0 1
gene 1 4 30 -1.25906 0 58 0 1
gene 1 5 30 -0.341566 0 59 0 1
gene 1 6 30 0.814113 0 60 0 1
gene 1 7 30 1.36775 0 61 0 1
gene 1 8 30 1.66157 0 62 0 1
gene 1 9 30 -0.456209 0 63 0 1
gene 1 10 30 0.798672 0 64 0 1
gene 1 11 30 -2.35679 0 65 0 1
gene 1 12 30 0.262568 0 66 0 1
gene 1 13 30 -0.948937 0 67 0 1
gene 1 14 30 -0.104764 0 68 0 1
gene 1 15 30 1.34645 0 69 0 1
gene 1 16 30 -1.79314 0 70 0 1
gene 1 17 30 0.0206909 0 71 0 1
gene 1 18 30 -1.45339 0 72 0 1
gene 1 19 30 -1.00686 0 73 0 1
gene 1 20 30 0.975359 0 74 0 1
gene 1 21 30 -1.31841 0 75 0 1
gene 1 22 30 -1.11112 0 76 0 1
gene 1 23 30 0.343084 0 77 0 1
gene 1 24 30 0.875368 0 78 0 1
gene 1 25 30 1.28707 0 79 0 1
gene 1 26 30 -1.91038 0 80 0 1
gene 1 27 30 1.27479 0 81 0 1
genomeend 2
