genomestart 0
trait 1 0 0 0 0 0 0 0 0 
node 1 0 1 1
node 2 0 1 1
node 3 0 1 1
node 4 0 1 1
node 5 0 1 1
node 6 0 1 1
node 7 0 1 1
node 8 0 1 1
node 9 0 1 1
node 10 0 1 1
node 11 0 1 1
node 12 0 1 1
node 13 0 1 1
node 14 0 1 1
node 15 0 1 1
node 16 0 1 1
node 17 0 1 1
node 18 0 1 1
node 19 0 1 1
node 20 0 1 1
node 21 0 1 1
node 22 0 1 1
node 23 0 1 1
node 24 0 1 1
node 25 0 1 3
node 26 0 0 2
node 27 0 0 2
node 28 1 0 0
node 29 1 0 0
node 30 1 0 0
gene 1 1 26 -0.44181 0 1 -0.44181 1
gene 1 2 26 0.240204 0 2 0.240204 1
gene 1 3 26 -0.198613 0 3 -0.198613 1
gene 1 4 26 -0.310735 0 4 -0.310735 1
gene 1 5 26 -0.397366 0 5 -0.397366 1
gene 1 6 26 -0.797877 0 6 -0.797877 1
gene 1 7 26 0.684116 0 7 0.684116 1
gene 1 8 26 -0.73753 0 8 -0.73753 1
gene 1 9 26 0.084257 0 9 0.084257 1
gene 1 10 26 -0.947873 0 10 -0.947873 1
gene 1 11 26 0.0897856 0 11 0.0897856 0
gene 1 12 26 0.326655 0 12 0.326655 1
gene 1 13 26 0.781982 0 13 0.781982 1
gene 1 14 26 0.509479 0 14 0.509479 1
gene 1 15 26 -0.711016 0 15 -0.711016 1
gene 1 16 26 0.544846 0 16 0.544846 1
gene 1 17 26 0.753147 0 17 0.753147 1
gene 1 18 26 -0.123265 0 18 -0.123265 1
gene 1 19 26 -0.198771 0 19 -0.198771 1
gene 1 20 26 0.886774 0 20 0.886774 1
gene 1 21 26 0.443745 0 21 0.443745 1
gene 1 22 26 0.595816 0 22 0.595816 1
gene 1 23 26 -0.223509 0 23 -0.223509 1
gene 1 24 26 -0.670763 0 24 -0.670763 1
gene 1 25 26 -0.0458457 0 25 -0.0458457 1
gene 1 1 27 0.520004 0 26 0.520004 1
gene 1 2 27 -0.01669 0 27 -0.01669 1
gene 1 3 27 -0.584559 0 28 -0.584559 1
gene 1 4 27 -0.176723 0 29 -0.176723 1
gene 1 5 27 -0.284207 0 30 -0.284207 1
gene 1 6 27 0.725 0 31 0.725 1
gene 1 7 27 0.91566 0 32 0.91566 1
gene 1 8 27 0.268498 0 33 0.268498 1
gene 1 9 27 -0.395413 0 34 -0.395413 0
gene 1 10 27 -0.984606 0 35 -0.984606 1
gene 1 11 27 -0.894439 0 36 -0.894439 1
gene 1 12 27 0.441274 0 37 0.441274 1
gene 1 13 27 -0.481161 0 38 -0.481161 1
gene 1 14 27 -0.469122 0 39 -0.469122 1
gene 1 15 27 0.519837 0 40 0.519837 1
gene 1 16 27 0.558042 0 41 0.558042 1
gene 1 17 27 -0.790776 0 42 -0.790776 1
gene 1 18 27 0.0147514 0 43 0.0147514 1
gene 1 19 27 -0.381034 0 44 -0.381034 1
gene 1 20 27 0.444165 0 45 0.444165 1
gene 1 21 27 -0.893747 0 46 -0.893747 1
gene 1 22 27 0.278364 0 47 0.278364 1
gene 1 23 27 0.549119 0 48 0.549119 1
gene 1 24 27 -0.877686 0 49 -0.877686 1
gene 1 10 28 1 0 50 0 1
gene 1 25 27 -0.96809 0 50 -0.96809 1
gene 1 28 26 -0.947873 0 51 0 1
gene 1 9 29 1 0 52 0 1
gene 1 29 27 -0.395413 0 53 0 1
gene 1 11 30 1 0 54 0 1
gene 1 30 26 0.0897856 0 55 0 1
genomeend 0
