genomestart 3
trait 1 0 0 0 0 0 0 0 0 
node 1 0 1 1
node 2 0 1 1
node 3 0 1 1
node 4 0 1 1
node 5 0 1 1
node 6 0 1 1
node 7 0 1 1
node 8 0 1 1
node 9 0 1 1
node 10 0 1 1
node 11 0 1 1
node 12 0 1 1
node 13 0 1 3
node 14 0 0 2
node 15 0 0 2
gene 1 1 14 1.56343 0 1 0 1
gene 1 2 14 -4.4854 0 2 0 1
gene 1 3 14 -0.363339 0 3 0 1
gene 1 4 14 -3.1839 0 4 0 1
gene 1 5 14 -0.280932 0 5 0 1
gene 1 6 14 -4.40932 0 6 0 1
gene 1 7 14 -4.50499 0 7 0 1
gene 1 8 14 -1.75136 0 8 0 1
gene 1 9 14 -1.67203 0 9 0 1
gene 1 10 14 5.56202 0 10 0 1
gene 1 11 14 2.18237 0 11 0 1
gene 1 12 14 -4.05748 0 12 0 1
gene 1 13 14 -4.96302 0 13 0 1
gene 1 1 15 4.26903 0 14 0 1
gene 1 2 15 -4.46046 0 15 0 1
gene 1 3 15 0.192798 0 16 0 1
gene 1 4 15 7.09467 0 17 0 1
gene 1 5 15 -2.15133 0 18 0 1
gene 1 6 15 0.0663737 0 19 0 1
gene 1 7 15 -2.00771 0 20 0 1
gene 1 8 15 3.9591 0 21 0 1
gene 1 9 15 -1.62043 0 22 0 1
gene 1 10 15 1.84324 0 23 0 1
gene 1 11 15 4.46871 0 24 0 1
gene 1 12 15 -2.67972 0 25 0 1
gene 1 13 15 -2.55734 0 26 0 1
genomeend 3
