genomestart 2
trait 1 0 0 0 0 0 0 0 0 
node 1 0 1 1
node 2 0 1 1
node 3 0 1 1
node 4 0 1 1
node 5 0 1 1
node 6 0 1 1
node 7 0 1 1
node 8 0 1 1
node 9 0 1 1
node 10 0 1 1
node 11 0 1 1
node 12 0 1 1
node 13 0 1 1
node 14 0 1 1
node 15 0 1 1
node 16 0 1 1
node 17 0 1 1
node 18 0 1 1
node 19 0 1 1
node 20 0 1 1
node 21 0 1 1
node 22 0 1 1
node 23 0 1 1
node 24 0 1 1
node 25 0 1 1
node 26 0 1 1
node 27 0 1 3
node 28 0 0 2
node 29 0 0 2
node 30 0 0 2
gene 1 1 28 -0.249524 0 1 0 1
gene 1 2 28 -0.997646 0 2 0 1
gene 1 3 28 0.860709 0 3 0 1
gene 1 4 28 0.755289 0 4 0 1
gene 1 5 28 -1.64907 0 5 0 1
gene 1 6 28 -1.54828 0 6 0 1
gene 1 7 28 -1.44158 0 7 0 1
gene 1 8 28 1.15892 0 8 0 1
gene 1 9 28 -3.73095 0 9 0 1
gene 1 10 28 -0.371708 0 10 0 1
gene 1 11 28 0.392088 0 11 0 1
gene 1 12 28 0.0434796 0 12 0 1
gene 1 13 28 -0.154788 0 13 0 1
gene 1 14 28 3.59491 0 14 0 1
gene 1 15 28 0.457445 0 15 0 1
gene 1 16 28 2.00109 0 16 0 1
gene 1 17 28 -0.212192 0 17 0 1
gene 1 18 28 -0.162748 0 18 0 1
gene 1 19 28 -2.59654 0 19 0 1
gene 1 20 28 0.278829 0 20 0 1
gene 1 21 28 0.398981 0 21 0 1
gene 1 22 28 -0.988327 0 22 0 1
gene 1 23 28 -0.704174 0 23 0 1
gene 1 24 28 1.44168 0 24 0 1
gene 1 25 28 1.89376 0 25 0 1
gene 1 26 28 0.618768 0 26 0 1
gene 1 27 28 -1.84219 0 27 0 1
gene 1 1 29 0.181371 0 28 0 1
gene 1 2 29 1.51715 0 29 0 1
gene 1 3 29 -2.15358 0 30 0 1
gene 1 4 29 1.71769 0 31 0 1
gene 1 5 29 0.776222 0 32 0 1
gene 1 6 29 3.00685 0 33 0 1
gene 1 7 29 3.22479 0 34 0 1
gene 1 8 29 -3.04508 0 35 0 1
gene 1 9 29 0.911937 0 36 0 1
gene 1 10 29 -1.61768 0 37 0 1
gene 1 11 29 2.01123 0 38 0 1
gene 1 12 29 -1.16307 0 39 0 1
gene 1 13 29 0.0661535 0 40 0 1
gene 1 14 29 1.39728 0 41 0 1
gene 1 15 29 0.957718 0 42 0 1
gene 1 16 29 2.40346 0 43 0 1
gene 1 17 29 1.03301 0 44 0 1
gene 1 18 29 -2.77168 0 45 0 1
gene 1 19 29 0.429979 0 46 0 1
gene 1 20 29 -0.729979 0 47 0 1
gene 1 21 29 1.45469 0 48 0 1
gene 1 22 29 0.569089 0 49 0 1
gene 1 23 29 -1.10342 0 50 0 1
gene 1 24 29 -3.60408 0 51 0 1
gene 1 25 29 2.09707 0 52 0 1
gene 1 26 29 2.50256 0 53 0 1
gene 1 27 29 2.72151 0 54 0 1
gene 1 1 30 -2.35964 0 55 0 1
gene 1 2 30 0.416076 0 56 0 1
gene 1 3 30 1.92733 0 57 0 1
gene 1 4 30 -1.71415 0 58 0 1
gene 1 5 30 -1.39573 0 59 0 1
gene 1 6 30 0.145239 0 60 0 1
gene 1 7 30 3.6525 0 61 0 1
gene 1 8 30 1.0318 0 62 0 1
gene 1 9 30 -1.7216 0 63 0 1
gene 1 10 30 0.402256 0 64 0 1
gene 1 11 30 -0.26517 0 65 0 1
gene 1 12 30 0.32609 0 66 0 1
gene 1 13 30 -0.712755 0 67 0 1
gene 1 14 30 0.955274 0 68 0 1
gene 1 15 30 2.71137 0 69 0 1
gene 1 16 30 -1.16659 0 70 0 1
gene 1 17 30 2.03716 0 71 0 1
gene 1 18 30 -1.31247 0 72 0 1
gene 1 19 30 -1.60206 0 73 0 1
gene 1 20 30 -1.50284 0 74 0 1
gene 1 21 30 0.344168 0 75 0 1
gene 1 22 30 -0.121544 0 76 0 1
gene 1 23 30 1.01102 0 77 0 1
gene 1 24 30 2.00881 0 78 0 1
gene 1 25 30 1.01716 0 79 0 1
gene 1 26 30 -1.51844 0 80 0 1
gene 1 27 30 1.06033 0 81 0 1
genomeend 2
