genomestart 3
trait 1 0 0 0 0 0 0 0 0 
node 1 0 1 1
node 2 0 1 1
node 3 0 1 1
node 4 0 1 1
node 5 0 1 1
node 6 0 1 1
node 7 0 1 1
node 8 0 1 1
node 9 0 1 1
node 10 0 1 1
node 11 0 1 1
node 12 0 1 1
node 13 0 1 3
node 14 0 0 2
node 15 0 0 2
gene 1 1 14 2.55515 0 1 0 1
gene 1 2 14 1.88333 0 2 0 1
gene 1 3 14 -3.4528 0 3 0 1
gene 1 4 14 -5.61595 0 4 0 1
gene 1 5 14 -0.676639 0 5 0 1
gene 1 6 14 -5.61743 0 6 0 1
gene 1 7 14 -6.07198 0 7 0 1
gene 1 8 14 -1.8027 0 8 0 1
gene 1 9 14 3.49757 0 9 0 1
gene 1 10 14 9.96648 0 10 0 1
gene 1 11 14 5.06143 0 11 0 1
gene 1 12 14 -7.4271 0 12 0 1
gene 1 13 14 -4.83629 0 13 0 1
gene 1 1 15 -1.62422 0 14 0 1
gene 1 2 15 -8.26627 0 15 0 1
gene 1 3 15 -4.17082 0 16 0 1
gene 1 4 15 9.60995 0 17 0 1
gene 1 5 15 -1.84124 0 18 0 1
gene 1 6 15 -0.143892 0 19 0 1
gene 1 7 15 -8.04079 0 20 0 1
gene 1 8 15 2.46743 0 21 0 1
gene 1 9 15 -2.36493 0 22 0 1
gene 1 10 15 3.91337 0 23 0 1
gene 1 11 15 1.31594 0 24 0 1
gene 1 12 15 -4.08976 0 25 0 1
gene 1 13 15 -2.11916 0 26 0 1
genomeend 3
