genomestart 2
trait 1 0 0 0 0 0 0 0 0 
node 1 0 1 1
node 2 0 1 1
node 3 0 1 1
node 4 0 1 1
node 5 0 1 1
node 6 0 1 1
node 7 0 1 1
node 8 0 1 1
node 9 0 1 1
node 10 0 1 1
node 11 0 1 1
node 12 0 1 1
node 13 0 1 1
node 14 0 1 1
node 15 0 1 1
node 16 0 1 1
node 17 0 1 1
node 18 0 1 1
node 19 0 1 1
node 20 0 1 1
node 21 0 1 1
node 22 0 1 1
node 23 0 1 1
node 24 0 1 1
node 25 0 1 1
node 26 0 1 1
node 27 0 1 3
node 28 0 0 2
node 29 0 0 2
node 30 0 0 2
gene 1 1 28 -0.779441 0 1 0 1
gene 1 2 28 -1.3119 0 2 0 1
gene 1 3 28 0.819181 0 3 0 1
gene 1 4 28 0.866588 0 4 0 1
gene 1 5 28 -1.21255 0 5 0 1
gene 1 6 28 -0.0570843 0 6 0 1
gene 1 7 28 -2.01386 0 7 0 1
gene 1 8 28 0.710002 0 8 0 1
gene 1 9 28 -2.29139 0 9 0 1
gene 1 10 28 -0.0645368 0 10 0 1
gene 1 11 28 0.648398 0 11 0 1
gene 1 12 28 -0.0622978 0 12 0 1
gene 1 13 28 -0.163607 0 13 0 1
gene 1 14 28 3.1555 0 14 0 1
gene 1 15 28 1.02795 0 15 0 1
gene 1 16 28 1.75641 0 16 0 1
gene 1 17 28 1.32024 0 17 0 1
gene 1 18 28 -0.417766 0 18 0 1
gene 1 19 28 -1.10187 0 19 0 1
gene 1 20 28 0.207365 0 20 0 1
gene 1 21 28 0.93357 0 21 0 1
gene 1 22 28 -1.1356 0 22 0 1
gene 1 23 28 -1.4855 0 23 0 1
gene 1 24 28 0.253387 0 24 0 1
gene 1 25 28 2.47117 0 25 0 1
gene 1 26 28 0.864767 0 26 0 1
gene 1 27 28 -1.0879 0 27 0 1
gene 1 1 29 -0.266524 0 28 0 1
gene 1 2 29 0.907827 0 29 0 1
gene 1 3 29 -1.02616 0 30 0 1
gene 1 4 29 1.5046 0 31 0 1
gene 1 5 29 1.46288 0 32 0 1
gene 1 6 29 1.95548 0 33 0 1
gene 1 7 29 2.23018 0 34 0 1
gene 1 8 29 -1.73113 0 35 0 1
gene 1 9 29 1.02767 0 36 0 1
gene 1 10 29 -1.63086 0 37 0 1
gene 1 11 29 0.861096 0 38 0 1
gene 1 12 29 -1.72305 0 39 0 1
gene 1 13 29 -0.363206 0 40 0 1
gene 1 14 29 0.897212 0 41 0 1
gene 1 15 29 -0.615266 0 42 0 1
gene 1 16 29 2.58542 0 43 0 1
gene 1 17 29 0.0696605 0 44 0 1
gene 1 18 29 -1.80136 0 45 0 1
gene 1 19 29 0.43541 0 46 0 1
gene 1 20 29 -1.14075 0 47 0 1
gene 1 21 29 0.75932 0 48 0 1
gene 1 22 29 -0.307458 0 49 0 1
gene 1 23 29 0.257839 0 50 0 1
gene 1 24 29 -1.92734 0 51 0 1
gene 1 25 29 1.49239 0 52 0 1
gene 1 26 29 1.92051 0 53 0 1
gene 1 27 29 1.86213 0 54 0 1
gene 1 1 30 -1.68224 0 55 0 1
gene 1 2 30 1.11671 0 56 0 1
gene 1 3 30 1.51406 0 57 0 1
gene 1 4 30 -1.69948 0 58 0 1
gene 1 5 30 -0.497279 0 59 0 1
gene 1 6 30 0.063393 0 60 0 1
gene 1 7 30 2.21878 0 61 0 1
gene 1 8 30 2.22228 0 62 0 1
gene 1 9 30 -0.907665 0 63 0 1
gene 1 10 30 0.523264 0 64 0 1
gene 1 11 30 -1.57249 0 65 0 1
gene 1 12 30 0.243908 0 66 0 1
gene 1 13 30 -1.39526 0 67 0 1
gene 1 14 30 0.519703 0 68 0 1
gene 1 15 30 2.34793 0 69 0 1
gene 1 16 30 -1.04434 0 70 0 1
gene 1 17 30 1.07221 0 71 0 1
gene 1 18 30 -2.36713 0 72 0 1
gene 1 19 30 -0.314303 0 73 0 1
gene 1 20 30 0.681376 0 74 0 1
gene 1 21 30 -0.617393 0 75 0 1
gene 1 22 30 -0.430459 0 76 0 1
gene 1 23 30 1.14738 0 77 0 1
gene 1 24 30 1.69963 0 78 0 1
gene 1 25 30 0.993577 0 79 0 1
gene 1 26 30 -1.56097 0 80 0 1
gene 1 27 30 0.661162 0 81 0 1
genomeend 2
