genomestart 3
trait 1 0 0 0 0 0 0 0 0 
node 1 0 1 1
node 2 0 1 1
node 3 0 1 1
node 4 0 1 1
node 5 0 1 1
node 6 0 1 1
node 7 0 1 1
node 8 0 1 1
node 9 0 1 1
node 10 0 1 1
node 11 0 1 1
node 12 0 1 1
node 13 0 1 3
node 14 0 0 2
node 15 0 0 2
gene 1 1 14 0.566632 0 1 0 1
gene 1 2 14 -3.83756 0 2 0 1
gene 1 3 14 0.170341 0 3 0 1
gene 1 4 14 -2.9194 0 4 0 1
gene 1 5 14 -0.624927 0 5 0 1
gene 1 6 14 -4.71461 0 6 0 1
gene 1 7 14 -6.79824 0 7 0 1
gene 1 8 14 -1.63457 0 8 0 1
gene 1 9 14 -1.39932 0 9 0 1
gene 1 10 14 5.85307 0 10 0 1
gene 1 11 14 2.65519 0 11 0 1
gene 1 12 14 -3.04223 0 12 0 1
gene 1 13 14 -4.64435 0 13 0 1
gene 1 1 15 4.31581 0 14 0 1
gene 1 2 15 -5.00957 0 15 0 1
gene 1 3 15 -0.120101 0 16 0 1
gene 1 4 15 5.96322 0 17 0 1
gene 1 5 15 -1.39706 0 18 0 1
gene 1 6 15 0.368136 0 19 0 1
gene 1 7 15 -0.674998 0 20 0 1
gene 1 8 15 2.34129 0 21 0 1
gene 1 9 15 -3.11277 0 22 0 1
gene 1 10 15 1.57603 0 23 0 1
gene 1 11 15 4.06289 0 24 0 1
gene 1 12 15 -2.05623 0 25 0 1
gene 1 13 15 -2.81845 0 26 0 1
genomeend 3
