genomestart 3
trait 1 0 0 0 0 0 0 0 0 
node 1 0 1 1
node 2 0 1 1
node 3 0 1 1
node 4 0 1 1
node 5 0 1 1
node 6 0 1 1
node 7 0 1 1
node 8 0 1 1
node 9 0 1 1
node 10 0 1 1
node 11 0 1 1
node 12 0 1 1
node 13 0 1 3
node 14 0 0 2
node 15 0 0 2
gene 1 1 14 2.3601 0 1 0 1
gene 1 2 14 -0.372497 0 2 0 1
gene 1 3 14 -0.845571 0 3 0 1
gene 1 4 14 -0.439947 0 4 0 1
gene 1 5 14 1.9393 0 5 0 1
gene 1 6 14 -3.40818 0 6 0 1
gene 1 7 14 -5.78206 0 7 0 1
gene 1 8 14 -0.68132 0 8 0 1
gene 1 9 14 -0.368588 0 9 0 1
gene 1 10 14 6.40419 0 10 0 1
gene 1 11 14 4.01181 0 11 0 1
gene 1 12 14 -3.47644 0 12 0 1
gene 1 13 14 -3.94561 0 13 0 1
gene 1 1 15 1.40876 0 14 0 1
gene 1 2 15 -6.74689 0 15 0 1
gene 1 3 15 -1.07439 0 16 0 1
gene 1 4 15 7.07803 0 17 0 1
gene 1 5 15 -3.97297 0 18 0 1
gene 1 6 15 0.583254 0 19 0 1
gene 1 7 15 -2.68415 0 20 0 1
gene 1 8 15 0.22493 0 21 0 1
gene 1 9 15 -0.854834 0 22 0 1
gene 1 10 15 0.128121 0 23 0 1
gene 1 11 15 4.33209 0 24 0 1
gene 1 12 15 -2.21611 0 25 0 1
gene 1 13 15 -1.70208 0 26 0 1
genomeend 3
