genomestart 3
trait 1 0 0 0 0 0 0 0 0 
node 1 0 1 1
node 2 0 1 1
node 3 0 1 1
node 4 0 1 1
node 5 0 1 1
node 6 0 1 1
node 7 0 1 1
node 8 0 1 1
node 9 0 1 1
node 10 0 1 1
node 11 0 1 1
node 12 0 1 1
node 13 0 1 3
node 14 0 0 2
node 15 0 0 2
gene 1 1 14 1.74252 0 1 0 1
gene 1 2 14 -5.38631 0 2 0 1
gene 1 3 14 0.0916642 0 3 0 1
gene 1 4 14 -5.12019 0 4 0 1
gene 1 5 14 -1.95759 0 5 0 1
gene 1 6 14 -3.97593 0 6 0 1
gene 1 7 14 -4.07536 0 7 0 1
gene 1 8 14 -1.93193 0 8 0 1
gene 1 9 14 -0.847135 0 9 0 1
gene 1 10 14 5.30408 0 10 0 1
gene 1 11 14 1.95083 0 11 0 1
gene 1 12 14 -2.76728 0 12 0 1
gene 1 13 14 -3.17403 0 13 0 1
gene 1 1 15 3.80475 0 14 0 1
gene 1 2 15 -3.8552 0 15 0 1
gene 1 3 15 0.477149 0 16 0 1
gene 1 4 15 7.76137 0 17 0 1
gene 1 5 15 -4.01439 0 18 0 1
gene 1 6 15 -1.69364 0 19 0 1
gene 1 7 15 -1.98255 0 20 0 1
gene 1 8 15 5.01016 0 21 0 1
gene 1 9 15 -0.975852 0 22 0 1
gene 1 10 15 2.3646 0 23 0 1
gene 1 11 15 2.77485 0 24 0 1
gene 1 12 15 -1.97211 0 25 0 1
gene 1 13 15 -4.21449 0 26 0 1
genomeend 3
