genomestart 7
trait 1 0 0 0 0 0 0 0 0 
node 1 0 1 1
node 2 0 1 1
node 3 0 1 1
node 4 0 1 1
node 5 0 1 1
node 6 0 1 1
node 7 0 1 1
node 8 0 1 1
node 9 0 1 1
node 10 0 1 1
node 11 0 1 1
node 12 0 1 1
node 13 0 1 3
node 14 0 0 2
node 15 0 0 2
gene 1 1 14 0.854797 0 1 0 1
gene 1 2 14 2.79932 0 2 0 1
gene 1 3 14 -3.00484 0 3 0 1
gene 1 4 14 5.11528 0 4 0 1
gene 1 5 14 3.75267 0 5 0 1
gene 1 6 14 6.37733 0 6 0 1
gene 1 7 14 -4.88335 0 7 0 1
gene 1 8 14 -7.73762 0 8 0 1
gene 1 9 14 2.6488 0 9 0 1
gene 1 10 14 -2.51271 0 10 0 1
gene 1 11 14 5.47652 0 11 0 1
gene 1 12 14 7.17138 0 12 0 1
gene 1 13 14 -3.53189 0 13 0 1
gene 1 1 15 0.600595 0 14 0 1
gene 1 2 15 2.16699 0 15 0 1
gene 1 3 15 2.62913 0 16 0 1
gene 1 4 15 3.75614 0 17 0 1
gene 1 5 15 -0.969457 0 18 0 1
gene 1 6 15 2.78256 0 19 0 1
gene 1 7 15 2.71638 0 20 0 1
gene 1 8 15 -3.93847 0 21 0 1
gene 1 9 15 1.48902 0 22 0 1
gene 1 10 15 2.93016 0 23 0 1
gene 1 11 15 3.2228 0 24 0 1
gene 1 12 15 3.0663 0 25 0 1
gene 1 13 15 -6.88144 0 26 0 1
genomeend 7
