genomestart 2
trait 1 0 0 0 0 0 0 0 0 
node 1 0 1 1
node 2 0 1 1
node 3 0 1 1
node 4 0 1 1
node 5 0 1 1
node 6 0 1 1
node 7 0 1 1
node 8 0 1 1
node 9 0 1 1
node 10 0 1 1
node 11 0 1 1
node 12 0 1 1
node 13 0 1 1
node 14 0 1 1
node 15 0 1 1
node 16 0 1 1
node 17 0 1 1
node 18 0 1 1
node 19 0 1 1
node 20 0 1 1
node 21 0 1 1
node 22 0 1 1
node 23 0 1 1
node 24 0 1 1
node 25 0 1 1
node 26 0 1 1
node 27 0 1 3
node 28 0 0 2
node 29 0 0 2
node 30 0 0 2
gene 1 1 28 -0.321561 0 1 0 1
gene 1 2 28 -1.25115 0 2 0 1
gene 1 3 28 1.24671 0 3 0 1
gene 1 4 28 0.734953 0 4 0 1
gene 1 5 28 -2.74652 0 5 0 1
gene 1 6 28 -0.450548 0 6 0 1
gene 1 7 28 -0.108053 0 7 0 1
gene 1 8 28 -0.00212054 0 8 0 1
gene 1 9 28 -3.08654 0 9 0 1
gene 1 10 28 0.606655 0 10 0 1
gene 1 11 28 0.709329 0 11 0 1
gene 1 12 28 0.101936 0 12 0 1
gene 1 13 28 -1.63812 0 13 0 1
gene 1 14 28 3.37382 0 14 0 1
gene 1 15 28 0.535362 0 15 0 1
gene 1 16 28 -0.0334813 0 16 0 1
gene 1 17 28 -0.0954524 0 17 0 1
gene 1 18 28 -0.209749 0 18 0 1
gene 1 19 28 -1.36828 0 19 0 1
gene 1 20 28 -0.387083 0 20 0 1
gene 1 21 28 0.739704 0 21 0 1
gene 1 22 28 0.035858 0 22 0 1
gene 1 23 28 -1.44813 0 23 0 1
gene 1 24 28 1.98788 0 24 0 1
gene 1 25 28 1.97462 0 25 0 1
gene 1 26 28 0.953802 0 26 0 1
gene 1 27 28 -2.72312 0 27 0 1
gene 1 1 29 0.400384 0 28 0 1
gene 1 2 29 0.270813 0 29 0 1
gene 1 3 29 -1.01429 0 30 0 1
gene 1 4 29 0.878768 0 31 0 1
gene 1 5 29 0.0128102 0 32 0 1
gene 1 6 29 3.1251 0 33 0 1
gene 1 7 29 3.52499 0 34 0 1
gene 1 8 29 -1.91436 0 35 0 1
gene 1 9 29 1.86748 0 36 0 1
gene 1 10 29 -1.76914 0 37 0 1
gene 1 11 29 2.11616 0 38 0 1
gene 1 12 29 -0.383626 0 39 0 1
gene 1 13 29 0.929821 0 40 0 1
gene 1 14 29 2.25371 0 41 0 1
gene 1 15 29 1.51052 0 42 0 1
gene 1 16 29 1.62827 0 43 0 1
gene 1 17 29 2.32365 0 44 0 1
gene 1 18 29 -2.38827 0 45 0 1
gene 1 19 29 0.763536 0 46 0 1
gene 1 20 29 -1.77746 0 47 0 1
gene 1 21 29 2.23063 0 48 0 1
gene 1 22 29 -0.785824 0 49 0 1
gene 1 23 29 -2.15812 0 50 0 1
gene 1 24 29 -3.94708 0 51 0 1
gene 1 25 29 1.66099 0 52 0 1
gene 1 26 29 2.68976 0 53 0 1
gene 1 27 29 3.47632 0 54 0 1
gene 1 1 30 -2.48476 0 55 0 1
gene 1 2 30 -0.211911 0 56 0 1
gene 1 3 30 2.9979 0 57 0 1
gene 1 4 30 -2.84826 0 58 0 1
gene 1 5 30 0.223905 0 59 0 1
gene 1 6 30 0.426236 0 60 0 1
gene 1 7 30 4.02748 0 61 0 1
gene 1 8 30 0.938108 0 62 0 1
gene 1 9 30 -1.82648 0 63 0 1
gene 1 10 30 0.656919 0 64 0 1
gene 1 11 30 -1.62272 0 65 0 1
gene 1 12 30 -0.0133049 0 66 0 1
gene 1 13 30 0.621125 0 67 0 1
gene 1 14 30 1.32065 0 68 0 1
gene 1 15 30 2.65131 0 69 0 1
gene 1 16 30 -2.10647 0 70 0 1
gene 1 17 30 2.1034 0 71 0 1
gene 1 18 30 -2.18011 0 72 0 1
gene 1 19 30 -1.00129 0 73 0 1
gene 1 20 30 -1.66919 0 74 0 1
gene 1 21 30 0.296608 0 75 0 1
gene 1 22 30 -0.0527616 0 76 0 1
gene 1 23 30 -0.210336 0 77 0 1
gene 1 24 30 2.26597 0 78 0 1
gene 1 25 30 0.632376 0 79 0 1
gene 1 26 30 -0.332353 0 80 0 1
gene 1 27 30 1.65785 0 81 0 1
genomeend 2
