genomestart 2
trait 1 0 0 0 0 0 0 0 0 
node 1 0 1 1
node 2 0 1 1
node 3 0 1 1
node 4 0 1 1
node 5 0 1 1
node 6 0 1 1
node 7 0 1 1
node 8 0 1 1
node 9 0 1 1
node 10 0 1 1
node 11 0 1 1
node 12 0 1 1
node 13 0 1 1
node 14 0 1 1
node 15 0 1 1
node 16 0 1 1
node 17 0 1 1
node 18 0 1 1
node 19 0 1 1
node 20 0 1 1
node 21 0 1 1
node 22 0 1 1
node 23 0 1 1
node 24 0 1 1
node 25 0 1 1
node 26 0 1 1
node 27 0 1 3
node 28 0 0 2
node 29 0 0 2
node 30 0 0 2
gene 1 1 28 -1.09351 0 1 0 1
gene 1 2 28 -0.618452 0 2 0 1
gene 1 3 28 1.6328 0 3 0 1
gene 1 4 28 -0.182925 0 4 0 1
gene 1 5 28 -0.87253 0 5 0 1
gene 1 6 28 -1.24262 0 6 0 1
gene 1 7 28 -1.48448 0 7 0 1
gene 1 8 28 2.69137 0 8 0 1
gene 1 9 28 -3.01229 0 9 0 1
gene 1 10 28 0.465081 0 10 0 1
gene 1 11 28 0.00304659 0 11 0 1
gene 1 12 28 -0.124332 0 12 0 1
gene 1 13 28 1.11389 0 13 0 1
gene 1 14 28 3.96646 0 14 0 1
gene 1 15 28 0.0978735 0 15 0 1
gene 1 16 28 2.03897 0 16 0 1
gene 1 17 28 0.489639 0 17 0 1
gene 1 18 28 -0.481136 0 18 0 1
gene 1 19 28 -0.990751 0 19 0 1
gene 1 20 28 -0.235293 0 20 0 1
gene 1 21 28 0.126219 0 21 0 1
gene 1 22 28 -1.8047 0 22 0 1
gene 1 23 28 -2.40504 0 23 0 1
gene 1 24 28 1.1014 0 24 0 1
gene 1 25 28 2.12718 0 25 0 1
gene 1 26 28 1.37918 0 26 0 1
gene 1 27 28 -1.03918 0 27 0 1
gene 1 1 29 0.352621 0 28 0 1
gene 1 2 29 -0.22782 0 29 0 1
gene 1 3 29 -0.352337 0 30 0 1
gene 1 4 29 0.831466 0 31 0 1
gene 1 5 29 2.22629 0 32 0 1
gene 1 6 29 1.69717 0 33 0 1
gene 1 7 29 3.15362 0 34 0 1
gene 1 8 29 -2.39519 0 35 0 1
gene 1 9 29 0.941542 0 36 0 1
gene 1 10 29 -2.14141 0 37 0 1
gene 1 11 29 1.03421 0 38 0 1
gene 1 12 29 -1.40548 0 39 0 1
gene 1 13 29 -0.0146348 0 40 0 1
gene 1 14 29 1.90239 0 41 0 1
gene 1 15 29 -0.305838 0 42 0 1
gene 1 16 29 2.34601 0 43 0 1
gene 1 17 29 0.268322 0 44 0 1
gene 1 18 29 -1.05888 0 45 0 1
gene 1 19 29 0.740795 0 46 0 1
gene 1 20 29 -0.29683 0 47 0 1
gene 1 21 29 0.57978 0 48 0 1
gene 1 22 29 0.174574 0 49 0 1
gene 1 23 29 -0.778088 0 50 0 1
gene 1 24 29 -2.46739 0 51 0 1
gene 1 25 29 1.60987 0 52 0 1
gene 1 26 29 2.0696 0 53 0 1
gene 1 27 29 2.70824 0 54 0 1
gene 1 1 30 -2.706 0 55 0 1
gene 1 2 30 1.15151 0 56 0 1
gene 1 3 30 2.40182 0 57 0 1
gene 1 4 30 -1.43271 0 58 0 1
gene 1 5 30 -0.370887 0 59 0 1
gene 1 6 30 -0.0189964 0 60 0 1
gene 1 7 30 3.2019 0 61 0 1
gene 1 8 30 1.15771 0 62 0 1
gene 1 9 30 -0.154717 0 63 0 1
gene 1 10 30 -0.849153 0 64 0 1
gene 1 11 30 -0.839452 0 65 0 1
gene 1 12 30 -0.0491059 0 66 0 1
gene 1 13 30 0.375361 0 67 0 1
gene 1 14 30 -0.4207 0 68 0 1
gene 1 15 30 2.19317 0 69 0 1
gene 1 16 30 -1.08871 0 70 0 1
gene 1 17 30 1.18016 0 71 0 1
gene 1 18 30 -1.39366 0 72 0 1
gene 1 19 30 -1.25951 0 73 0 1
gene 1 20 30 -0.368623 0 74 0 1
gene 1 21 30 0.643097 0 75 0 1
gene 1 22 30 -0.021013 0 76 0 1
gene 1 23 30 1.21205 0 77 0 1
gene 1 24 30 1.83272 0 78 0 1
gene 1 25 30 -0.266712 0 79 0 1
gene 1 26 30 -1.0764 0 80 0 1
gene 1 27 30 1.57326 0 81 0 1
genomeend 2
