genomestart 2
trait 1 0 0 0 0 0 0 0 0 
node 1 0 1 1
node 2 0 1 1
node 3 0 1 1
node 4 0 1 1
node 5 0 1 1
node 6 0 1 1
node 7 0 1 1
node 8 0 1 1
node 9 0 1 1
node 10 0 1 1
node 11 0 1 1
node 12 0 1 1
node 13 0 1 1
node 14 0 1 1
node 15 0 1 1
node 16 0 1 1
node 17 0 1 1
node 18 0 1 1
node 19 0 1 1
node 20 0 1 1
node 21 0 1 1
node 22 0 1 1
node 23 0 1 1
node 24 0 1 1
node 25 0 1 1
node 26 0 1 1
node 27 0 1 3
node 28 0 0 2
node 29 0 0 2
node 30 0 0 2
gene 1 1 28 -1.79191 0 1 0 1
gene 1 2 28 -0.972103 0 2 0 1
gene 1 3 28 1.12651 0 3 0 1
gene 1 4 28 1.26827 0 4 0 1
gene 1 5 28 -2.23457 0 5 0 1
gene 1 6 28 0.0627281 0 6 0 1
gene 1 7 28 -0.8636 0 7 0 1
gene 1 8 28 0.351527 0 8 0 1
gene 1 9 28 -0.753425 0 9 0 1
gene 1 10 28 0.914748 0 10 0 1
gene 1 11 28 1.65504 0 11 0 1
gene 1 12 28 0.951666 0 12 0 1
gene 1 13 28 -1.23537 0 13 0 1
gene 1 14 28 1.52859 0 14 0 1
gene 1 15 28 0.953842 0 15 0 1
gene 1 16 28 1.89587 0 16 0 1
gene 1 17 28 1.28176 0 17 0 1
gene 1 18 28 0.135196 0 18 0 1
gene 1 19 28 -1.03658 0 19 0 1
gene 1 20 28 -1.09586 0 20 0 1
gene 1 21 28 0.120893 0 21 0 1
gene 1 22 28 -0.892557 0 22 0 1
gene 1 23 28 -2.40964 0 23 0 1
gene 1 24 28 -0.446752 0 24 0 1
gene 1 25 28 3.04505 0 25 0 1
gene 1 26 28 0.245375 0 26 0 1
gene 1 27 28 -1.14766 0 27 0 1
gene 1 1 29 -1.42037 0 28 0 1
gene 1 2 29 0.457783 0 29 0 1
gene 1 3 29 -0.0488755 0 30 0 1
gene 1 4 29 -0.174592 0 31 0 1
gene 1 5 29 1.17398 0 32 0 1
gene 1 6 29 2.81549 0 33 0 1
gene 1 7 29 0.624849 0 34 0 1
gene 1 8 29 1.33395 0 35 0 1
gene 1 9 29 0.767523 0 36 0 1
gene 1 10 29 0.422897 0 37 0 1
gene 1 11 29 -0.111758 0 38 0 1
gene 1 12 29 -0.779336 0 39 0 1
gene 1 13 29 1.33984 0 40 0 1
gene 1 14 29 1.40521 0 41 0 1
gene 1 15 29 -2.24513 0 42 0 1
gene 1 16 29 1.74476 0 43 0 1
gene 1 17 29 0.689882 0 44 0 1
gene 1 18 29 -0.835039 0 45 0 1
gene 1 19 29 -0.944 0 46 0 1
gene 1 20 29 0.00265181 0 47 0 1
gene 1 21 29 -0.989057 0 48 0 1
gene 1 22 29 0.358959 0 49 0 1
gene 1 23 29 -1.31887 0 50 0 1
gene 1 24 29 -0.717237 0 51 0 1
gene 1 25 29 1.60368 0 52 0 1
gene 1 26 29 1.20542 0 53 0 1
gene 1 27 29 0.85856 0 54 0 1
gene 1 1 30 -2.66502 0 55 0 1
gene 1 2 30 -0.102054 0 56 0 1
gene 1 3 30 1.45663 0 57 0 1
gene 1 4 30 0.532702 0 58 0 1
gene 1 5 30 1.75104 0 59 0 1
gene 1 6 30 1.0093 0 60 0 1
gene 1 7 30 -0.0713914 0 61 0 1
gene 1 8 30 2.06665 0 62 0 1
gene 1 9 30 0.200806 0 63 0 1
gene 1 10 30 -0.301224 0 64 0 1
gene 1 11 30 -2.01975 0 65 0 1
gene 1 12 30 -0.0531497 0 66 0 1
gene 1 13 30 -1.15619 0 67 0 1
gene 1 14 30 -2.66391 0 68 0 1
gene 1 15 30 1.44113 0 69 0 1
gene 1 16 30 -1.15083 0 70 0 1
gene 1 17 30 -0.599694 0 71 0 1
gene 1 18 30 0.34097 0 72 0 1
gene 1 19 30 -1.8867 0 73 0 1
gene 1 20 30 0.57332 0 74 0 1
gene 1 21 30 -0.926277 0 75 0 1
gene 1 22 30 -1.05649 0 76 0 1
gene 1 23 30 0.362247 0 77 0 1
gene 1 24 30 1.42588 0 78 0 1
gene 1 25 30 2.2121 0 79 0 1
gene 1 26 30 -0.592636 0 80 0 1
gene 1 27 30 1.31502 0 81 0 1
genomeend 2
