genomestart 2
trait 1 0 0 0 0 0 0 0 0 
node 1 0 1 1
node 2 0 1 1
node 3 0 1 1
node 4 0 1 1
node 5 0 1 1
node 6 0 1 1
node 7 0 1 1
node 8 0 1 1
node 9 0 1 1
node 10 0 1 1
node 11 0 1 1
node 12 0 1 1
node 13 0 1 1
node 14 0 1 1
node 15 0 1 1
node 16 0 1 1
node 17 0 1 1
node 18 0 1 1
node 19 0 1 1
node 20 0 1 1
node 21 0 1 1
node 22 0 1 1
node 23 0 1 1
node 24 0 1 1
node 25 0 1 1
node 26 0 1 1
node 27 0 1 3
node 28 0 0 2
node 29 0 0 2
node 30 0 0 2
gene 1 1 28 -1.33441 0 1 0 1
gene 1 2 28 -1.44062 0 2 0 1
gene 1 3 28 0.741755 0 3 0 1
gene 1 4 28 -0.0530427 0 4 0 1
gene 1 5 28 -0.273409 0 5 0 1
gene 1 6 28 -0.0192668 0 6 0 1
gene 1 7 28 -1.75932 0 7 0 1
gene 1 8 28 0.225089 0 8 0 1
gene 1 9 28 -2.7569 0 9 0 1
gene 1 10 28 -0.716618 0 10 0 1
gene 1 11 28 0.744142 0 11 0 1
gene 1 12 28 -0.420984 0 12 0 1
gene 1 13 28 -0.230831 0 13 0 1
gene 1 14 28 3.17144 0 14 0 1
gene 1 15 28 1.32333 0 15 0 1
gene 1 16 28 1.78833 0 16 0 1
gene 1 17 28 1.62115 0 17 0 1
gene 1 18 28 -0.159659 0 18 0 1
gene 1 19 28 -1.14056 0 19 0 1
gene 1 20 28 0.60238 0 20 0 1
gene 1 21 28 0.793062 0 21 0 1
gene 1 22 28 -0.6567 0 22 0 1
gene 1 23 28 -1.23488 0 23 0 1
gene 1 24 28 0.16999 0 24 0 1
gene 1 25 28 2.49905 0 25 0 1
gene 1 26 28 1.24625 0 26 0 1
gene 1 27 28 -1.32342 0 27 0 1
gene 1 1 29 -0.369259 0 28 0 1
gene 1 2 29 0.795715 0 29 0 1
gene 1 3 29 -0.944376 0 30 0 1
gene 1 4 29 1.44242 0 31 0 1
gene 1 5 29 1.28853 0 32 0 1
gene 1 6 29 2.24397 0 33 0 1
gene 1 7 29 2.07757 0 34 0 1
gene 1 8 29 -1.5974 0 35 0 1
gene 1 9 29 1.00232 0 36 0 1
gene 1 10 29 -1.44657 0 37 0 1
gene 1 11 29 0.394284 0 38 0 1
gene 1 12 29 -2.23253 0 39 0 1
gene 1 13 29 -1.30471 0 40 0 1
gene 1 14 29 0.609155 0 41 0 1
gene 1 15 29 -0.271443 0 42 0 1
gene 1 16 29 2.75847 0 43 0 1
gene 1 17 29 -0.503919 0 44 0 1
gene 1 18 29 -1.80507 0 45 0 1
gene 1 19 29 -0.134444 0 46 0 1
gene 1 20 29 -1.4071 0 47 0 1
gene 1 21 29 0.572851 0 48 0 1
gene 1 22 29 0.172594 0 49 0 1
gene 1 23 29 -0.442702 0 50 0 1
gene 1 24 29 -0.898885 0 51 0 1
gene 1 25 29 1.75655 0 52 0 1
gene 1 26 29 1.51597 0 53 0 1
gene 1 27 29 1.7854 0 54 0 1
gene 1 1 30 -1.16739 0 55 0 1
gene 1 2 30 0.688918 0 56 0 1
gene 1 3 30 1.39627 0 57 0 1
gene 1 4 30 -1.78577 0 58 0 1
gene 1 5 30 -0.858742 0 59 0 1
gene 1 6 30 -0.112031 0 60 0 1
gene 1 7 30 1.95949 0 61 0 1
gene 1 8 30 1.85136 0 62 0 1
gene 1 9 30 -1.28731 0 63 0 1
gene 1 10 30 -0.418062 0 64 0 1
gene 1 11 30 -2.31228 0 65 0 1
gene 1 12 30 0.77236 0 66 0 1
gene 1 13 30 -1.17396 0 67 0 1
gene 1 14 30 0.302634 0 68 0 1
gene 1 15 30 1.87538 0 69 0 1
gene 1 16 30 -1.45606 0 70 0 1
gene 1 17 30 1.17581 0 71 0 1
gene 1 18 30 -2.71705 0 72 0 1
gene 1 19 30 -0.756141 0 73 0 1
gene 1 20 30 1.29552 0 74 0 1
gene 1 21 30 -0.430572 0 75 0 1
gene 1 22 30 -0.205521 0 76 0 1
gene 1 23 30 0.470608 0 77 0 1
gene 1 24 30 1.17036 0 78 0 1
gene 1 25 30 0.902939 0 79 0 1
gene 1 26 30 -1.20216 0 80 0 1
gene 1 27 30 0.217186 0 81 0 1
genomeend 2
