genomestart 3
trait 1 0 0 0 0 0 0 0 0 
node 1 0 1 1
node 2 0 1 1
node 3 0 1 1
node 4 0 1 1
node 5 0 1 1
node 6 0 1 1
node 7 0 1 1
node 8 0 1 1
node 9 0 1 1
node 10 0 1 1
node 11 0 1 1
node 12 0 1 1
node 13 0 1 3
node 14 0 0 2
node 15 0 0 2
gene 1 1 14 1.14485 0 1 0 1
gene 1 2 14 -0.69775 0 2 0 1
gene 1 3 14 0.262539 0 3 0 1
gene 1 4 14 -1.23651 0 4 0 1
gene 1 5 14 3.90502 0 5 0 1
gene 1 6 14 -3.33277 0 6 0 1
gene 1 7 14 -5.561 0 7 0 1
gene 1 8 14 -0.401804 0 8 0 1
gene 1 9 14 -0.730767 0 9 0 1
gene 1 10 14 5.95694 0 10 0 1
gene 1 11 14 4.68118 0 11 0 1
gene 1 12 14 -3.12624 0 12 0 1
gene 1 13 14 -3.11763 0 13 0 1
gene 1 1 15 2.66758 0 14 0 1
gene 1 2 15 -6.24217 0 15 0 1
gene 1 3 15 0.398783 0 16 0 1
gene 1 4 15 8.77622 0 17 0 1
gene 1 5 15 -3.48998 0 18 0 1
gene 1 6 15 -0.214465 0 19 0 1
gene 1 7 15 -1.69482 0 20 0 1
gene 1 8 15 -0.251196 0 21 0 1
gene 1 9 15 -1.82901 0 22 0 1
gene 1 10 15 -0.537196 0 23 0 1
gene 1 11 15 4.57627 0 24 0 1
gene 1 12 15 -1.78631 0 25 0 1
gene 1 13 15 0.326212 0 26 0 1
genomeend 3
