genomestart 0
trait 1 0 0 0 0 0 0 0 0 
node 1 0 1 1
node 2 0 1 1
node 3 0 1 1
node 4 0 1 1
node 5 0 1 1
node 6 0 1 1
node 7 0 1 1
node 8 0 1 1
node 9 0 1 1
node 10 0 1 1
node 11 0 1 1
node 12 0 1 1
node 13 0 1 1
node 14 0 1 1
node 15 0 1 1
node 16 0 1 1
node 17 0 1 1
node 18 0 1 1
node 19 0 1 1
node 20 0 1 1
node 21 0 1 1
node 22 0 1 1
node 23 0 1 1
node 24 0 1 1
node 25 0 1 3
node 26 0 0 2
node 27 0 0 2
node 28 1 0 0
gene 1 1 26 0.0577462 0 1 0.0577462 1
gene 1 2 26 0.554487 0 2 0.554487 1
gene 1 3 26 1.0453 0 3 1.0453 1
gene 1 4 26 -0.0347489 0 4 -0.0347489 1
gene 1 5 26 -0.390797 0 5 -0.390797 1
gene 1 6 26 1.4088 0 6 1.4088 1
gene 1 7 26 -2.15439 0 7 -2.15439 1
gene 1 8 26 -3.59213 0 8 -3.59213 1
gene 1 9 26 0.576052 0 9 0.576052 1
gene 1 10 26 -1.67976 0 10 -1.67976 1
gene 1 11 26 3.6794 0 11 3.6794 1
gene 1 12 26 0.18306 0 12 0.18306 1
gene 1 13 26 -0.1538 0 13 -0.1538 1
gene 1 14 26 -1.47894 0 14 -1.47894 1
gene 1 15 26 1.5267 0 15 1.5267 0
gene 1 16 26 -1.91479 0 16 -1.91479 1
gene 1 17 26 -1.11128 0 17 -1.11128 1
gene 1 18 26 -3.86156 0 18 -3.86156 1
gene 1 19 26 0.440309 0 19 0.440309 1
gene 1 20 26 1.05795 0 20 1.05795 1
gene 1 21 26 0.293042 0 21 0.293042 1
gene 1 22 26 3.10855 0 22 3.10855 1
gene 1 23 26 -0.0683155 0 23 -0.0683155 1
gene 1 24 26 1.36706 0 24 1.36706 1
gene 1 25 26 2.37466 0 25 2.37466 1
gene 1 1 27 -0.783411 0 26 -0.783411 1
gene 1 2 27 -1.40819 0 27 -1.40819 1
gene 1 3 27 0.622156 0 28 0.622156 1
gene 1 4 27 -3.22692 0 29 -3.22692 1
gene 1 5 27 0.380046 0 30 0.380046 1
gene 1 6 27 1.92716 0 31 1.92716 1
gene 1 7 27 0.0330501 0 32 0.0330501 1
gene 1 8 27 0.593873 0 33 0.593873 1
gene 1 9 27 -2.05805 0 34 -2.05805 1
gene 1 10 27 -1.37076 0 35 -1.37076 1
gene 1 11 27 1.62103 0 36 1.62103 1
gene 1 12 27 -0.538763 0 37 -0.538763 1
gene 1 13 27 0.727253 0 38 0.727253 1
gene 1 14 27 0.901554 0 39 0.901554 1
gene 1 15 27 1.18306 0 40 1.18306 1
gene 1 16 27 -2.79328 0 41 -2.79328 1
gene 1 17 27 0.51704 0 42 0.51704 1
gene 1 18 27 0.391695 0 43 0.391695 1
gene 1 19 27 -0.96837 0 44 -0.96837 1
gene 1 20 27 0.315927 0 45 0.315927 1
gene 1 21 27 -2.33872 0 46 -2.33872 1
gene 1 22 27 -0.636831 0 47 -0.636831 1
gene 1 23 27 0.279909 0 48 0.279909 1
gene 1 24 27 0.64599 0 49 0.64599 1
gene 1 15 28 0.545209 0 50 0.545209 1
gene 1 25 27 -1.03433 0 50 -1.03433 1
gene 1 28 26 -0.453241 0 51 -0.453241 1
genomeend 0
