genomestart 2
trait 1 0 0 0 0 0 0 0 0 
node 1 0 1 1
node 2 0 1 1
node 3 0 1 1
node 4 0 1 1
node 5 0 1 1
node 6 0 1 1
node 7 0 1 1
node 8 0 1 1
node 9 0 1 1
node 10 0 1 1
node 11 0 1 1
node 12 0 1 1
node 13 0 1 1
node 14 0 1 1
node 15 0 1 1
node 16 0 1 1
node 17 0 1 1
node 18 0 1 1
node 19 0 1 1
node 20 0 1 1
node 21 0 1 1
node 22 0 1 1
node 23 0 1 1
node 24 0 1 1
node 25 0 1 1
node 26 0 1 1
node 27 0 1 3
node 28 0 0 2
node 29 0 0 2
node 30 0 0 2
gene 1 1 28 -0.934261 0 1 0 1
gene 1 2 28 -1.90564 0 2 0 1
gene 1 3 28 0.884937 0 3 0 1
gene 1 4 28 0.544231 0 4 0 1
gene 1 5 28 -0.75309 0 5 0 1
gene 1 6 28 0.158347 0 6 0 1
gene 1 7 28 -0.893407 0 7 0 1
gene 1 8 28 0.897823 0 8 0 1
gene 1 9 28 -1.08466 0 9 0 1
gene 1 10 28 0.0457027 0 10 0 1
gene 1 11 28 0.411765 0 11 0 1
gene 1 12 28 0.48344 0 12 0 1
gene 1 13 28 -0.38018 0 13 0 1
gene 1 14 28 1.13266 0 14 0 1
gene 1 15 28 0.43161 0 15 0 1
gene 1 16 28 1.59182 0 16 0 1
gene 1 17 28 0.083333 0 17 0 1
gene 1 18 28 0.177545 0 18 0 1
gene 1 19 28 -0.704583 0 19 0 1
gene 1 20 28 -0.381199 0 20 0 1
gene 1 21 28 0.227478 0 21 0 1
gene 1 22 28 -2.28229 0 22 0 1
gene 1 23 28 -2.33383 0 23 0 1
gene 1 24 28 -0.482464 0 24 0 1
gene 1 25 28 3.0371 0 25 0 1
gene 1 26 28 -0.0697871 0 26 0 1
gene 1 27 28 -1.07548 0 27 0 1
gene 1 1 29 -0.82448 0 28 0 1
gene 1 2 29 -0.0387816 0 29 0 1
gene 1 3 29 -1.4846 0 30 0 1
gene 1 4 29 0.631414 0 31 0 1
gene 1 5 29 0.603252 0 32 0 1
gene 1 6 29 1.87509 0 33 0 1
gene 1 7 29 0.575822 0 34 0 1
gene 1 8 29 -0.223212 0 35 0 1
gene 1 9 29 1.08872 0 36 0 1
gene 1 10 29 -1.45522 0 37 0 1
gene 1 11 29 0.0902257 0 38 0 1
gene 1 12 29 -0.53191 0 39 0 1
gene 1 13 29 -0.201697 0 40 0 1
gene 1 14 29 1.35669 0 41 0 1
gene 1 15 29 -1.47692 0 42 0 1
gene 1 16 29 1.13254 0 43 0 1
gene 1 17 29 0.151597 0 44 0 1
gene 1 18 29 -1.45693 0 45 0 1
gene 1 19 29 -1.22727 0 46 0 1
gene 1 20 29 -0.812597 0 47 0 1
gene 1 21 29 -0.688606 0 48 0 1
gene 1 22 29 -0.13243 0 49 0 1
gene 1 23 29 -1.00399 0 50 0 1
gene 1 24 29 -0.802893 0 51 0 1
gene 1 25 29 1.39073 0 52 0 1
gene 1 26 29 1.84719 0 53 0 1
gene 1 27 29 0.565509 0 54 0 1
gene 1 1 30 -2.09537 0 55 0 1
gene 1 2 30 0.423344 0 56 0 1
gene 1 3 30 1.27957 0 57 0 1
gene 1 4 30 -0.323412 0 58 0 1
gene 1 5 30 0.316758 0 59 0 1
gene 1 6 30 0.824035 0 60 0 1
gene 1 7 30 1.25111 0 61 0 1
gene 1 8 30 1.458 0 62 0 1
gene 1 9 30 -0.522077 0 63 0 1
gene 1 10 30 0.266293 0 64 0 1
gene 1 11 30 -1.49257 0 65 0 1
gene 1 12 30 -0.111348 0 66 0 1
gene 1 13 30 -0.376407 0 67 0 1
gene 1 14 30 -1.11161 0 68 0 1
gene 1 15 30 0.633518 0 69 0 1
gene 1 16 30 -1.52267 0 70 0 1
gene 1 17 30 -0.117774 0 71 0 1
gene 1 18 30 -0.698702 0 72 0 1
gene 1 19 30 -1.00329 0 73 0 1
gene 1 20 30 0.849299 0 74 0 1
gene 1 21 30 -1.82637 0 75 0 1
gene 1 22 30 -0.0663265 0 76 0 1
gene 1 23 30 0.596506 0 77 0 1
gene 1 24 30 0.140203 0 78 0 1
gene 1 25 30 1.68528 0 79 0 1
gene 1 26 30 -1.67025 0 80 0 1
gene 1 27 30 0.779039 0 81 0 1
genomeend 2
