genomestart 3
trait 1 0 0 0 0 0 0 0 0 
node 1 0 1 1
node 2 0 1 1
node 3 0 1 1
node 4 0 1 1
node 5 0 1 1
node 6 0 1 1
node 7 0 1 1
node 8 0 1 1
node 9 0 1 1
node 10 0 1 1
node 11 0 1 1
node 12 0 1 1
node 13 0 1 3
node 14 0 0 2
node 15 0 0 2
gene 1 1 14 1.12097 0 1 0 1
gene 1 2 14 1.45526 0 2 0 1
gene 1 3 14 -2.95328 0 3 0 1
gene 1 4 14 -5.56578 0 4 0 1
gene 1 5 14 0.752047 0 5 0 1
gene 1 6 14 -8.0527 0 6 0 1
gene 1 7 14 -6.07286 0 7 0 1
gene 1 8 14 -0.61569 0 8 0 1
gene 1 9 14 3.16642 0 9 0 1
gene 1 10 14 9.44918 0 10 0 1
gene 1 11 14 5.44249 0 11 0 1
gene 1 12 14 -8.19882 0 12 0 1
gene 1 13 14 -4.9616 0 13 0 1
gene 1 1 15 -0.15725 0 14 0 1
gene 1 2 15 -8.13297 0 15 0 1
gene 1 3 15 -5.55486 0 16 0 1
gene 1 4 15 10.8725 0 17 0 1
gene 1 5 15 -1.33659 0 18 0 1
gene 1 6 15 0.715204 0 19 0 1
gene 1 7 15 -6.20479 0 20 0 1
gene 1 8 15 3.20578 0 21 0 1
gene 1 9 15 -2.11753 0 22 0 1
gene 1 10 15 2.45141 0 23 0 1
gene 1 11 15 2.00126 0 24 0 1
gene 1 12 15 -5.17235 0 25 0 1
gene 1 13 15 -2.34179 0 26 0 1
genomeend 3
