genomestart 2
trait 1 0 0 0 0 0 0 0 0 
node 1 0 1 1
node 2 0 1 1
node 3 0 1 1
node 4 0 1 1
node 5 0 1 1
node 6 0 1 1
node 7 0 1 1
node 8 0 1 1
node 9 0 1 1
node 10 0 1 1
node 11 0 1 1
node 12 0 1 1
node 13 0 1 1
node 14 0 1 1
node 15 0 1 1
node 16 0 1 1
node 17 0 1 1
node 18 0 1 1
node 19 0 1 1
node 20 0 1 1
node 21 0 1 1
node 22 0 1 1
node 23 0 1 1
node 24 0 1 1
node 25 0 1 1
node 26 0 1 1
node 27 0 1 3
node 28 0 0 2
node 29 0 0 2
node 30 0 0 2
gene 1 1 28 -0.581794 0 1 0 1
gene 1 2 28 -1.13226 0 2 0 1
gene 1 3 28 0.657968 0 3 0 1
gene 1 4 28 1.19764 0 4 0 1
gene 1 5 28 -1.48527 0 5 0 1
gene 1 6 28 -1.45394 0 6 0 1
gene 1 7 28 -0.993693 0 7 0 1
gene 1 8 28 0.846325 0 8 0 1
gene 1 9 28 -3.76137 0 9 0 1
gene 1 10 28 -0.0293374 0 10 0 1
gene 1 11 28 0.245535 0 11 0 1
gene 1 12 28 0.255988 0 12 0 1
gene 1 13 28 -0.390487 0 13 0 1
gene 1 14 28 3.03156 0 14 0 1
gene 1 15 28 0.216031 0 15 0 1
gene 1 16 28 2.31421 0 16 0 1
gene 1 17 28 -0.35016 0 17 0 1
gene 1 18 28 -0.670088 0 18 0 1
gene 1 19 28 -2.54443 0 19 0 1
gene 1 20 28 0.234902 0 20 0 1
gene 1 21 28 0.408881 0 21 0 1
gene 1 22 28 -0.69875 0 22 0 1
gene 1 23 28 -0.926125 0 23 0 1
gene 1 24 28 1.55871 0 24 0 1
gene 1 25 28 1.61506 0 25 0 1
gene 1 26 28 0.523117 0 26 0 1
gene 1 27 28 -1.97042 0 27 0 1
gene 1 1 29 0.203997 0 28 0 1
gene 1 2 29 0.766204 0 29 0 1
gene 1 3 29 -1.72726 0 30 0 1
gene 1 4 29 1.10698 0 31 0 1
gene 1 5 29 0.569617 0 32 0 1
gene 1 6 29 3.12147 0 33 0 1
gene 1 7 29 3.47452 0 34 0 1
gene 1 8 29 -2.76481 0 35 0 1
gene 1 9 29 0.874798 0 36 0 1
gene 1 10 29 -1.72157 0 37 0 1
gene 1 11 29 2.33933 0 38 0 1
gene 1 12 29 -0.852601 0 39 0 1
gene 1 13 29 0.0693148 0 40 0 1
gene 1 14 29 1.54352 0 41 0 1
gene 1 15 29 0.983504 0 42 0 1
gene 1 16 29 2.55091 0 43 0 1
gene 1 17 29 1.04188 0 44 0 1
gene 1 18 29 -3.08953 0 45 0 1
gene 1 19 29 0.475521 0 46 0 1
gene 1 20 29 -0.630469 0 47 0 1
gene 1 21 29 1.8906 0 48 0 1
gene 1 22 29 0.722728 0 49 0 1
gene 1 23 29 -1.47063 0 50 0 1
gene 1 24 29 -3.69061 0 51 0 1
gene 1 25 29 1.82635 0 52 0 1
gene 1 26 29 2.93507 0 53 0 1
gene 1 27 29 2.78404 0 54 0 1
gene 1 1 30 -2.06642 0 55 0 1
gene 1 2 30 0.391098 0 56 0 1
gene 1 3 30 2.45821 0 57 0 1
gene 1 4 30 -1.83665 0 58 0 1
gene 1 5 30 -1.52397 0 59 0 1
gene 1 6 30 0.0215249 0 60 0 1
gene 1 7 30 3.5351 0 61 0 1
gene 1 8 30 1.61034 0 62 0 1
gene 1 9 30 -1.51331 0 63 0 1
gene 1 10 30 0.0872336 0 64 0 1
gene 1 11 30 0.0932409 0 65 0 1
gene 1 12 30 0.619676 0 66 0 1
gene 1 13 30 -0.55908 0 67 0 1
gene 1 14 30 0.988289 0 68 0 1
gene 1 15 30 2.77406 0 69 0 1
gene 1 16 30 -0.771754 0 70 0 1
gene 1 17 30 2.25073 0 71 0 1
gene 1 18 30 -1.75239 0 72 0 1
gene 1 19 30 -1.2952 0 73 0 1
gene 1 20 30 -1.22549 0 74 0 1
gene 1 21 30 0.761583 0 75 0 1
gene 1 22 30 -0.0994549 0 76 0 1
gene 1 23 30 1.39369 0 77 0 1
gene 1 24 30 2.0429 0 78 0 1
gene 1 25 30 0.84158 0 79 0 1
gene 1 26 30 -1.14862 0 80 0 1
gene 1 27 30 0.788071 0 81 0 1
genomeend 2
