genomestart 3
trait 1 0 0 0 0 0 0 0 0 
node 1 0 1 1
node 2 0 1 1
node 3 0 1 1
node 4 0 1 1
node 5 0 1 1
node 6 0 1 1
node 7 0 1 1
node 8 0 1 1
node 9 0 1 1
node 10 0 1 1
node 11 0 1 1
node 12 0 1 1
node 13 0 1 3
node 14 0 0 2
node 15 0 0 2
gene 1 1 14 -3.43495 0 1 0 1
gene 1 2 14 -5.13306 0 2 0 1
gene 1 3 14 1.76554 0 3 0 1
gene 1 4 14 -0.256879 0 4 0 1
gene 1 5 14 1.10548 0 5 0 1
gene 1 6 14 -1.07954 0 6 0 1
gene 1 7 14 -3.73071 0 7 0 1
gene 1 8 14 -5.16277 0 8 0 1
gene 1 9 14 3.96689 0 9 0 1
gene 1 10 14 2.86122 0 10 0 1
gene 1 11 14 4.63087 0 11 0 1
gene 1 12 14 -5.56078 0 12 0 1
gene 1 13 14 -2.54883 0 13 0 1
gene 1 1 15 4.27166 0 14 0 1
gene 1 2 15 -7.7377 0 15 0 1
gene 1 3 15 2.17322 0 16 0 1
gene 1 4 15 8.99425 0 17 0 1
gene 1 5 15 -3.45809 0 18 0 1
gene 1 6 15 2.71361 0 19 0 1
gene 1 7 15 -3.4951 0 20 0 1
gene 1 8 15 2.39099 0 21 0 1
gene 1 9 15 -0.267181 0 22 0 1
gene 1 10 15 1.1397 0 23 0 1
gene 1 11 15 1.89144 0 24 0 1
gene 1 12 15 0.29314 0 25 0 1
gene 1 13 15 -3.22723 0 26 0 1
genomeend 3
