genomestart 3
trait 1 0 0 0 0 0 0 0 0 
node 1 0 1 1
node 2 0 1 1
node 3 0 1 1
node 4 0 1 1
node 5 0 1 1
node 6 0 1 1
node 7 0 1 1
node 8 0 1 1
node 9 0 1 1
node 10 0 1 1
node 11 0 1 1
node 12 0 1 1
node 13 0 1 3
node 14 0 0 2
node 15 0 0 2
gene 1 1 14 3.12378 0 1 0 1
gene 1 2 14 -4.45316 0 2 0 1
gene 1 3 14 -0.354587 0 3 0 1
gene 1 4 14 -3.64445 0 4 0 1
gene 1 5 14 -0.821156 0 5 0 1
gene 1 6 14 -5.144 0 6 0 1
gene 1 7 14 -3.62316 0 7 0 1
gene 1 8 14 -1.70455 0 8 0 1
gene 1 9 14 -0.876769 0 9 0 1
gene 1 10 14 5.93271 0 10 0 1
gene 1 11 14 1.43412 0 11 0 1
gene 1 12 14 -2.76989 0 12 0 1
gene 1 13 14 -4.03149 0 13 0 1
gene 1 1 15 4.60036 0 14 0 1
gene 1 2 15 -2.47812 0 15 0 1
gene 1 3 15 -0.127354 0 16 0 1
gene 1 4 15 9.49673 0 17 0 1
gene 1 5 15 -3.83811 0 18 0 1
gene 1 6 15 -1.73872 0 19 0 1
gene 1 7 15 -1.75608 0 20 0 1
gene 1 8 15 3.70038 0 21 0 1
gene 1 9 15 -2.0515 0 22 0 1
gene 1 10 15 1.7861 0 23 0 1
gene 1 11 15 2.96201 0 24 0 1
gene 1 12 15 -2.29149 0 25 0 1
gene 1 13 15 -3.01179 0 26 0 1
genomeend 3
