genomestart 2
trait 1 0 0 0 0 0 0 0 0 
node 1 0 1 1
node 2 0 1 1
node 3 0 1 1
node 4 0 1 1
node 5 0 1 1
node 6 0 1 1
node 7 0 1 1
node 8 0 1 1
node 9 0 1 1
node 10 0 1 1
node 11 0 1 1
node 12 0 1 1
node 13 0 1 1
node 14 0 1 1
node 15 0 1 1
node 16 0 1 1
node 17 0 1 1
node 18 0 1 1
node 19 0 1 1
node 20 0 1 1
node 21 0 1 1
node 22 0 1 1
node 23 0 1 1
node 24 0 1 1
node 25 0 1 1
node 26 0 1 1
node 27 0 1 3
node 28 0 0 2
node 29 0 0 2
node 30 0 0 2
gene 1 1 28 0.226958 0 1 0 1
gene 1 2 28 -1.28166 0 2 0 1
gene 1 3 28 0.889971 0 3 0 1
gene 1 4 28 1.60674 0 4 0 1
gene 1 5 28 -2.25933 0 5 0 1
gene 1 6 28 -1.50561 0 6 0 1
gene 1 7 28 -1.12268 0 7 0 1
gene 1 8 28 0.341153 0 8 0 1
gene 1 9 28 -3.05749 0 9 0 1
gene 1 10 28 -0.478307 0 10 0 1
gene 1 11 28 0.898571 0 11 0 1
gene 1 12 28 -0.299918 0 12 0 1
gene 1 13 28 -1.15348 0 13 0 1
gene 1 14 28 3.61748 0 14 0 1
gene 1 15 28 0.406254 0 15 0 1
gene 1 16 28 1.65362 0 16 0 1
gene 1 17 28 0.436422 0 17 0 1
gene 1 18 28 -0.874499 0 18 0 1
gene 1 19 28 -2.04196 0 19 0 1
gene 1 20 28 -0.255109 0 20 0 1
gene 1 21 28 -0.342511 0 21 0 1
gene 1 22 28 0.210356 0 22 0 1
gene 1 23 28 -0.703205 0 23 0 1
gene 1 24 28 1.80554 0 24 0 1
gene 1 25 28 2.04029 0 25 0 1
gene 1 26 28 1.14813 0 26 0 1
gene 1 27 28 -2.67856 0 27 0 1
gene 1 1 29 0.333797 0 28 0 1
gene 1 2 29 1.14375 0 29 0 1
gene 1 3 29 -1.22038 0 30 0 1
gene 1 4 29 0.442827 0 31 0 1
gene 1 5 29 0.301421 0 32 0 1
gene 1 6 29 3.28202 0 33 0 1
gene 1 7 29 3.86087 0 34 0 1
gene 1 8 29 -2.75382 0 35 0 1
gene 1 9 29 0.696347 0 36 0 1
gene 1 10 29 -1.77455 0 37 0 1
gene 1 11 29 2.14333 0 38 0 1
gene 1 12 29 -0.597742 0 39 0 1
gene 1 13 29 0.637944 0 40 0 1
gene 1 14 29 2.22811 0 41 0 1
gene 1 15 29 0.600258 0 42 0 1
gene 1 16 29 2.33169 0 43 0 1
gene 1 17 29 1.32372 0 44 0 1
gene 1 18 29 -2.2556 0 45 0 1
gene 1 19 29 -0.0774022 0 46 0 1
gene 1 20 29 -0.401639 0 47 0 1
gene 1 21 29 2.16154 0 48 0 1
gene 1 22 29 0.503795 0 49 0 1
gene 1 23 29 -2.3092 0 50 0 1
gene 1 24 29 -3.86414 0 51 0 1
gene 1 25 29 2.12191 0 52 0 1
gene 1 26 29 2.79439 0 53 0 1
gene 1 27 29 2.84965 0 54 0 1
gene 1 1 30 -1.46797 0 55 0 1
gene 1 2 30 -0.0497949 0 56 0 1
gene 1 3 30 3.0919 0 57 0 1
gene 1 4 30 -2.34569 0 58 0 1
gene 1 5 30 -1.02113 0 59 0 1
gene 1 6 30 0.0855409 0 60 0 1
gene 1 7 30 3.93423 0 61 0 1
gene 1 8 30 1.98005 0 62 0 1
gene 1 9 30 -1.58486 0 63 0 1
gene 1 10 30 0.409794 0 64 0 1
gene 1 11 30 -0.688666 0 65 0 1
gene 1 12 30 0.0424952 0 66 0 1
gene 1 13 30 0.147262 0 67 0 1
gene 1 14 30 1.16852 0 68 0 1
gene 1 15 30 2.90223 0 69 0 1
gene 1 16 30 -0.924155 0 70 0 1
gene 1 17 30 1.65195 0 71 0 1
gene 1 18 30 -2.45973 0 72 0 1
gene 1 19 30 -2.11041 0 73 0 1
gene 1 20 30 -1.4973 0 74 0 1
gene 1 21 30 0.733716 0 75 0 1
gene 1 22 30 0.748554 0 76 0 1
gene 1 23 30 0.150133 0 77 0 1
gene 1 24 30 2.11167 0 78 0 1
gene 1 25 30 0.786774 0 79 0 1
gene 1 26 30 -0.85402 0 80 0 1
gene 1 27 30 0.720908 0 81 0 1
genomeend 2
