genomestart 2
trait 1 0 0 0 0 0 0 0 0 
node 1 0 1 1
node 2 0 1 1
node 3 0 1 1
node 4 0 1 1
node 5 0 1 1
node 6 0 1 1
node 7 0 1 1
node 8 0 1 1
node 9 0 1 1
node 10 0 1 1
node 11 0 1 1
node 12 0 1 1
node 13 0 1 1
node 14 0 1 1
node 15 0 1 1
node 16 0 1 1
node 17 0 1 1
node 18 0 1 1
node 19 0 1 1
node 20 0 1 1
node 21 0 1 1
node 22 0 1 1
node 23 0 1 1
node 24 0 1 1
node 25 0 1 1
node 26 0 1 1
node 27 0 1 3
node 28 0 0 2
node 29 0 0 2
node 30 0 0 2
gene 1 1 28 -0.505831 0 1 0 1
gene 1 2 28 -1.37843 0 2 0 1
gene 1 3 28 1.09763 0 3 0 1
gene 1 4 28 1.27147 0 4 0 1
gene 1 5 28 -2.02583 0 5 0 1
gene 1 6 28 -0.508979 0 6 0 1
gene 1 7 28 -0.255102 0 7 0 1
gene 1 8 28 -0.071598 0 8 0 1
gene 1 9 28 -3.47298 0 9 0 1
gene 1 10 28 0.32211 0 10 0 1
gene 1 11 28 0.420587 0 11 0 1
gene 1 12 28 -0.278698 0 12 0 1
gene 1 13 28 -1.2873 0 13 0 1
gene 1 14 28 3.28558 0 14 0 1
gene 1 15 28 0.912356 0 15 0 1
gene 1 16 28 1.09888 0 16 0 1
gene 1 17 28 0.451592 0 17 0 1
gene 1 18 28 -0.92969 0 18 0 1
gene 1 19 28 -1.69098 0 19 0 1
gene 1 20 28 -0.380165 0 20 0 1
gene 1 21 28 -0.392087 0 21 0 1
gene 1 22 28 0.395479 0 22 0 1
gene 1 23 28 -1.23981 0 23 0 1
gene 1 24 28 1.48838 0 24 0 1
gene 1 25 28 2.09909 0 25 0 1
gene 1 26 28 0.571369 0 26 0 1
gene 1 27 28 -2.65717 0 27 0 1
gene 1 1 29 0.0168796 0 28 0 1
gene 1 2 29 0.213336 0 29 0 1
gene 1 3 29 -1.0206 0 30 0 1
gene 1 4 29 0.572717 0 31 0 1
gene 1 5 29 0.303915 0 32 0 1
gene 1 6 29 3.15974 0 33 0 1
gene 1 7 29 3.65678 0 34 0 1
gene 1 8 29 -2.06017 0 35 0 1
gene 1 9 29 1.39651 0 36 0 1
gene 1 10 29 -1.83053 0 37 0 1
gene 1 11 29 2.79077 0 38 0 1
gene 1 12 29 -0.802804 0 39 0 1
gene 1 13 29 0.448981 0 40 0 1
gene 1 14 29 2.48087 0 41 0 1
gene 1 15 29 1.13188 0 42 0 1
gene 1 16 29 2.19833 0 43 0 1
gene 1 17 29 1.95608 0 44 0 1
gene 1 18 29 -1.91378 0 45 0 1
gene 1 19 29 -0.0174497 0 46 0 1
gene 1 20 29 -0.957383 0 47 0 1
gene 1 21 29 2.09287 0 48 0 1
gene 1 22 29 -0.473694 0 49 0 1
gene 1 23 29 -2.40738 0 50 0 1
gene 1 24 29 -3.61161 0 51 0 1
gene 1 25 29 1.88987 0 52 0 1
gene 1 26 29 2.70356 0 53 0 1
gene 1 27 29 3.1829 0 54 0 1
gene 1 1 30 -2.22428 0 55 0 1
gene 1 2 30 -0.694619 0 56 0 1
gene 1 3 30 3.24981 0 57 0 1
gene 1 4 30 -2.60856 0 58 0 1
gene 1 5 30 -0.402958 0 59 0 1
gene 1 6 30 0.224917 0 60 0 1
gene 1 7 30 4.46056 0 61 0 1
gene 1 8 30 0.866083 0 62 0 1
gene 1 9 30 -1.64727 0 63 0 1
gene 1 10 30 0.52296 0 64 0 1
gene 1 11 30 -1.51135 0 65 0 1
gene 1 12 30 -0.156627 0 66 0 1
gene 1 13 30 0.481121 0 67 0 1
gene 1 14 30 0.933199 0 68 0 1
gene 1 15 30 3.14998 0 69 0 1
gene 1 16 30 -1.46954 0 70 0 1
gene 1 17 30 1.42712 0 71 0 1
gene 1 18 30 -2.66846 0 72 0 1
gene 1 19 30 -1.01745 0 73 0 1
gene 1 20 30 -1.50145 0 74 0 1
gene 1 21 30 0.510587 0 75 0 1
gene 1 22 30 0.134023 0 76 0 1
gene 1 23 30 0.456562 0 77 0 1
gene 1 24 30 2.1904 0 78 0 1
gene 1 25 30 0.434628 0 79 0 1
gene 1 26 30 -0.607687 0 80 0 1
gene 1 27 30 1.40204 0 81 0 1
genomeend 2
