genomestart 2
trait 1 0 0 0 0 0 0 0 0 
node 1 0 1 1
node 2 0 1 1
node 3 0 1 1
node 4 0 1 1
node 5 0 1 1
node 6 0 1 1
node 7 0 1 1
node 8 0 1 1
node 9 0 1 1
node 10 0 1 1
node 11 0 1 1
node 12 0 1 1
node 13 0 1 1
node 14 0 1 1
node 15 0 1 1
node 16 0 1 1
node 17 0 1 1
node 18 0 1 1
node 19 0 1 1
node 20 0 1 1
node 21 0 1 1
node 22 0 1 1
node 23 0 1 1
node 24 0 1 1
node 25 0 1 1
node 26 0 1 1
node 27 0 1 3
node 28 0 0 2
node 29 0 0 2
node 30 0 0 2
gene 1 1 28 -1.17527 0 1 0 1
gene 1 2 28 -1.24827 0 2 0 1
gene 1 3 28 1.01706 0 3 0 1
gene 1 4 28 1.58422 0 4 0 1
gene 1 5 28 -1.84675 0 5 0 1
gene 1 6 28 1.091 0 6 0 1
gene 1 7 28 0.0642976 0 7 0 1
gene 1 8 28 -0.798316 0 8 0 1
gene 1 9 28 -2.48672 0 9 0 1
gene 1 10 28 0.429803 0 10 0 1
gene 1 11 28 0.36168 0 11 0 1
gene 1 12 28 0.897816 0 12 0 1
gene 1 13 28 -1.35079 0 13 0 1
gene 1 14 28 2.78031 0 14 0 1
gene 1 15 28 0.677842 0 15 0 1
gene 1 16 28 -0.0381301 0 16 0 1
gene 1 17 28 0.124728 0 17 0 1
gene 1 18 28 -0.40604 0 18 0 1
gene 1 19 28 -1.35596 0 19 0 1
gene 1 20 28 -0.959017 0 20 0 1
gene 1 21 28 0.335834 0 21 0 1
gene 1 22 28 -0.0733262 0 22 0 1
gene 1 23 28 -2.94173 0 23 0 1
gene 1 24 28 2.16389 0 24 0 1
gene 1 25 28 1.31608 0 25 0 1
gene 1 26 28 -0.112784 0 26 0 1
gene 1 27 28 -1.46014 0 27 0 1
gene 1 1 29 1.14915 0 28 0 1
gene 1 2 29 1.82972 0 29 0 1
gene 1 3 29 -1.23425 0 30 0 1
gene 1 4 29 0.433903 0 31 0 1
gene 1 5 29 -0.189434 0 32 0 1
gene 1 6 29 3.7621 0 33 0 1
gene 1 7 29 3.82514 0 34 0 1
gene 1 8 29 -0.753499 0 35 0 1
gene 1 9 29 2.14481 0 36 0 1
gene 1 10 29 -1.23184 0 37 0 1
gene 1 11 29 1.77278 0 38 0 1
gene 1 12 29 -0.113838 0 39 0 1
gene 1 13 29 1.45796 0 40 0 1
gene 1 14 29 0.830431 0 41 0 1
gene 1 15 29 1.14661 0 42 0 1
gene 1 16 29 1.83414 0 43 0 1
gene 1 17 29 1.72986 0 44 0 1
gene 1 18 29 -3.13004 0 45 0 1
gene 1 19 29 -0.330666 0 46 0 1
gene 1 20 29 -2.72426 0 47 0 1
gene 1 21 29 1.88553 0 48 0 1
gene 1 22 29 -0.020839 0 49 0 1
gene 1 23 29 -3.13523 0 50 0 1
gene 1 24 29 -3.27432 0 51 0 1
gene 1 25 29 0.157254 0 52 0 1
gene 1 26 29 2.44479 0 53 0 1
gene 1 27 29 2.38528 0 54 0 1
gene 1 1 30 -1.69575 0 55 0 1
gene 1 2 30 -0.239054 0 56 0 1
gene 1 3 30 2.75001 0 57 0 1
gene 1 4 30 -2.5014 0 58 0 1
gene 1 5 30 -1.07112 0 59 0 1
gene 1 6 30 0.364934 0 60 0 1
gene 1 7 30 3.53925 0 61 0 1
gene 1 8 30 1.00666 0 62 0 1
gene 1 9 30 -2.34123 0 63 0 1
gene 1 10 30 -0.81943 0 64 0 1
gene 1 11 30 -1.82159 0 65 0 1
gene 1 12 30 1.00643 0 66 0 1
gene 1 13 30 0.0685417 0 67 0 1
gene 1 14 30 0.371446 0 68 0 1
gene 1 15 30 1.60295 0 69 0 1
gene 1 16 30 -3.04247 0 70 0 1
gene 1 17 30 1.84156 0 71 0 1
gene 1 18 30 -2.66777 0 72 0 1
gene 1 19 30 -1.05692 0 73 0 1
gene 1 20 30 -3.37242 0 74 0 1
gene 1 21 30 0.79245 0 75 0 1
gene 1 22 30 -0.234045 0 76 0 1
gene 1 23 30 0.128236 0 77 0 1
gene 1 24 30 0.447643 0 78 0 1
gene 1 25 30 0.463092 0 79 0 1
gene 1 26 30 0.561907 0 80 0 1
gene 1 27 30 2.25339 0 81 0 1
genomeend 2
