genomestart 3
trait 1 0 0 0 0 0 0 0 0 
node 1 0 1 1
node 2 0 1 1
node 3 0 1 1
node 4 0 1 1
node 5 0 1 1
node 6 0 1 1
node 7 0 1 1
node 8 0 1 1
node 9 0 1 1
node 10 0 1 1
node 11 0 1 1
node 12 0 1 1
node 13 0 1 3
node 14 0 0 2
node 15 0 0 2
gene 1 1 14 1.92127 0 1 0 1
gene 1 2 14 0.666954 0 2 0 1
gene 1 3 14 -0.912693 0 3 0 1
gene 1 4 14 -2.36041 0 4 0 1
gene 1 5 14 0.447808 0 5 0 1
gene 1 6 14 -3.63557 0 6 0 1
gene 1 7 14 -5.41271 0 7 0 1
gene 1 8 14 0.12437 0 8 0 1
gene 1 9 14 -1.20552 0 9 0 1
gene 1 10 14 5.63905 0 10 0 1
gene 1 11 14 3.79346 0 11 0 1
gene 1 12 14 -4.05881 0 12 0 1
gene 1 13 14 -5.53724 0 13 0 1
gene 1 1 15 0.884524 0 14 0 1
gene 1 2 15 -5.68069 0 15 0 1
gene 1 3 15 -1.6789 0 16 0 1
gene 1 4 15 7.24056 0 17 0 1
gene 1 5 15 -4.06394 0 18 0 1
gene 1 6 15 0.767416 0 19 0 1
gene 1 7 15 -2.06425 0 20 0 1
gene 1 8 15 0.404103 0 21 0 1
gene 1 9 15 -1.36316 0 22 0 1
gene 1 10 15 1.94272 0 23 0 1
gene 1 11 15 3.88633 0 24 0 1
gene 1 12 15 -2.52343 0 25 0 1
gene 1 13 15 -1.02742 0 26 0 1
genomeend 3
