genomestart 3
trait 1 0 0 0 0 0 0 0 0 
node 1 0 1 1
node 2 0 1 1
node 3 0 1 1
node 4 0 1 1
node 5 0 1 1
node 6 0 1 1
node 7 0 1 1
node 8 0 1 1
node 9 0 1 1
node 10 0 1 1
node 11 0 1 1
node 12 0 1 1
node 13 0 1 3
node 14 0 0 2
node 15 0 0 2
gene 1 1 14 1.75405 0 1 0 1
gene 1 2 14 0.374377 0 2 0 1
gene 1 3 14 -4.49984 0 3 0 1
gene 1 4 14 -4.22917 0 4 0 1
gene 1 5 14 -1.20542 0 5 0 1
gene 1 6 14 -6.11032 0 6 0 1
gene 1 7 14 -3.90363 0 7 0 1
gene 1 8 14 -0.766597 0 8 0 1
gene 1 9 14 5.08971 0 9 0 1
gene 1 10 14 7.88859 0 10 0 1
gene 1 11 14 6.6103 0 11 0 1
gene 1 12 14 -6.92486 0 12 0 1
gene 1 13 14 -1.53524 0 13 0 1
gene 1 1 15 3.46684 0 14 0 1
gene 1 2 15 -9.34016 0 15 0 1
gene 1 3 15 -4.45818 0 16 0 1
gene 1 4 15 8.71553 0 17 0 1
gene 1 5 15 -2.75345 0 18 0 1
gene 1 6 15 4.58004 0 19 0 1
gene 1 7 15 -5.58974 0 20 0 1
gene 1 8 15 3.01747 0 21 0 1
gene 1 9 15 -0.746611 0 22 0 1
gene 1 10 15 3.32453 0 23 0 1
gene 1 11 15 4.59903 0 24 0 1
gene 1 12 15 -6.04402 0 25 0 1
gene 1 13 15 -3.86934 0 26 0 1
genomeend 3
