genomestart 7
trait 1 0 0 0 0 0 0 0 0 
node 1 0 1 1
node 2 0 1 1
node 3 0 1 1
node 4 0 1 1
node 5 0 1 1
node 6 0 1 1
node 7 0 1 1
node 8 0 1 1
node 9 0 1 1
node 10 0 1 1
node 11 0 1 1
node 12 0 1 1
node 13 0 1 3
node 14 0 0 2
node 15 0 0 2
gene 1 1 14 -0.909628 0 1 0 1
gene 1 2 14 3.11076 0 2 0 1
gene 1 3 14 -2.16928 0 3 0 1
gene 1 4 14 5.66816 0 4 0 1
gene 1 5 14 3.61823 0 5 0 1
gene 1 6 14 3.54272 0 6 0 1
gene 1 7 14 -3.95621 0 7 0 1
gene 1 8 14 -6.96283 0 8 0 1
gene 1 9 14 1.29972 0 9 0 1
gene 1 10 14 -2.47805 0 10 0 1
gene 1 11 14 5.55821 0 11 0 1
gene 1 12 14 6.01628 0 12 0 1
gene 1 13 14 -3.15813 0 13 0 1
gene 1 1 15 -0.0117481 0 14 0 1
gene 1 2 15 1.65172 0 15 0 1
gene 1 3 15 2.87768 0 16 0 1
gene 1 4 15 5.62093 0 17 0 1
gene 1 5 15 -2.09315 0 18 0 1
gene 1 6 15 2.55759 0 19 0 1
gene 1 7 15 2.43222 0 20 0 1
gene 1 8 15 -3.02328 0 21 0 1
gene 1 9 15 2.04775 0 22 0 1
gene 1 10 15 3.23583 0 23 0 1
gene 1 11 15 0.105295 0 24 0 1
gene 1 12 15 2.98333 0 25 0 1
gene 1 13 15 -4.61469 0 26 0 1
genomeend 7
