genomestart 1
trait 1 0 0 0 0 0 0 0 0 
node 1 0 1 1
node 2 0 1 1
node 3 0 1 1
node 4 0 1 1
node 5 0 1 1
node 6 0 1 1
node 7 0 1 1
node 8 0 1 1
node 9 0 1 1
node 10 0 1 1
node 11 0 1 1
node 12 0 1 1
node 13 0 1 1
node 14 0 1 1
node 15 0 1 1
node 16 0 1 1
node 17 0 1 1
node 18 0 1 1
node 19 0 1 1
node 20 0 1 1
node 21 0 1 1
node 22 0 1 1
node 23 0 1 1
node 24 0 1 1
node 25 0 1 1
node 26 0 1 1
node 27 0 1 3
node 28 0 0 2
node 29 0 0 2
node 30 0 0 2
gene 1 1 28 -1.21552 0 1 0 1
gene 1 2 28 0.0555457 0 2 0 1
gene 1 3 28 -0.0491244 0 3 0 1
gene 1 4 28 0.426013 0 4 0 1
gene 1 5 28 -0.0392863 0 5 0 1
gene 1 6 28 0.521453 0 6 0 1
gene 1 7 28 -0.38206 0 7 0 1
gene 1 8 28 0.216492 0 8 0 1
gene 1 9 28 0.261534 0 9 0 1
gene 1 10 28 0.0430394 0 10 0 1
gene 1 11 28 -0.337502 0 11 0 1
gene 1 12 28 -0.16607 0 12 0 1
gene 1 13 28 0.273456 0 13 0 1
gene 1 14 28 0.51133 0 14 0 1
gene 1 15 28 -0.806728 0 15 0 1
gene 1 16 28 -0.765984 0 16 0 1
gene 1 17 28 -0.918725 0 17 0 1
gene 1 18 28 -0.520669 0 18 0 1
gene 1 19 28 -0.21548 0 19 0 1
gene 1 20 28 -0.042538 0 20 0 1
gene 1 21 28 -0.0928922 0 21 0 1
gene 1 22 28 0.441533 0 22 0 1
gene 1 23 28 -0.497115 0 23 0 1
gene 1 24 28 0.0356975 0 24 0 1
gene 1 25 28 -0.579356 0 25 0 1
gene 1 26 28 0.0838712 0 26 0 1
gene 1 27 28 0.325504 0 27 0 1
gene 1 1 29 -0.396796 0 28 0 1
gene 1 2 29 -0.129561 0 29 0 1
gene 1 3 29 -0.737869 0 30 0 1
gene 1 4 29 -1.31088 0 31 0 1
gene 1 5 29 0.102386 0 32 0 1
gene 1 6 29 0.260061 0 33 0 1
gene 1 7 29 -0.398482 0 34 0 1
gene 1 8 29 -0.475644 0 35 0 1
gene 1 9 29 0.328474 0 36 0 1
gene 1 10 29 0.0259258 0 37 0 1
gene 1 11 29 0.171834 0 38 0 1
gene 1 12 29 -0.504461 0 39 0 1
gene 1 13 29 -0.468342 0 40 0 1
gene 1 14 29 0.545257 0 41 0 1
gene 1 15 29 0.102796 0 42 0 1
gene 1 16 29 -0.121818 0 43 0 1
gene 1 17 29 0.164627 0 44 0 1
gene 1 18 29 0.613004 0 45 0 1
gene 1 19 29 -0.180798 0 46 0 1
gene 1 20 29 -0.256078 0 47 0 1
gene 1 21 29 -0.140448 0 48 0 1
gene 1 22 29 0.915201 0 49 0 1
gene 1 23 29 0.140508 0 50 0 1
gene 1 24 29 -0.0325452 0 51 0 1
gene 1 25 29 -0.356944 0 52 0 1
gene 1 26 29 0.263571 0 53 0 1
gene 1 27 29 0.349761 0 54 0 1
gene 1 1 30 -0.578724 0 55 0 1
gene 1 2 30 0.490147 0 56 0 1
gene 1 3 30 -0.269676 0 57 0 1
gene 1 4 30 0.112718 0 58 0 1
gene 1 5 30 -0.47418 0 59 0 1
gene 1 6 30 0.220559 0 60 0 1
gene 1 7 30 0.650859 0 61 0 1
gene 1 8 30 -1.25312 0 62 0 1
gene 1 9 30 -0.341031 0 63 0 1
gene 1 10 30 -0.264979 0 64 0 1
gene 1 11 30 -0.205238 0 65 0 1
gene 1 12 30 -0.180978 0 66 0 1
gene 1 13 30 -0.109044 0 67 0 1
gene 1 14 30 0.38521 0 68 0 1
gene 1 15 30 0.296532 0 69 0 1
gene 1 16 30 -0.981673 0 70 0 1
gene 1 17 30 -0.074215 0 71 0 1
gene 1 18 30 -0.0956569 0 72 0 1
gene 1 19 30 -0.37597 0 73 0 1
gene 1 20 30 -0.104233 0 74 0 1
gene 1 21 30 0.256705 0 75 0 1
gene 1 22 30 -0.606711 0 76 0 1
gene 1 23 30 0.0954104 0 77 0 1
gene 1 24 30 -0.340367 0 78 0 1
gene 1 25 30 0.0722534 0 79 0 1
gene 1 26 30 -0.47844 0 80 0 1
gene 1 27 30 0.0161661 0 81 0 1
genomeend 1
