genomestart 0
trait 1 0 0 0 0 0 0 0 0 
node 1 0 1 1
node 2 0 1 1
node 3 0 1 1
node 4 0 1 1
node 5 0 1 1
node 6 0 1 1
node 7 0 1 1
node 8 0 1 1
node 9 0 1 1
node 10 0 1 1
node 11 0 1 1
node 12 0 1 1
node 13 0 1 1
node 14 0 1 1
node 15 0 1 1
node 16 0 1 1
node 17 0 1 1
node 18 0 1 1
node 19 0 1 1
node 20 0 1 1
node 21 0 1 1
node 22 0 1 1
node 23 0 1 1
node 24 0 1 1
node 25 0 1 1
node 26 0 1 1
node 27 0 1 3
node 28 0 0 2
node 29 0 0 2
node 30 0 0 2
gene 1 1 28 0.958249 0 1 0 1
gene 1 2 28 0.898814 0 2 0 1
gene 1 3 28 -0.728144 0 3 0 1
gene 1 4 28 -0.162127 0 4 0 1
gene 1 5 28 0.215771 0 5 0 1
gene 1 6 28 1.20501 0 6 0 1
gene 1 7 28 1.10455 0 7 0 1
gene 1 8 28 -1.37178 0 8 0 1
gene 1 9 28 0.217049 0 9 0 1
gene 1 10 28 -1.41986 0 10 0 1
gene 1 11 28 0.217472 0 11 0 1
gene 1 12 28 -0.466078 0 12 0 1
gene 1 13 28 -0.213479 0 13 0 1
gene 1 14 28 0.167344 0 14 0 1
gene 1 15 28 0.363704 0 15 0 1
gene 1 16 28 0.298224 0 16 0 1
gene 1 17 28 -0.177648 0 17 0 1
gene 1 18 28 -0.0796139 0 18 0 1
gene 1 19 28 0.492414 0 19 0 1
gene 1 20 28 0.259326 0 20 0 1
gene 1 21 28 -1.3419 0 21 0 1
gene 1 22 28 -1.1796 0 22 0 1
gene 1 23 28 1.10044 0 23 0 1
gene 1 24 28 0.733193 0 24 0 1
gene 1 25 28 0.332791 0 25 0 1
gene 1 26 28 -0.169831 0 26 0 1
gene 1 27 28 0.0146065 0 27 0 1
gene 1 1 29 -0.363272 0 28 0 1
gene 1 2 29 0.455513 0 29 0 1
gene 1 3 29 0.36075 0 30 0 1
gene 1 4 29 0.234131 0 31 0 1
gene 1 5 29 0.0401659 0 32 0 1
gene 1 6 29 0.258037 0 33 0 1
gene 1 7 29 -0.861855 0 34 0 1
gene 1 8 29 0.183581 0 35 0 1
gene 1 9 29 -0.43523 0 36 0 1
gene 1 10 29 -1.14193 0 37 0 1
gene 1 11 29 -0.996408 0 38 0 1
gene 1 12 29 -0.818875 0 39 0 1
gene 1 13 29 -0.226102 0 40 0 1
gene 1 14 29 -0.919281 0 41 0 1
gene 1 15 29 -0.151079 0 42 0 1
gene 1 16 29 0.208305 0 43 0 1
gene 1 17 29 -0.236713 0 44 0 1
gene 1 18 29 0.495088 0 45 0 1
gene 1 19 29 0.819955 0 46 0 1
gene 1 20 29 0.712283 0 47 0 1
gene 1 21 29 0.27832 0 48 0 1
gene 1 22 29 -0.498367 0 49 0 1
gene 1 23 29 -0.167715 0 50 0 1
gene 1 24 29 0.721318 0 51 0 1
gene 1 25 29 -0.244315 0 52 0 1
gene 1 26 29 -0.00979448 0 53 0 1
gene 1 27 29 0.723728 0 54 0 1
gene 1 1 30 -0.33133 0 55 0 1
gene 1 2 30 0.831156 0 56 0 1
gene 1 3 30 1.81084 0 57 0 1
gene 1 4 30 -0.798097 0 58 0 1
gene 1 5 30 -1.60391 0 59 0 1
gene 1 6 30 0.731988 0 60 0 1
gene 1 7 30 -0.530106 0 61 0 1
gene 1 8 30 -0.0771749 0 62 0 1
gene 1 9 30 -0.571735 0 63 0 1
gene 1 10 30 -0.605841 0 64 0 1
gene 1 11 30 -0.0976096 0 65 0 1
gene 1 12 30 0.0734285 0 66 0 1
gene 1 13 30 0.0576326 0 67 0 1
gene 1 14 30 -0.486125 0 68 0 1
gene 1 15 30 0.688126 0 69 0 1
gene 1 16 30 -0.252595 0 70 0 1
gene 1 17 30 -0.0800738 0 71 0 1
gene 1 18 30 -0.979879 0 72 0 1
gene 1 19 30 0.0151794 0 73 0 1
gene 1 20 30 0.138152 0 74 0 1
gene 1 21 30 0.678968 0 75 0 1
gene 1 22 30 0.0492173 0 76 0 1
gene 1 23 30 -0.0130738 0 77 0 1
gene 1 24 30 -0.146677 0 78 0 1
gene 1 25 30 1.85566 0 79 0 1
gene 1 26 30 -0.91909 0 80 0 1
gene 1 27 30 -0.336598 0 81 0 1
genomeend 0
