genomestart 2
trait 1 0 0 0 0 0 0 0 0 
node 1 0 1 1
node 2 0 1 1
node 3 0 1 1
node 4 0 1 1
node 5 0 1 1
node 6 0 1 1
node 7 0 1 1
node 8 0 1 1
node 9 0 1 1
node 10 0 1 1
node 11 0 1 1
node 12 0 1 1
node 13 0 1 1
node 14 0 1 1
node 15 0 1 1
node 16 0 1 1
node 17 0 1 1
node 18 0 1 1
node 19 0 1 1
node 20 0 1 1
node 21 0 1 1
node 22 0 1 1
node 23 0 1 1
node 24 0 1 1
node 25 0 1 1
node 26 0 1 1
node 27 0 1 3
node 28 0 0 2
node 29 0 0 2
node 30 0 0 2
gene 1 1 28 -0.4126 0 1 0 1
gene 1 2 28 -0.395428 0 2 0 1
gene 1 3 28 1.38679 0 3 0 1
gene 1 4 28 1.76486 0 4 0 1
gene 1 5 28 -3.14685 0 5 0 1
gene 1 6 28 -1.20389 0 6 0 1
gene 1 7 28 -0.166286 0 7 0 1
gene 1 8 28 0.63375 0 8 0 1
gene 1 9 28 -3.12878 0 9 0 1
gene 1 10 28 -2.19018 0 10 0 1
gene 1 11 28 1.76435 0 11 0 1
gene 1 12 28 -1.01134 0 12 0 1
gene 1 13 28 -1.35941 0 13 0 1
gene 1 14 28 4.64163 0 14 0 1
gene 1 15 28 1.15703 0 15 0 1
gene 1 16 28 1.28397 0 16 0 1
gene 1 17 28 1.32886 0 17 0 1
gene 1 18 28 -0.855687 0 18 0 1
gene 1 19 28 -1.42413 0 19 0 1
gene 1 20 28 -1.62717 0 20 0 1
gene 1 21 28 -1.37222 0 21 0 1
gene 1 22 28 1.05029 0 22 0 1
gene 1 23 28 -0.904294 0 23 0 1
gene 1 24 28 2.26472 0 24 0 1
gene 1 25 28 3.13432 0 25 0 1
gene 1 26 28 1.48446 0 26 0 1
gene 1 27 28 -3.07414 0 27 0 1
gene 1 1 29 1.39703 0 28 0 1
gene 1 2 29 2.04564 0 29 0 1
gene 1 3 29 -1.26301 0 30 0 1
gene 1 4 29 0.860547 0 31 0 1
gene 1 5 29 -0.386691 0 32 0 1
gene 1 6 29 3.91493 0 33 0 1
gene 1 7 29 3.66062 0 34 0 1
gene 1 8 29 -2.81951 0 35 0 1
gene 1 9 29 -0.391526 0 36 0 1
gene 1 10 29 -0.295977 0 37 0 1
gene 1 11 29 2.45997 0 38 0 1
gene 1 12 29 0.592764 0 39 0 1
gene 1 13 29 0.495704 0 40 0 1
gene 1 14 29 1.77883 0 41 0 1
gene 1 15 29 -0.0392737 0 42 0 1
gene 1 16 29 2.2087 0 43 0 1
gene 1 17 29 1.2726 0 44 0 1
gene 1 18 29 -2.93183 0 45 0 1
gene 1 19 29 -1.09083 0 46 0 1
gene 1 20 29 -0.833495 0 47 0 1
gene 1 21 29 1.27645 0 48 0 1
gene 1 22 29 1.50947 0 49 0 1
gene 1 23 29 -3.91553 0 50 0 1
gene 1 24 29 -5.39235 0 51 0 1
gene 1 25 29 2.78432 0 52 0 1
gene 1 26 29 0.965569 0 53 0 1
gene 1 27 29 2.63173 0 54 0 1
gene 1 1 30 -1.43276 0 55 0 1
gene 1 2 30 0.773924 0 56 0 1
gene 1 3 30 2.81922 0 57 0 1
gene 1 4 30 -1.30102 0 58 0 1
gene 1 5 30 0.425108 0 59 0 1
gene 1 6 30 -1.38315 0 60 0 1
gene 1 7 30 3.70523 0 61 0 1
gene 1 8 30 2.83363 0 62 0 1
gene 1 9 30 -1.2948 0 63 0 1
gene 1 10 30 -1.18173 0 64 0 1
gene 1 11 30 -1.47417 0 65 0 1
gene 1 12 30 -0.4371 0 66 0 1
gene 1 13 30 0.50351 0 67 0 1
gene 1 14 30 3.10737 0 68 0 1
gene 1 15 30 1.98974 0 69 0 1
gene 1 16 30 -0.472261 0 70 0 1
gene 1 17 30 1.33625 0 71 0 1
gene 1 18 30 -0.165179 0 72 0 1
gene 1 19 30 -2.02575 0 73 0 1
gene 1 20 30 -1.48286 0 74 0 1
gene 1 21 30 0.834984 0 75 0 1
gene 1 22 30 0.42649 0 76 0 1
gene 1 23 30 -0.667655 0 77 0 1
gene 1 24 30 2.74777 0 78 0 1
gene 1 25 30 1.04762 0 79 0 1
gene 1 26 30 -0.496791 0 80 0 1
gene 1 27 30 1.63255 0 81 0 1
genomeend 2
