genomestart 2
trait 1 0 0 0 0 0 0 0 0 
node 1 0 1 1
node 2 0 1 1
node 3 0 1 1
node 4 0 1 1
node 5 0 1 1
node 6 0 1 1
node 7 0 1 1
node 8 0 1 1
node 9 0 1 1
node 10 0 1 1
node 11 0 1 1
node 12 0 1 1
node 13 0 1 1
node 14 0 1 1
node 15 0 1 1
node 16 0 1 1
node 17 0 1 1
node 18 0 1 1
node 19 0 1 1
node 20 0 1 1
node 21 0 1 1
node 22 0 1 1
node 23 0 1 1
node 24 0 1 1
node 25 0 1 1
node 26 0 1 1
node 27 0 1 3
node 28 0 0 2
node 29 0 0 2
node 30 0 0 2
gene 1 1 28 -0.53083 0 1 0 1
gene 1 2 28 -2.60888 0 2 0 1
gene 1 3 28 -0.408349 0 3 0 1
gene 1 4 28 1.0797 0 4 0 1
gene 1 5 28 -1.14694 0 5 0 1
gene 1 6 28 0.0617703 0 6 0 1
gene 1 7 28 -0.437076 0 7 0 1
gene 1 8 28 0.467245 0 8 0 1
gene 1 9 28 -1.38972 0 9 0 1
gene 1 10 28 0.365592 0 10 0 1
gene 1 11 28 0.95924 0 11 0 1
gene 1 12 28 1.03492 0 12 0 1
gene 1 13 28 -1.16701 0 13 0 1
gene 1 14 28 0.411979 0 14 0 1
gene 1 15 28 0.427401 0 15 0 1
gene 1 16 28 0.61311 0 16 0 1
gene 1 17 28 1.28052 0 17 0 1
gene 1 18 28 0.0693111 0 18 0 1
gene 1 19 28 -0.501827 0 19 0 1
gene 1 20 28 -0.646703 0 20 0 1
gene 1 21 28 0.750816 0 21 0 1
gene 1 22 28 -1.4354 0 22 0 1
gene 1 23 28 -1.34917 0 23 0 1
gene 1 24 28 -0.887463 0 24 0 1
gene 1 25 28 2.4155 0 25 0 1
gene 1 26 28 -0.765111 0 26 0 1
gene 1 27 28 -0.243743 0 27 0 1
gene 1 1 29 0.510956 0 28 0 1
gene 1 2 29 -0.374596 0 29 0 1
gene 1 3 29 -1.25179 0 30 0 1
gene 1 4 29 0.16267 0 31 0 1
gene 1 5 29 -0.450255 0 32 0 1
gene 1 6 29 1.57627 0 33 0 1
gene 1 7 29 0.612812 0 34 0 1
gene 1 8 29 -0.0412191 0 35 0 1
gene 1 9 29 -0.361571 0 36 0 1
gene 1 10 29 -0.988079 0 37 0 1
gene 1 11 29 -0.722889 0 38 0 1
gene 1 12 29 -0.830879 0 39 0 1
gene 1 13 29 1.09467 0 40 0 1
gene 1 14 29 1.04041 0 41 0 1
gene 1 15 29 -2.06876 0 42 0 1
gene 1 16 29 0.954626 0 43 0 1
gene 1 17 29 1.69783 0 44 0 1
gene 1 18 29 -0.396937 0 45 0 1
gene 1 19 29 -1.06403 0 46 0 1
gene 1 20 29 0.655777 0 47 0 1
gene 1 21 29 -0.855506 0 48 0 1
gene 1 22 29 0.215104 0 49 0 1
gene 1 23 29 -1.01593 0 50 0 1
gene 1 24 29 -1.10601 0 51 0 1
gene 1 25 29 1.53128 0 52 0 1
gene 1 26 29 0.864052 0 53 0 1
gene 1 27 29 -0.519822 0 54 0 1
gene 1 1 30 -1.22299 0 55 0 1
gene 1 2 30 0.693173 0 56 0 1
gene 1 3 30 1.80709 0 57 0 1
gene 1 4 30 -0.109638 0 58 0 1
gene 1 5 30 0.45844 0 59 0 1
gene 1 6 30 1.04639 0 60 0 1
gene 1 7 30 1.48246 0 61 0 1
gene 1 8 30 2.4496 0 62 0 1
gene 1 9 30 -0.30773 0 63 0 1
gene 1 10 30 0.660688 0 64 0 1
gene 1 11 30 -1.35504 0 65 0 1
gene 1 12 30 -0.72169 0 66 0 1
gene 1 13 30 -0.130809 0 67 0 1
gene 1 14 30 -0.122923 0 68 0 1
gene 1 15 30 1.21005 0 69 0 1
gene 1 16 30 -1.24543 0 70 0 1
gene 1 17 30 0.0595585 0 71 0 1
gene 1 18 30 0.0274102 0 72 0 1
gene 1 19 30 -0.112245 0 73 0 1
gene 1 20 30 0.0532447 0 74 0 1
gene 1 21 30 -1.44638 0 75 0 1
gene 1 22 30 0.251161 0 76 0 1
gene 1 23 30 1.2623 0 77 0 1
gene 1 24 30 0.533564 0 78 0 1
gene 1 25 30 0.64567 0 79 0 1
gene 1 26 30 -1.96416 0 80 0 1
gene 1 27 30 0.517503 0 81 0 1
genomeend 2
