genomestart 1
trait 1 0 0 0 0 0 0 0 0 
node 1 0 1 1
node 2 0 1 1
node 3 0 1 1
node 4 0 1 1
node 5 0 1 1
node 6 0 1 1
node 7 0 1 1
node 8 0 1 1
node 9 0 1 1
node 10 0 1 1
node 11 0 1 1
node 12 0 1 1
node 13 0 1 1
node 14 0 1 1
node 15 0 1 1
node 16 0 1 1
node 17 0 1 1
node 18 0 1 1
node 19 0 1 1
node 20 0 1 1
node 21 0 1 1
node 22 0 1 1
node 23 0 1 1
node 24 0 1 1
node 25 0 1 3
node 26 0 0 2
node 27 0 0 2
node 28 1 0 0
node 29 1 0 0
node 30 1 0 0
node 30 1 0 0
node 31 1 0 0
node 32 1 0 0
node 33 1 0 0
node 34 1 0 0
gene 1 1 26 -1.32997 0 1 -1.32997 1
gene 1 2 26 -0.42456 0 2 -0.42456 1
gene 1 3 26 0.175647 0 3 0.175647 1
gene 1 4 26 -0.2527 0 4 -0.2527 0
gene 1 5 26 -0.462139 0 5 -0.462139 0
gene 1 6 26 0.952047 0 6 0.952047 1
gene 1 7 26 0.93236 0 7 0.93236 1
gene 1 8 26 -1.6688 0 8 -1.6688 1
gene 1 9 26 0.992809 0 9 0.992809 1
gene 1 10 26 0.630901 0 10 0.630901 1
gene 1 11 26 0.530378 0 11 0.530378 1
gene 1 12 26 0.546912 0 12 0.546912 0
gene 1 13 26 0.22678 0 13 0.22678 1
gene 1 14 26 1.35438 0 14 1.35438 1
gene 1 15 26 1.22626 0 15 1.22626 1
gene 1 16 26 -1.22305 0 16 -1.22305 1
gene 1 17 26 -1.4584 0 17 -1.4584 1
gene 1 18 26 -0.958148 0 18 -0.958148 0
gene 1 19 26 -0.385096 0 19 -0.385096 1
gene 1 20 26 -0.189187 0 20 -0.189187 1
gene 1 21 26 0.48235 0 21 0.48235 1
gene 1 22 26 0.602561 0 22 0.602561 1
gene 1 23 26 -0.538002 0 23 -0.538002 1
gene 1 24 26 -0.885203 0 24 -0.885203 1
gene 1 25 26 -0.676073 0 25 -0.676073 1
gene 1 1 27 0.0981574 0 26 0.0981574 1
gene 1 2 27 -1.33755 0 27 -1.33755 1
gene 1 3 27 1.38013 0 28 1.38013 0
gene 1 4 27 1.01922 0 29 1.01922 1
gene 1 5 27 -0.212303 0 30 -0.212303 0
gene 1 6 27 0.187663 0 31 0.187663 0
gene 1 7 27 -0.0943694 0 32 -0.0943694 1
gene 1 8 27 0.802228 0 33 0.802228 0
gene 1 9 27 -1.12673 0 34 -1.12673 1
gene 1 10 27 1.14377 0 35 1.14377 1
gene 1 11 27 -0.509981 0 36 -0.509981 1
gene 1 12 27 -0.756368 0 37 -0.756368 1
gene 1 13 27 -0.312862 0 38 -0.312862 1
gene 1 14 27 0.14427 0 39 0.14427 1
gene 1 15 27 -0.138548 0 40 -0.138548 1
gene 1 16 27 -0.785398 0 41 -0.785398 1
gene 1 17 27 -0.614111 0 42 -0.614111 1
gene 1 18 27 -0.686295 0 43 -0.686295 1
gene 1 19 27 -0.540501 0 44 -0.540501 1
gene 1 20 27 -0.970321 0 45 -0.970321 1
gene 1 21 27 -0.623648 0 46 -0.623648 1
gene 1 22 27 1.15836 0 47 1.15836 1
gene 1 23 27 1.07076 0 48 1.07076 1
gene 1 24 27 0.612567 0 49 0.612567 1
gene 1 8 28 1.50666 0 50 1.50666 1
gene 1 25 27 -0.206955 0 50 -0.206955 1
gene 1 28 27 0.666145 0 51 0.666145 1
gene 1 12 29 1.77621 0 52 1.77621 1
gene 1 29 26 -0.646951 0 53 -0.646951 1
gene 1 5 30 1.39167 0 54 1.39167 1
gene 1 18 30 -0.995306 0 55 -0.995306 1
gene 1 30 26 -0.387623 0 55 -0.387623 1
gene 1 30 26 -1.51579 0 56 -1.51579 1
gene 1 3 31 0.845279 0 56 0.845279 1
gene 1 31 27 1.57683 0 57 1.57683 1
gene 1 4 32 0.0606406 0 58 0.0606406 1
gene 1 32 26 -0.204952 0 59 -0.204952 1
gene 1 13 28 0.141293 0 60 0.141293 1
gene 1 6 33 0.589193 0 60 0.589193 1
gene 1 33 27 0.614401 0 61 0.614401 1
gene 1 5 34 1.09248 0 62 1.09248 1
gene 1 34 27 0.22777 0 63 0.22777 1
genomeend 1
