genomestart 7
trait 1 0 0 0 0 0 0 0 0 
node 1 0 1 1
node 2 0 1 1
node 3 0 1 1
node 4 0 1 1
node 5 0 1 1
node 6 0 1 1
node 7 0 1 1
node 8 0 1 1
node 9 0 1 1
node 10 0 1 1
node 11 0 1 1
node 12 0 1 1
node 13 0 1 3
node 14 0 0 2
node 15 0 0 2
gene 1 1 14 -0.0911416 0 1 0 1
gene 1 2 14 2.14204 0 2 0 1
gene 1 3 14 -1.61062 0 3 0 1
gene 1 4 14 4.52392 0 4 0 1
gene 1 5 14 4.06662 0 5 0 1
gene 1 6 14 3.57135 0 6 0 1
gene 1 7 14 -4.87647 0 7 0 1
gene 1 8 14 -8.46047 0 8 0 1
gene 1 9 14 2.42312 0 9 0 1
gene 1 10 14 -3.06627 0 10 0 1
gene 1 11 14 4.58812 0 11 0 1
gene 1 12 14 5.2573 0 12 0 1
gene 1 13 14 -2.66112 0 13 0 1
gene 1 1 15 0.358293 0 14 0 1
gene 1 2 15 1.77338 0 15 0 1
gene 1 3 15 2.18689 0 16 0 1
gene 1 4 15 4.32266 0 17 0 1
gene 1 5 15 -1.3379 0 18 0 1
gene 1 6 15 2.35734 0 19 0 1
gene 1 7 15 3.7316 0 20 0 1
gene 1 8 15 -2.37338 0 21 0 1
gene 1 9 15 2.64446 0 22 0 1
gene 1 10 15 1.93808 0 23 0 1
gene 1 11 15 1.92134 0 24 0 1
gene 1 12 15 3.01684 0 25 0 1
gene 1 13 15 -5.61338 0 26 0 1
genomeend 7
