genomestart 2
trait 1 0 0 0 0 0 0 0 0 
node 1 0 1 1
node 2 0 1 1
node 3 0 1 1
node 4 0 1 1
node 5 0 1 1
node 6 0 1 1
node 7 0 1 1
node 8 0 1 1
node 9 0 1 1
node 10 0 1 1
node 11 0 1 1
node 12 0 1 1
node 13 0 1 1
node 14 0 1 1
node 15 0 1 1
node 16 0 1 1
node 17 0 1 1
node 18 0 1 1
node 19 0 1 1
node 20 0 1 1
node 21 0 1 1
node 22 0 1 1
node 23 0 1 1
node 24 0 1 1
node 25 0 1 1
node 26 0 1 1
node 27 0 1 3
node 28 0 0 2
node 29 0 0 2
node 30 0 0 2
gene 1 1 28 -0.1707 0 1 0 1
gene 1 2 28 -0.806609 0 2 0 1
gene 1 3 28 1.30452 0 3 0 1
gene 1 4 28 1.6452 0 4 0 1
gene 1 5 28 -3.28812 0 5 0 1
gene 1 6 28 -0.677701 0 6 0 1
gene 1 7 28 -0.0196702 0 7 0 1
gene 1 8 28 0.459469 0 8 0 1
gene 1 9 28 -3.31514 0 9 0 1
gene 1 10 28 -1.5967 0 10 0 1
gene 1 11 28 1.33401 0 11 0 1
gene 1 12 28 -0.95995 0 12 0 1
gene 1 13 28 -1.69727 0 13 0 1
gene 1 14 28 4.48946 0 14 0 1
gene 1 15 28 0.946336 0 15 0 1
gene 1 16 28 1.10631 0 16 0 1
gene 1 17 28 0.886132 0 17 0 1
gene 1 18 28 -0.75569 0 18 0 1
gene 1 19 28 -1.71049 0 19 0 1
gene 1 20 28 -1.76316 0 20 0 1
gene 1 21 28 -1.38061 0 21 0 1
gene 1 22 28 0.917562 0 22 0 1
gene 1 23 28 -0.88021 0 23 0 1
gene 1 24 28 2.54054 0 24 0 1
gene 1 25 28 3.19707 0 25 0 1
gene 1 26 28 1.31735 0 26 0 1
gene 1 27 28 -3.22025 0 27 0 1
gene 1 1 29 1.47269 0 28 0 1
gene 1 2 29 2.08492 0 29 0 1
gene 1 3 29 -1.52277 0 30 0 1
gene 1 4 29 0.756673 0 31 0 1
gene 1 5 29 -0.177245 0 32 0 1
gene 1 6 29 3.62735 0 33 0 1
gene 1 7 29 3.63598 0 34 0 1
gene 1 8 29 -3.14654 0 35 0 1
gene 1 9 29 0.266503 0 36 0 1
gene 1 10 29 -0.690486 0 37 0 1
gene 1 11 29 2.27302 0 38 0 1
gene 1 12 29 0.425228 0 39 0 1
gene 1 13 29 0.804077 0 40 0 1
gene 1 14 29 1.81799 0 41 0 1
gene 1 15 29 -0.337248 0 42 0 1
gene 1 16 29 2.2123 0 43 0 1
gene 1 17 29 1.41455 0 44 0 1
gene 1 18 29 -2.73089 0 45 0 1
gene 1 19 29 -0.724016 0 46 0 1
gene 1 20 29 -0.817336 0 47 0 1
gene 1 21 29 1.48235 0 48 0 1
gene 1 22 29 1.68449 0 49 0 1
gene 1 23 29 -3.65234 0 50 0 1
gene 1 24 29 -5.39959 0 51 0 1
gene 1 25 29 3.19858 0 52 0 1
gene 1 26 29 1.42345 0 53 0 1
gene 1 27 29 2.61263 0 54 0 1
gene 1 1 30 -1.047 0 55 0 1
gene 1 2 30 0.537463 0 56 0 1
gene 1 3 30 3.06834 0 57 0 1
gene 1 4 30 -2.01518 0 58 0 1
gene 1 5 30 0.131372 0 59 0 1
gene 1 6 30 -0.767084 0 60 0 1
gene 1 7 30 4.43897 0 61 0 1
gene 1 8 30 2.57775 0 62 0 1
gene 1 9 30 -1.42345 0 63 0 1
gene 1 10 30 -0.657348 0 64 0 1
gene 1 11 30 -1.43186 0 65 0 1
gene 1 12 30 -0.319174 0 66 0 1
gene 1 13 30 0.601305 0 67 0 1
gene 1 14 30 2.9168 0 68 0 1
gene 1 15 30 2.26073 0 69 0 1
gene 1 16 30 -0.808855 0 70 0 1
gene 1 17 30 1.08937 0 71 0 1
gene 1 18 30 -0.42063 0 72 0 1
gene 1 19 30 -2.51315 0 73 0 1
gene 1 20 30 -1.23692 0 74 0 1
gene 1 21 30 1.16068 0 75 0 1
gene 1 22 30 0.738123 0 76 0 1
gene 1 23 30 -0.843625 0 77 0 1
gene 1 24 30 2.83966 0 78 0 1
gene 1 25 30 0.493326 0 79 0 1
gene 1 26 30 -0.837199 0 80 0 1
gene 1 27 30 1.77168 0 81 0 1
genomeend 2
