genomestart 3
trait 1 0 0 0 0 0 0 0 0 
node 1 0 1 1
node 2 0 1 1
node 3 0 1 1
node 4 0 1 1
node 5 0 1 1
node 6 0 1 1
node 7 0 1 1
node 8 0 1 1
node 9 0 1 1
node 10 0 1 1
node 11 0 1 1
node 12 0 1 1
node 13 0 1 3
node 14 0 0 2
node 15 0 0 2
gene 1 1 14 1.23432 0 1 0 1
gene 1 2 14 0.100506 0 2 0 1
gene 1 3 14 -4.41675 0 3 0 1
gene 1 4 14 -3.92438 0 4 0 1
gene 1 5 14 -0.81412 0 5 0 1
gene 1 6 14 -6.8129 0 6 0 1
gene 1 7 14 -4.52245 0 7 0 1
gene 1 8 14 0.619499 0 8 0 1
gene 1 9 14 6.03903 0 9 0 1
gene 1 10 14 8.88927 0 10 0 1
gene 1 11 14 5.96998 0 11 0 1
gene 1 12 14 -6.50845 0 12 0 1
gene 1 13 14 -2.44576 0 13 0 1
gene 1 1 15 2.36989 0 14 0 1
gene 1 2 15 -8.72719 0 15 0 1
gene 1 3 15 -4.61968 0 16 0 1
gene 1 4 15 9.31988 0 17 0 1
gene 1 5 15 -3.44122 0 18 0 1
gene 1 6 15 4.8665 0 19 0 1
gene 1 7 15 -4.63847 0 20 0 1
gene 1 8 15 2.96038 0 21 0 1
gene 1 9 15 -0.54584 0 22 0 1
gene 1 10 15 3.5474 0 23 0 1
gene 1 11 15 4.87031 0 24 0 1
gene 1 12 15 -6.26574 0 25 0 1
gene 1 13 15 -2.50726 0 26 0 1
genomeend 3
