genomestart 2
trait 1 0 0 0 0 0 0 0 0 
node 1 0 1 1
node 2 0 1 1
node 3 0 1 1
node 4 0 1 1
node 5 0 1 1
node 6 0 1 1
node 7 0 1 1
node 8 0 1 1
node 9 0 1 1
node 10 0 1 1
node 11 0 1 1
node 12 0 1 1
node 13 0 1 1
node 14 0 1 1
node 15 0 1 1
node 16 0 1 1
node 17 0 1 1
node 18 0 1 1
node 19 0 1 1
node 20 0 1 1
node 21 0 1 1
node 22 0 1 1
node 23 0 1 1
node 24 0 1 1
node 25 0 1 1
node 26 0 1 1
node 27 0 1 3
node 28 0 0 2
node 29 0 0 2
node 30 0 0 2
gene 1 1 28 -1.19771 0 1 0 1
gene 1 2 28 0.754526 0 2 0 1
gene 1 3 28 1.14486 0 3 0 1
gene 1 4 28 -0.175646 0 4 0 1
gene 1 5 28 -0.671572 0 5 0 1
gene 1 6 28 -0.705219 0 6 0 1
gene 1 7 28 -0.932661 0 7 0 1
gene 1 8 28 3.54738 0 8 0 1
gene 1 9 28 -2.71869 0 9 0 1
gene 1 10 28 0.265077 0 10 0 1
gene 1 11 28 -0.229864 0 11 0 1
gene 1 12 28 0.216367 0 12 0 1
gene 1 13 28 0.303956 0 13 0 1
gene 1 14 28 4.8133 0 14 0 1
gene 1 15 28 0.440884 0 15 0 1
gene 1 16 28 1.26253 0 16 0 1
gene 1 17 28 0.476637 0 17 0 1
gene 1 18 28 -0.864159 0 18 0 1
gene 1 19 28 -1.24895 0 19 0 1
gene 1 20 28 0.298101 0 20 0 1
gene 1 21 28 1.72307 0 21 0 1
gene 1 22 28 -0.729215 0 22 0 1
gene 1 23 28 -2.59075 0 23 0 1
gene 1 24 28 0.625772 0 24 0 1
gene 1 25 28 2.25322 0 25 0 1
gene 1 26 28 1.19742 0 26 0 1
gene 1 27 28 -2.20994 0 27 0 1
gene 1 1 29 0.521835 0 28 0 1
gene 1 2 29 1.26671 0 29 0 1
gene 1 3 29 -1.64001 0 30 0 1
gene 1 4 29 0.50525 0 31 0 1
gene 1 5 29 1.67918 0 32 0 1
gene 1 6 29 1.89857 0 33 0 1
gene 1 7 29 1.33767 0 34 0 1
gene 1 8 29 -2.21457 0 35 0 1
gene 1 9 29 1.24135 0 36 0 1
gene 1 10 29 -1.65869 0 37 0 1
gene 1 11 29 0.441037 0 38 0 1
gene 1 12 29 -1.43914 0 39 0 1
gene 1 13 29 0.257072 0 40 0 1
gene 1 14 29 1.91739 0 41 0 1
gene 1 15 29 -0.123701 0 42 0 1
gene 1 16 29 1.50662 0 43 0 1
gene 1 17 29 0.186077 0 44 0 1
gene 1 18 29 -2.85694 0 45 0 1
gene 1 19 29 0.394807 0 46 0 1
gene 1 20 29 -0.714548 0 47 0 1
gene 1 21 29 0.81036 0 48 0 1
gene 1 22 29 -0.976093 0 49 0 1
gene 1 23 29 -0.528552 0 50 0 1
gene 1 24 29 -3.09156 0 51 0 1
gene 1 25 29 1.83214 0 52 0 1
gene 1 26 29 2.24494 0 53 0 1
gene 1 27 29 1.60737 0 54 0 1
gene 1 1 30 -3.08605 0 55 0 1
gene 1 2 30 1.17133 0 56 0 1
gene 1 3 30 1.47955 0 57 0 1
gene 1 4 30 -0.257515 0 58 0 1
gene 1 5 30 -0.816469 0 59 0 1
gene 1 6 30 -0.876584 0 60 0 1
gene 1 7 30 3.29573 0 61 0 1
gene 1 8 30 1.72992 0 62 0 1
gene 1 9 30 -0.444775 0 63 0 1
gene 1 10 30 -0.708851 0 64 0 1
gene 1 11 30 -0.818561 0 65 0 1
gene 1 12 30 0.0873951 0 66 0 1
gene 1 13 30 0.587787 0 67 0 1
gene 1 14 30 0.560898 0 68 0 1
gene 1 15 30 3.02691 0 69 0 1
gene 1 16 30 -1.46414 0 70 0 1
gene 1 17 30 1.43918 0 71 0 1
gene 1 18 30 -1.64719 0 72 0 1
gene 1 19 30 -2.73558 0 73 0 1
gene 1 20 30 -0.799351 0 74 0 1
gene 1 21 30 0.822053 0 75 0 1
gene 1 22 30 -0.979316 0 76 0 1
gene 1 23 30 1.28141 0 77 0 1
gene 1 24 30 2.71472 0 78 0 1
gene 1 25 30 0.131051 0 79 0 1
gene 1 26 30 -0.371323 0 80 0 1
gene 1 27 30 1.78474 0 81 0 1
genomeend 2
