genomestart 2
trait 1 0 0 0 0 0 0 0 0 
node 1 0 1 1
node 2 0 1 1
node 3 0 1 1
node 4 0 1 1
node 5 0 1 1
node 6 0 1 1
node 7 0 1 1
node 8 0 1 1
node 9 0 1 1
node 10 0 1 1
node 11 0 1 1
node 12 0 1 1
node 13 0 1 1
node 14 0 1 1
node 15 0 1 1
node 16 0 1 1
node 17 0 1 1
node 18 0 1 1
node 19 0 1 1
node 20 0 1 1
node 21 0 1 1
node 22 0 1 1
node 23 0 1 1
node 24 0 1 1
node 25 0 1 1
node 26 0 1 1
node 27 0 1 3
node 28 0 0 2
node 29 0 0 2
node 30 0 0 2
gene 1 1 28 -1.11676 0 1 0 1
gene 1 2 28 0.0302664 0 2 0 1
gene 1 3 28 1.2648 0 3 0 1
gene 1 4 28 0.441305 0 4 0 1
gene 1 5 28 -0.730931 0 5 0 1
gene 1 6 28 -0.583224 0 6 0 1
gene 1 7 28 -1.46687 0 7 0 1
gene 1 8 28 3.82824 0 8 0 1
gene 1 9 28 -1.81212 0 9 0 1
gene 1 10 28 0.550011 0 10 0 1
gene 1 11 28 -0.206065 0 11 0 1
gene 1 12 28 -0.450381 0 12 0 1
gene 1 13 28 0.779635 0 13 0 1
gene 1 14 28 4.59083 0 14 0 1
gene 1 15 28 -0.0048461 0 15 0 1
gene 1 16 28 1.27859 0 16 0 1
gene 1 17 28 0.0071773 0 17 0 1
gene 1 18 28 -1.39894 0 18 0 1
gene 1 19 28 -1.75417 0 19 0 1
gene 1 20 28 0.27888 0 20 0 1
gene 1 21 28 1.16492 0 21 0 1
gene 1 22 28 -1.65147 0 22 0 1
gene 1 23 28 -2.91549 0 23 0 1
gene 1 24 28 0.587044 0 24 0 1
gene 1 25 28 2.03469 0 25 0 1
gene 1 26 28 0.42617 0 26 0 1
gene 1 27 28 -2.18472 0 27 0 1
gene 1 1 29 0.0112243 0 28 0 1
gene 1 2 29 1.15478 0 29 0 1
gene 1 3 29 -0.952993 0 30 0 1
gene 1 4 29 1.26586 0 31 0 1
gene 1 5 29 1.54745 0 32 0 1
gene 1 6 29 2.72935 0 33 0 1
gene 1 7 29 2.81353 0 34 0 1
gene 1 8 29 -2.81904 0 35 0 1
gene 1 9 29 0.577111 0 36 0 1
gene 1 10 29 -1.70435 0 37 0 1
gene 1 11 29 0.493607 0 38 0 1
gene 1 12 29 -2.25068 0 39 0 1
gene 1 13 29 0.373484 0 40 0 1
gene 1 14 29 1.68025 0 41 0 1
gene 1 15 29 0.517913 0 42 0 1
gene 1 16 29 2.07079 0 43 0 1
gene 1 17 29 0.553378 0 44 0 1
gene 1 18 29 -2.48035 0 45 0 1
gene 1 19 29 0.0284872 0 46 0 1
gene 1 20 29 -0.839557 0 47 0 1
gene 1 21 29 1.41557 0 48 0 1
gene 1 22 29 -0.530214 0 49 0 1
gene 1 23 29 -0.296225 0 50 0 1
gene 1 24 29 -2.85755 0 51 0 1
gene 1 25 29 1.66478 0 52 0 1
gene 1 26 29 2.93535 0 53 0 1
gene 1 27 29 1.62743 0 54 0 1
gene 1 1 30 -2.43499 0 55 0 1
gene 1 2 30 1.13317 0 56 0 1
gene 1 3 30 2.48839 0 57 0 1
gene 1 4 30 -0.301657 0 58 0 1
gene 1 5 30 -0.887575 0 59 0 1
gene 1 6 30 -0.302419 0 60 0 1
gene 1 7 30 3.43838 0 61 0 1
gene 1 8 30 1.35752 0 62 0 1
gene 1 9 30 0.503328 0 63 0 1
gene 1 10 30 -0.920764 0 64 0 1
gene 1 11 30 -1.75858 0 65 0 1
gene 1 12 30 -0.00451495 0 66 0 1
gene 1 13 30 -0.200261 0 67 0 1
gene 1 14 30 0.201125 0 68 0 1
gene 1 15 30 3.10957 0 69 0 1
gene 1 16 30 -1.38832 0 70 0 1
gene 1 17 30 0.801646 0 71 0 1
gene 1 18 30 -1.09682 0 72 0 1
gene 1 19 30 -2.03967 0 73 0 1
gene 1 20 30 -1.55368 0 74 0 1
gene 1 21 30 1.10692 0 75 0 1
gene 1 22 30 -1.10334 0 76 0 1
gene 1 23 30 1.06226 0 77 0 1
gene 1 24 30 2.02185 0 78 0 1
gene 1 25 30 -0.0678576 0 79 0 1
gene 1 26 30 -0.870285 0 80 0 1
gene 1 27 30 2.13166 0 81 0 1
genomeend 2
