genomestart 2
trait 1 0 0 0 0 0 0 0 0 
node 1 0 1 1
node 2 0 1 1
node 3 0 1 1
node 4 0 1 1
node 5 0 1 1
node 6 0 1 1
node 7 0 1 1
node 8 0 1 1
node 9 0 1 1
node 10 0 1 1
node 11 0 1 1
node 12 0 1 1
node 13 0 1 1
node 14 0 1 1
node 15 0 1 1
node 16 0 1 1
node 17 0 1 1
node 18 0 1 1
node 19 0 1 1
node 20 0 1 1
node 21 0 1 1
node 22 0 1 1
node 23 0 1 1
node 24 0 1 1
node 25 0 1 1
node 26 0 1 1
node 27 0 1 3
node 28 0 0 2
node 29 0 0 2
node 30 0 0 2
gene 1 1 28 -0.6107 0 1 0 1
gene 1 2 28 -0.878523 0 2 0 1
gene 1 3 28 1.10194 0 3 0 1
gene 1 4 28 0.372494 0 4 0 1
gene 1 5 28 -1.36719 0 5 0 1
gene 1 6 28 0.302703 0 6 0 1
gene 1 7 28 -1.85644 0 7 0 1
gene 1 8 28 1.59359 0 8 0 1
gene 1 9 28 -2.16454 0 9 0 1
gene 1 10 28 -0.472921 0 10 0 1
gene 1 11 28 0.952581 0 11 0 1
gene 1 12 28 0.642041 0 12 0 1
gene 1 13 28 0.242254 0 13 0 1
gene 1 14 28 3.13202 0 14 0 1
gene 1 15 28 0.837327 0 15 0 1
gene 1 16 28 1.83248 0 16 0 1
gene 1 17 28 1.2278 0 17 0 1
gene 1 18 28 -1.13827 0 18 0 1
gene 1 19 28 -1.3779 0 19 0 1
gene 1 20 28 0.16991 0 20 0 1
gene 1 21 28 0.368069 0 21 0 1
gene 1 22 28 -1.39199 0 22 0 1
gene 1 23 28 -1.03448 0 23 0 1
gene 1 24 28 0.154473 0 24 0 1
gene 1 25 28 2.60364 0 25 0 1
gene 1 26 28 0.808306 0 26 0 1
gene 1 27 28 -0.842574 0 27 0 1
gene 1 1 29 -0.366958 0 28 0 1
gene 1 2 29 0.478417 0 29 0 1
gene 1 3 29 -1.3 0 30 0 1
gene 1 4 29 1.88205 0 31 0 1
gene 1 5 29 1.50817 0 32 0 1
gene 1 6 29 1.99269 0 33 0 1
gene 1 7 29 2.43278 0 34 0 1
gene 1 8 29 -1.94431 0 35 0 1
gene 1 9 29 0.877123 0 36 0 1
gene 1 10 29 -1.24504 0 37 0 1
gene 1 11 29 1.14724 0 38 0 1
gene 1 12 29 -2.67399 0 39 0 1
gene 1 13 29 0.216168 0 40 0 1
gene 1 14 29 0.820017 0 41 0 1
gene 1 15 29 -1.00158 0 42 0 1
gene 1 16 29 2.52057 0 43 0 1
gene 1 17 29 -0.732188 0 44 0 1
gene 1 18 29 -1.55681 0 45 0 1
gene 1 19 29 0.731591 0 46 0 1
gene 1 20 29 -1.31364 0 47 0 1
gene 1 21 29 0.797538 0 48 0 1
gene 1 22 29 0.00186315 0 49 0 1
gene 1 23 29 0.382739 0 50 0 1
gene 1 24 29 -2.12552 0 51 0 1
gene 1 25 29 1.59023 0 52 0 1
gene 1 26 29 2.56265 0 53 0 1
gene 1 27 29 2.40927 0 54 0 1
gene 1 1 30 -1.20406 0 55 0 1
gene 1 2 30 1.64129 0 56 0 1
gene 1 3 30 0.881365 0 57 0 1
gene 1 4 30 -1.46611 0 58 0 1
gene 1 5 30 -0.0419619 0 59 0 1
gene 1 6 30 -0.444759 0 60 0 1
gene 1 7 30 2.19742 0 61 0 1
gene 1 8 30 1.63748 0 62 0 1
gene 1 9 30 -0.389992 0 63 0 1
gene 1 10 30 0.345856 0 64 0 1
gene 1 11 30 -1.40667 0 65 0 1
gene 1 12 30 0.446767 0 66 0 1
gene 1 13 30 -1.04264 0 67 0 1
gene 1 14 30 0.651252 0 68 0 1
gene 1 15 30 2.72613 0 69 0 1
gene 1 16 30 -0.916253 0 70 0 1
gene 1 17 30 0.993248 0 71 0 1
gene 1 18 30 -2.17644 0 72 0 1
gene 1 19 30 -0.526684 0 73 0 1
gene 1 20 30 0.0325248 0 74 0 1
gene 1 21 30 -0.87688 0 75 0 1
gene 1 22 30 -0.847452 0 76 0 1
gene 1 23 30 1.59579 0 77 0 1
gene 1 24 30 2.33446 0 78 0 1
gene 1 25 30 0.949952 0 79 0 1
gene 1 26 30 -1.12671 0 80 0 1
gene 1 27 30 1.01199 0 81 0 1
genomeend 2
