genomestart 2
trait 1 0 0 0 0 0 0 0 0 
node 1 0 1 1
node 2 0 1 1
node 3 0 1 1
node 4 0 1 1
node 5 0 1 1
node 6 0 1 1
node 7 0 1 1
node 8 0 1 1
node 9 0 1 1
node 10 0 1 1
node 11 0 1 1
node 12 0 1 1
node 13 0 1 1
node 14 0 1 1
node 15 0 1 1
node 16 0 1 1
node 17 0 1 1
node 18 0 1 1
node 19 0 1 1
node 20 0 1 1
node 21 0 1 1
node 22 0 1 1
node 23 0 1 1
node 24 0 1 1
node 25 0 1 1
node 26 0 1 1
node 27 0 1 3
node 28 0 0 2
node 29 0 0 2
node 30 0 0 2
gene 1 1 28 0.00686752 0 1 0 1
gene 1 2 28 -1.78581 0 2 0 1
gene 1 3 28 1.03855 0 3 0 1
gene 1 4 28 1.82503 0 4 0 1
gene 1 5 28 -2.84089 0 5 0 1
gene 1 6 28 -0.530093 0 6 0 1
gene 1 7 28 -0.0726643 0 7 0 1
gene 1 8 28 0.0698926 0 8 0 1
gene 1 9 28 -3.58738 0 9 0 1
gene 1 10 28 -1.20167 0 10 0 1
gene 1 11 28 1.28313 0 11 0 1
gene 1 12 28 -1.13925 0 12 0 1
gene 1 13 28 -1.89934 0 13 0 1
gene 1 14 28 4.34825 0 14 0 1
gene 1 15 28 0.963235 0 15 0 1
gene 1 16 28 0.847963 0 16 0 1
gene 1 17 28 1.18267 0 17 0 1
gene 1 18 28 -0.646032 0 18 0 1
gene 1 19 28 -2.12394 0 19 0 1
gene 1 20 28 -0.810513 0 20 0 1
gene 1 21 28 -0.574162 0 21 0 1
gene 1 22 28 -0.0940887 0 22 0 1
gene 1 23 28 -1.43551 0 23 0 1
gene 1 24 28 1.85937 0 24 0 1
gene 1 25 28 3.12847 0 25 0 1
gene 1 26 28 1.12249 0 26 0 1
gene 1 27 28 -3.01818 0 27 0 1
gene 1 1 29 0.56826 0 28 0 1
gene 1 2 29 1.39653 0 29 0 1
gene 1 3 29 -0.672978 0 30 0 1
gene 1 4 29 0.361541 0 31 0 1
gene 1 5 29 -0.161811 0 32 0 1
gene 1 6 29 2.58273 0 33 0 1
gene 1 7 29 3.83057 0 34 0 1
gene 1 8 29 -3.7763 0 35 0 1
gene 1 9 29 0.388679 0 36 0 1
gene 1 10 29 -1.68704 0 37 0 1
gene 1 11 29 2.12252 0 38 0 1
gene 1 12 29 0.715291 0 39 0 1
gene 1 13 29 0.842559 0 40 0 1
gene 1 14 29 2.13514 0 41 0 1
gene 1 15 29 -0.619517 0 42 0 1
gene 1 16 29 2.51589 0 43 0 1
gene 1 17 29 1.38337 0 44 0 1
gene 1 18 29 -2.78934 0 45 0 1
gene 1 19 29 -0.910257 0 46 0 1
gene 1 20 29 -0.573766 0 47 0 1
gene 1 21 29 1.4093 0 48 0 1
gene 1 22 29 1.36547 0 49 0 1
gene 1 23 29 -2.72174 0 50 0 1
gene 1 24 29 -4.44212 0 51 0 1
gene 1 25 29 3.18835 0 52 0 1
gene 1 26 29 1.41489 0 53 0 1
gene 1 27 29 2.02916 0 54 0 1
gene 1 1 30 -1.22884 0 55 0 1
gene 1 2 30 -0.0789676 0 56 0 1
gene 1 3 30 3.12074 0 57 0 1
gene 1 4 30 -2.45156 0 58 0 1
gene 1 5 30 -0.38983 0 59 0 1
gene 1 6 30 -0.979062 0 60 0 1
gene 1 7 30 4.52638 0 61 0 1
gene 1 8 30 2.22572 0 62 0 1
gene 1 9 30 -1.65849 0 63 0 1
gene 1 10 30 -0.667108 0 64 0 1
gene 1 11 30 -1.42957 0 65 0 1
gene 1 12 30 -0.600133 0 66 0 1
gene 1 13 30 0.556219 0 67 0 1
gene 1 14 30 2.57906 0 68 0 1
gene 1 15 30 1.37039 0 69 0 1
gene 1 16 30 -0.559423 0 70 0 1
gene 1 17 30 1.12089 0 71 0 1
gene 1 18 30 -0.8949 0 72 0 1
gene 1 19 30 -1.87914 0 73 0 1
gene 1 20 30 -0.880459 0 74 0 1
gene 1 21 30 1.35358 0 75 0 1
gene 1 22 30 1.55077 0 76 0 1
gene 1 23 30 -0.50858 0 77 0 1
gene 1 24 30 3.1017 0 78 0 1
gene 1 25 30 0.506979 0 79 0 1
gene 1 26 30 -0.99422 0 80 0 1
gene 1 27 30 1.40443 0 81 0 1
genomeend 2
