genomestart 2
trait 1 0 0 0 0 0 0 0 0 
node 1 0 1 1
node 2 0 1 1
node 3 0 1 1
node 4 0 1 1
node 5 0 1 1
node 6 0 1 1
node 7 0 1 1
node 8 0 1 1
node 9 0 1 1
node 10 0 1 1
node 11 0 1 1
node 12 0 1 1
node 13 0 1 1
node 14 0 1 1
node 15 0 1 1
node 16 0 1 1
node 17 0 1 1
node 18 0 1 1
node 19 0 1 1
node 20 0 1 1
node 21 0 1 1
node 22 0 1 1
node 23 0 1 1
node 24 0 1 1
node 25 0 1 1
node 26 0 1 1
node 27 0 1 3
node 28 0 0 2
node 29 0 0 2
node 30 0 0 2
gene 1 1 28 -0.71997 0 1 0 1
gene 1 2 28 -1.30623 0 2 0 1
gene 1 3 28 0.876788 0 3 0 1
gene 1 4 28 0.74501 0 4 0 1
gene 1 5 28 -1.62146 0 5 0 1
gene 1 6 28 -0.0807493 0 6 0 1
gene 1 7 28 -2.27308 0 7 0 1
gene 1 8 28 1.80527 0 8 0 1
gene 1 9 28 -2.57965 0 9 0 1
gene 1 10 28 -0.686552 0 10 0 1
gene 1 11 28 0.931019 0 11 0 1
gene 1 12 28 1.31665 0 12 0 1
gene 1 13 28 0.595262 0 13 0 1
gene 1 14 28 3.29551 0 14 0 1
gene 1 15 28 1.34636 0 15 0 1
gene 1 16 28 1.93603 0 16 0 1
gene 1 17 28 0.931123 0 17 0 1
gene 1 18 28 -1.43187 0 18 0 1
gene 1 19 28 -1.45585 0 19 0 1
gene 1 20 28 -0.175883 0 20 0 1
gene 1 21 28 0.445384 0 21 0 1
gene 1 22 28 -1.67687 0 22 0 1
gene 1 23 28 -0.729674 0 23 0 1
gene 1 24 28 -0.113705 0 24 0 1
gene 1 25 28 2.32614 0 25 0 1
gene 1 26 28 0.475605 0 26 0 1
gene 1 27 28 -0.8612 0 27 0 1
gene 1 1 29 0.509469 0 28 0 1
gene 1 2 29 0.879687 0 29 0 1
gene 1 3 29 -1.5491 0 30 0 1
gene 1 4 29 1.51186 0 31 0 1
gene 1 5 29 1.26498 0 32 0 1
gene 1 6 29 2.96163 0 33 0 1
gene 1 7 29 2.80188 0 34 0 1
gene 1 8 29 -3.01543 0 35 0 1
gene 1 9 29 0.262513 0 36 0 1
gene 1 10 29 -1.56743 0 37 0 1
gene 1 11 29 1.80659 0 38 0 1
gene 1 12 29 -2.79554 0 39 0 1
gene 1 13 29 -0.474277 0 40 0 1
gene 1 14 29 1.10951 0 41 0 1
gene 1 15 29 -0.654202 0 42 0 1
gene 1 16 29 2.78095 0 43 0 1
gene 1 17 29 -0.908046 0 44 0 1
gene 1 18 29 -1.34701 0 45 0 1
gene 1 19 29 0.588941 0 46 0 1
gene 1 20 29 -1.59232 0 47 0 1
gene 1 21 29 -0.0674654 0 48 0 1
gene 1 22 29 -0.141402 0 49 0 1
gene 1 23 29 1.15404 0 50 0 1
gene 1 24 29 -1.86846 0 51 0 1
gene 1 25 29 1.84545 0 52 0 1
gene 1 26 29 2.6597 0 53 0 1
gene 1 27 29 2.22656 0 54 0 1
gene 1 1 30 -0.815308 0 55 0 1
gene 1 2 30 1.8843 0 56 0 1
gene 1 3 30 1.29047 0 57 0 1
gene 1 4 30 -0.956909 0 58 0 1
gene 1 5 30 0.0370745 0 59 0 1
gene 1 6 30 -0.695663 0 60 0 1
gene 1 7 30 2.01308 0 61 0 1
gene 1 8 30 1.63427 0 62 0 1
gene 1 9 30 -0.173713 0 63 0 1
gene 1 10 30 0.480673 0 64 0 1
gene 1 11 30 -1.63038 0 65 0 1
gene 1 12 30 0.949169 0 66 0 1
gene 1 13 30 -0.939082 0 67 0 1
gene 1 14 30 0.525429 0 68 0 1
gene 1 15 30 1.83103 0 69 0 1
gene 1 16 30 -0.996119 0 70 0 1
gene 1 17 30 1.13987 0 71 0 1
gene 1 18 30 -2.26477 0 72 0 1
gene 1 19 30 -0.968251 0 73 0 1
gene 1 20 30 -0.439178 0 74 0 1
gene 1 21 30 -1.15818 0 75 0 1
gene 1 22 30 -0.898809 0 76 0 1
gene 1 23 30 1.51451 0 77 0 1
gene 1 24 30 2.25046 0 78 0 1
gene 1 25 30 1.4731 0 79 0 1
gene 1 26 30 -1.45209 0 80 0 1
gene 1 27 30 0.827396 0 81 0 1
genomeend 2
