genomestart 2
trait 1 0 0 0 0 0 0 0 0 
node 1 0 1 1
node 2 0 1 1
node 3 0 1 1
node 4 0 1 1
node 5 0 1 1
node 6 0 1 1
node 7 0 1 1
node 8 0 1 1
node 9 0 1 1
node 10 0 1 1
node 11 0 1 1
node 12 0 1 1
node 13 0 1 1
node 14 0 1 1
node 15 0 1 1
node 16 0 1 1
node 17 0 1 1
node 18 0 1 1
node 19 0 1 1
node 20 0 1 1
node 21 0 1 1
node 22 0 1 1
node 23 0 1 1
node 24 0 1 1
node 25 0 1 1
node 26 0 1 1
node 27 0 1 3
node 28 0 0 2
node 29 0 0 2
node 30 0 0 2
gene 1 1 28 -1.01635 0 1 0 1
gene 1 2 28 -1.73576 0 2 0 1
gene 1 3 28 0.650418 0 3 0 1
gene 1 4 28 1.01882 0 4 0 1
gene 1 5 28 -2.1459 0 5 0 1
gene 1 6 28 0.109875 0 6 0 1
gene 1 7 28 -1.24546 0 7 0 1
gene 1 8 28 0.800303 0 8 0 1
gene 1 9 28 -1.03802 0 9 0 1
gene 1 10 28 0.0410043 0 10 0 1
gene 1 11 28 0.750242 0 11 0 1
gene 1 12 28 0.0233439 0 12 0 1
gene 1 13 28 -1.44923 0 13 0 1
gene 1 14 28 1.29135 0 14 0 1
gene 1 15 28 0.790564 0 15 0 1
gene 1 16 28 1.23746 0 16 0 1
gene 1 17 28 0.397544 0 17 0 1
gene 1 18 28 0.317002 0 18 0 1
gene 1 19 28 -1.12071 0 19 0 1
gene 1 20 28 -0.791528 0 20 0 1
gene 1 21 28 0.650603 0 21 0 1
gene 1 22 28 -1.84888 0 22 0 1
gene 1 23 28 -2.80957 0 23 0 1
gene 1 24 28 -0.429974 0 24 0 1
gene 1 25 28 2.8305 0 25 0 1
gene 1 26 28 -0.202778 0 26 0 1
gene 1 27 28 -1.53256 0 27 0 1
gene 1 1 29 -1.18935 0 28 0 1
gene 1 2 29 0.338005 0 29 0 1
gene 1 3 29 -1.3113 0 30 0 1
gene 1 4 29 0.778731 0 31 0 1
gene 1 5 29 -0.00814912 0 32 0 1
gene 1 6 29 2.17371 0 33 0 1
gene 1 7 29 0.222577 0 34 0 1
gene 1 8 29 0.900166 0 35 0 1
gene 1 9 29 0.163564 0 36 0 1
gene 1 10 29 0.158543 0 37 0 1
gene 1 11 29 0.393002 0 38 0 1
gene 1 12 29 -1.1099 0 39 0 1
gene 1 13 29 1.54147 0 40 0 1
gene 1 14 29 1.46798 0 41 0 1
gene 1 15 29 -1.92127 0 42 0 1
gene 1 16 29 1.45582 0 43 0 1
gene 1 17 29 1.48592 0 44 0 1
gene 1 18 29 -1.51444 0 45 0 1
gene 1 19 29 -0.307885 0 46 0 1
gene 1 20 29 0.0332643 0 47 0 1
gene 1 21 29 -0.684312 0 48 0 1
gene 1 22 29 0.319109 0 49 0 1
gene 1 23 29 -1.64392 0 50 0 1
gene 1 24 29 -1.12466 0 51 0 1
gene 1 25 29 1.66335 0 52 0 1
gene 1 26 29 1.2864 0 53 0 1
gene 1 27 29 0.168254 0 54 0 1
gene 1 1 30 -2.35476 0 55 0 1
gene 1 2 30 0.702326 0 56 0 1
gene 1 3 30 1.34649 0 57 0 1
gene 1 4 30 0.815063 0 58 0 1
gene 1 5 30 1.02681 0 59 0 1
gene 1 6 30 1.31238 0 60 0 1
gene 1 7 30 0.716414 0 61 0 1
gene 1 8 30 1.0562 0 62 0 1
gene 1 9 30 0.318988 0 63 0 1
gene 1 10 30 -0.578846 0 64 0 1
gene 1 11 30 -1.10866 0 65 0 1
gene 1 12 30 -0.158281 0 66 0 1
gene 1 13 30 -0.586568 0 67 0 1
gene 1 14 30 -2.4833 0 68 0 1
gene 1 15 30 1.45375 0 69 0 1
gene 1 16 30 -1.7972 0 70 0 1
gene 1 17 30 -0.78265 0 71 0 1
gene 1 18 30 0.213904 0 72 0 1
gene 1 19 30 -1.8873 0 73 0 1
gene 1 20 30 0.985599 0 74 0 1
gene 1 21 30 -1.91473 0 75 0 1
gene 1 22 30 -1.35983 0 76 0 1
gene 1 23 30 0.791253 0 77 0 1
gene 1 24 30 1.30576 0 78 0 1
gene 1 25 30 1.38236 0 79 0 1
gene 1 26 30 -1.10217 0 80 0 1
gene 1 27 30 0.60206 0 81 0 1
genomeend 2
