genomestart 2
trait 1 0 0 0 0 0 0 0 0 
node 1 0 1 1
node 2 0 1 1
node 3 0 1 1
node 4 0 1 1
node 5 0 1 1
node 6 0 1 1
node 7 0 1 1
node 8 0 1 1
node 9 0 1 1
node 10 0 1 1
node 11 0 1 1
node 12 0 1 1
node 13 0 1 1
node 14 0 1 1
node 15 0 1 1
node 16 0 1 1
node 17 0 1 1
node 18 0 1 1
node 19 0 1 1
node 20 0 1 1
node 21 0 1 1
node 22 0 1 1
node 23 0 1 1
node 24 0 1 1
node 25 0 1 1
node 26 0 1 1
node 27 0 1 3
node 28 0 0 2
node 29 0 0 2
node 30 0 0 2
gene 1 1 28 -1.40423 0 1 0 1
gene 1 2 28 -3.11083 0 2 0 1
gene 1 3 28 1.05143 0 3 0 1
gene 1 4 28 0.204101 0 4 0 1
gene 1 5 28 -1.283 0 5 0 1
gene 1 6 28 1.35683 0 6 0 1
gene 1 7 28 -0.423447 0 7 0 1
gene 1 8 28 0.929424 0 8 0 1
gene 1 9 28 -0.196059 0 9 0 1
gene 1 10 28 0.0316353 0 10 0 1
gene 1 11 28 1.71979 0 11 0 1
gene 1 12 28 0.377508 0 12 0 1
gene 1 13 28 -1.27968 0 13 0 1
gene 1 14 28 1.04445 0 14 0 1
gene 1 15 28 0.673146 0 15 0 1
gene 1 16 28 1.67581 0 16 0 1
gene 1 17 28 0.891759 0 17 0 1
gene 1 18 28 -0.133463 0 18 0 1
gene 1 19 28 -0.963251 0 19 0 1
gene 1 20 28 0.0284347 0 20 0 1
gene 1 21 28 -0.425875 0 21 0 1
gene 1 22 28 -1.92837 0 22 0 1
gene 1 23 28 -1.77716 0 23 0 1
gene 1 24 28 -0.700077 0 24 0 1
gene 1 25 28 2.27699 0 25 0 1
gene 1 26 28 -1.05638 0 26 0 1
gene 1 27 28 -0.040275 0 27 0 1
gene 1 1 29 -0.861533 0 28 0 1
gene 1 2 29 0.268379 0 29 0 1
gene 1 3 29 -1.22307 0 30 0 1
gene 1 4 29 0.501951 0 31 0 1
gene 1 5 29 -0.888595 0 32 0 1
gene 1 6 29 2.26476 0 33 0 1
gene 1 7 29 -0.0103031 0 34 0 1
gene 1 8 29 -0.147471 0 35 0 1
gene 1 9 29 -0.101614 0 36 0 1
gene 1 10 29 -0.73336 0 37 0 1
gene 1 11 29 0.769424 0 38 0 1
gene 1 12 29 -0.895635 0 39 0 1
gene 1 13 29 1.32355 0 40 0 1
gene 1 14 29 -0.100938 0 41 0 1
gene 1 15 29 -2.52672 0 42 0 1
gene 1 16 29 0.610146 0 43 0 1
gene 1 17 29 0.639012 0 44 0 1
gene 1 18 29 0.165603 0 45 0 1
gene 1 19 29 -1.42766 0 46 0 1
gene 1 20 29 -0.0368486 0 47 0 1
gene 1 21 29 -0.146021 0 48 0 1
gene 1 22 29 -0.371931 0 49 0 1
gene 1 23 29 -1.34333 0 50 0 1
gene 1 24 29 -0.428443 0 51 0 1
gene 1 25 29 0.801402 0 52 0 1
gene 1 26 29 0.888732 0 53 0 1
gene 1 27 29 0.0377941 0 54 0 1
gene 1 1 30 -1.56269 0 55 0 1
gene 1 2 30 0.491918 0 56 0 1
gene 1 3 30 1.60657 0 57 0 1
gene 1 4 30 -0.00311237 0 58 0 1
gene 1 5 30 0.342551 0 59 0 1
gene 1 6 30 1.13317 0 60 0 1
gene 1 7 30 0.876148 0 61 0 1
gene 1 8 30 1.31344 0 62 0 1
gene 1 9 30 0.148259 0 63 0 1
gene 1 10 30 0.638583 0 64 0 1
gene 1 11 30 -0.728703 0 65 0 1
gene 1 12 30 -0.412463 0 66 0 1
gene 1 13 30 0.289281 0 67 0 1
gene 1 14 30 -0.673927 0 68 0 1
gene 1 15 30 1.23444 0 69 0 1
gene 1 16 30 -1.84441 0 70 0 1
gene 1 17 30 0.424679 0 71 0 1
gene 1 18 30 -0.0331931 0 72 0 1
gene 1 19 30 -0.248697 0 73 0 1
gene 1 20 30 0.586781 0 74 0 1
gene 1 21 30 -2.41075 0 75 0 1
gene 1 22 30 -0.491149 0 76 0 1
gene 1 23 30 1.05242 0 77 0 1
gene 1 24 30 1.14383 0 78 0 1
gene 1 25 30 0.872781 0 79 0 1
gene 1 26 30 -0.900398 0 80 0 1
gene 1 27 30 -0.112011 0 81 0 1
genomeend 2
