genomestart 7
trait 1 0 0 0 0 0 0 0 0 
node 1 0 1 1
node 2 0 1 1
node 3 0 1 1
node 4 0 1 1
node 5 0 1 1
node 6 0 1 1
node 7 0 1 1
node 8 0 1 1
node 9 0 1 1
node 10 0 1 1
node 11 0 1 1
node 12 0 1 1
node 13 0 1 3
node 14 0 0 2
node 15 0 0 2
gene 1 1 14 -0.569177 0 1 0 1
gene 1 2 14 2.58159 0 2 0 1
gene 1 3 14 -2.09894 0 3 0 1
gene 1 4 14 5.25666 0 4 0 1
gene 1 5 14 4.33313 0 5 0 1
gene 1 6 14 3.68794 0 6 0 1
gene 1 7 14 -4.48466 0 7 0 1
gene 1 8 14 -6.85874 0 8 0 1
gene 1 9 14 2.14751 0 9 0 1
gene 1 10 14 -2.78923 0 10 0 1
gene 1 11 14 5.01215 0 11 0 1
gene 1 12 14 5.5889 0 12 0 1
gene 1 13 14 -2.70136 0 13 0 1
gene 1 1 15 0.0676596 0 14 0 1
gene 1 2 15 1.31033 0 15 0 1
gene 1 3 15 2.12992 0 16 0 1
gene 1 4 15 5.50833 0 17 0 1
gene 1 5 15 -2.18311 0 18 0 1
gene 1 6 15 2.3952 0 19 0 1
gene 1 7 15 2.175 0 20 0 1
gene 1 8 15 -2.711 0 21 0 1
gene 1 9 15 2.81994 0 22 0 1
gene 1 10 15 3.12398 0 23 0 1
gene 1 11 15 0.547428 0 24 0 1
gene 1 12 15 2.71712 0 25 0 1
gene 1 13 15 -4.45491 0 26 0 1
genomeend 7
