genomestart 3
trait 1 0 0 0 0 0 0 0 0 
node 1 0 1 1
node 2 0 1 1
node 3 0 1 1
node 4 0 1 1
node 5 0 1 1
node 6 0 1 1
node 7 0 1 1
node 8 0 1 1
node 9 0 1 1
node 10 0 1 1
node 11 0 1 1
node 12 0 1 1
node 13 0 1 3
node 14 0 0 2
node 15 0 0 2
gene 1 1 14 1.37691 0 1 0 1
gene 1 2 14 -0.893326 0 2 0 1
gene 1 3 14 -0.85447 0 3 0 1
gene 1 4 14 -2.03612 0 4 0 1
gene 1 5 14 -0.768619 0 5 0 1
gene 1 6 14 -4.80711 0 6 0 1
gene 1 7 14 -5.25989 0 7 0 1
gene 1 8 14 -0.313493 0 8 0 1
gene 1 9 14 -0.477926 0 9 0 1
gene 1 10 14 4.69278 0 10 0 1
gene 1 11 14 3.2246 0 11 0 1
gene 1 12 14 -4.25386 0 12 0 1
gene 1 13 14 -5.37342 0 13 0 1
gene 1 1 15 1.75433 0 14 0 1
gene 1 2 15 -5.47185 0 15 0 1
gene 1 3 15 -1.35628 0 16 0 1
gene 1 4 15 7.327 0 17 0 1
gene 1 5 15 -4.36752 0 18 0 1
gene 1 6 15 0.556947 0 19 0 1
gene 1 7 15 -2.74116 0 20 0 1
gene 1 8 15 1.66515 0 21 0 1
gene 1 9 15 -1.95467 0 22 0 1
gene 1 10 15 1.71603 0 23 0 1
gene 1 11 15 2.82793 0 24 0 1
gene 1 12 15 -1.6164 0 25 0 1
gene 1 13 15 -1.89436 0 26 0 1
genomeend 3
