genomestart 2
trait 1 0 0 0 0 0 0 0 0 
node 1 0 1 1
node 2 0 1 1
node 3 0 1 1
node 4 0 1 1
node 5 0 1 1
node 6 0 1 1
node 7 0 1 1
node 8 0 1 1
node 9 0 1 1
node 10 0 1 1
node 11 0 1 1
node 12 0 1 1
node 13 0 1 1
node 14 0 1 1
node 15 0 1 1
node 16 0 1 1
node 17 0 1 1
node 18 0 1 1
node 19 0 1 1
node 20 0 1 1
node 21 0 1 1
node 22 0 1 1
node 23 0 1 1
node 24 0 1 1
node 25 0 1 1
node 26 0 1 1
node 27 0 1 3
node 28 0 0 2
node 29 0 0 2
node 30 0 0 2
gene 1 1 28 -0.600493 0 1 0 1
gene 1 2 28 -2.97264 0 2 0 1
gene 1 3 28 -0.0306466 0 3 0 1
gene 1 4 28 0.747663 0 4 0 1
gene 1 5 28 -1.06082 0 5 0 1
gene 1 6 28 0.382415 0 6 0 1
gene 1 7 28 -0.602297 0 7 0 1
gene 1 8 28 0.617536 0 8 0 1
gene 1 9 28 -0.81433 0 9 0 1
gene 1 10 28 0.0626762 0 10 0 1
gene 1 11 28 0.155557 0 11 0 1
gene 1 12 28 0.787956 0 12 0 1
gene 1 13 28 -0.576629 0 13 0 1
gene 1 14 28 1.76449 0 14 0 1
gene 1 15 28 0.735954 0 15 0 1
gene 1 16 28 0.88627 0 16 0 1
gene 1 17 28 1.02267 0 17 0 1
gene 1 18 28 0.415899 0 18 0 1
gene 1 19 28 -1.26259 0 19 0 1
gene 1 20 28 -0.960604 0 20 0 1
gene 1 21 28 0.151352 0 21 0 1
gene 1 22 28 -1.95701 0 22 0 1
gene 1 23 28 -1.62394 0 23 0 1
gene 1 24 28 -0.0955437 0 24 0 1
gene 1 25 28 1.8421 0 25 0 1
gene 1 26 28 -0.770173 0 26 0 1
gene 1 27 28 -0.397444 0 27 0 1
gene 1 1 29 0.65646 0 28 0 1
gene 1 2 29 0.456079 0 29 0 1
gene 1 3 29 -1.1755 0 30 0 1
gene 1 4 29 0.634695 0 31 0 1
gene 1 5 29 -0.553521 0 32 0 1
gene 1 6 29 1.27842 0 33 0 1
gene 1 7 29 0.812293 0 34 0 1
gene 1 8 29 1.00913 0 35 0 1
gene 1 9 29 -0.18397 0 36 0 1
gene 1 10 29 -0.508301 0 37 0 1
gene 1 11 29 -0.26475 0 38 0 1
gene 1 12 29 -0.586123 0 39 0 1
gene 1 13 29 0.792548 0 40 0 1
gene 1 14 29 0.559168 0 41 0 1
gene 1 15 29 -2.6249 0 42 0 1
gene 1 16 29 0.605295 0 43 0 1
gene 1 17 29 1.16921 0 44 0 1
gene 1 18 29 0.186795 0 45 0 1
gene 1 19 29 0.206369 0 46 0 1
gene 1 20 29 0.868849 0 47 0 1
gene 1 21 29 -0.834546 0 48 0 1
gene 1 22 29 -0.923803 0 49 0 1
gene 1 23 29 -0.950774 0 50 0 1
gene 1 24 29 -0.428219 0 51 0 1
gene 1 25 29 1.24224 0 52 0 1
gene 1 26 29 1.43911 0 53 0 1
gene 1 27 29 -0.360585 0 54 0 1
gene 1 1 30 -1.2329 0 55 0 1
gene 1 2 30 0.243493 0 56 0 1
gene 1 3 30 1.22022 0 57 0 1
gene 1 4 30 0.0113735 0 58 0 1
gene 1 5 30 0.0641027 0 59 0 1
gene 1 6 30 0.844086 0 60 0 1
gene 1 7 30 1.58998 0 61 0 1
gene 1 8 30 1.20618 0 62 0 1
gene 1 9 30 -0.039489 0 63 0 1
gene 1 10 30 0.038684 0 64 0 1
gene 1 11 30 -1.06927 0 65 0 1
gene 1 12 30 -1.18909 0 66 0 1
gene 1 13 30 -0.360445 0 67 0 1
gene 1 14 30 0.732982 0 68 0 1
gene 1 15 30 1.24606 0 69 0 1
gene 1 16 30 -0.366376 0 70 0 1
gene 1 17 30 0.0593618 0 71 0 1
gene 1 18 30 -1.16551 0 72 0 1
gene 1 19 30 0.914097 0 73 0 1
gene 1 20 30 -0.0953034 0 74 0 1
gene 1 21 30 -2.00538 0 75 0 1
gene 1 22 30 0.105849 0 76 0 1
gene 1 23 30 1.20854 0 77 0 1
gene 1 24 30 -0.319438 0 78 0 1
gene 1 25 30 0.190366 0 79 0 1
gene 1 26 30 -1.82442 0 80 0 1
gene 1 27 30 0.669662 0 81 0 1
genomeend 2
