genomestart 3
trait 1 0 0 0 0 0 0 0 0 
node 1 0 1 1
node 2 0 1 1
node 3 0 1 1
node 4 0 1 1
node 5 0 1 1
node 6 0 1 1
node 7 0 1 1
node 8 0 1 1
node 9 0 1 1
node 10 0 1 1
node 11 0 1 1
node 12 0 1 1
node 13 0 1 3
node 14 0 0 2
node 15 0 0 2
gene 1 1 14 0.545183 0 1 0 1
gene 1 2 14 2.50611 0 2 0 1
gene 1 3 14 -0.855324 0 3 0 1
gene 1 4 14 -2.94036 0 4 0 1
gene 1 5 14 -0.681781 0 5 0 1
gene 1 6 14 -2.42436 0 6 0 1
gene 1 7 14 -6.00138 0 7 0 1
gene 1 8 14 1.48241 0 8 0 1
gene 1 9 14 -2.7112 0 9 0 1
gene 1 10 14 7.29119 0 10 0 1
gene 1 11 14 3.64558 0 11 0 1
gene 1 12 14 -6.50748 0 12 0 1
gene 1 13 14 -5.20477 0 13 0 1
gene 1 1 15 3.29846 0 14 0 1
gene 1 2 15 -3.91371 0 15 0 1
gene 1 3 15 -1.60924 0 16 0 1
gene 1 4 15 6.62754 0 17 0 1
gene 1 5 15 -4.54893 0 18 0 1
gene 1 6 15 1.56411 0 19 0 1
gene 1 7 15 -3.546 0 20 0 1
gene 1 8 15 2.67844 0 21 0 1
gene 1 9 15 0.85219 0 22 0 1
gene 1 10 15 -1.58827 0 23 0 1
gene 1 11 15 4.75907 0 24 0 1
gene 1 12 15 -2.15821 0 25 0 1
gene 1 13 15 -1.56523 0 26 0 1
genomeend 3
