genomestart 2
trait 1 0 0 0 0 0 0 0 0 
node 1 0 1 1
node 2 0 1 1
node 3 0 1 1
node 4 0 1 1
node 5 0 1 1
node 6 0 1 1
node 7 0 1 1
node 8 0 1 1
node 9 0 1 1
node 10 0 1 1
node 11 0 1 1
node 12 0 1 1
node 13 0 1 1
node 14 0 1 1
node 15 0 1 1
node 16 0 1 1
node 17 0 1 1
node 18 0 1 1
node 19 0 1 1
node 20 0 1 1
node 21 0 1 1
node 22 0 1 1
node 23 0 1 1
node 24 0 1 1
node 25 0 1 1
node 26 0 1 1
node 27 0 1 3
node 28 0 0 2
node 29 0 0 2
node 30 0 0 2
gene 1 1 28 -0.561918 0 1 0 1
gene 1 2 28 -0.10877 0 2 0 1
gene 1 3 28 1.18491 0 3 0 1
gene 1 4 28 0.00550307 0 4 0 1
gene 1 5 28 -1.5351 0 5 0 1
gene 1 6 28 -0.758525 0 6 0 1
gene 1 7 28 -1.5934 0 7 0 1
gene 1 8 28 2.49409 0 8 0 1
gene 1 9 28 -2.63431 0 9 0 1
gene 1 10 28 -0.0343997 0 10 0 1
gene 1 11 28 0.291543 0 11 0 1
gene 1 12 28 -0.455558 0 12 0 1
gene 1 13 28 0.320537 0 13 0 1
gene 1 14 28 3.60356 0 14 0 1
gene 1 15 28 0.208994 0 15 0 1
gene 1 16 28 1.2195 0 16 0 1
gene 1 17 28 0.886523 0 17 0 1
gene 1 18 28 -0.427095 0 18 0 1
gene 1 19 28 -1.32285 0 19 0 1
gene 1 20 28 0.494789 0 20 0 1
gene 1 21 28 0.562934 0 21 0 1
gene 1 22 28 -0.998378 0 22 0 1
gene 1 23 28 -1.68815 0 23 0 1
gene 1 24 28 1.23702 0 24 0 1
gene 1 25 28 1.70058 0 25 0 1
gene 1 26 28 1.365 0 26 0 1
gene 1 27 28 -1.50818 0 27 0 1
gene 1 1 29 0.745735 0 28 0 1
gene 1 2 29 0.381699 0 29 0 1
gene 1 3 29 -0.859985 0 30 0 1
gene 1 4 29 0.798126 0 31 0 1
gene 1 5 29 1.9308 0 32 0 1
gene 1 6 29 2.5966 0 33 0 1
gene 1 7 29 2.77021 0 34 0 1
gene 1 8 29 -3.30577 0 35 0 1
gene 1 9 29 0.977825 0 36 0 1
gene 1 10 29 -2.98825 0 37 0 1
gene 1 11 29 1.17188 0 38 0 1
gene 1 12 29 -1.55563 0 39 0 1
gene 1 13 29 0.350509 0 40 0 1
gene 1 14 29 2.30594 0 41 0 1
gene 1 15 29 0.683287 0 42 0 1
gene 1 16 29 3.09161 0 43 0 1
gene 1 17 29 0.135181 0 44 0 1
gene 1 18 29 -2.38705 0 45 0 1
gene 1 19 29 0.79891 0 46 0 1
gene 1 20 29 -0.623312 0 47 0 1
gene 1 21 29 1.27972 0 48 0 1
gene 1 22 29 0.356366 0 49 0 1
gene 1 23 29 -0.672084 0 50 0 1
gene 1 24 29 -2.81201 0 51 0 1
gene 1 25 29 2.09172 0 52 0 1
gene 1 26 29 2.28741 0 53 0 1
gene 1 27 29 2.82295 0 54 0 1
gene 1 1 30 -2.29005 0 55 0 1
gene 1 2 30 0.608056 0 56 0 1
gene 1 3 30 2.38129 0 57 0 1
gene 1 4 30 -2.35481 0 58 0 1
gene 1 5 30 -0.415165 0 59 0 1
gene 1 6 30 -0.0557288 0 60 0 1
gene 1 7 30 2.78733 0 61 0 1
gene 1 8 30 1.89529 0 62 0 1
gene 1 9 30 -0.967961 0 63 0 1
gene 1 10 30 -0.287735 0 64 0 1
gene 1 11 30 -0.404685 0 65 0 1
gene 1 12 30 0.663366 0 66 0 1
gene 1 13 30 -0.233345 0 67 0 1
gene 1 14 30 0.253243 0 68 0 1
gene 1 15 30 2.36557 0 69 0 1
gene 1 16 30 -1.29025 0 70 0 1
gene 1 17 30 1.80719 0 71 0 1
gene 1 18 30 -2.39929 0 72 0 1
gene 1 19 30 -1.25704 0 73 0 1
gene 1 20 30 -0.168842 0 74 0 1
gene 1 21 30 0.285821 0 75 0 1
gene 1 22 30 -0.338649 0 76 0 1
gene 1 23 30 0.965783 0 77 0 1
gene 1 24 30 1.9757 0 78 0 1
gene 1 25 30 -0.0658179 0 79 0 1
gene 1 26 30 -1.33417 0 80 0 1
gene 1 27 30 1.43316 0 81 0 1
genomeend 2
