genomestart 2
trait 1 0 0 0 0 0 0 0 0 
node 1 0 1 1
node 2 0 1 1
node 3 0 1 1
node 4 0 1 1
node 5 0 1 1
node 6 0 1 1
node 7 0 1 1
node 8 0 1 1
node 9 0 1 1
node 10 0 1 1
node 11 0 1 1
node 12 0 1 1
node 13 0 1 1
node 14 0 1 1
node 15 0 1 1
node 16 0 1 1
node 17 0 1 1
node 18 0 1 1
node 19 0 1 1
node 20 0 1 1
node 21 0 1 1
node 22 0 1 1
node 23 0 1 1
node 24 0 1 1
node 25 0 1 1
node 26 0 1 1
node 27 0 1 3
node 28 0 0 2
node 29 0 0 2
node 30 0 0 2
gene 1 1 28 -0.744765 0 1 0 1
gene 1 2 28 -2.34761 0 2 0 1
gene 1 3 28 0.581445 0 3 0 1
gene 1 4 28 0.744333 0 4 0 1
gene 1 5 28 -2.00104 0 5 0 1
gene 1 6 28 0.252431 0 6 0 1
gene 1 7 28 -0.946484 0 7 0 1
gene 1 8 28 0.835087 0 8 0 1
gene 1 9 28 -0.880665 0 9 0 1
gene 1 10 28 -0.43743 0 10 0 1
gene 1 11 28 1.58494 0 11 0 1
gene 1 12 28 0.248184 0 12 0 1
gene 1 13 28 -1.00455 0 13 0 1
gene 1 14 28 1.52435 0 14 0 1
gene 1 15 28 0.659862 0 15 0 1
gene 1 16 28 1.15144 0 16 0 1
gene 1 17 28 0.160485 0 17 0 1
gene 1 18 28 -0.690746 0 18 0 1
gene 1 19 28 -0.820025 0 19 0 1
gene 1 20 28 -0.987243 0 20 0 1
gene 1 21 28 0.545063 0 21 0 1
gene 1 22 28 -2.05601 0 22 0 1
gene 1 23 28 -2.74414 0 23 0 1
gene 1 24 28 -0.606761 0 24 0 1
gene 1 25 28 2.6715 0 25 0 1
gene 1 26 28 -0.0606928 0 26 0 1
gene 1 27 28 -1.55177 0 27 0 1
gene 1 1 29 -1.40899 0 28 0 1
gene 1 2 29 0.237793 0 29 0 1
gene 1 3 29 -1.61846 0 30 0 1
gene 1 4 29 0.703108 0 31 0 1
gene 1 5 29 0.393492 0 32 0 1
gene 1 6 29 1.96851 0 33 0 1
gene 1 7 29 0.365409 0 34 0 1
gene 1 8 29 0.496573 0 35 0 1
gene 1 9 29 0.234595 0 36 0 1
gene 1 10 29 -0.0386878 0 37 0 1
gene 1 11 29 0.319326 0 38 0 1
gene 1 12 29 -1.07728 0 39 0 1
gene 1 13 29 1.01398 0 40 0 1
gene 1 14 29 1.69126 0 41 0 1
gene 1 15 29 -1.50162 0 42 0 1
gene 1 16 29 1.0939 0 43 0 1
gene 1 17 29 1.66185 0 44 0 1
gene 1 18 29 -1.55618 0 45 0 1
gene 1 19 29 -0.549054 0 46 0 1
gene 1 20 29 -0.363986 0 47 0 1
gene 1 21 29 -1.2634 0 48 0 1
gene 1 22 29 -0.00927875 0 49 0 1
gene 1 23 29 -1.17438 0 50 0 1
gene 1 24 29 -0.944636 0 51 0 1
gene 1 25 29 1.36279 0 52 0 1
gene 1 26 29 1.03948 0 53 0 1
gene 1 27 29 0.265565 0 54 0 1
gene 1 1 30 -2.60932 0 55 0 1
gene 1 2 30 0.654844 0 56 0 1
gene 1 3 30 1.32844 0 57 0 1
gene 1 4 30 0.0041762 0 58 0 1
gene 1 5 30 0.718182 0 59 0 1
gene 1 6 30 1.26143 0 60 0 1
gene 1 7 30 0.411626 0 61 0 1
gene 1 8 30 1.91682 0 62 0 1
gene 1 9 30 0.344719 0 63 0 1
gene 1 10 30 -0.210162 0 64 0 1
gene 1 11 30 -0.881962 0 65 0 1
gene 1 12 30 -0.423138 0 66 0 1
gene 1 13 30 -0.435822 0 67 0 1
gene 1 14 30 -1.93888 0 68 0 1
gene 1 15 30 1.01799 0 69 0 1
gene 1 16 30 -1.88457 0 70 0 1
gene 1 17 30 -0.359401 0 71 0 1
gene 1 18 30 0.0694351 0 72 0 1
gene 1 19 30 -1.57079 0 73 0 1
gene 1 20 30 0.926539 0 74 0 1
gene 1 21 30 -1.26565 0 75 0 1
gene 1 22 30 -1.67501 0 76 0 1
gene 1 23 30 0.630603 0 77 0 1
gene 1 24 30 1.15279 0 78 0 1
gene 1 25 30 1.49949 0 79 0 1
gene 1 26 30 -1.03932 0 80 0 1
gene 1 27 30 -0.105811 0 81 0 1
genomeend 2
