genomestart 2
trait 1 0 0 0 0 0 0 0 0 
node 1 0 1 1
node 2 0 1 1
node 3 0 1 1
node 4 0 1 1
node 5 0 1 1
node 6 0 1 1
node 7 0 1 1
node 8 0 1 1
node 9 0 1 1
node 10 0 1 1
node 11 0 1 1
node 12 0 1 1
node 13 0 1 1
node 14 0 1 1
node 15 0 1 1
node 16 0 1 1
node 17 0 1 1
node 18 0 1 1
node 19 0 1 1
node 20 0 1 1
node 21 0 1 1
node 22 0 1 1
node 23 0 1 1
node 24 0 1 1
node 25 0 1 1
node 26 0 1 1
node 27 0 1 3
node 28 0 0 2
node 29 0 0 2
node 30 0 0 2
gene 1 1 28 -0.726617 0 1 0 1
gene 1 2 28 -0.861656 0 2 0 1
gene 1 3 28 0.529153 0 3 0 1
gene 1 4 28 0.324629 0 4 0 1
gene 1 5 28 -1.18972 0 5 0 1
gene 1 6 28 0.200467 0 6 0 1
gene 1 7 28 -2.18695 0 7 0 1
gene 1 8 28 1.44801 0 8 0 1
gene 1 9 28 -2.12407 0 9 0 1
gene 1 10 28 -0.353628 0 10 0 1
gene 1 11 28 0.667211 0 11 0 1
gene 1 12 28 0.326742 0 12 0 1
gene 1 13 28 0.205089 0 13 0 1
gene 1 14 28 3.29231 0 14 0 1
gene 1 15 28 0.726604 0 15 0 1
gene 1 16 28 1.74685 0 16 0 1
gene 1 17 28 1.37606 0 17 0 1
gene 1 18 28 -0.910948 0 18 0 1
gene 1 19 28 -1.11895 0 19 0 1
gene 1 20 28 0.239638 0 20 0 1
gene 1 21 28 0.426036 0 21 0 1
gene 1 22 28 -1.33125 0 22 0 1
gene 1 23 28 -1.39238 0 23 0 1
gene 1 24 28 0.416938 0 24 0 1
gene 1 25 28 2.70003 0 25 0 1
gene 1 26 28 0.923638 0 26 0 1
gene 1 27 28 -1.18056 0 27 0 1
gene 1 1 29 -0.243278 0 28 0 1
gene 1 2 29 0.688596 0 29 0 1
gene 1 3 29 -0.888367 0 30 0 1
gene 1 4 29 1.51063 0 31 0 1
gene 1 5 29 1.81415 0 32 0 1
gene 1 6 29 2.1212 0 33 0 1
gene 1 7 29 2.28613 0 34 0 1
gene 1 8 29 -2.1288 0 35 0 1
gene 1 9 29 0.914946 0 36 0 1
gene 1 10 29 -1.28453 0 37 0 1
gene 1 11 29 1.23635 0 38 0 1
gene 1 12 29 -2.21892 0 39 0 1
gene 1 13 29 0.223984 0 40 0 1
gene 1 14 29 1.05899 0 41 0 1
gene 1 15 29 -0.640415 0 42 0 1
gene 1 16 29 2.80053 0 43 0 1
gene 1 17 29 0.00331916 0 44 0 1
gene 1 18 29 -2.05798 0 45 0 1
gene 1 19 29 0.343153 0 46 0 1
gene 1 20 29 -1.31787 0 47 0 1
gene 1 21 29 0.773333 0 48 0 1
gene 1 22 29 0.184205 0 49 0 1
gene 1 23 29 -0.211744 0 50 0 1
gene 1 24 29 -2.20549 0 51 0 1
gene 1 25 29 1.65384 0 52 0 1
gene 1 26 29 2.47062 0 53 0 1
gene 1 27 29 2.16692 0 54 0 1
gene 1 1 30 -1.76067 0 55 0 1
gene 1 2 30 1.13482 0 56 0 1
gene 1 3 30 1.68603 0 57 0 1
gene 1 4 30 -1.593 0 58 0 1
gene 1 5 30 -0.37057 0 59 0 1
gene 1 6 30 -0.127348 0 60 0 1
gene 1 7 30 2.29434 0 61 0 1
gene 1 8 30 1.60562 0 62 0 1
gene 1 9 30 -0.422617 0 63 0 1
gene 1 10 30 0.199958 0 64 0 1
gene 1 11 30 -1.32443 0 65 0 1
gene 1 12 30 0.181698 0 66 0 1
gene 1 13 30 -1.08104 0 67 0 1
gene 1 14 30 0.376326 0 68 0 1
gene 1 15 30 2.73277 0 69 0 1
gene 1 16 30 -1.06805 0 70 0 1
gene 1 17 30 1.07299 0 71 0 1
gene 1 18 30 -2.60501 0 72 0 1
gene 1 19 30 -0.793411 0 73 0 1
gene 1 20 30 0.244142 0 74 0 1
gene 1 21 30 -0.316137 0 75 0 1
gene 1 22 30 -0.329664 0 76 0 1
gene 1 23 30 1.10709 0 77 0 1
gene 1 24 30 2.01261 0 78 0 1
gene 1 25 30 0.66249 0 79 0 1
gene 1 26 30 -1.59604 0 80 0 1
gene 1 27 30 0.893575 0 81 0 1
genomeend 2
