genomestart 3
trait 1 0 0 0 0 0 0 0 0 
node 1 0 1 1
node 2 0 1 1
node 3 0 1 1
node 4 0 1 1
node 5 0 1 1
node 6 0 1 1
node 7 0 1 1
node 8 0 1 1
node 9 0 1 1
node 10 0 1 1
node 11 0 1 1
node 12 0 1 1
node 13 0 1 3
node 14 0 0 2
node 15 0 0 2
gene 1 1 14 -4.48241 0 1 0 1
gene 1 2 14 -4.77917 0 2 0 1
gene 1 3 14 2.07717 0 3 0 1
gene 1 4 14 -2.82636 0 4 0 1
gene 1 5 14 1.32185 0 5 0 1
gene 1 6 14 -0.765092 0 6 0 1
gene 1 7 14 -3.93083 0 7 0 1
gene 1 8 14 -3.67124 0 8 0 1
gene 1 9 14 2.50995 0 9 0 1
gene 1 10 14 3.96241 0 10 0 1
gene 1 11 14 4.4516 0 11 0 1
gene 1 12 14 -6.47675 0 12 0 1
gene 1 13 14 -2.43882 0 13 0 1
gene 1 1 15 4.13091 0 14 0 1
gene 1 2 15 -7.07347 0 15 0 1
gene 1 3 15 1.29899 0 16 0 1
gene 1 4 15 8.73424 0 17 0 1
gene 1 5 15 -3.80997 0 18 0 1
gene 1 6 15 2.24928 0 19 0 1
gene 1 7 15 -3.68282 0 20 0 1
gene 1 8 15 2.72476 0 21 0 1
gene 1 9 15 1.12768 0 22 0 1
gene 1 10 15 2.09795 0 23 0 1
gene 1 11 15 3.21296 0 24 0 1
gene 1 12 15 -1.86627 0 25 0 1
gene 1 13 15 -2.15903 0 26 0 1
genomeend 3
