genomestart 3
trait 1 0 0 0 0 0 0 0 0 
node 1 0 1 1
node 2 0 1 1
node 3 0 1 1
node 4 0 1 1
node 5 0 1 1
node 6 0 1 1
node 7 0 1 1
node 8 0 1 1
node 9 0 1 1
node 10 0 1 1
node 11 0 1 1
node 12 0 1 1
node 13 0 1 3
node 14 0 0 2
node 15 0 0 2
gene 1 1 14 1.53719 0 1 0 1
gene 1 2 14 0.80369 0 2 0 1
gene 1 3 14 -4.35828 0 3 0 1
gene 1 4 14 -4.43705 0 4 0 1
gene 1 5 14 -0.899564 0 5 0 1
gene 1 6 14 -5.73892 0 6 0 1
gene 1 7 14 -3.28229 0 7 0 1
gene 1 8 14 -0.412922 0 8 0 1
gene 1 9 14 4.85564 0 9 0 1
gene 1 10 14 7.37066 0 10 0 1
gene 1 11 14 7.32562 0 11 0 1
gene 1 12 14 -8.13941 0 12 0 1
gene 1 13 14 -1.19777 0 13 0 1
gene 1 1 15 3.07666 0 14 0 1
gene 1 2 15 -9.45931 0 15 0 1
gene 1 3 15 -3.7532 0 16 0 1
gene 1 4 15 8.80011 0 17 0 1
gene 1 5 15 -3.4162 0 18 0 1
gene 1 6 15 4.11435 0 19 0 1
gene 1 7 15 -6.06802 0 20 0 1
gene 1 8 15 3.09546 0 21 0 1
gene 1 9 15 -0.809031 0 22 0 1
gene 1 10 15 3.01135 0 23 0 1
gene 1 11 15 5.11476 0 24 0 1
gene 1 12 15 -4.86008 0 25 0 1
gene 1 13 15 -3.84002 0 26 0 1
genomeend 3
