genomestart 3
trait 1 0 0 0 0 0 0 0 0 
node 1 0 1 1
node 2 0 1 1
node 3 0 1 1
node 4 0 1 1
node 5 0 1 1
node 6 0 1 1
node 7 0 1 1
node 8 0 1 1
node 9 0 1 1
node 10 0 1 1
node 11 0 1 1
node 12 0 1 1
node 13 0 1 3
node 14 0 0 2
node 15 0 0 2
gene 1 1 14 1.27593 0 1 0 1
gene 1 2 14 1.09469 0 2 0 1
gene 1 3 14 -3.91752 0 3 0 1
gene 1 4 14 -4.4958 0 4 0 1
gene 1 5 14 -1.99161 0 5 0 1
gene 1 6 14 -5.69958 0 6 0 1
gene 1 7 14 -5.46572 0 7 0 1
gene 1 8 14 0.22257 0 8 0 1
gene 1 9 14 2.68364 0 9 0 1
gene 1 10 14 8.17339 0 10 0 1
gene 1 11 14 4.87785 0 11 0 1
gene 1 12 14 -7.47794 0 12 0 1
gene 1 13 14 -4.23009 0 13 0 1
gene 1 1 15 0.363921 0 14 0 1
gene 1 2 15 -7.85897 0 15 0 1
gene 1 3 15 -4.28698 0 16 0 1
gene 1 4 15 8.9078 0 17 0 1
gene 1 5 15 -2.39707 0 18 0 1
gene 1 6 15 3.0179 0 19 0 1
gene 1 7 15 -6.94967 0 20 0 1
gene 1 8 15 3.1657 0 21 0 1
gene 1 9 15 -1.94719 0 22 0 1
gene 1 10 15 3.83016 0 23 0 1
gene 1 11 15 3.35773 0 24 0 1
gene 1 12 15 -4.0969 0 25 0 1
gene 1 13 15 -2.68339 0 26 0 1
genomeend 3
