genomestart 2
trait 1 0 0 0 0 0 0 0 0 
node 1 0 1 1
node 2 0 1 1
node 3 0 1 1
node 4 0 1 1
node 5 0 1 1
node 6 0 1 1
node 7 0 1 1
node 8 0 1 1
node 9 0 1 1
node 10 0 1 1
node 11 0 1 1
node 12 0 1 1
node 13 0 1 1
node 14 0 1 1
node 15 0 1 1
node 16 0 1 1
node 17 0 1 1
node 18 0 1 1
node 19 0 1 1
node 20 0 1 1
node 21 0 1 1
node 22 0 1 1
node 23 0 1 1
node 24 0 1 1
node 25 0 1 1
node 26 0 1 1
node 27 0 1 3
node 28 0 0 2
node 29 0 0 2
node 30 0 0 2
gene 1 1 28 -1.04337 0 1 0 1
gene 1 2 28 -0.253077 0 2 0 1
gene 1 3 28 0.914242 0 3 0 1
gene 1 4 28 0.0622531 0 4 0 1
gene 1 5 28 -0.697618 0 5 0 1
gene 1 6 28 -0.991122 0 6 0 1
gene 1 7 28 -1.19282 0 7 0 1
gene 1 8 28 3.43923 0 8 0 1
gene 1 9 28 -2.47396 0 9 0 1
gene 1 10 28 0.398829 0 10 0 1
gene 1 11 28 0.054282 0 11 0 1
gene 1 12 28 -0.190378 0 12 0 1
gene 1 13 28 0.76348 0 13 0 1
gene 1 14 28 4.84829 0 14 0 1
gene 1 15 28 0.450281 0 15 0 1
gene 1 16 28 1.46943 0 16 0 1
gene 1 17 28 0.319961 0 17 0 1
gene 1 18 28 -0.594171 0 18 0 1
gene 1 19 28 -1.32604 0 19 0 1
gene 1 20 28 0.155817 0 20 0 1
gene 1 21 28 1.28298 0 21 0 1
gene 1 22 28 -0.633833 0 22 0 1
gene 1 23 28 -2.40368 0 23 0 1
gene 1 24 28 0.577006 0 24 0 1
gene 1 25 28 2.36746 0 25 0 1
gene 1 26 28 1.0164 0 26 0 1
gene 1 27 28 -1.70052 0 27 0 1
gene 1 1 29 0.543432 0 28 0 1
gene 1 2 29 1.04173 0 29 0 1
gene 1 3 29 -1.18678 0 30 0 1
gene 1 4 29 0.835662 0 31 0 1
gene 1 5 29 1.95449 0 32 0 1
gene 1 6 29 2.06487 0 33 0 1
gene 1 7 29 1.92023 0 34 0 1
gene 1 8 29 -2.1004 0 35 0 1
gene 1 9 29 0.973321 0 36 0 1
gene 1 10 29 -2.10459 0 37 0 1
gene 1 11 29 0.786509 0 38 0 1
gene 1 12 29 -1.96709 0 39 0 1
gene 1 13 29 0.419789 0 40 0 1
gene 1 14 29 2.29261 0 41 0 1
gene 1 15 29 0.202846 0 42 0 1
gene 1 16 29 1.86648 0 43 0 1
gene 1 17 29 0.622733 0 44 0 1
gene 1 18 29 -2.98542 0 45 0 1
gene 1 19 29 0.645785 0 46 0 1
gene 1 20 29 -0.558325 0 47 0 1
gene 1 21 29 1.27047 0 48 0 1
gene 1 22 29 -1.14477 0 49 0 1
gene 1 23 29 -0.923627 0 50 0 1
gene 1 24 29 -2.91597 0 51 0 1
gene 1 25 29 1.21831 0 52 0 1
gene 1 26 29 2.38665 0 53 0 1
gene 1 27 29 2.16024 0 54 0 1
gene 1 1 30 -2.82444 0 55 0 1
gene 1 2 30 0.839881 0 56 0 1
gene 1 3 30 2.13399 0 57 0 1
gene 1 4 30 -0.647967 0 58 0 1
gene 1 5 30 -0.0620422 0 59 0 1
gene 1 6 30 -1.05869 0 60 0 1
gene 1 7 30 3.24185 0 61 0 1
gene 1 8 30 1.31237 0 62 0 1
gene 1 9 30 -0.21089 0 63 0 1
gene 1 10 30 -0.958785 0 64 0 1
gene 1 11 30 -1.27604 0 65 0 1
gene 1 12 30 0.0768476 0 66 0 1
gene 1 13 30 0.46963 0 67 0 1
gene 1 14 30 0.40296 0 68 0 1
gene 1 15 30 3.13149 0 69 0 1
gene 1 16 30 -1.4085 0 70 0 1
gene 1 17 30 1.50456 0 71 0 1
gene 1 18 30 -1.42378 0 72 0 1
gene 1 19 30 -2.32548 0 73 0 1
gene 1 20 30 -0.537576 0 74 0 1
gene 1 21 30 0.692938 0 75 0 1
gene 1 22 30 -0.821536 0 76 0 1
gene 1 23 30 1.431 0 77 0 1
gene 1 24 30 2.72184 0 78 0 1
gene 1 25 30 -0.0930795 0 79 0 1
gene 1 26 30 -0.96128 0 80 0 1
gene 1 27 30 1.77725 0 81 0 1
genomeend 2
