genomestart 2
trait 1 0 0 0 0 0 0 0 0 
node 1 0 1 1
node 2 0 1 1
node 3 0 1 1
node 4 0 1 1
node 5 0 1 1
node 6 0 1 1
node 7 0 1 1
node 8 0 1 1
node 9 0 1 1
node 10 0 1 1
node 11 0 1 1
node 12 0 1 1
node 13 0 1 1
node 14 0 1 1
node 15 0 1 1
node 16 0 1 1
node 17 0 1 1
node 18 0 1 1
node 19 0 1 1
node 20 0 1 1
node 21 0 1 1
node 22 0 1 1
node 23 0 1 1
node 24 0 1 1
node 25 0 1 1
node 26 0 1 1
node 27 0 1 3
node 28 0 0 2
node 29 0 0 2
node 30 0 0 2
gene 1 1 28 -2.56817 0 1 0 1
gene 1 2 28 0.393205 0 2 0 1
gene 1 3 28 0.669513 0 3 0 1
gene 1 4 28 0.102417 0 4 0 1
gene 1 5 28 1.22326 0 5 0 1
gene 1 6 28 -0.761264 0 6 0 1
gene 1 7 28 -2.02335 0 7 0 1
gene 1 8 28 4.58597 0 8 0 1
gene 1 9 28 -1.66985 0 9 0 1
gene 1 10 28 -0.249919 0 10 0 1
gene 1 11 28 -0.789991 0 11 0 1
gene 1 12 28 -0.452545 0 12 0 1
gene 1 13 28 0.0878354 0 13 0 1
gene 1 14 28 4.38997 0 14 0 1
gene 1 15 28 0.38315 0 15 0 1
gene 1 16 28 1.15323 0 16 0 1
gene 1 17 28 0.934222 0 17 0 1
gene 1 18 28 -1.99816 0 18 0 1
gene 1 19 28 -0.124961 0 19 0 1
gene 1 20 28 1.72342 0 20 0 1
gene 1 21 28 1.57279 0 21 0 1
gene 1 22 28 -1.3709 0 22 0 1
gene 1 23 28 -2.01247 0 23 0 1
gene 1 24 28 0.400416 0 24 0 1
gene 1 25 28 1.51835 0 25 0 1
gene 1 26 28 0.779678 0 26 0 1
gene 1 27 28 -1.91251 0 27 0 1
gene 1 1 29 -0.803898 0 28 0 1
gene 1 2 29 2.07508 0 29 0 1
gene 1 3 29 0.120101 0 30 0 1
gene 1 4 29 1.62092 0 31 0 1
gene 1 5 29 2.28289 0 32 0 1
gene 1 6 29 1.6342 0 33 0 1
gene 1 7 29 2.961 0 34 0 1
gene 1 8 29 -4.17331 0 35 0 1
gene 1 9 29 0.621256 0 36 0 1
gene 1 10 29 -2.77227 0 37 0 1
gene 1 11 29 0.769272 0 38 0 1
gene 1 12 29 -1.95986 0 39 0 1
gene 1 13 29 0.674276 0 40 0 1
gene 1 14 29 0.67672 0 41 0 1
gene 1 15 29 -0.379462 0 42 0 1
gene 1 16 29 2.88035 0 43 0 1
gene 1 17 29 0.63765 0 44 0 1
gene 1 18 29 -2.89507 0 45 0 1
gene 1 19 29 -0.0544829 0 46 0 1
gene 1 20 29 -2.84104 0 47 0 1
gene 1 21 29 2.22289 0 48 0 1
gene 1 22 29 -1.06865 0 49 0 1
gene 1 23 29 -0.467152 0 50 0 1
gene 1 24 29 -4.13156 0 51 0 1
gene 1 25 29 1.09703 0 52 0 1
gene 1 26 29 1.92363 0 53 0 1
gene 1 27 29 2.30053 0 54 0 1
gene 1 1 30 -0.860155 0 55 0 1
gene 1 2 30 0.887397 0 56 0 1
gene 1 3 30 3.17659 0 57 0 1
gene 1 4 30 0.291161 0 58 0 1
gene 1 5 30 0.336285 0 59 0 1
gene 1 6 30 0.232209 0 60 0 1
gene 1 7 30 4.0409 0 61 0 1
gene 1 8 30 1.44931 0 62 0 1
gene 1 9 30 1.02025 0 63 0 1
gene 1 10 30 -1.39191 0 64 0 1
gene 1 11 30 -1.83444 0 65 0 1
gene 1 12 30 -0.6607 0 66 0 1
gene 1 13 30 -0.26131 0 67 0 1
gene 1 14 30 -0.013777 0 68 0 1
gene 1 15 30 2.73873 0 69 0 1
gene 1 16 30 -1.27535 0 70 0 1
gene 1 17 30 1.44725 0 71 0 1
gene 1 18 30 -0.561449 0 72 0 1
gene 1 19 30 -1.92149 0 73 0 1
gene 1 20 30 -2.51475 0 74 0 1
gene 1 21 30 2.13613 0 75 0 1
gene 1 22 30 -1.65183 0 76 0 1
gene 1 23 30 2.48274 0 77 0 1
gene 1 24 30 0.272962 0 78 0 1
gene 1 25 30 -0.439913 0 79 0 1
gene 1 26 30 -0.322967 0 80 0 1
gene 1 27 30 1.72376 0 81 0 1
genomeend 2
