genomestart 0
trait 1 0 0 0 0 0 0 0 0 
node 1 0 1 1
node 2 0 1 1
node 3 0 1 1
node 4 0 1 1
node 5 0 1 1
node 6 0 1 1
node 7 0 1 1
node 8 0 1 1
node 9 0 1 1
node 10 0 1 1
node 11 0 1 1
node 12 0 1 1
node 13 0 1 1
node 14 0 1 1
node 15 0 1 1
node 16 0 1 1
node 17 0 1 1
node 18 0 1 1
node 19 0 1 1
node 20 0 1 1
node 21 0 1 1
node 22 0 1 1
node 23 0 1 1
node 24 0 1 1
node 25 0 1 1
node 26 0 1 1
node 27 0 1 3
node 28 0 0 2
node 29 0 0 2
node 30 0 0 2
gene 1 1 28 0.910409 0 1 0 1
gene 1 2 28 0.525192 0 2 0 1
gene 1 3 28 -1.00424 0 3 0 1
gene 1 4 28 -1.35939 0 4 0 1
gene 1 5 28 0.150195 0 5 0 1
gene 1 6 28 1.03877 0 6 0 1
gene 1 7 28 0.335435 0 7 0 1
gene 1 8 28 -1.28075 0 8 0 1
gene 1 9 28 0.0506916 0 9 0 1
gene 1 10 28 -1.30128 0 10 0 1
gene 1 11 28 0.357362 0 11 0 1
gene 1 12 28 -0.301054 0 12 0 1
gene 1 13 28 -1.02691 0 13 0 1
gene 1 14 28 -1.8312 0 14 0 1
gene 1 15 28 0.402877 0 15 0 1
gene 1 16 28 1.59383 0 16 0 1
gene 1 17 28 -0.431839 0 17 0 1
gene 1 18 28 -0.70691 0 18 0 1
gene 1 19 28 -0.179028 0 19 0 1
gene 1 20 28 0.745214 0 20 0 1
gene 1 21 28 -1.81604 0 21 0 1
gene 1 22 28 -1.66798 0 22 0 1
gene 1 23 28 0.39476 0 23 0 1
gene 1 24 28 -0.567501 0 24 0 1
gene 1 25 28 -0.807007 0 25 0 1
gene 1 26 28 -0.0953807 0 26 0 1
gene 1 27 28 0.951694 0 27 0 1
gene 1 1 29 -0.5784 0 28 0 1
gene 1 2 29 -0.260628 0 29 0 1
gene 1 3 29 -0.00547425 0 30 0 1
gene 1 4 29 1.20374 0 31 0 1
gene 1 5 29 0.517888 0 32 0 1
gene 1 6 29 0.579744 0 33 0 1
gene 1 7 29 -1.44362 0 34 0 1
gene 1 8 29 1.43017 0 35 0 1
gene 1 9 29 -0.324772 0 36 0 1
gene 1 10 29 -0.770406 0 37 0 1
gene 1 11 29 -0.661796 0 38 0 1
gene 1 12 29 -0.384861 0 39 0 1
gene 1 13 29 -0.719916 0 40 0 1
gene 1 14 29 -2.0505 0 41 0 1
gene 1 15 29 0.893539 0 42 0 1
gene 1 16 29 0.186636 0 43 0 1
gene 1 17 29 -1.33909 0 44 0 1
gene 1 18 29 0.41583 0 45 0 1
gene 1 19 29 1.51432 0 46 0 1
gene 1 20 29 0.668811 0 47 0 1
gene 1 21 29 1.23229 0 48 0 1
gene 1 22 29 -0.620057 0 49 0 1
gene 1 23 29 -1.34399 0 50 0 1
gene 1 24 29 1.43219 0 51 0 1
gene 1 25 29 0.138073 0 52 0 1
gene 1 26 29 -1.02881 0 53 0 1
gene 1 27 29 0.203007 0 54 0 1
gene 1 1 30 -0.361557 0 55 0 1
gene 1 2 30 0.350133 0 56 0 1
gene 1 3 30 2.35423 0 57 0 1
gene 1 4 30 -0.0937207 0 58 0 1
gene 1 5 30 -1.18673 0 59 0 1
gene 1 6 30 2.2913 0 60 0 1
gene 1 7 30 -0.321121 0 61 0 1
gene 1 8 30 -0.933345 0 62 0 1
gene 1 9 30 0.390502 0 63 0 1
gene 1 10 30 -0.341898 0 64 0 1
gene 1 11 30 0.350137 0 65 0 1
gene 1 12 30 0.55978 0 66 0 1
gene 1 13 30 -0.128568 0 67 0 1
gene 1 14 30 -0.619788 0 68 0 1
gene 1 15 30 1.10882 0 69 0 1
gene 1 16 30 0.852047 0 70 0 1
gene 1 17 30 0.325217 0 71 0 1
gene 1 18 30 -2.98423 0 72 0 1
gene 1 19 30 0.502821 0 73 0 1
gene 1 20 30 0.158575 0 74 0 1
gene 1 21 30 1.32414 0 75 0 1
gene 1 22 30 -0.64891 0 76 0 1
gene 1 23 30 0.713626 0 77 0 1
gene 1 24 30 0.0310076 0 78 0 1
gene 1 25 30 1.62681 0 79 0 1
gene 1 26 30 -1.43398 0 80 0 1
gene 1 27 30 -0.913282 0 81 0 1
genomeend 0
