genomestart 2
trait 1 0 0 0 0 0 0 0 0 
node 1 0 1 1
node 2 0 1 1
node 3 0 1 1
node 4 0 1 1
node 5 0 1 1
node 6 0 1 1
node 7 0 1 1
node 8 0 1 1
node 9 0 1 1
node 10 0 1 1
node 11 0 1 1
node 12 0 1 1
node 13 0 1 1
node 14 0 1 1
node 15 0 1 1
node 16 0 1 1
node 17 0 1 1
node 18 0 1 1
node 19 0 1 1
node 20 0 1 1
node 21 0 1 1
node 22 0 1 1
node 23 0 1 1
node 24 0 1 1
node 25 0 1 1
node 26 0 1 1
node 27 0 1 3
node 28 0 0 2
node 29 0 0 2
node 30 0 0 2
gene 1 1 28 -1.08751 0 1 0 1
gene 1 2 28 -0.715187 0 2 0 1
gene 1 3 28 1.50335 0 3 0 1
gene 1 4 28 0.0299268 0 4 0 1
gene 1 5 28 -0.875269 0 5 0 1
gene 1 6 28 -1.62222 0 6 0 1
gene 1 7 28 -1.41066 0 7 0 1
gene 1 8 28 2.53499 0 8 0 1
gene 1 9 28 -3.47288 0 9 0 1
gene 1 10 28 0.413639 0 10 0 1
gene 1 11 28 0.165611 0 11 0 1
gene 1 12 28 0.185549 0 12 0 1
gene 1 13 28 1.23421 0 13 0 1
gene 1 14 28 3.51968 0 14 0 1
gene 1 15 28 -0.00487461 0 15 0 1
gene 1 16 28 2.16498 0 16 0 1
gene 1 17 28 0.444007 0 17 0 1
gene 1 18 28 -0.491918 0 18 0 1
gene 1 19 28 -1.14985 0 19 0 1
gene 1 20 28 -0.0250098 0 20 0 1
gene 1 21 28 0.430336 0 21 0 1
gene 1 22 28 -1.71945 0 22 0 1
gene 1 23 28 -2.11904 0 23 0 1
gene 1 24 28 1.04027 0 24 0 1
gene 1 25 28 1.96363 0 25 0 1
gene 1 26 28 1.11896 0 26 0 1
gene 1 27 28 -1.10935 0 27 0 1
gene 1 1 29 0.0519757 0 28 0 1
gene 1 2 29 0.350694 0 29 0 1
gene 1 3 29 -0.70372 0 30 0 1
gene 1 4 29 0.392026 0 31 0 1
gene 1 5 29 2.16224 0 32 0 1
gene 1 6 29 2.35752 0 33 0 1
gene 1 7 29 3.13271 0 34 0 1
gene 1 8 29 -2.35733 0 35 0 1
gene 1 9 29 0.879694 0 36 0 1
gene 1 10 29 -2.16594 0 37 0 1
gene 1 11 29 0.931074 0 38 0 1
gene 1 12 29 -2.00441 0 39 0 1
gene 1 13 29 0.156407 0 40 0 1
gene 1 14 29 1.97408 0 41 0 1
gene 1 15 29 0.103826 0 42 0 1
gene 1 16 29 2.08882 0 43 0 1
gene 1 17 29 0.510849 0 44 0 1
gene 1 18 29 -1.79876 0 45 0 1
gene 1 19 29 0.695063 0 46 0 1
gene 1 20 29 -0.597487 0 47 0 1
gene 1 21 29 0.921224 0 48 0 1
gene 1 22 29 -0.00197296 0 49 0 1
gene 1 23 29 -0.677865 0 50 0 1
gene 1 24 29 -3.13114 0 51 0 1
gene 1 25 29 1.81483 0 52 0 1
gene 1 26 29 2.06363 0 53 0 1
gene 1 27 29 2.47195 0 54 0 1
gene 1 1 30 -2.64308 0 55 0 1
gene 1 2 30 1.10501 0 56 0 1
gene 1 3 30 2.10242 0 57 0 1
gene 1 4 30 -1.34881 0 58 0 1
gene 1 5 30 -0.559353 0 59 0 1
gene 1 6 30 -0.31511 0 60 0 1
gene 1 7 30 2.80265 0 61 0 1
gene 1 8 30 1.19567 0 62 0 1
gene 1 9 30 0.0530567 0 63 0 1
gene 1 10 30 -0.792133 0 64 0 1
gene 1 11 30 -0.686691 0 65 0 1
gene 1 12 30 -0.0965085 0 66 0 1
gene 1 13 30 0.59691 0 67 0 1
gene 1 14 30 -0.227581 0 68 0 1
gene 1 15 30 2.0956 0 69 0 1
gene 1 16 30 -1.32104 0 70 0 1
gene 1 17 30 1.40755 0 71 0 1
gene 1 18 30 -1.49117 0 72 0 1
gene 1 19 30 -1.32033 0 73 0 1
gene 1 20 30 -0.415235 0 74 0 1
gene 1 21 30 0.585711 0 75 0 1
gene 1 22 30 0.0743136 0 76 0 1
gene 1 23 30 1.26199 0 77 0 1
gene 1 24 30 1.94294 0 78 0 1
gene 1 25 30 -0.0742834 0 79 0 1
gene 1 26 30 -1.06805 0 80 0 1
gene 1 27 30 1.19344 0 81 0 1
genomeend 2
