genomestart 2
trait 1 0 0 0 0 0 0 0 0 
node 1 0 1 1
node 2 0 1 1
node 3 0 1 1
node 4 0 1 1
node 5 0 1 1
node 6 0 1 1
node 7 0 1 1
node 8 0 1 1
node 9 0 1 1
node 10 0 1 1
node 11 0 1 1
node 12 0 1 1
node 13 0 1 1
node 14 0 1 1
node 15 0 1 1
node 16 0 1 1
node 17 0 1 1
node 18 0 1 1
node 19 0 1 1
node 20 0 1 1
node 21 0 1 1
node 22 0 1 1
node 23 0 1 1
node 24 0 1 1
node 25 0 1 1
node 26 0 1 1
node 27 0 1 3
node 28 0 0 2
node 29 0 0 2
node 30 0 0 2
gene 1 1 28 -0.422863 0 1 0 1
gene 1 2 28 -1.62533 0 2 0 1
gene 1 3 28 1.11118 0 3 0 1
gene 1 4 28 0.365375 0 4 0 1
gene 1 5 28 -1.75493 0 5 0 1
gene 1 6 28 -0.271217 0 6 0 1
gene 1 7 28 -1.91027 0 7 0 1
gene 1 8 28 1.70647 0 8 0 1
gene 1 9 28 -2.23965 0 9 0 1
gene 1 10 28 -0.161035 0 10 0 1
gene 1 11 28 0.42076 0 11 0 1
gene 1 12 28 1.13595 0 12 0 1
gene 1 13 28 1.50968 0 13 0 1
gene 1 14 28 2.95093 0 14 0 1
gene 1 15 28 0.938648 0 15 0 1
gene 1 16 28 1.82052 0 16 0 1
gene 1 17 28 0.745023 0 17 0 1
gene 1 18 28 -1.41601 0 18 0 1
gene 1 19 28 -1.07125 0 19 0 1
gene 1 20 28 -0.318892 0 20 0 1
gene 1 21 28 -0.0236638 0 21 0 1
gene 1 22 28 -1.86686 0 22 0 1
gene 1 23 28 -0.169706 0 23 0 1
gene 1 24 28 0.668549 0 24 0 1
gene 1 25 28 2.05043 0 25 0 1
gene 1 26 28 0.397036 0 26 0 1
gene 1 27 28 0.0834627 0 27 0 1
gene 1 1 29 -0.0696576 0 28 0 1
gene 1 2 29 1.05509 0 29 0 1
gene 1 3 29 -1.51861 0 30 0 1
gene 1 4 29 1.58632 0 31 0 1
gene 1 5 29 1.47768 0 32 0 1
gene 1 6 29 2.10919 0 33 0 1
gene 1 7 29 2.34553 0 34 0 1
gene 1 8 29 -2.4463 0 35 0 1
gene 1 9 29 1.27579 0 36 0 1
gene 1 10 29 -1.24683 0 37 0 1
gene 1 11 29 1.09414 0 38 0 1
gene 1 12 29 -1.81923 0 39 0 1
gene 1 13 29 -0.722408 0 40 0 1
gene 1 14 29 0.739211 0 41 0 1
gene 1 15 29 -0.948433 0 42 0 1
gene 1 16 29 2.36838 0 43 0 1
gene 1 17 29 -1.19081 0 44 0 1
gene 1 18 29 -1.83701 0 45 0 1
gene 1 19 29 1.07309 0 46 0 1
gene 1 20 29 -2.42715 0 47 0 1
gene 1 21 29 -0.211095 0 48 0 1
gene 1 22 29 -0.475675 0 49 0 1
gene 1 23 29 1.08036 0 50 0 1
gene 1 24 29 -1.51187 0 51 0 1
gene 1 25 29 1.92166 0 52 0 1
gene 1 26 29 2.49803 0 53 0 1
gene 1 27 29 3.037 0 54 0 1
gene 1 1 30 -0.888732 0 55 0 1
gene 1 2 30 1.38788 0 56 0 1
gene 1 3 30 0.956056 0 57 0 1
gene 1 4 30 -1.36381 0 58 0 1
gene 1 5 30 0.217307 0 59 0 1
gene 1 6 30 -0.566055 0 60 0 1
gene 1 7 30 2.2662 0 61 0 1
gene 1 8 30 1.35137 0 62 0 1
gene 1 9 30 -0.794133 0 63 0 1
gene 1 10 30 -0.0533698 0 64 0 1
gene 1 11 30 -1.10929 0 65 0 1
gene 1 12 30 1.39052 0 66 0 1
gene 1 13 30 -1.64194 0 67 0 1
gene 1 14 30 -0.0503385 0 68 0 1
gene 1 15 30 2.58718 0 69 0 1
gene 1 16 30 -0.340473 0 70 0 1
gene 1 17 30 2.03261 0 71 0 1
gene 1 18 30 -1.86785 0 72 0 1
gene 1 19 30 -0.85316 0 73 0 1
gene 1 20 30 0.459851 0 74 0 1
gene 1 21 30 -1.63205 0 75 0 1
gene 1 22 30 -0.501367 0 76 0 1
gene 1 23 30 2.23401 0 77 0 1
gene 1 24 30 3.42985 0 78 0 1
gene 1 25 30 1.09596 0 79 0 1
gene 1 26 30 -1.63367 0 80 0 1
gene 1 27 30 1.12256 0 81 0 1
genomeend 2
