genomestart 3
trait 1 0 0 0 0 0 0 0 0 
node 1 0 1 1
node 2 0 1 1
node 3 0 1 1
node 4 0 1 1
node 5 0 1 1
node 6 0 1 1
node 7 0 1 1
node 8 0 1 1
node 9 0 1 1
node 10 0 1 1
node 11 0 1 1
node 12 0 1 1
node 13 0 1 3
node 14 0 0 2
node 15 0 0 2
gene 1 1 14 1.21078 0 1 0 1
gene 1 2 14 -0.516467 0 2 0 1
gene 1 3 14 -1.02553 0 3 0 1
gene 1 4 14 -1.57315 0 4 0 1
gene 1 5 14 -0.419455 0 5 0 1
gene 1 6 14 -4.32269 0 6 0 1
gene 1 7 14 -4.95773 0 7 0 1
gene 1 8 14 0.16456 0 8 0 1
gene 1 9 14 -0.815317 0 9 0 1
gene 1 10 14 5.68028 0 10 0 1
gene 1 11 14 3.31812 0 11 0 1
gene 1 12 14 -4.37901 0 12 0 1
gene 1 13 14 -4.57762 0 13 0 1
gene 1 1 15 1.76325 0 14 0 1
gene 1 2 15 -5.18409 0 15 0 1
gene 1 3 15 -1.70531 0 16 0 1
gene 1 4 15 7.92694 0 17 0 1
gene 1 5 15 -4.36192 0 18 0 1
gene 1 6 15 0.770682 0 19 0 1
gene 1 7 15 -3.8965 0 20 0 1
gene 1 8 15 1.97417 0 21 0 1
gene 1 9 15 -1.70315 0 22 0 1
gene 1 10 15 1.97965 0 23 0 1
gene 1 11 15 2.91161 0 24 0 1
gene 1 12 15 -1.8617 0 25 0 1
gene 1 13 15 -2.03428 0 26 0 1
genomeend 3
