genomestart 3
trait 1 0 0 0 0 0 0 0 0 
node 1 0 1 1
node 2 0 1 1
node 3 0 1 1
node 4 0 1 1
node 5 0 1 1
node 6 0 1 1
node 7 0 1 1
node 8 0 1 1
node 9 0 1 1
node 10 0 1 1
node 11 0 1 1
node 12 0 1 1
node 13 0 1 3
node 14 0 0 2
node 15 0 0 2
gene 1 1 14 1.44703 0 1 0 1
gene 1 2 14 0.272682 0 2 0 1
gene 1 3 14 -4.56783 0 3 0 1
gene 1 4 14 -4.79129 0 4 0 1
gene 1 5 14 -1.15737 0 5 0 1
gene 1 6 14 -6.48704 0 6 0 1
gene 1 7 14 -3.53212 0 7 0 1
gene 1 8 14 0.356663 0 8 0 1
gene 1 9 14 5.78152 0 9 0 1
gene 1 10 14 7.99312 0 10 0 1
gene 1 11 14 6.05617 0 11 0 1
gene 1 12 14 -7.27292 0 12 0 1
gene 1 13 14 -3.33039 0 13 0 1
gene 1 1 15 1.16784 0 14 0 1
gene 1 2 15 -8.54884 0 15 0 1
gene 1 3 15 -4.36286 0 16 0 1
gene 1 4 15 8.98598 0 17 0 1
gene 1 5 15 -2.99389 0 18 0 1
gene 1 6 15 3.65644 0 19 0 1
gene 1 7 15 -4.91776 0 20 0 1
gene 1 8 15 2.73219 0 21 0 1
gene 1 9 15 -0.695853 0 22 0 1
gene 1 10 15 3.87177 0 23 0 1
gene 1 11 15 3.47707 0 24 0 1
gene 1 12 15 -5.71166 0 25 0 1
gene 1 13 15 -2.58674 0 26 0 1
genomeend 3
