genomestart 3
trait 1 0 0 0 0 0 0 0 0 
node 1 0 1 1
node 2 0 1 1
node 3 0 1 1
node 4 0 1 1
node 5 0 1 1
node 6 0 1 1
node 7 0 1 1
node 8 0 1 1
node 9 0 1 1
node 10 0 1 1
node 11 0 1 1
node 12 0 1 1
node 13 0 1 3
node 14 0 0 2
node 15 0 0 2
gene 1 1 14 -0.397765 0 1 0 1
gene 1 2 14 -0.491754 0 2 0 1
gene 1 3 14 0.0843956 0 3 0 1
gene 1 4 14 -1.41392 0 4 0 1
gene 1 5 14 -2.31261 0 5 0 1
gene 1 6 14 -2.14907 0 6 0 1
gene 1 7 14 -4.59709 0 7 0 1
gene 1 8 14 1.17369 0 8 0 1
gene 1 9 14 -0.0173695 0 9 0 1
gene 1 10 14 5.75409 0 10 0 1
gene 1 11 14 4.17745 0 11 0 1
gene 1 12 14 -6.2822 0 12 0 1
gene 1 13 14 -3.58238 0 13 0 1
gene 1 1 15 2.60148 0 14 0 1
gene 1 2 15 -2.36234 0 15 0 1
gene 1 3 15 -2.30072 0 16 0 1
gene 1 4 15 7.29678 0 17 0 1
gene 1 5 15 -3.8611 0 18 0 1
gene 1 6 15 -0.2367 0 19 0 1
gene 1 7 15 -3.70412 0 20 0 1
gene 1 8 15 4.20002 0 21 0 1
gene 1 9 15 -2.61987 0 22 0 1
gene 1 10 15 3.24577 0 23 0 1
gene 1 11 15 4.28517 0 24 0 1
gene 1 12 15 0.337198 0 25 0 1
gene 1 13 15 -2.83947 0 26 0 1
genomeend 3
