genomestart 3
trait 1 0 0 0 0 0 0 0 0 
node 1 0 1 1
node 2 0 1 1
node 3 0 1 1
node 4 0 1 1
node 5 0 1 1
node 6 0 1 1
node 7 0 1 1
node 8 0 1 1
node 9 0 1 1
node 10 0 1 1
node 11 0 1 1
node 12 0 1 1
node 13 0 1 3
node 14 0 0 2
node 15 0 0 2
gene 1 1 14 1.35443 0 1 0 1
gene 1 2 14 -3.83354 0 2 0 1
gene 1 3 14 -0.413175 0 3 0 1
gene 1 4 14 -1.91706 0 4 0 1
gene 1 5 14 0.316092 0 5 0 1
gene 1 6 14 -2.77429 0 6 0 1
gene 1 7 14 -4.30499 0 7 0 1
gene 1 8 14 -1.32558 0 8 0 1
gene 1 9 14 -1.977 0 9 0 1
gene 1 10 14 5.375 0 10 0 1
gene 1 11 14 2.264 0 11 0 1
gene 1 12 14 -4.46108 0 12 0 1
gene 1 13 14 -5.14895 0 13 0 1
gene 1 1 15 2.9638 0 14 0 1
gene 1 2 15 -3.74705 0 15 0 1
gene 1 3 15 0.465697 0 16 0 1
gene 1 4 15 5.90712 0 17 0 1
gene 1 5 15 -1.34932 0 18 0 1
gene 1 6 15 -0.873164 0 19 0 1
gene 1 7 15 -1.99132 0 20 0 1
gene 1 8 15 3.66443 0 21 0 1
gene 1 9 15 -1.31623 0 22 0 1
gene 1 10 15 0.215277 0 23 0 1
gene 1 11 15 3.23521 0 24 0 1
gene 1 12 15 -2.71845 0 25 0 1
gene 1 13 15 -1.55911 0 26 0 1
genomeend 3
