genomestart 0
trait 1 0 0 0 0 0 0 0 0 
node 1 0 1 1
node 2 0 1 1
node 3 0 1 1
node 4 0 1 1
node 5 0 1 1
node 6 0 1 1
node 7 0 1 1
node 8 0 1 1
node 9 0 1 1
node 10 0 1 1
node 11 0 1 1
node 12 0 1 1
node 13 0 1 1
node 14 0 1 1
node 15 0 1 1
node 16 0 1 1
node 17 0 1 1
node 18 0 1 1
node 19 0 1 1
node 20 0 1 1
node 21 0 1 1
node 22 0 1 1
node 23 0 1 1
node 24 0 1 1
node 25 0 1 1
node 26 0 1 1
node 27 0 1 3
node 28 0 0 2
node 29 0 0 2
node 30 0 0 2
gene 1 1 28 0.833102 0 1 0 1
gene 1 2 28 0.452482 0 2 0 1
gene 1 3 28 -1.44513 0 3 0 1
gene 1 4 28 -1.18977 0 4 0 1
gene 1 5 28 0.298551 0 5 0 1
gene 1 6 28 1.40248 0 6 0 1
gene 1 7 28 0.0144073 0 7 0 1
gene 1 8 28 -1.42349 0 8 0 1
gene 1 9 28 0.195307 0 9 0 1
gene 1 10 28 -1.32747 0 10 0 1
gene 1 11 28 0.38237 0 11 0 1
gene 1 12 28 0.0517259 0 12 0 1
gene 1 13 28 -0.903604 0 13 0 1
gene 1 14 28 -1.4914 0 14 0 1
gene 1 15 28 0.0321688 0 15 0 1
gene 1 16 28 1.83645 0 16 0 1
gene 1 17 28 -0.275471 0 17 0 1
gene 1 18 28 -1.17604 0 18 0 1
gene 1 19 28 -0.610785 0 19 0 1
gene 1 20 28 0.850052 0 20 0 1
gene 1 21 28 -2.06835 0 21 0 1
gene 1 22 28 -1.59324 0 22 0 1
gene 1 23 28 -0.00898257 0 23 0 1
gene 1 24 28 -0.961181 0 24 0 1
gene 1 25 28 -0.390964 0 25 0 1
gene 1 26 28 -0.448796 0 26 0 1
gene 1 27 28 0.717538 0 27 0 1
gene 1 1 29 -0.713231 0 28 0 1
gene 1 2 29 -0.0957827 0 29 0 1
gene 1 3 29 -0.526505 0 30 0 1
gene 1 4 29 1.03966 0 31 0 1
gene 1 5 29 0.84155 0 32 0 1
gene 1 6 29 1.08977 0 33 0 1
gene 1 7 29 -1.38094 0 34 0 1
gene 1 8 29 1.71143 0 35 0 1
gene 1 9 29 -0.163254 0 36 0 1
gene 1 10 29 -0.531915 0 37 0 1
gene 1 11 29 -0.810213 0 38 0 1
gene 1 12 29 -0.153452 0 39 0 1
gene 1 13 29 -0.589446 0 40 0 1
gene 1 14 29 -2.35846 0 41 0 1
gene 1 15 29 0.75314 0 42 0 1
gene 1 16 29 0.551182 0 43 0 1
gene 1 17 29 -1.2476 0 44 0 1
gene 1 18 29 0.188438 0 45 0 1
gene 1 19 29 1.57306 0 46 0 1
gene 1 20 29 0.861888 0 47 0 1
gene 1 21 29 0.962607 0 48 0 1
gene 1 22 29 -0.632519 0 49 0 1
gene 1 23 29 -0.907794 0 50 0 1
gene 1 24 29 1.75976 0 51 0 1
gene 1 25 29 -0.571789 0 52 0 1
gene 1 26 29 -1.34815 0 53 0 1
gene 1 27 29 0.483501 0 54 0 1
gene 1 1 30 -0.287479 0 55 0 1
gene 1 2 30 0.439907 0 56 0 1
gene 1 3 30 2.32291 0 57 0 1
gene 1 4 30 -0.531488 0 58 0 1
gene 1 5 30 -1.49912 0 59 0 1
gene 1 6 30 2.63427 0 60 0 1
gene 1 7 30 0.0782833 0 61 0 1
gene 1 8 30 -0.699216 0 62 0 1
gene 1 9 30 0.548308 0 63 0 1
gene 1 10 30 -0.687854 0 64 0 1
gene 1 11 30 0.762883 0 65 0 1
gene 1 12 30 0.74439 0 66 0 1
gene 1 13 30 -0.125286 0 67 0 1
gene 1 14 30 -0.838773 0 68 0 1
gene 1 15 30 1.49216 0 69 0 1
gene 1 16 30 1.25632 0 70 0 1
gene 1 17 30 0.186305 0 71 0 1
gene 1 18 30 -2.90293 0 72 0 1
gene 1 19 30 0.664284 0 73 0 1
gene 1 20 30 0.519662 0 74 0 1
gene 1 21 30 1.22449 0 75 0 1
gene 1 22 30 -0.659996 0 76 0 1
gene 1 23 30 0.901525 0 77 0 1
gene 1 24 30 -0.308956 0 78 0 1
gene 1 25 30 1.54016 0 79 0 1
gene 1 26 30 -1.45315 0 80 0 1
gene 1 27 30 -1.45367 0 81 0 1
genomeend 0
