genomestart 3
trait 1 0 0 0 0 0 0 0 0 
node 1 0 1 1
node 2 0 1 1
node 3 0 1 1
node 4 0 1 1
node 5 0 1 1
node 6 0 1 1
node 7 0 1 1
node 8 0 1 1
node 9 0 1 1
node 10 0 1 1
node 11 0 1 1
node 12 0 1 1
node 13 0 1 3
node 14 0 0 2
node 15 0 0 2
gene 1 1 14 1.16441 0 1 0 1
gene 1 2 14 -3.86558 0 2 0 1
gene 1 3 14 0.191418 0 3 0 1
gene 1 4 14 -3.16686 0 4 0 1
gene 1 5 14 -0.921513 0 5 0 1
gene 1 6 14 -4.07641 0 6 0 1
gene 1 7 14 -6.49744 0 7 0 1
gene 1 8 14 -1.0268 0 8 0 1
gene 1 9 14 -1.60007 0 9 0 1
gene 1 10 14 6.00268 0 10 0 1
gene 1 11 14 2.94022 0 11 0 1
gene 1 12 14 -4.14179 0 12 0 1
gene 1 13 14 -5.17443 0 13 0 1
gene 1 1 15 4.1088 0 14 0 1
gene 1 2 15 -4.66751 0 15 0 1
gene 1 3 15 0.548564 0 16 0 1
gene 1 4 15 6.13638 0 17 0 1
gene 1 5 15 -0.889984 0 18 0 1
gene 1 6 15 -0.479682 0 19 0 1
gene 1 7 15 -0.800812 0 20 0 1
gene 1 8 15 2.75206 0 21 0 1
gene 1 9 15 -3.55546 0 22 0 1
gene 1 10 15 2.05367 0 23 0 1
gene 1 11 15 3.97298 0 24 0 1
gene 1 12 15 -3.15223 0 25 0 1
gene 1 13 15 -2.91786 0 26 0 1
genomeend 3
