genomestart 3
trait 1 0 0 0 0 0 0 0 0 
node 1 0 1 1
node 2 0 1 1
node 3 0 1 1
node 4 0 1 1
node 5 0 1 1
node 6 0 1 1
node 7 0 1 1
node 8 0 1 1
node 9 0 1 1
node 10 0 1 1
node 11 0 1 1
node 12 0 1 1
node 13 0 1 3
node 14 0 0 2
node 15 0 0 2
gene 1 1 14 -0.200297 0 1 0 1
gene 1 2 14 -0.450347 0 2 0 1
gene 1 3 14 0.501956 0 3 0 1
gene 1 4 14 -2.16254 0 4 0 1
gene 1 5 14 -1.97996 0 5 0 1
gene 1 6 14 -2.02871 0 6 0 1
gene 1 7 14 -4.36348 0 7 0 1
gene 1 8 14 1.67614 0 8 0 1
gene 1 9 14 -0.782701 0 9 0 1
gene 1 10 14 5.47491 0 10 0 1
gene 1 11 14 4.47788 0 11 0 1
gene 1 12 14 -5.7759 0 12 0 1
gene 1 13 14 -4.12326 0 13 0 1
gene 1 1 15 3.56457 0 14 0 1
gene 1 2 15 -4.01639 0 15 0 1
gene 1 3 15 -2.13053 0 16 0 1
gene 1 4 15 7.77816 0 17 0 1
gene 1 5 15 -4.01559 0 18 0 1
gene 1 6 15 -0.180988 0 19 0 1
gene 1 7 15 -3.73344 0 20 0 1
gene 1 8 15 3.4719 0 21 0 1
gene 1 9 15 -2.45765 0 22 0 1
gene 1 10 15 3.22768 0 23 0 1
gene 1 11 15 3.59407 0 24 0 1
gene 1 12 15 0.315526 0 25 0 1
gene 1 13 15 -3.2942 0 26 0 1
genomeend 3
