genomestart 2
trait 1 0 0 0 0 0 0 0 0 
node 1 0 1 1
node 2 0 1 1
node 3 0 1 1
node 4 0 1 1
node 5 0 1 1
node 6 0 1 1
node 7 0 1 1
node 8 0 1 1
node 9 0 1 1
node 10 0 1 1
node 11 0 1 1
node 12 0 1 1
node 13 0 1 1
node 14 0 1 1
node 15 0 1 1
node 16 0 1 1
node 17 0 1 1
node 18 0 1 1
node 19 0 1 1
node 20 0 1 1
node 21 0 1 1
node 22 0 1 1
node 23 0 1 1
node 24 0 1 1
node 25 0 1 1
node 26 0 1 1
node 27 0 1 3
node 28 0 0 2
node 29 0 0 2
node 30 0 0 2
gene 1 1 28 -1.08473 0 1 0 1
gene 1 2 28 -1.49396 0 2 0 1
gene 1 3 28 1.69639 0 3 0 1
gene 1 4 28 1.03082 0 4 0 1
gene 1 5 28 -2.05302 0 5 0 1
gene 1 6 28 -0.501179 0 6 0 1
gene 1 7 28 -1.31656 0 7 0 1
gene 1 8 28 0.546236 0 8 0 1
gene 1 9 28 -1.73001 0 9 0 1
gene 1 10 28 0.0569916 0 10 0 1
gene 1 11 28 0.177434 0 11 0 1
gene 1 12 28 0.311301 0 12 0 1
gene 1 13 28 -0.190077 0 13 0 1
gene 1 14 28 2.40694 0 14 0 1
gene 1 15 28 0.257712 0 15 0 1
gene 1 16 28 1.58517 0 16 0 1
gene 1 17 28 0.896757 0 17 0 1
gene 1 18 28 -0.391522 0 18 0 1
gene 1 19 28 -0.834921 0 19 0 1
gene 1 20 28 -0.262147 0 20 0 1
gene 1 21 28 0.76921 0 21 0 1
gene 1 22 28 -1.55637 0 22 0 1
gene 1 23 28 -1.54351 0 23 0 1
gene 1 24 28 0.0871944 0 24 0 1
gene 1 25 28 2.99132 0 25 0 1
gene 1 26 28 0.475806 0 26 0 1
gene 1 27 28 -0.0853535 0 27 0 1
gene 1 1 29 -0.609725 0 28 0 1
gene 1 2 29 0.873723 0 29 0 1
gene 1 3 29 -1.04396 0 30 0 1
gene 1 4 29 1.13392 0 31 0 1
gene 1 5 29 1.51415 0 32 0 1
gene 1 6 29 1.79168 0 33 0 1
gene 1 7 29 1.43899 0 34 0 1
gene 1 8 29 -1.27672 0 35 0 1
gene 1 9 29 0.62175 0 36 0 1
gene 1 10 29 -1.10208 0 37 0 1
gene 1 11 29 -0.0589741 0 38 0 1
gene 1 12 29 -0.820292 0 39 0 1
gene 1 13 29 -0.54484 0 40 0 1
gene 1 14 29 0.921731 0 41 0 1
gene 1 15 29 -0.513745 0 42 0 1
gene 1 16 29 1.57806 0 43 0 1
gene 1 17 29 0.280557 0 44 0 1
gene 1 18 29 -1.63829 0 45 0 1
gene 1 19 29 -0.335782 0 46 0 1
gene 1 20 29 -1.49196 0 47 0 1
gene 1 21 29 0.557724 0 48 0 1
gene 1 22 29 -0.0525558 0 49 0 1
gene 1 23 29 0.145777 0 50 0 1
gene 1 24 29 -1.2115 0 51 0 1
gene 1 25 29 0.892284 0 52 0 1
gene 1 26 29 2.21238 0 53 0 1
gene 1 27 29 0.977074 0 54 0 1
gene 1 1 30 -2.18263 0 55 0 1
gene 1 2 30 0.314901 0 56 0 1
gene 1 3 30 1.89739 0 57 0 1
gene 1 4 30 -1.49003 0 58 0 1
gene 1 5 30 -0.0251211 0 59 0 1
gene 1 6 30 0.424849 0 60 0 1
gene 1 7 30 1.20965 0 61 0 1
gene 1 8 30 2.0658 0 62 0 1
gene 1 9 30 -0.82527 0 63 0 1
gene 1 10 30 0.661643 0 64 0 1
gene 1 11 30 -1.86724 0 65 0 1
gene 1 12 30 0.499201 0 66 0 1
gene 1 13 30 -1.09528 0 67 0 1
gene 1 14 30 0.0512198 0 68 0 1
gene 1 15 30 1.9884 0 69 0 1
gene 1 16 30 -1.55036 0 70 0 1
gene 1 17 30 0.407747 0 71 0 1
gene 1 18 30 -1.54316 0 72 0 1
gene 1 19 30 -0.722426 0 73 0 1
gene 1 20 30 0.816304 0 74 0 1
gene 1 21 30 -0.995506 0 75 0 1
gene 1 22 30 -1.02054 0 76 0 1
gene 1 23 30 -0.132724 0 77 0 1
gene 1 24 30 0.939187 0 78 0 1
gene 1 25 30 0.905771 0 79 0 1
gene 1 26 30 -1.2438 0 80 0 1
gene 1 27 30 1.1895 0 81 0 1
genomeend 2
