genomestart 2
trait 1 0 0 0 0 0 0 0 0 
node 1 0 1 1
node 2 0 1 1
node 3 0 1 1
node 4 0 1 1
node 5 0 1 1
node 6 0 1 1
node 7 0 1 1
node 8 0 1 1
node 9 0 1 1
node 10 0 1 1
node 11 0 1 1
node 12 0 1 1
node 13 0 1 1
node 14 0 1 1
node 15 0 1 1
node 16 0 1 1
node 17 0 1 1
node 18 0 1 1
node 19 0 1 1
node 20 0 1 1
node 21 0 1 1
node 22 0 1 1
node 23 0 1 1
node 24 0 1 1
node 25 0 1 1
node 26 0 1 1
node 27 0 1 3
node 28 0 0 2
node 29 0 0 2
node 30 0 0 2
gene 1 1 28 -2.17944 0 1 0 1
gene 1 2 28 0.276698 0 2 0 1
gene 1 3 28 0.987628 0 3 0 1
gene 1 4 28 0.62973 0 4 0 1
gene 1 5 28 0.400238 0 5 0 1
gene 1 6 28 -0.483117 0 6 0 1
gene 1 7 28 -1.80652 0 7 0 1
gene 1 8 28 4.24602 0 8 0 1
gene 1 9 28 -1.26002 0 9 0 1
gene 1 10 28 -0.229125 0 10 0 1
gene 1 11 28 -1.16117 0 11 0 1
gene 1 12 28 -0.443955 0 12 0 1
gene 1 13 28 0.138108 0 13 0 1
gene 1 14 28 4.4147 0 14 0 1
gene 1 15 28 0.547707 0 15 0 1
gene 1 16 28 1.01609 0 16 0 1
gene 1 17 28 1.63926 0 17 0 1
gene 1 18 28 -2.12048 0 18 0 1
gene 1 19 28 0.0510405 0 19 0 1
gene 1 20 28 1.28913 0 20 0 1
gene 1 21 28 1.24303 0 21 0 1
gene 1 22 28 -1.98763 0 22 0 1
gene 1 23 28 -2.01957 0 23 0 1
gene 1 24 28 -0.014199 0 24 0 1
gene 1 25 28 1.82278 0 25 0 1
gene 1 26 28 0.798961 0 26 0 1
gene 1 27 28 -1.77934 0 27 0 1
gene 1 1 29 -0.67876 0 28 0 1
gene 1 2 29 2.20316 0 29 0 1
gene 1 3 29 -0.283776 0 30 0 1
gene 1 4 29 1.33179 0 31 0 1
gene 1 5 29 1.99884 0 32 0 1
gene 1 6 29 1.88293 0 33 0 1
gene 1 7 29 2.72859 0 34 0 1
gene 1 8 29 -3.44216 0 35 0 1
gene 1 9 29 0.437559 0 36 0 1
gene 1 10 29 -1.79551 0 37 0 1
gene 1 11 29 1.80834 0 38 0 1
gene 1 12 29 -1.61426 0 39 0 1
gene 1 13 29 0.423843 0 40 0 1
gene 1 14 29 0.386872 0 41 0 1
gene 1 15 29 -0.899653 0 42 0 1
gene 1 16 29 2.62943 0 43 0 1
gene 1 17 29 1.02974 0 44 0 1
gene 1 18 29 -2.90116 0 45 0 1
gene 1 19 29 -0.12336 0 46 0 1
gene 1 20 29 -2.302 0 47 0 1
gene 1 21 29 1.75597 0 48 0 1
gene 1 22 29 -1.1724 0 49 0 1
gene 1 23 29 -0.421085 0 50 0 1
gene 1 24 29 -4.20606 0 51 0 1
gene 1 25 29 1.10013 0 52 0 1
gene 1 26 29 2.10207 0 53 0 1
gene 1 27 29 2.85411 0 54 0 1
gene 1 1 30 -1.22836 0 55 0 1
gene 1 2 30 0.828316 0 56 0 1
gene 1 3 30 3.02723 0 57 0 1
gene 1 4 30 -0.0918495 0 58 0 1
gene 1 5 30 0.189017 0 59 0 1
gene 1 6 30 0.267797 0 60 0 1
gene 1 7 30 3.96912 0 61 0 1
gene 1 8 30 1.14358 0 62 0 1
gene 1 9 30 0.852287 0 63 0 1
gene 1 10 30 -0.96261 0 64 0 1
gene 1 11 30 -2.27802 0 65 0 1
gene 1 12 30 -0.463282 0 66 0 1
gene 1 13 30 0.0597521 0 67 0 1
gene 1 14 30 -0.133947 0 68 0 1
gene 1 15 30 3.34705 0 69 0 1
gene 1 16 30 -1.30305 0 70 0 1
gene 1 17 30 1.4683 0 71 0 1
gene 1 18 30 -0.730083 0 72 0 1
gene 1 19 30 -1.43745 0 73 0 1
gene 1 20 30 -2.04902 0 74 0 1
gene 1 21 30 1.82455 0 75 0 1
gene 1 22 30 -1.90982 0 76 0 1
gene 1 23 30 2.0219 0 77 0 1
gene 1 24 30 0.81375 0 78 0 1
gene 1 25 30 -0.328947 0 79 0 1
gene 1 26 30 -0.704953 0 80 0 1
gene 1 27 30 1.76692 0 81 0 1
genomeend 2
