genomestart 3
trait 1 0 0 0 0 0 0 0 0 
node 1 0 1 1
node 2 0 1 1
node 3 0 1 1
node 4 0 1 1
node 5 0 1 1
node 6 0 1 1
node 7 0 1 1
node 8 0 1 1
node 9 0 1 1
node 10 0 1 1
node 11 0 1 1
node 12 0 1 1
node 13 0 1 3
node 14 0 0 2
node 15 0 0 2
gene 1 1 14 -0.811023 0 1 0 1
gene 1 2 14 -4.06555 0 2 0 1
gene 1 3 14 0.785918 0 3 0 1
gene 1 4 14 -1.43316 0 4 0 1
gene 1 5 14 -0.629242 0 5 0 1
gene 1 6 14 -1.67611 0 6 0 1
gene 1 7 14 -3.364 0 7 0 1
gene 1 8 14 -4.55791 0 8 0 1
gene 1 9 14 -1.73554 0 9 0 1
gene 1 10 14 3.76703 0 10 0 1
gene 1 11 14 2.42598 0 11 0 1
gene 1 12 14 -5.98041 0 12 0 1
gene 1 13 14 -4.26216 0 13 0 1
gene 1 1 15 3.33509 0 14 0 1
gene 1 2 15 -4.36006 0 15 0 1
gene 1 3 15 -0.499411 0 16 0 1
gene 1 4 15 8.56665 0 17 0 1
gene 1 5 15 -3.94576 0 18 0 1
gene 1 6 15 0.910436 0 19 0 1
gene 1 7 15 -3.33756 0 20 0 1
gene 1 8 15 3.73709 0 21 0 1
gene 1 9 15 -1.48475 0 22 0 1
gene 1 10 15 1.06879 0 23 0 1
gene 1 11 15 4.44448 0 24 0 1
gene 1 12 15 -1.08214 0 25 0 1
gene 1 13 15 -1.73048 0 26 0 1
genomeend 3
