genomestart 3
trait 1 0 0 0 0 0 0 0 0 
node 1 0 1 1
node 2 0 1 1
node 3 0 1 1
node 4 0 1 1
node 5 0 1 1
node 6 0 1 1
node 7 0 1 1
node 8 0 1 1
node 9 0 1 1
node 10 0 1 1
node 11 0 1 1
node 12 0 1 1
node 13 0 1 3
node 14 0 0 2
node 15 0 0 2
gene 1 1 14 1.28364 0 1 0 1
gene 1 2 14 0.754651 0 2 0 1
gene 1 3 14 -5.66035 0 3 0 1
gene 1 4 14 -4.50175 0 4 0 1
gene 1 5 14 -0.833822 0 5 0 1
gene 1 6 14 -6.39475 0 6 0 1
gene 1 7 14 -3.18058 0 7 0 1
gene 1 8 14 0.325872 0 8 0 1
gene 1 9 14 5.33549 0 9 0 1
gene 1 10 14 7.69869 0 10 0 1
gene 1 11 14 5.37742 0 11 0 1
gene 1 12 14 -6.93017 0 12 0 1
gene 1 13 14 -3.99966 0 13 0 1
gene 1 1 15 0.25739 0 14 0 1
gene 1 2 15 -8.01979 0 15 0 1
gene 1 3 15 -4.33072 0 16 0 1
gene 1 4 15 9.21523 0 17 0 1
gene 1 5 15 -2.65471 0 18 0 1
gene 1 6 15 4.41834 0 19 0 1
gene 1 7 15 -5.72174 0 20 0 1
gene 1 8 15 2.37213 0 21 0 1
gene 1 9 15 -0.205102 0 22 0 1
gene 1 10 15 4.30905 0 23 0 1
gene 1 11 15 3.63252 0 24 0 1
gene 1 12 15 -5.59651 0 25 0 1
gene 1 13 15 -2.17983 0 26 0 1
genomeend 3
