genomestart 2
trait 1 0 0 0 0 0 0 0 0 
node 1 0 1 1
node 2 0 1 1
node 3 0 1 1
node 4 0 1 1
node 5 0 1 1
node 6 0 1 1
node 7 0 1 1
node 8 0 1 1
node 9 0 1 1
node 10 0 1 1
node 11 0 1 1
node 12 0 1 1
node 13 0 1 1
node 14 0 1 1
node 15 0 1 1
node 16 0 1 1
node 17 0 1 1
node 18 0 1 1
node 19 0 1 1
node 20 0 1 1
node 21 0 1 1
node 22 0 1 1
node 23 0 1 1
node 24 0 1 1
node 25 0 1 1
node 26 0 1 1
node 27 0 1 3
node 28 0 0 2
node 29 0 0 2
node 30 0 0 2
gene 1 1 28 -1.91785 0 1 0 1
gene 1 2 28 0.642998 0 2 0 1
gene 1 3 28 1.3315 0 3 0 1
gene 1 4 28 1.05318 0 4 0 1
gene 1 5 28 0.561656 0 5 0 1
gene 1 6 28 -0.893464 0 6 0 1
gene 1 7 28 -1.27284 0 7 0 1
gene 1 8 28 3.81924 0 8 0 1
gene 1 9 28 -1.17909 0 9 0 1
gene 1 10 28 0.150964 0 10 0 1
gene 1 11 28 -0.611507 0 11 0 1
gene 1 12 28 -0.75247 0 12 0 1
gene 1 13 28 0.429516 0 13 0 1
gene 1 14 28 4.33823 0 14 0 1
gene 1 15 28 0.40353 0 15 0 1
gene 1 16 28 0.857049 0 16 0 1
gene 1 17 28 0.587613 0 17 0 1
gene 1 18 28 -1.33915 0 18 0 1
gene 1 19 28 -0.974715 0 19 0 1
gene 1 20 28 0.316355 0 20 0 1
gene 1 21 28 0.860994 0 21 0 1
gene 1 22 28 -1.49137 0 22 0 1
gene 1 23 28 -2.61445 0 23 0 1
gene 1 24 28 0.921379 0 24 0 1
gene 1 25 28 1.47942 0 25 0 1
gene 1 26 28 0.559608 0 26 0 1
gene 1 27 28 -2.05945 0 27 0 1
gene 1 1 29 -0.581871 0 28 0 1
gene 1 2 29 2.03004 0 29 0 1
gene 1 3 29 -0.720482 0 30 0 1
gene 1 4 29 1.59638 0 31 0 1
gene 1 5 29 1.89583 0 32 0 1
gene 1 6 29 1.6791 0 33 0 1
gene 1 7 29 2.78305 0 34 0 1
gene 1 8 29 -3.17088 0 35 0 1
gene 1 9 29 0.868309 0 36 0 1
gene 1 10 29 -1.54251 0 37 0 1
gene 1 11 29 1.44297 0 38 0 1
gene 1 12 29 -1.99222 0 39 0 1
gene 1 13 29 0.545299 0 40 0 1
gene 1 14 29 1.13921 0 41 0 1
gene 1 15 29 -0.282898 0 42 0 1
gene 1 16 29 1.95623 0 43 0 1
gene 1 17 29 0.821752 0 44 0 1
gene 1 18 29 -2.50688 0 45 0 1
gene 1 19 29 -0.730275 0 46 0 1
gene 1 20 29 -1.83534 0 47 0 1
gene 1 21 29 1.14915 0 48 0 1
gene 1 22 29 -0.876582 0 49 0 1
gene 1 23 29 -0.24688 0 50 0 1
gene 1 24 29 -3.26205 0 51 0 1
gene 1 25 29 1.61313 0 52 0 1
gene 1 26 29 2.40854 0 53 0 1
gene 1 27 29 2.29845 0 54 0 1
gene 1 1 30 -1.78478 0 55 0 1
gene 1 2 30 1.20269 0 56 0 1
gene 1 3 30 3.60213 0 57 0 1
gene 1 4 30 -0.203086 0 58 0 1
gene 1 5 30 -0.228509 0 59 0 1
gene 1 6 30 0.419317 0 60 0 1
gene 1 7 30 3.80558 0 61 0 1
gene 1 8 30 0.851333 0 62 0 1
gene 1 9 30 0.102728 0 63 0 1
gene 1 10 30 -1.10792 0 64 0 1
gene 1 11 30 -2.41126 0 65 0 1
gene 1 12 30 -0.335254 0 66 0 1
gene 1 13 30 -0.0816337 0 67 0 1
gene 1 14 30 -0.487863 0 68 0 1
gene 1 15 30 2.79145 0 69 0 1
gene 1 16 30 -1.2228 0 70 0 1
gene 1 17 30 1.90371 0 71 0 1
gene 1 18 30 -1.03194 0 72 0 1
gene 1 19 30 -1.21375 0 73 0 1
gene 1 20 30 -2.39249 0 74 0 1
gene 1 21 30 2.07673 0 75 0 1
gene 1 22 30 -1.11891 0 76 0 1
gene 1 23 30 1.0832 0 77 0 1
gene 1 24 30 1.11949 0 78 0 1
gene 1 25 30 -0.389536 0 79 0 1
gene 1 26 30 -0.751335 0 80 0 1
gene 1 27 30 1.61219 0 81 0 1
genomeend 2
