genomestart 1
trait 1 0 0 0 0 0 0 0 0 
node 1 0 1 1
node 2 0 1 1
node 3 0 1 1
node 4 0 1 1
node 5 0 1 1
node 6 0 1 1
node 7 0 1 1
node 8 0 1 1
node 9 0 1 1
node 10 0 1 1
node 11 0 1 1
node 12 0 1 1
node 13 0 1 1
node 14 0 1 1
node 15 0 1 1
node 16 0 1 1
node 17 0 1 1
node 18 0 1 1
node 19 0 1 1
node 20 0 1 1
node 21 0 1 1
node 22 0 1 1
node 23 0 1 1
node 24 0 1 1
node 25 0 1 3
node 26 0 0 2
node 27 0 0 2
gene 1 1 26 -1.27982 0 1 -1.27982 1
gene 1 2 26 -2.70382 0 2 -2.70382 1
gene 1 3 26 -1.13695 0 3 -1.13695 1
gene 1 4 26 0.1639 0 4 0.1639 1
gene 1 5 26 -1.53703 0 5 -1.53703 1
gene 1 6 26 0.712052 0 6 0.712052 1
gene 1 7 26 0.744048 0 7 0.744048 1
gene 1 8 26 -5.26833 0 8 -5.26833 1
gene 1 9 26 -0.717683 0 9 -0.717683 1
gene 1 10 26 -0.380224 0 10 -0.380224 1
gene 1 11 26 0.63106 0 11 0.63106 1
gene 1 12 26 -0.582521 0 12 -0.582521 1
gene 1 13 26 -0.932878 0 13 -0.932878 1
gene 1 14 26 -0.56024 0 14 -0.56024 1
gene 1 15 26 0.390426 0 15 0.390426 1
gene 1 16 26 -2.95534 0 16 -2.95534 1
gene 1 17 26 -1.6555 0 17 -1.6555 1
gene 1 18 26 0.996317 0 18 0.996317 1
gene 1 19 26 2.09942 0 19 2.09942 1
gene 1 20 26 2.93697 0 20 2.93697 1
gene 1 21 26 0.87171 0 21 0.87171 1
gene 1 22 26 2.7529 0 22 2.7529 1
gene 1 23 26 -0.279958 0 23 -0.279958 1
gene 1 24 26 -0.112965 0 24 -0.112965 1
gene 1 25 26 0.145767 0 25 0.145767 1
gene 1 1 27 -2.26013 0 26 -2.26013 1
gene 1 2 27 0.45 0 27 0.45 1
gene 1 3 27 1.79319 0 28 1.79319 1
gene 1 4 27 -2.5982 0 29 -2.5982 1
gene 1 5 27 0.0085714 0 30 0.0085714 1
gene 1 6 27 0.482757 0 31 0.482757 1
gene 1 7 27 -0.225854 0 32 -0.225854 1
gene 1 8 27 -0.737786 0 33 -0.737786 1
gene 1 9 27 0.45386 0 34 0.45386 1
gene 1 10 27 0.510743 0 35 0.510743 1
gene 1 11 27 1.56155 0 36 1.56155 1
gene 1 12 27 -0.579315 0 37 -0.579315 1
gene 1 13 27 1.41273 0 38 1.41273 1
gene 1 14 27 1.32494 0 39 1.32494 1
gene 1 15 27 0.273849 0 40 0.273849 1
gene 1 16 27 -1.66361 0 41 -1.66361 1
gene 1 17 27 0.275416 0 42 0.275416 1
gene 1 18 27 0.785029 0 43 0.785029 1
gene 1 19 27 1.87825 0 44 1.87825 1
gene 1 20 27 -0.632904 0 45 -0.632904 1
gene 1 21 27 0.424673 0 46 0.424673 1
gene 1 22 27 0.202333 0 47 0.202333 1
gene 1 23 27 -0.515942 0 48 -0.515942 1
gene 1 24 27 -2.30913 0 49 -2.30913 1
gene 1 25 27 0.142413 0 50 0.142413 1
genomeend 1
