genomestart 3
trait 1 0 0 0 0 0 0 0 0 
node 1 0 1 1
node 2 0 1 1
node 3 0 1 1
node 4 0 1 1
node 5 0 1 1
node 6 0 1 1
node 7 0 1 1
node 8 0 1 1
node 9 0 1 1
node 10 0 1 1
node 11 0 1 1
node 12 0 1 1
node 13 0 1 3
node 14 0 0 2
node 15 0 0 2
gene 1 1 14 -1.79787 0 1 0 1
gene 1 2 14 -3.7712 0 2 0 1
gene 1 3 14 2.2308 0 3 0 1
gene 1 4 14 -1.16936 0 4 0 1
gene 1 5 14 1.65696 0 5 0 1
gene 1 6 14 -2.63761 0 6 0 1
gene 1 7 14 -3.13733 0 7 0 1
gene 1 8 14 -3.22074 0 8 0 1
gene 1 9 14 0.83789 0 9 0 1
gene 1 10 14 2.54484 0 10 0 1
gene 1 11 14 3.43976 0 11 0 1
gene 1 12 14 -6.23565 0 12 0 1
gene 1 13 14 -4.45357 0 13 0 1
gene 1 1 15 4.55602 0 14 0 1
gene 1 2 15 -5.79909 0 15 0 1
gene 1 3 15 -1.45289 0 16 0 1
gene 1 4 15 7.90401 0 17 0 1
gene 1 5 15 -2.58734 0 18 0 1
gene 1 6 15 2.02897 0 19 0 1
gene 1 7 15 -2.95525 0 20 0 1
gene 1 8 15 2.33092 0 21 0 1
gene 1 9 15 -0.0163807 0 22 0 1
gene 1 10 15 1.96519 0 23 0 1
gene 1 11 15 3.75779 0 24 0 1
gene 1 12 15 -0.249302 0 25 0 1
gene 1 13 15 -1.56614 0 26 0 1
genomeend 3
