genomestart 2
trait 1 0 0 0 0 0 0 0 0 
node 1 0 1 1
node 2 0 1 1
node 3 0 1 1
node 4 0 1 1
node 5 0 1 1
node 6 0 1 1
node 7 0 1 1
node 8 0 1 1
node 9 0 1 1
node 10 0 1 1
node 11 0 1 1
node 12 0 1 1
node 13 0 1 1
node 14 0 1 1
node 15 0 1 1
node 16 0 1 1
node 17 0 1 1
node 18 0 1 1
node 19 0 1 1
node 20 0 1 1
node 21 0 1 1
node 22 0 1 1
node 23 0 1 1
node 24 0 1 1
node 25 0 1 1
node 26 0 1 1
node 27 0 1 3
node 28 0 0 2
node 29 0 0 2
node 30 0 0 2
gene 1 1 28 -1.12439 0 1 0 1
gene 1 2 28 -2.36196 0 2 0 1
gene 1 3 28 0.773496 0 3 0 1
gene 1 4 28 0.56101 0 4 0 1
gene 1 5 28 -1.69592 0 5 0 1
gene 1 6 28 0.317756 0 6 0 1
gene 1 7 28 -0.494811 0 7 0 1
gene 1 8 28 1.0264 0 8 0 1
gene 1 9 28 -0.91919 0 9 0 1
gene 1 10 28 -0.255414 0 10 0 1
gene 1 11 28 1.172 0 11 0 1
gene 1 12 28 0.168202 0 12 0 1
gene 1 13 28 -1.06747 0 13 0 1
gene 1 14 28 1.29824 0 14 0 1
gene 1 15 28 0.597796 0 15 0 1
gene 1 16 28 1.02688 0 16 0 1
gene 1 17 28 0.346315 0 17 0 1
gene 1 18 28 -0.703357 0 18 0 1
gene 1 19 28 -0.425172 0 19 0 1
gene 1 20 28 -0.832943 0 20 0 1
gene 1 21 28 0.14129 0 21 0 1
gene 1 22 28 -2.28813 0 22 0 1
gene 1 23 28 -2.24747 0 23 0 1
gene 1 24 28 -0.441518 0 24 0 1
gene 1 25 28 2.97976 0 25 0 1
gene 1 26 28 -0.183671 0 26 0 1
gene 1 27 28 -1.60398 0 27 0 1
gene 1 1 29 -0.867069 0 28 0 1
gene 1 2 29 0.172866 0 29 0 1
gene 1 3 29 -1.74003 0 30 0 1
gene 1 4 29 0.669327 0 31 0 1
gene 1 5 29 0.0163172 0 32 0 1
gene 1 6 29 2.04249 0 33 0 1
gene 1 7 29 0.0776689 0 34 0 1
gene 1 8 29 0.123899 0 35 0 1
gene 1 9 29 0.911713 0 36 0 1
gene 1 10 29 0.0560033 0 37 0 1
gene 1 11 29 0.0917997 0 38 0 1
gene 1 12 29 -0.972318 0 39 0 1
gene 1 13 29 0.345758 0 40 0 1
gene 1 14 29 1.19578 0 41 0 1
gene 1 15 29 -1.78956 0 42 0 1
gene 1 16 29 1.31449 0 43 0 1
gene 1 17 29 1.35882 0 44 0 1
gene 1 18 29 -1.05641 0 45 0 1
gene 1 19 29 -0.561392 0 46 0 1
gene 1 20 29 -0.192795 0 47 0 1
gene 1 21 29 -1.18329 0 48 0 1
gene 1 22 29 -0.415375 0 49 0 1
gene 1 23 29 -1.2096 0 50 0 1
gene 1 24 29 -0.584553 0 51 0 1
gene 1 25 29 1.54936 0 52 0 1
gene 1 26 29 1.12162 0 53 0 1
gene 1 27 29 0.425703 0 54 0 1
gene 1 1 30 -2.71136 0 55 0 1
gene 1 2 30 0.46514 0 56 0 1
gene 1 3 30 1.41931 0 57 0 1
gene 1 4 30 -0.261033 0 58 0 1
gene 1 5 30 0.846635 0 59 0 1
gene 1 6 30 1.15919 0 60 0 1
gene 1 7 30 0.728772 0 61 0 1
gene 1 8 30 1.52259 0 62 0 1
gene 1 9 30 0.477349 0 63 0 1
gene 1 10 30 -0.274507 0 64 0 1
gene 1 11 30 -1.39321 0 65 0 1
gene 1 12 30 -0.607511 0 66 0 1
gene 1 13 30 -0.673713 0 67 0 1
gene 1 14 30 -1.26289 0 68 0 1
gene 1 15 30 0.819957 0 69 0 1
gene 1 16 30 -1.9109 0 70 0 1
gene 1 17 30 -0.205179 0 71 0 1
gene 1 18 30 -0.329154 0 72 0 1
gene 1 19 30 -1.30975 0 73 0 1
gene 1 20 30 0.994743 0 74 0 1
gene 1 21 30 -1.25817 0 75 0 1
gene 1 22 30 -1.32091 0 76 0 1
gene 1 23 30 0.328222 0 77 0 1
gene 1 24 30 0.86457 0 78 0 1
gene 1 25 30 1.61776 0 79 0 1
gene 1 26 30 -1.23636 0 80 0 1
gene 1 27 30 -0.277064 0 81 0 1
genomeend 2
