genomestart 1
trait 1 0 0 0 0 0 0 0 0 
node 1 0 1 1
node 2 0 1 1
node 3 0 1 1
node 4 0 1 1
node 5 0 1 1
node 6 0 1 1
node 7 0 1 1
node 8 0 1 1
node 9 0 1 1
node 10 0 1 1
node 11 0 1 1
node 12 0 1 1
node 13 0 1 1
node 14 0 1 1
node 15 0 1 1
node 16 0 1 1
node 17 0 1 1
node 18 0 1 1
node 19 0 1 1
node 20 0 1 1
node 21 0 1 1
node 22 0 1 1
node 23 0 1 1
node 24 0 1 1
node 25 0 1 3
node 26 0 0 2
node 27 0 0 2
gene 1 1 26 -0.813242 0 1 -0.813242 1
gene 1 2 26 -2.11396 0 2 -2.11396 1
gene 1 3 26 -0.451372 0 3 -0.451372 1
gene 1 4 26 1.11954 0 4 1.11954 1
gene 1 5 26 -0.707535 0 5 -0.707535 1
gene 1 6 26 -0.111989 0 6 -0.111989 1
gene 1 7 26 0.164383 0 7 0.164383 1
gene 1 8 26 -4.2908 0 8 -4.2908 1
gene 1 9 26 0.0975995 0 9 0.0975995 1
gene 1 10 26 -0.16232 0 10 -0.16232 1
gene 1 11 26 0.284125 0 11 0.284125 1
gene 1 12 26 -0.173436 0 12 -0.173436 1
gene 1 13 26 -1.36312 0 13 -1.36312 1
gene 1 14 26 -0.275646 0 14 -0.275646 1
gene 1 15 26 0.448272 0 15 0.448272 1
gene 1 16 26 -2.06319 0 16 -2.06319 1
gene 1 17 26 -1.47036 0 17 -1.47036 1
gene 1 18 26 0.00823775 0 18 0.00823775 1
gene 1 19 26 1.33747 0 19 1.33747 1
gene 1 20 26 1.9742 0 20 1.9742 1
gene 1 21 26 0.196889 0 21 0.196889 1
gene 1 22 26 2.62117 0 22 2.62117 1
gene 1 23 26 -0.325417 0 23 -0.325417 1
gene 1 24 26 -0.536768 0 24 -0.536768 1
gene 1 25 26 1.06002 0 25 1.06002 1
gene 1 1 27 -1.94483 0 26 -1.94483 1
gene 1 2 27 -0.434017 0 27 -0.434017 1
gene 1 3 27 0.987245 0 28 0.987245 1
gene 1 4 27 -2.65396 0 29 -2.65396 1
gene 1 5 27 0.0407612 0 30 0.0407612 1
gene 1 6 27 -0.404869 0 31 -0.404869 1
gene 1 7 27 0.101908 0 32 0.101908 1
gene 1 8 27 -1.39163 0 33 -1.39163 1
gene 1 9 27 -0.231525 0 34 -0.231525 1
gene 1 10 27 0.0856877 0 35 0.0856877 1
gene 1 11 27 1.14697 0 36 1.14697 1
gene 1 12 27 -0.200995 0 37 -0.200995 1
gene 1 13 27 0.895253 0 38 0.895253 1
gene 1 14 27 0.799989 0 39 0.799989 1
gene 1 15 27 -0.3429 0 40 -0.3429 1
gene 1 16 27 -1.50465 0 41 -1.50465 1
gene 1 17 27 0.275416 0 42 0.275416 1
gene 1 18 27 0.785029 0 43 0.785029 1
gene 1 19 27 1.23033 0 44 1.23033 1
gene 1 20 27 -0.632904 0 45 -0.632904 1
gene 1 21 27 0.424673 0 46 0.424673 1
gene 1 22 27 0.987516 0 47 0.987516 1
gene 1 23 27 0.347426 0 48 0.347426 1
gene 1 24 27 -1.67203 0 49 -1.67203 1
gene 1 25 27 0.142413 0 50 0.142413 1
genomeend 1
