genomestart 7
trait 1 0 0 0 0 0 0 0 0 
node 1 0 1 1
node 2 0 1 1
node 3 0 1 1
node 4 0 1 1
node 5 0 1 1
node 6 0 1 1
node 7 0 1 1
node 8 0 1 1
node 9 0 1 1
node 10 0 1 1
node 11 0 1 1
node 12 0 1 1
node 13 0 1 3
node 14 0 0 2
node 15 0 0 2
gene 1 1 14 -0.460961 0 1 0 1
gene 1 2 14 2.18936 0 2 0 1
gene 1 3 14 -2.05471 0 3 0 1
gene 1 4 14 5.2451 0 4 0 1
gene 1 5 14 3.7781 0 5 0 1
gene 1 6 14 4.04424 0 6 0 1
gene 1 7 14 -4.78076 0 7 0 1
gene 1 8 14 -7.53839 0 8 0 1
gene 1 9 14 1.80782 0 9 0 1
gene 1 10 14 -3.41702 0 10 0 1
gene 1 11 14 4.72009 0 11 0 1
gene 1 12 14 5.15969 0 12 0 1
gene 1 13 14 -2.6953 0 13 0 1
gene 1 1 15 0.491471 0 14 0 1
gene 1 2 15 1.39506 0 15 0 1
gene 1 3 15 2.14777 0 16 0 1
gene 1 4 15 4.64981 0 17 0 1
gene 1 5 15 -1.07052 0 18 0 1
gene 1 6 15 2.19571 0 19 0 1
gene 1 7 15 2.64916 0 20 0 1
gene 1 8 15 -2.5826 0 21 0 1
gene 1 9 15 2.04297 0 22 0 1
gene 1 10 15 2.25379 0 23 0 1
gene 1 11 15 1.14102 0 24 0 1
gene 1 12 15 2.39323 0 25 0 1
gene 1 13 15 -5.17585 0 26 0 1
genomeend 7
