genomestart 3
trait 1 0 0 0 0 0 0 0 0 
node 1 0 1 1
node 2 0 1 1
node 3 0 1 1
node 4 0 1 1
node 5 0 1 1
node 6 0 1 1
node 7 0 1 1
node 8 0 1 1
node 9 0 1 1
node 10 0 1 1
node 11 0 1 1
node 12 0 1 1
node 13 0 1 3
node 14 0 0 2
node 15 0 0 2
gene 1 1 14 -0.579401 0 1 0 1
gene 1 2 14 -0.588225 0 2 0 1
gene 1 3 14 0.369853 0 3 0 1
gene 1 4 14 -2.2732 0 4 0 1
gene 1 5 14 -1.65144 0 5 0 1
gene 1 6 14 -2.22095 0 6 0 1
gene 1 7 14 -4.47615 0 7 0 1
gene 1 8 14 1.88338 0 8 0 1
gene 1 9 14 -1.48993 0 9 0 1
gene 1 10 14 5.31609 0 10 0 1
gene 1 11 14 4.44591 0 11 0 1
gene 1 12 14 -5.2586 0 12 0 1
gene 1 13 14 -4.51609 0 13 0 1
gene 1 1 15 3.36273 0 14 0 1
gene 1 2 15 -4.05051 0 15 0 1
gene 1 3 15 -1.68722 0 16 0 1
gene 1 4 15 7.12783 0 17 0 1
gene 1 5 15 -4.32223 0 18 0 1
gene 1 6 15 -0.210666 0 19 0 1
gene 1 7 15 -3.91768 0 20 0 1
gene 1 8 15 3.14488 0 21 0 1
gene 1 9 15 -2.51734 0 22 0 1
gene 1 10 15 3.31947 0 23 0 1
gene 1 11 15 3.50644 0 24 0 1
gene 1 12 15 -0.34833 0 25 0 1
gene 1 13 15 -2.64652 0 26 0 1
genomeend 3
