genomestart 0
trait 1 0 0 0 0 0 0 0 0 
node 1 0 1 1
node 2 0 1 1
node 3 0 1 1
node 4 0 1 1
node 5 0 1 1
node 6 0 1 1
node 7 0 1 1
node 8 0 1 1
node 9 0 1 1
node 10 0 1 1
node 11 0 1 1
node 12 0 1 1
node 13 0 1 1
node 14 0 1 1
node 15 0 1 1
node 16 0 1 1
node 17 0 1 1
node 18 0 1 1
node 19 0 1 1
node 20 0 1 1
node 21 0 1 1
node 22 0 1 1
node 23 0 1 1
node 24 0 1 1
node 25 0 1 1
node 26 0 1 1
node 27 0 1 3
node 28 0 0 2
node 29 0 0 2
node 30 0 0 2
gene 1 1 28 1.39739 0 1 0 1
gene 1 2 28 0.188692 0 2 0 1
gene 1 3 28 -0.959583 0 3 0 1
gene 1 4 28 -1.18942 0 4 0 1
gene 1 5 28 0.266254 0 5 0 1
gene 1 6 28 1.138 0 6 0 1
gene 1 7 28 0.897605 0 7 0 1
gene 1 8 28 -1.63136 0 8 0 1
gene 1 9 28 -0.059503 0 9 0 1
gene 1 10 28 -1.27214 0 10 0 1
gene 1 11 28 0.300975 0 11 0 1
gene 1 12 28 -0.663314 0 12 0 1
gene 1 13 28 -0.534614 0 13 0 1
gene 1 14 28 -0.423457 0 14 0 1
gene 1 15 28 0.59005 0 15 0 1
gene 1 16 28 1.08561 0 16 0 1
gene 1 17 28 0.0835024 0 17 0 1
gene 1 18 28 -0.299204 0 18 0 1
gene 1 19 28 0.423313 0 19 0 1
gene 1 20 28 0.560908 0 20 0 1
gene 1 21 28 -1.77662 0 21 0 1
gene 1 22 28 -1.98011 0 22 0 1
gene 1 23 28 0.408366 0 23 0 1
gene 1 24 28 0.262457 0 24 0 1
gene 1 25 28 -0.522636 0 25 0 1
gene 1 26 28 -0.256609 0 26 0 1
gene 1 27 28 1.28977 0 27 0 1
gene 1 1 29 -0.270869 0 28 0 1
gene 1 2 29 -0.3579 0 29 0 1
gene 1 3 29 -0.312654 0 30 0 1
gene 1 4 29 0.973501 0 31 0 1
gene 1 5 29 0.78101 0 32 0 1
gene 1 6 29 0.472358 0 33 0 1
gene 1 7 29 -1.36783 0 34 0 1
gene 1 8 29 0.917275 0 35 0 1
gene 1 9 29 -0.841846 0 36 0 1
gene 1 10 29 -0.92622 0 37 0 1
gene 1 11 29 -1.07806 0 38 0 1
gene 1 12 29 -0.875272 0 39 0 1
gene 1 13 29 -0.757136 0 40 0 1
gene 1 14 29 -2.03873 0 41 0 1
gene 1 15 29 0.476381 0 42 0 1
gene 1 16 29 0.310799 0 43 0 1
gene 1 17 29 -1.0214 0 44 0 1
gene 1 18 29 0.884896 0 45 0 1
gene 1 19 29 1.257 0 46 0 1
gene 1 20 29 0.457067 0 47 0 1
gene 1 21 29 0.973442 0 48 0 1
gene 1 22 29 -0.922875 0 49 0 1
gene 1 23 29 -0.144088 0 50 0 1
gene 1 24 29 1.39454 0 51 0 1
gene 1 25 29 0.463782 0 52 0 1
gene 1 26 29 -1.04408 0 53 0 1
gene 1 27 29 0.0602247 0 54 0 1
gene 1 1 30 -0.324541 0 55 0 1
gene 1 2 30 1.13925 0 56 0 1
gene 1 3 30 2.03275 0 57 0 1
gene 1 4 30 -0.209723 0 58 0 1
gene 1 5 30 -1.79796 0 59 0 1
gene 1 6 30 1.43694 0 60 0 1
gene 1 7 30 -0.508428 0 61 0 1
gene 1 8 30 -0.80084 0 62 0 1
gene 1 9 30 0.0721673 0 63 0 1
gene 1 10 30 -0.252828 0 64 0 1
gene 1 11 30 0.239504 0 65 0 1
gene 1 12 30 0.433517 0 66 0 1
gene 1 13 30 0.257117 0 67 0 1
gene 1 14 30 -0.497255 0 68 0 1
gene 1 15 30 0.668955 0 69 0 1
gene 1 16 30 0.557212 0 70 0 1
gene 1 17 30 -0.137463 0 71 0 1
gene 1 18 30 -1.84704 0 72 0 1
gene 1 19 30 0.472037 0 73 0 1
gene 1 20 30 -0.000242365 0 74 0 1
gene 1 21 30 0.618759 0 75 0 1
gene 1 22 30 0.257835 0 76 0 1
gene 1 23 30 0.881752 0 77 0 1
gene 1 24 30 0.0423857 0 78 0 1
gene 1 25 30 2.13311 0 79 0 1
gene 1 26 30 -1.36731 0 80 0 1
gene 1 27 30 -0.97666 0 81 0 1
genomeend 0
