genomestart 3
trait 1 0 0 0 0 0 0 0 0 
node 1 0 1 1
node 2 0 1 1
node 3 0 1 1
node 4 0 1 1
node 5 0 1 1
node 6 0 1 1
node 7 0 1 1
node 8 0 1 1
node 9 0 1 1
node 10 0 1 1
node 11 0 1 1
node 12 0 1 1
node 13 0 1 3
node 14 0 0 2
node 15 0 0 2
gene 1 1 14 2.05688 0 1 0 1
gene 1 2 14 -3.47434 0 2 0 1
gene 1 3 14 0.230287 0 3 0 1
gene 1 4 14 -0.950222 0 4 0 1
gene 1 5 14 0.673603 0 5 0 1
gene 1 6 14 -5.37832 0 6 0 1
gene 1 7 14 -4.92827 0 7 0 1
gene 1 8 14 -1.08749 0 8 0 1
gene 1 9 14 -0.676098 0 9 0 1
gene 1 10 14 4.97799 0 10 0 1
gene 1 11 14 3.38396 0 11 0 1
gene 1 12 14 -4.50498 0 12 0 1
gene 1 13 14 -4.65013 0 13 0 1
gene 1 1 15 2.57561 0 14 0 1
gene 1 2 15 -4.54395 0 15 0 1
gene 1 3 15 -0.293458 0 16 0 1
gene 1 4 15 7.18617 0 17 0 1
gene 1 5 15 -2.88921 0 18 0 1
gene 1 6 15 0.541006 0 19 0 1
gene 1 7 15 -2.57771 0 20 0 1
gene 1 8 15 2.86219 0 21 0 1
gene 1 9 15 -2.48608 0 22 0 1
gene 1 10 15 1.68514 0 23 0 1
gene 1 11 15 3.24753 0 24 0 1
gene 1 12 15 -1.85434 0 25 0 1
gene 1 13 15 -1.39962 0 26 0 1
genomeend 3
