genomestart 3
trait 1 0 0 0 0 0 0 0 0 
node 1 0 1 1
node 2 0 1 1
node 3 0 1 1
node 4 0 1 1
node 5 0 1 1
node 6 0 1 1
node 7 0 1 1
node 8 0 1 1
node 9 0 1 1
node 10 0 1 1
node 11 0 1 1
node 12 0 1 1
node 13 0 1 3
node 14 0 0 2
node 15 0 0 2
gene 1 1 14 0.830387 0 1 0 1
gene 1 2 14 0.00435377 0 2 0 1
gene 1 3 14 -5.34148 0 3 0 1
gene 1 4 14 -4.58463 0 4 0 1
gene 1 5 14 -1.31821 0 5 0 1
gene 1 6 14 -6.20639 0 6 0 1
gene 1 7 14 -3.78456 0 7 0 1
gene 1 8 14 0.658956 0 8 0 1
gene 1 9 14 4.55589 0 9 0 1
gene 1 10 14 8.20207 0 10 0 1
gene 1 11 14 5.35033 0 11 0 1
gene 1 12 14 -7.36599 0 12 0 1
gene 1 13 14 -4.23694 0 13 0 1
gene 1 1 15 0.597582 0 14 0 1
gene 1 2 15 -8.29502 0 15 0 1
gene 1 3 15 -4.71996 0 16 0 1
gene 1 4 15 9.55189 0 17 0 1
gene 1 5 15 -3.11481 0 18 0 1
gene 1 6 15 4.23328 0 19 0 1
gene 1 7 15 -5.70602 0 20 0 1
gene 1 8 15 2.70883 0 21 0 1
gene 1 9 15 -1.23931 0 22 0 1
gene 1 10 15 4.27192 0 23 0 1
gene 1 11 15 4.23516 0 24 0 1
gene 1 12 15 -4.82725 0 25 0 1
gene 1 13 15 -2.71648 0 26 0 1
genomeend 3
