genomestart 0
trait 1 0 0 0 0 0 0 0 0 
node 1 0 1 1
node 2 0 1 1
node 3 0 1 1
node 4 0 1 1
node 5 0 1 1
node 6 0 1 1
node 7 0 1 1
node 8 0 1 1
node 9 0 1 1
node 10 0 1 1
node 11 0 1 1
node 12 0 1 1
node 13 0 1 1
node 14 0 1 1
node 15 0 1 1
node 16 0 1 1
node 17 0 1 1
node 18 0 1 1
node 19 0 1 1
node 20 0 1 1
node 21 0 1 1
node 22 0 1 1
node 23 0 1 1
node 24 0 1 1
node 25 0 1 1
node 26 0 1 1
node 27 0 1 3
node 28 0 0 2
node 29 0 0 2
node 30 0 0 2
gene 1 1 28 1.10458 0 1 0 1
gene 1 2 28 0.118488 0 2 0 1
gene 1 3 28 -0.742979 0 3 0 1
gene 1 4 28 -0.586033 0 4 0 1
gene 1 5 28 0.16488 0 5 0 1
gene 1 6 28 0.832839 0 6 0 1
gene 1 7 28 0.911795 0 7 0 1
gene 1 8 28 -1.12187 0 8 0 1
gene 1 9 28 -0.118318 0 9 0 1
gene 1 10 28 -1.06936 0 10 0 1
gene 1 11 28 0.447942 0 11 0 1
gene 1 12 28 -0.850229 0 12 0 1
gene 1 13 28 -0.114116 0 13 0 1
gene 1 14 28 0.0797742 0 14 0 1
gene 1 15 28 0.371154 0 15 0 1
gene 1 16 28 1.10009 0 16 0 1
gene 1 17 28 0.190901 0 17 0 1
gene 1 18 28 -0.255644 0 18 0 1
gene 1 19 28 0.858134 0 19 0 1
gene 1 20 28 0.412649 0 20 0 1
gene 1 21 28 -1.17583 0 21 0 1
gene 1 22 28 -1.49752 0 22 0 1
gene 1 23 28 0.76816 0 23 0 1
gene 1 24 28 0.588181 0 24 0 1
gene 1 25 28 -0.327013 0 25 0 1
gene 1 26 28 -0.290038 0 26 0 1
gene 1 27 28 0.542572 0 27 0 1
gene 1 1 29 -0.241817 0 28 0 1
gene 1 2 29 0.0956902 0 29 0 1
gene 1 3 29 0.234327 0 30 0 1
gene 1 4 29 0.702191 0 31 0 1
gene 1 5 29 0.0685845 0 32 0 1
gene 1 6 29 0.447635 0 33 0 1
gene 1 7 29 -0.809263 0 34 0 1
gene 1 8 29 0.324168 0 35 0 1
gene 1 9 29 -0.177355 0 36 0 1
gene 1 10 29 -0.457544 0 37 0 1
gene 1 11 29 -1.01725 0 38 0 1
gene 1 12 29 -0.88859 0 39 0 1
gene 1 13 29 -0.288062 0 40 0 1
gene 1 14 29 -1.15795 0 41 0 1
gene 1 15 29 0.144106 0 42 0 1
gene 1 16 29 0.735676 0 43 0 1
gene 1 17 29 -0.535528 0 44 0 1
gene 1 18 29 0.545421 0 45 0 1
gene 1 19 29 1.28506 0 46 0 1
gene 1 20 29 0.446741 0 47 0 1
gene 1 21 29 0.776518 0 48 0 1
gene 1 22 29 -0.832797 0 49 0 1
gene 1 23 29 -0.0588148 0 50 0 1
gene 1 24 29 1.12294 0 51 0 1
gene 1 25 29 -0.315612 0 52 0 1
gene 1 26 29 -0.503786 0 53 0 1
gene 1 27 29 0.859028 0 54 0 1
gene 1 1 30 -0.263111 0 55 0 1
gene 1 2 30 0.661476 0 56 0 1
gene 1 3 30 1.76484 0 57 0 1
gene 1 4 30 -0.708738 0 58 0 1
gene 1 5 30 -1.57422 0 59 0 1
gene 1 6 30 1.02067 0 60 0 1
gene 1 7 30 -0.662796 0 61 0 1
gene 1 8 30 -0.197461 0 62 0 1
gene 1 9 30 -0.532571 0 63 0 1
gene 1 10 30 -0.37565 0 64 0 1
gene 1 11 30 -0.0244908 0 65 0 1
gene 1 12 30 -0.115415 0 66 0 1
gene 1 13 30 0.718383 0 67 0 1
gene 1 14 30 -0.675041 0 68 0 1
gene 1 15 30 0.164116 0 69 0 1
gene 1 16 30 0.114924 0 70 0 1
gene 1 17 30 0.143293 0 71 0 1
gene 1 18 30 -0.999261 0 72 0 1
gene 1 19 30 0.153751 0 73 0 1
gene 1 20 30 0.36716 0 74 0 1
gene 1 21 30 1.16618 0 75 0 1
gene 1 22 30 0.211734 0 76 0 1
gene 1 23 30 0.33146 0 77 0 1
gene 1 24 30 0.23236 0 78 0 1
gene 1 25 30 2.03799 0 79 0 1
gene 1 26 30 -0.734285 0 80 0 1
gene 1 27 30 -0.685732 0 81 0 1
genomeend 0
