genomestart 2
trait 1 0 0 0 0 0 0 0 0 
node 1 0 1 1
node 2 0 1 1
node 3 0 1 1
node 4 0 1 1
node 5 0 1 1
node 6 0 1 1
node 7 0 1 1
node 8 0 1 1
node 9 0 1 1
node 10 0 1 1
node 11 0 1 1
node 12 0 1 1
node 13 0 1 1
node 14 0 1 1
node 15 0 1 1
node 16 0 1 1
node 17 0 1 1
node 18 0 1 1
node 19 0 1 1
node 20 0 1 1
node 21 0 1 1
node 22 0 1 1
node 23 0 1 1
node 24 0 1 1
node 25 0 1 1
node 26 0 1 1
node 27 0 1 3
node 28 0 0 2
node 29 0 0 2
node 30 0 0 2
gene 1 1 28 -1.6269 0 1 0 1
gene 1 2 28 -0.139346 0 2 0 1
gene 1 3 28 1.27537 0 3 0 1
gene 1 4 28 0.998703 0 4 0 1
gene 1 5 28 -0.410371 0 5 0 1
gene 1 6 28 -0.801846 0 6 0 1
gene 1 7 28 -0.937784 0 7 0 1
gene 1 8 28 3.65847 0 8 0 1
gene 1 9 28 -1.88711 0 9 0 1
gene 1 10 28 1.10681 0 10 0 1
gene 1 11 28 -0.342238 0 11 0 1
gene 1 12 28 -0.424693 0 12 0 1
gene 1 13 28 0.607073 0 13 0 1
gene 1 14 28 4.25173 0 14 0 1
gene 1 15 28 0.973729 0 15 0 1
gene 1 16 28 1.15295 0 16 0 1
gene 1 17 28 0.748128 0 17 0 1
gene 1 18 28 -1.2375 0 18 0 1
gene 1 19 28 -1.58937 0 19 0 1
gene 1 20 28 -0.0878215 0 20 0 1
gene 1 21 28 0.938547 0 21 0 1
gene 1 22 28 -1.66491 0 22 0 1
gene 1 23 28 -2.40559 0 23 0 1
gene 1 24 28 0.512676 0 24 0 1
gene 1 25 28 2.02327 0 25 0 1
gene 1 26 28 0.623865 0 26 0 1
gene 1 27 28 -2.57795 0 27 0 1
gene 1 1 29 -0.152688 0 28 0 1
gene 1 2 29 1.58269 0 29 0 1
gene 1 3 29 -0.352719 0 30 0 1
gene 1 4 29 1.39059 0 31 0 1
gene 1 5 29 1.45076 0 32 0 1
gene 1 6 29 2.383 0 33 0 1
gene 1 7 29 2.9205 0 34 0 1
gene 1 8 29 -2.97096 0 35 0 1
gene 1 9 29 0.641749 0 36 0 1
gene 1 10 29 -1.429 0 37 0 1
gene 1 11 29 0.9377 0 38 0 1
gene 1 12 29 -1.87787 0 39 0 1
gene 1 13 29 0.388314 0 40 0 1
gene 1 14 29 1.29707 0 41 0 1
gene 1 15 29 0.00491121 0 42 0 1
gene 1 16 29 2.19557 0 43 0 1
gene 1 17 29 0.642525 0 44 0 1
gene 1 18 29 -2.04665 0 45 0 1
gene 1 19 29 0.0587159 0 46 0 1
gene 1 20 29 -0.923927 0 47 0 1
gene 1 21 29 1.57725 0 48 0 1
gene 1 22 29 -0.933031 0 49 0 1
gene 1 23 29 -0.400879 0 50 0 1
gene 1 24 29 -2.9012 0 51 0 1
gene 1 25 29 1.91638 0 52 0 1
gene 1 26 29 3.09885 0 53 0 1
gene 1 27 29 2.111 0 54 0 1
gene 1 1 30 -1.97385 0 55 0 1
gene 1 2 30 0.761176 0 56 0 1
gene 1 3 30 2.48409 0 57 0 1
gene 1 4 30 -0.580636 0 58 0 1
gene 1 5 30 -0.779333 0 59 0 1
gene 1 6 30 -0.331372 0 60 0 1
gene 1 7 30 3.40172 0 61 0 1
gene 1 8 30 0.964088 0 62 0 1
gene 1 9 30 0.592979 0 63 0 1
gene 1 10 30 -1.11407 0 64 0 1
gene 1 11 30 -1.87884 0 65 0 1
gene 1 12 30 -0.231825 0 66 0 1
gene 1 13 30 -0.393575 0 67 0 1
gene 1 14 30 0.194177 0 68 0 1
gene 1 15 30 3.01585 0 69 0 1
gene 1 16 30 -1.82138 0 70 0 1
gene 1 17 30 1.35625 0 71 0 1
gene 1 18 30 -1.35308 0 72 0 1
gene 1 19 30 -1.72654 0 73 0 1
gene 1 20 30 -1.98033 0 74 0 1
gene 1 21 30 1.57593 0 75 0 1
gene 1 22 30 -1.30272 0 76 0 1
gene 1 23 30 0.967798 0 77 0 1
gene 1 24 30 1.4003 0 78 0 1
gene 1 25 30 -0.340029 0 79 0 1
gene 1 26 30 -0.676522 0 80 0 1
gene 1 27 30 2.39562 0 81 0 1
genomeend 2
