genomestart 2
trait 1 0 0 0 0 0 0 0 0 
node 1 0 1 1
node 2 0 1 1
node 3 0 1 1
node 4 0 1 1
node 5 0 1 1
node 6 0 1 1
node 7 0 1 1
node 8 0 1 1
node 9 0 1 1
node 10 0 1 1
node 11 0 1 1
node 12 0 1 1
node 13 0 1 1
node 14 0 1 1
node 15 0 1 1
node 16 0 1 1
node 17 0 1 1
node 18 0 1 1
node 19 0 1 1
node 20 0 1 1
node 21 0 1 1
node 22 0 1 1
node 23 0 1 1
node 24 0 1 1
node 25 0 1 1
node 26 0 1 1
node 27 0 1 3
node 28 0 0 2
node 29 0 0 2
node 30 0 0 2
gene 1 1 28 -0.645372 0 1 0 1
gene 1 2 28 -0.221909 0 2 0 1
gene 1 3 28 1.27908 0 3 0 1
gene 1 4 28 1.85049 0 4 0 1
gene 1 5 28 -3.92999 0 5 0 1
gene 1 6 28 -1.12355 0 6 0 1
gene 1 7 28 0.20482 0 7 0 1
gene 1 8 28 0.345109 0 8 0 1
gene 1 9 28 -2.77671 0 9 0 1
gene 1 10 28 -1.67369 0 10 0 1
gene 1 11 28 2.15249 0 11 0 1
gene 1 12 28 -0.870041 0 12 0 1
gene 1 13 28 -1.4051 0 13 0 1
gene 1 14 28 4.68892 0 14 0 1
gene 1 15 28 1.33573 0 15 0 1
gene 1 16 28 1.43152 0 16 0 1
gene 1 17 28 1.62597 0 17 0 1
gene 1 18 28 -0.534398 0 18 0 1
gene 1 19 28 -2.08178 0 19 0 1
gene 1 20 28 -1.60166 0 20 0 1
gene 1 21 28 -1.28063 0 21 0 1
gene 1 22 28 1.23123 0 22 0 1
gene 1 23 28 -0.989014 0 23 0 1
gene 1 24 28 2.28901 0 24 0 1
gene 1 25 28 3.01059 0 25 0 1
gene 1 26 28 1.96617 0 26 0 1
gene 1 27 28 -2.64269 0 27 0 1
gene 1 1 29 1.04613 0 28 0 1
gene 1 2 29 1.87374 0 29 0 1
gene 1 3 29 -1.65591 0 30 0 1
gene 1 4 29 1.26034 0 31 0 1
gene 1 5 29 -0.219435 0 32 0 1
gene 1 6 29 3.35052 0 33 0 1
gene 1 7 29 3.68135 0 34 0 1
gene 1 8 29 -2.4216 0 35 0 1
gene 1 9 29 -0.430559 0 36 0 1
gene 1 10 29 0.264616 0 37 0 1
gene 1 11 29 2.46278 0 38 0 1
gene 1 12 29 0.103163 0 39 0 1
gene 1 13 29 0.935671 0 40 0 1
gene 1 14 29 1.4586 0 41 0 1
gene 1 15 29 0.00271636 0 42 0 1
gene 1 16 29 2.2075 0 43 0 1
gene 1 17 29 0.989749 0 44 0 1
gene 1 18 29 -2.69921 0 45 0 1
gene 1 19 29 -1.48431 0 46 0 1
gene 1 20 29 -0.876821 0 47 0 1
gene 1 21 29 1.1507 0 48 0 1
gene 1 22 29 1.2 0 49 0 1
gene 1 23 29 -4.00653 0 50 0 1
gene 1 24 29 -5.29333 0 51 0 1
gene 1 25 29 3.07703 0 52 0 1
gene 1 26 29 1.08848 0 53 0 1
gene 1 27 29 2.71507 0 54 0 1
gene 1 1 30 -0.736732 0 55 0 1
gene 1 2 30 0.706006 0 56 0 1
gene 1 3 30 3.00129 0 57 0 1
gene 1 4 30 -1.13303 0 58 0 1
gene 1 5 30 0.283108 0 59 0 1
gene 1 6 30 -0.913883 0 60 0 1
gene 1 7 30 3.8771 0 61 0 1
gene 1 8 30 2.99117 0 62 0 1
gene 1 9 30 -1.00243 0 63 0 1
gene 1 10 30 -1.42936 0 64 0 1
gene 1 11 30 -1.52065 0 65 0 1
gene 1 12 30 0.0800955 0 66 0 1
gene 1 13 30 0.39926 0 67 0 1
gene 1 14 30 2.74998 0 68 0 1
gene 1 15 30 2.03798 0 69 0 1
gene 1 16 30 -0.257898 0 70 0 1
gene 1 17 30 1.42387 0 71 0 1
gene 1 18 30 -0.297746 0 72 0 1
gene 1 19 30 -1.93949 0 73 0 1
gene 1 20 30 -1.81537 0 74 0 1
gene 1 21 30 0.70469 0 75 0 1
gene 1 22 30 0.0216788 0 76 0 1
gene 1 23 30 -0.649226 0 77 0 1
gene 1 24 30 3.27615 0 78 0 1
gene 1 25 30 0.829327 0 79 0 1
gene 1 26 30 -0.731306 0 80 0 1
gene 1 27 30 1.76832 0 81 0 1
genomeend 2
