genomestart 0
trait 1 0 0 0 0 0 0 0 0 
node 1 0 1 1
node 2 0 1 1
node 3 0 1 1
node 4 0 1 1
node 5 0 1 1
node 6 0 1 1
node 7 0 1 1
node 8 0 1 1
node 9 0 1 1
node 10 0 1 1
node 11 0 1 1
node 12 0 1 1
node 13 0 1 1
node 14 0 1 1
node 15 0 1 1
node 16 0 1 1
node 17 0 1 1
node 18 0 1 1
node 19 0 1 1
node 20 0 1 1
node 21 0 1 1
node 22 0 1 1
node 23 0 1 1
node 24 0 1 1
node 25 0 1 1
node 26 0 1 1
node 27 0 1 3
node 28 0 0 2
node 29 0 0 2
node 30 0 0 2
gene 1 1 28 0.878672 0 1 0 1
gene 1 2 28 0.866674 0 2 0 1
gene 1 3 28 -0.923331 0 3 0 1
gene 1 4 28 0.0282903 0 4 0 1
gene 1 5 28 0.34555 0 5 0 1
gene 1 6 28 1.5329 0 6 0 1
gene 1 7 28 1.18714 0 7 0 1
gene 1 8 28 -1.40967 0 8 0 1
gene 1 9 28 0.130567 0 9 0 1
gene 1 10 28 -1.82837 0 10 0 1
gene 1 11 28 -0.2515 0 11 0 1
gene 1 12 28 -0.705735 0 12 0 1
gene 1 13 28 0.257346 0 13 0 1
gene 1 14 28 0.161431 0 14 0 1
gene 1 15 28 0.35596 0 15 0 1
gene 1 16 28 0.610814 0 16 0 1
gene 1 17 28 -0.569542 0 17 0 1
gene 1 18 28 0.442859 0 18 0 1
gene 1 19 28 0.316067 0 19 0 1
gene 1 20 28 0.3767 0 20 0 1
gene 1 21 28 -1.18063 0 21 0 1
gene 1 22 28 -1.50036 0 22 0 1
gene 1 23 28 0.990474 0 23 0 1
gene 1 24 28 0.842441 0 24 0 1
gene 1 25 28 0.515617 0 25 0 1
gene 1 26 28 -0.00477959 0 26 0 1
gene 1 27 28 -0.32257 0 27 0 1
gene 1 1 29 0.107891 0 28 0 1
gene 1 2 29 0.304374 0 29 0 1
gene 1 3 29 0.17822 0 30 0 1
gene 1 4 29 0.407818 0 31 0 1
gene 1 5 29 0.229484 0 32 0 1
gene 1 6 29 -0.253496 0 33 0 1
gene 1 7 29 -0.389669 0 34 0 1
gene 1 8 29 0.598013 0 35 0 1
gene 1 9 29 -0.475642 0 36 0 1
gene 1 10 29 -0.781015 0 37 0 1
gene 1 11 29 -1.37585 0 38 0 1
gene 1 12 29 -0.627461 0 39 0 1
gene 1 13 29 -0.105532 0 40 0 1
gene 1 14 29 -0.847115 0 41 0 1
gene 1 15 29 -0.0717567 0 42 0 1
gene 1 16 29 0.146342 0 43 0 1
gene 1 17 29 -0.218397 0 44 0 1
gene 1 18 29 0.090898 0 45 0 1
gene 1 19 29 0.616836 0 46 0 1
gene 1 20 29 0.376464 0 47 0 1
gene 1 21 29 0.383905 0 48 0 1
gene 1 22 29 -0.686134 0 49 0 1
gene 1 23 29 0.149173 0 50 0 1
gene 1 24 29 0.526327 0 51 0 1
gene 1 25 29 -0.274679 0 52 0 1
gene 1 26 29 -0.123983 0 53 0 1
gene 1 27 29 0.592802 0 54 0 1
gene 1 1 30 -0.173129 0 55 0 1
gene 1 2 30 0.414332 0 56 0 1
gene 1 3 30 1.30085 0 57 0 1
gene 1 4 30 -0.650619 0 58 0 1
gene 1 5 30 -0.738804 0 59 0 1
gene 1 6 30 0.939307 0 60 0 1
gene 1 7 30 -0.214174 0 61 0 1
gene 1 8 30 -0.158963 0 62 0 1
gene 1 9 30 -0.404275 0 63 0 1
gene 1 10 30 -0.782667 0 64 0 1
gene 1 11 30 0.174121 0 65 0 1
gene 1 12 30 0.339767 0 66 0 1
gene 1 13 30 0.158614 0 67 0 1
gene 1 14 30 0.00744987 0 68 0 1
gene 1 15 30 0.0814638 0 69 0 1
gene 1 16 30 -0.232163 0 70 0 1
gene 1 17 30 -0.128686 0 71 0 1
gene 1 18 30 -0.932502 0 72 0 1
gene 1 19 30 -0.168356 0 73 0 1
gene 1 20 30 0.171897 0 74 0 1
gene 1 21 30 0.148937 0 75 0 1
gene 1 22 30 -0.226315 0 76 0 1
gene 1 23 30 -0.179618 0 77 0 1
gene 1 24 30 -0.101754 0 78 0 1
gene 1 25 30 1.81151 0 79 0 1
gene 1 26 30 -0.736479 0 80 0 1
gene 1 27 30 -0.0697333 0 81 0 1
genomeend 0
