genomestart 3
trait 1 0 0 0 0 0 0 0 0 
node 1 0 1 1
node 2 0 1 1
node 3 0 1 1
node 4 0 1 1
node 5 0 1 1
node 6 0 1 1
node 7 0 1 1
node 8 0 1 1
node 9 0 1 1
node 10 0 1 1
node 11 0 1 1
node 12 0 1 1
node 13 0 1 3
node 14 0 0 2
node 15 0 0 2
gene 1 1 14 1.76639 0 1 0 1
gene 1 2 14 0.576705 0 2 0 1
gene 1 3 14 -5.00575 0 3 0 1
gene 1 4 14 -4.28062 0 4 0 1
gene 1 5 14 -0.858468 0 5 0 1
gene 1 6 14 -5.79009 0 6 0 1
gene 1 7 14 -4.16788 0 7 0 1
gene 1 8 14 -0.95397 0 8 0 1
gene 1 9 14 5.12438 0 9 0 1
gene 1 10 14 8.51272 0 10 0 1
gene 1 11 14 6.34337 0 11 0 1
gene 1 12 14 -6.56017 0 12 0 1
gene 1 13 14 -2.16098 0 13 0 1
gene 1 1 15 3.75657 0 14 0 1
gene 1 2 15 -9.60989 0 15 0 1
gene 1 3 15 -4.89471 0 16 0 1
gene 1 4 15 9.54988 0 17 0 1
gene 1 5 15 -3.16832 0 18 0 1
gene 1 6 15 4.65688 0 19 0 1
gene 1 7 15 -5.08097 0 20 0 1
gene 1 8 15 2.96818 0 21 0 1
gene 1 9 15 -0.432329 0 22 0 1
gene 1 10 15 3.43323 0 23 0 1
gene 1 11 15 5.39526 0 24 0 1
gene 1 12 15 -6.66616 0 25 0 1
gene 1 13 15 -3.2615 0 26 0 1
genomeend 3
