genomestart 0
trait 1 0 0 0 0 0 0 0 0 
node 1 0 1 1
node 2 0 1 1
node 3 0 1 1
node 4 0 1 1
node 5 0 1 1
node 6 0 1 1
node 7 0 1 1
node 8 0 1 1
node 9 0 1 1
node 10 0 1 1
node 11 0 1 1
node 12 0 1 1
node 13 0 1 1
node 14 0 1 1
node 15 0 1 1
node 16 0 1 1
node 17 0 1 1
node 18 0 1 1
node 19 0 1 1
node 20 0 1 1
node 21 0 1 1
node 22 0 1 1
node 23 0 1 1
node 24 0 1 1
node 25 0 1 1
node 26 0 1 1
node 27 0 1 3
node 28 0 0 2
node 29 0 0 2
node 30 0 0 2
gene 1 1 28 0.913296 0 1 0 1
gene 1 2 28 0.466474 0 2 0 1
gene 1 3 28 -0.845664 0 3 0 1
gene 1 4 28 -0.230562 0 4 0 1
gene 1 5 28 0.335784 0 5 0 1
gene 1 6 28 0.969221 0 6 0 1
gene 1 7 28 0.889014 0 7 0 1
gene 1 8 28 -1.00364 0 8 0 1
gene 1 9 28 0.406295 0 9 0 1
gene 1 10 28 -1.49764 0 10 0 1
gene 1 11 28 -0.392894 0 11 0 1
gene 1 12 28 -0.656002 0 12 0 1
gene 1 13 28 -0.0261874 0 13 0 1
gene 1 14 28 0.216041 0 14 0 1
gene 1 15 28 0.257823 0 15 0 1
gene 1 16 28 0.801369 0 16 0 1
gene 1 17 28 -0.921295 0 17 0 1
gene 1 18 28 0.0611421 0 18 0 1
gene 1 19 28 0.396227 0 19 0 1
gene 1 20 28 0.287241 0 20 0 1
gene 1 21 28 -0.794619 0 21 0 1
gene 1 22 28 -1.57344 0 22 0 1
gene 1 23 28 0.408494 0 23 0 1
gene 1 24 28 0.43169 0 24 0 1
gene 1 25 28 0.826689 0 25 0 1
gene 1 26 28 -0.104466 0 26 0 1
gene 1 27 28 -0.0261913 0 27 0 1
gene 1 1 29 -0.0874272 0 28 0 1
gene 1 2 29 0.368699 0 29 0 1
gene 1 3 29 0.0939111 0 30 0 1
gene 1 4 29 0.593204 0 31 0 1
gene 1 5 29 0.377883 0 32 0 1
gene 1 6 29 -0.149331 0 33 0 1
gene 1 7 29 -0.611997 0 34 0 1
gene 1 8 29 0.273917 0 35 0 1
gene 1 9 29 -0.462706 0 36 0 1
gene 1 10 29 -0.442019 0 37 0 1
gene 1 11 29 -1.09945 0 38 0 1
gene 1 12 29 -0.127661 0 39 0 1
gene 1 13 29 -0.31718 0 40 0 1
gene 1 14 29 -0.584412 0 41 0 1
gene 1 15 29 0.0933652 0 42 0 1
gene 1 16 29 0.49349 0 43 0 1
gene 1 17 29 -0.277995 0 44 0 1
gene 1 18 29 0.269717 0 45 0 1
gene 1 19 29 0.330144 0 46 0 1
gene 1 20 29 0.221384 0 47 0 1
gene 1 21 29 0.410097 0 48 0 1
gene 1 22 29 -0.303194 0 49 0 1
gene 1 23 29 0.0953318 0 50 0 1
gene 1 24 29 0.271378 0 51 0 1
gene 1 25 29 -0.457724 0 52 0 1
gene 1 26 29 -0.0392979 0 53 0 1
gene 1 27 29 0.386852 0 54 0 1
gene 1 1 30 -0.202346 0 55 0 1
gene 1 2 30 0.873266 0 56 0 1
gene 1 3 30 0.987644 0 57 0 1
gene 1 4 30 -0.232741 0 58 0 1
gene 1 5 30 -0.577258 0 59 0 1
gene 1 6 30 0.941552 0 60 0 1
gene 1 7 30 -0.247405 0 61 0 1
gene 1 8 30 -0.187785 0 62 0 1
gene 1 9 30 -0.25177 0 63 0 1
gene 1 10 30 -0.707269 0 64 0 1
gene 1 11 30 -0.0133377 0 65 0 1
gene 1 12 30 -0.277615 0 66 0 1
gene 1 13 30 0.44148 0 67 0 1
gene 1 14 30 0.411689 0 68 0 1
gene 1 15 30 0.0316901 0 69 0 1
gene 1 16 30 -0.254509 0 70 0 1
gene 1 17 30 0.121063 0 71 0 1
gene 1 18 30 -0.895003 0 72 0 1
gene 1 19 30 0.375308 0 73 0 1
gene 1 20 30 -0.0210829 0 74 0 1
gene 1 21 30 -0.0653119 0 75 0 1
gene 1 22 30 -0.448223 0 76 0 1
gene 1 23 30 -0.323381 0 77 0 1
gene 1 24 30 0.0438641 0 78 0 1
gene 1 25 30 1.07291 0 79 0 1
gene 1 26 30 -0.210701 0 80 0 1
gene 1 27 30 -0.508916 0 81 0 1
genomeend 0
