genomestart 3
trait 1 0 0 0 0 0 0 0 0 
node 1 0 1 1
node 2 0 1 1
node 3 0 1 1
node 4 0 1 1
node 5 0 1 1
node 6 0 1 1
node 7 0 1 1
node 8 0 1 1
node 9 0 1 1
node 10 0 1 1
node 11 0 1 1
node 12 0 1 1
node 13 0 1 3
node 14 0 0 2
node 15 0 0 2
gene 1 1 14 1.30807 0 1 0 1
gene 1 2 14 1.69668 0 2 0 1
gene 1 3 14 -1.67704 0 3 0 1
gene 1 4 14 -1.6181 0 4 0 1
gene 1 5 14 0.210362 0 5 0 1
gene 1 6 14 -2.47245 0 6 0 1
gene 1 7 14 -5.80234 0 7 0 1
gene 1 8 14 1.20171 0 8 0 1
gene 1 9 14 -2.5434 0 9 0 1
gene 1 10 14 7.70163 0 10 0 1
gene 1 11 14 2.93189 0 11 0 1
gene 1 12 14 -5.75486 0 12 0 1
gene 1 13 14 -4.47769 0 13 0 1
gene 1 1 15 2.73106 0 14 0 1
gene 1 2 15 -4.01542 0 15 0 1
gene 1 3 15 -2.93803 0 16 0 1
gene 1 4 15 7.25126 0 17 0 1
gene 1 5 15 -3.97815 0 18 0 1
gene 1 6 15 1.45541 0 19 0 1
gene 1 7 15 -4.96981 0 20 0 1
gene 1 8 15 1.28041 0 21 0 1
gene 1 9 15 -0.104328 0 22 0 1
gene 1 10 15 -1.28622 0 23 0 1
gene 1 11 15 4.02901 0 24 0 1
gene 1 12 15 -2.8817 0 25 0 1
gene 1 13 15 -1.76046 0 26 0 1
genomeend 3
