genomestart 1
trait 1 0 0 0 0 0 0 0 0 
node 1 0 1 1
node 2 0 1 1
node 3 0 1 1
node 4 0 1 1
node 5 0 1 1
node 6 0 1 1
node 7 0 1 1
node 8 0 1 1
node 9 0 1 1
node 10 0 1 1
node 11 0 1 1
node 12 0 1 1
node 13 0 1 1
node 14 0 1 1
node 15 0 1 1
node 16 0 1 1
node 17 0 1 1
node 18 0 1 1
node 19 0 1 1
node 20 0 1 1
node 21 0 1 1
node 22 0 1 1
node 23 0 1 1
node 24 0 1 1
node 25 0 1 3
node 26 0 0 2
node 27 0 0 2
node 28 1 0 0
node 29 1 0 0
node 30 1 0 0
node 31 1 0 0
gene 1 1 26 -0.925947 0 1 -0.925947 1
gene 1 2 26 -0.42456 0 2 -0.42456 1
gene 1 3 26 0.837087 0 3 0.837087 1
gene 1 4 26 0.391373 0 4 0.391373 1
gene 1 5 26 0.258393 0 5 0.258393 0
gene 1 6 26 0.952047 0 6 0.952047 1
gene 1 7 26 0.361896 0 7 0.361896 1
gene 1 8 26 -0.860772 0 8 -0.860772 1
gene 1 9 26 0.430282 0 9 0.430282 1
gene 1 10 26 -0.284303 0 10 -0.284303 1
gene 1 11 26 0.530378 0 11 0.530378 1
gene 1 12 26 -0.0861375 0 12 -0.0861375 0
gene 1 13 26 -0.021537 0 13 -0.021537 1
gene 1 14 26 0.89519 0 14 0.89519 1
gene 1 15 26 0.565314 0 15 0.565314 1
gene 1 16 26 -0.578859 0 16 -0.578859 1
gene 1 17 26 -0.847423 0 17 -0.847423 1
gene 1 18 26 -0.530736 0 18 -0.530736 1
gene 1 19 26 0.207688 0 19 0.207688 1
gene 1 20 26 0.355605 0 20 0.355605 1
gene 1 21 26 -0.178231 0 21 -0.178231 1
gene 1 22 26 0.283918 0 22 0.283918 1
gene 1 23 26 0.0242353 0 23 0.0242353 1
gene 1 24 26 -0.89703 0 24 -0.89703 1
gene 1 25 26 -0.220998 0 25 -0.220998 1
gene 1 1 27 0.0580167 0 26 0.0580167 1
gene 1 2 27 -0.420934 0 27 -0.420934 1
gene 1 3 27 0.883588 0 28 0.883588 0
gene 1 4 27 0.361045 0 29 0.361045 1
gene 1 5 27 0.314359 0 30 0.314359 1
gene 1 6 27 -0.191016 0 31 -0.191016 1
gene 1 7 27 -0.616373 0 32 -0.616373 1
gene 1 8 27 0.0405926 0 33 0.0405926 0
gene 1 9 27 -0.548121 0 34 -0.548121 1
gene 1 10 27 0.75061 0 35 0.75061 1
gene 1 11 27 -0.0329592 0 36 -0.0329592 1
gene 1 12 27 0.195949 0 37 0.195949 1
gene 1 13 27 -0.312862 0 38 -0.312862 1
gene 1 14 27 0.956954 0 39 0.956954 1
gene 1 15 27 0.625651 0 40 0.625651 1
gene 1 16 27 0.620183 0 41 0.620183 1
gene 1 17 27 0.0874811 0 42 0.0874811 1
gene 1 18 27 0.101579 0 43 0.101579 1
gene 1 19 27 -0.745346 0 44 -0.745346 1
gene 1 20 27 -0.970321 0 45 -0.970321 1
gene 1 21 27 -0.198852 0 46 -0.198852 1
gene 1 22 27 0.770158 0 47 0.770158 1
gene 1 23 27 0.113192 0 48 0.113192 1
gene 1 24 27 0.612567 0 49 0.612567 1
gene 1 8 28 1 0 50 0 1
gene 1 25 27 0.18446 0 50 0.18446 1
gene 1 28 27 0.0405926 0 51 0 1
gene 1 12 29 1 0 52 0 1
gene 1 29 26 -0.0861375 0 53 0 1
gene 1 5 30 1 0 54 0 1
gene 1 30 26 0.258393 0 55 0 1
gene 1 3 31 1 0 56 0 1
gene 1 31 27 0.883588 0 57 0 1
genomeend 1
