genomestart 2
trait 1 0 0 0 0 0 0 0 0 
node 1 0 1 1
node 2 0 1 1
node 3 0 1 1
node 4 0 1 1
node 5 0 1 1
node 6 0 1 1
node 7 0 1 1
node 8 0 1 1
node 9 0 1 1
node 10 0 1 1
node 11 0 1 1
node 12 0 1 1
node 13 0 1 1
node 14 0 1 1
node 15 0 1 1
node 16 0 1 1
node 17 0 1 1
node 18 0 1 1
node 19 0 1 1
node 20 0 1 1
node 21 0 1 1
node 22 0 1 1
node 23 0 1 1
node 24 0 1 1
node 25 0 1 1
node 26 0 1 1
node 27 0 1 3
node 28 0 0 2
node 29 0 0 2
node 30 0 0 2
gene 1 1 28 -0.0448623 0 1 0 1
gene 1 2 28 -0.992918 0 2 0 1
gene 1 3 28 1.3744 0 3 0 1
gene 1 4 28 1.82631 0 4 0 1
gene 1 5 28 -3.15766 0 5 0 1
gene 1 6 28 -0.649988 0 6 0 1
gene 1 7 28 -0.284944 0 7 0 1
gene 1 8 28 0.123789 0 8 0 1
gene 1 9 28 -3.33093 0 9 0 1
gene 1 10 28 -1.79291 0 10 0 1
gene 1 11 28 1.23516 0 11 0 1
gene 1 12 28 -0.798038 0 12 0 1
gene 1 13 28 -1.7242 0 13 0 1
gene 1 14 28 4.20026 0 14 0 1
gene 1 15 28 0.53464 0 15 0 1
gene 1 16 28 0.956552 0 16 0 1
gene 1 17 28 1.37064 0 17 0 1
gene 1 18 28 -0.719665 0 18 0 1
gene 1 19 28 -2.16049 0 19 0 1
gene 1 20 28 -1.39658 0 20 0 1
gene 1 21 28 -1.19475 0 21 0 1
gene 1 22 28 0.688548 0 22 0 1
gene 1 23 28 -1.4946 0 23 0 1
gene 1 24 28 2.39552 0 24 0 1
gene 1 25 28 3.0923 0 25 0 1
gene 1 26 28 0.79692 0 26 0 1
gene 1 27 28 -2.94614 0 27 0 1
gene 1 1 29 1.1098 0 28 0 1
gene 1 2 29 1.64175 0 29 0 1
gene 1 3 29 -1.35933 0 30 0 1
gene 1 4 29 0.688831 0 31 0 1
gene 1 5 29 -0.29206 0 32 0 1
gene 1 6 29 3.76234 0 33 0 1
gene 1 7 29 3.51685 0 34 0 1
gene 1 8 29 -3.32376 0 35 0 1
gene 1 9 29 0.616057 0 36 0 1
gene 1 10 29 -1.59676 0 37 0 1
gene 1 11 29 1.84495 0 38 0 1
gene 1 12 29 0.387539 0 39 0 1
gene 1 13 29 0.775198 0 40 0 1
gene 1 14 29 1.86022 0 41 0 1
gene 1 15 29 -0.115105 0 42 0 1
gene 1 16 29 2.55789 0 43 0 1
gene 1 17 29 1.65013 0 44 0 1
gene 1 18 29 -2.89842 0 45 0 1
gene 1 19 29 -0.834445 0 46 0 1
gene 1 20 29 -0.705176 0 47 0 1
gene 1 21 29 1.29839 0 48 0 1
gene 1 22 29 0.732457 0 49 0 1
gene 1 23 29 -3.05014 0 50 0 1
gene 1 24 29 -4.85014 0 51 0 1
gene 1 25 29 3.37557 0 52 0 1
gene 1 26 29 1.6858 0 53 0 1
gene 1 27 29 2.37562 0 54 0 1
gene 1 1 30 -0.579271 0 55 0 1
gene 1 2 30 0.295539 0 56 0 1
gene 1 3 30 3.16237 0 57 0 1
gene 1 4 30 -2.25289 0 58 0 1
gene 1 5 30 -0.203981 0 59 0 1
gene 1 6 30 -0.731635 0 60 0 1
gene 1 7 30 4.48506 0 61 0 1
gene 1 8 30 2.42245 0 62 0 1
gene 1 9 30 -1.79247 0 63 0 1
gene 1 10 30 -0.712471 0 64 0 1
gene 1 11 30 -1.35558 0 65 0 1
gene 1 12 30 -0.505872 0 66 0 1
gene 1 13 30 0.601269 0 67 0 1
gene 1 14 30 2.82871 0 68 0 1
gene 1 15 30 1.89025 0 69 0 1
gene 1 16 30 -0.638062 0 70 0 1
gene 1 17 30 1.54585 0 71 0 1
gene 1 18 30 -0.468249 0 72 0 1
gene 1 19 30 -2.53611 0 73 0 1
gene 1 20 30 -1.29771 0 74 0 1
gene 1 21 30 1.37805 0 75 0 1
gene 1 22 30 1.54174 0 76 0 1
gene 1 23 30 -0.447197 0 77 0 1
gene 1 24 30 3.45726 0 78 0 1
gene 1 25 30 0.616711 0 79 0 1
gene 1 26 30 -0.837754 0 80 0 1
gene 1 27 30 1.55971 0 81 0 1
genomeend 2
