genomestart 2
trait 1 0 0 0 0 0 0 0 0 
node 1 0 1 1
node 2 0 1 1
node 3 0 1 1
node 4 0 1 1
node 5 0 1 1
node 6 0 1 1
node 7 0 1 1
node 8 0 1 1
node 9 0 1 1
node 10 0 1 1
node 11 0 1 1
node 12 0 1 1
node 13 0 1 1
node 14 0 1 1
node 15 0 1 1
node 16 0 1 1
node 17 0 1 1
node 18 0 1 1
node 19 0 1 1
node 20 0 1 1
node 21 0 1 1
node 22 0 1 1
node 23 0 1 1
node 24 0 1 1
node 25 0 1 1
node 26 0 1 1
node 27 0 1 3
node 28 0 0 2
node 29 0 0 2
node 30 0 0 2
gene 1 1 28 -2.59074 0 1 0 1
gene 1 2 28 1.12539 0 2 0 1
gene 1 3 28 0.897291 0 3 0 1
gene 1 4 28 0.217849 0 4 0 1
gene 1 5 28 1.26476 0 5 0 1
gene 1 6 28 -1.43215 0 6 0 1
gene 1 7 28 -1.8026 0 7 0 1
gene 1 8 28 4.81817 0 8 0 1
gene 1 9 28 -1.17683 0 9 0 1
gene 1 10 28 -0.493146 0 10 0 1
gene 1 11 28 -1.12721 0 11 0 1
gene 1 12 28 -0.546669 0 12 0 1
gene 1 13 28 0.272849 0 13 0 1
gene 1 14 28 4.45722 0 14 0 1
gene 1 15 28 -0.158418 0 15 0 1
gene 1 16 28 0.797691 0 16 0 1
gene 1 17 28 0.954421 0 17 0 1
gene 1 18 28 -1.43987 0 18 0 1
gene 1 19 28 -0.425393 0 19 0 1
gene 1 20 28 1.84143 0 20 0 1
gene 1 21 28 1.85212 0 21 0 1
gene 1 22 28 -1.31562 0 22 0 1
gene 1 23 28 -1.52974 0 23 0 1
gene 1 24 28 0.465719 0 24 0 1
gene 1 25 28 1.58008 0 25 0 1
gene 1 26 28 -0.0789639 0 26 0 1
gene 1 27 28 -1.71738 0 27 0 1
gene 1 1 29 -0.691075 0 28 0 1
gene 1 2 29 2.41011 0 29 0 1
gene 1 3 29 0.378227 0 30 0 1
gene 1 4 29 1.92959 0 31 0 1
gene 1 5 29 2.15315 0 32 0 1
gene 1 6 29 1.64835 0 33 0 1
gene 1 7 29 2.90704 0 34 0 1
gene 1 8 29 -4.50197 0 35 0 1
gene 1 9 29 0.0739111 0 36 0 1
gene 1 10 29 -2.18186 0 37 0 1
gene 1 11 29 0.977248 0 38 0 1
gene 1 12 29 -2.03971 0 39 0 1
gene 1 13 29 0.199871 0 40 0 1
gene 1 14 29 0.334713 0 41 0 1
gene 1 15 29 -0.661701 0 42 0 1
gene 1 16 29 3.11758 0 43 0 1
gene 1 17 29 0.551026 0 44 0 1
gene 1 18 29 -2.85577 0 45 0 1
gene 1 19 29 -0.405144 0 46 0 1
gene 1 20 29 -3.09055 0 47 0 1
gene 1 21 29 2.19076 0 48 0 1
gene 1 22 29 -0.810211 0 49 0 1
gene 1 23 29 -0.224184 0 50 0 1
gene 1 24 29 -4.56977 0 51 0 1
gene 1 25 29 0.785434 0 52 0 1
gene 1 26 29 1.4248 0 53 0 1
gene 1 27 29 2.1552 0 54 0 1
gene 1 1 30 -0.602217 0 55 0 1
gene 1 2 30 1.13938 0 56 0 1
gene 1 3 30 2.79128 0 57 0 1
gene 1 4 30 0.565364 0 58 0 1
gene 1 5 30 0.0801101 0 59 0 1
gene 1 6 30 0.486654 0 60 0 1
gene 1 7 30 3.79852 0 61 0 1
gene 1 8 30 1.36782 0 62 0 1
gene 1 9 30 0.644683 0 63 0 1
gene 1 10 30 -1.18671 0 64 0 1
gene 1 11 30 -2.16662 0 65 0 1
gene 1 12 30 -1.00651 0 66 0 1
gene 1 13 30 -0.530009 0 67 0 1
gene 1 14 30 0.1575 0 68 0 1
gene 1 15 30 2.66104 0 69 0 1
gene 1 16 30 -1.15248 0 70 0 1
gene 1 17 30 1.45352 0 71 0 1
gene 1 18 30 -0.684059 0 72 0 1
gene 1 19 30 -2.01912 0 73 0 1
gene 1 20 30 -2.70965 0 74 0 1
gene 1 21 30 2.12576 0 75 0 1
gene 1 22 30 -1.3035 0 76 0 1
gene 1 23 30 2.36361 0 77 0 1
gene 1 24 30 -0.201086 0 78 0 1
gene 1 25 30 -0.120628 0 79 0 1
gene 1 26 30 -0.204856 0 80 0 1
gene 1 27 30 1.51302 0 81 0 1
genomeend 2
