genomestart 1
trait 1 0 0 0 0 0 0 0 0 
node 1 0 1 1
node 2 0 1 1
node 3 0 1 1
node 4 0 1 1
node 5 0 1 1
node 6 0 1 1
node 7 0 1 1
node 8 0 1 1
node 9 0 1 1
node 10 0 1 1
node 11 0 1 1
node 12 0 1 1
node 13 0 1 1
node 14 0 1 1
node 15 0 1 1
node 16 0 1 1
node 17 0 1 1
node 18 0 1 1
node 19 0 1 1
node 20 0 1 1
node 21 0 1 1
node 22 0 1 1
node 23 0 1 1
node 24 0 1 1
node 25 0 1 1
node 26 0 1 1
node 27 0 1 3
node 28 0 0 2
node 29 0 0 2
node 30 0 0 2
gene 1 1 28 -0.623795 0 1 0 1
gene 1 2 28 -0.187773 0 2 0 1
gene 1 3 28 -0.151681 0 3 0 1
gene 1 4 28 0.0732207 0 4 0 1
gene 1 5 28 -0.0226619 0 5 0 1
gene 1 6 28 -0.0688173 0 6 0 1
gene 1 7 28 0.051097 0 7 0 1
gene 1 8 28 -0.121101 0 8 0 1
gene 1 9 28 -0.389405 0 9 0 1
gene 1 10 28 0.139835 0 10 0 1
gene 1 11 28 -0.265115 0 11 0 1
gene 1 12 28 -0.358392 0 12 0 1
gene 1 13 28 -0.0438753 0 13 0 1
gene 1 14 28 0.437847 0 14 0 1
gene 1 15 28 -0.52697 0 15 0 1
gene 1 16 28 -0.2999 0 16 0 1
gene 1 17 28 -0.299243 0 17 0 1
gene 1 18 28 -0.29656 0 18 0 1
gene 1 19 28 -0.189243 0 19 0 1
gene 1 20 28 -0.21525 0 20 0 1
gene 1 21 28 0.0302922 0 21 0 1
gene 1 22 28 0.0500325 0 22 0 1
gene 1 23 28 -0.388869 0 23 0 1
gene 1 24 28 -0.174587 0 24 0 1
gene 1 25 28 -0.402718 0 25 0 1
gene 1 26 28 0.326621 0 26 0 1
gene 1 27 28 0.331915 0 27 0 1
gene 1 1 29 -0.342571 0 28 0 1
gene 1 2 29 0.113342 0 29 0 1
gene 1 3 29 -0.377014 0 30 0 1
gene 1 4 29 -1.07618 0 31 0 1
gene 1 5 29 -0.00831725 0 32 0 1
gene 1 6 29 -0.0326406 0 33 0 1
gene 1 7 29 -0.626383 0 34 0 1
gene 1 8 29 -0.325517 0 35 0 1
gene 1 9 29 0.41259 0 36 0 1
gene 1 10 29 0.271154 0 37 0 1
gene 1 11 29 -0.00720122 0 38 0 1
gene 1 12 29 -0.180757 0 39 0 1
gene 1 13 29 -0.375508 0 40 0 1
gene 1 14 29 0.291757 0 41 0 1
gene 1 15 29 0.236628 0 42 0 1
gene 1 16 29 -0.449841 0 43 0 1
gene 1 17 29 0.261438 0 44 0 1
gene 1 18 29 0.173868 0 45 0 1
gene 1 19 29 -0.527421 0 46 0 1
gene 1 20 29 -0.303646 0 47 0 1
gene 1 21 29 -0.129356 0 48 0 1
gene 1 22 29 0.541405 0 49 0 1
gene 1 23 29 0.399518 0 50 0 1
gene 1 24 29 -0.173122 0 51 0 1
gene 1 25 29 -0.394759 0 52 0 1
gene 1 26 29 -0.233406 0 53 0 1
gene 1 27 29 -0.109618 0 54 0 1
gene 1 1 30 -0.327813 0 55 0 1
gene 1 2 30 0.065152 0 56 0 1
gene 1 3 30 -0.185751 0 57 0 1
gene 1 4 30 0.164574 0 58 0 1
gene 1 5 30 -0.142009 0 59 0 1
gene 1 6 30 0.199924 0 60 0 1
gene 1 7 30 0.170719 0 61 0 1
gene 1 8 30 -0.51057 0 62 0 1
gene 1 9 30 -0.197678 0 63 0 1
gene 1 10 30 0.0936203 0 64 0 1
gene 1 11 30 -0.00579042 0 65 0 1
gene 1 12 30 -0.069101 0 66 0 1
gene 1 13 30 -0.117723 0 67 0 1
gene 1 14 30 0.103378 0 68 0 1
gene 1 15 30 0.0982625 0 69 0 1
gene 1 16 30 -0.454539 0 70 0 1
gene 1 17 30 -0.036632 0 71 0 1
gene 1 18 30 0.307223 0 72 0 1
gene 1 19 30 -0.42328 0 73 0 1
gene 1 20 30 0.00261899 0 74 0 1
gene 1 21 30 0.195144 0 75 0 1
gene 1 22 30 0.0544968 0 76 0 1
gene 1 23 30 0.167159 0 77 0 1
gene 1 24 30 0.0260523 0 78 0 1
gene 1 25 30 0.0563987 0 79 0 1
gene 1 26 30 -0.174598 0 80 0 1
gene 1 27 30 0.0163287 0 81 0 1
genomeend 1
