genomestart 3
trait 1 0 0 0 0 0 0 0 0 
node 1 0 1 1
node 2 0 1 1
node 3 0 1 1
node 4 0 1 1
node 5 0 1 1
node 6 0 1 1
node 7 0 1 1
node 8 0 1 1
node 9 0 1 1
node 10 0 1 1
node 11 0 1 1
node 12 0 1 1
node 13 0 1 3
node 14 0 0 2
node 15 0 0 2
gene 1 1 14 1.75845 0 1 0 1
gene 1 2 14 0.258794 0 2 0 1
gene 1 3 14 -4.89271 0 3 0 1
gene 1 4 14 -4.95255 0 4 0 1
gene 1 5 14 -1.40798 0 5 0 1
gene 1 6 14 -6.84725 0 6 0 1
gene 1 7 14 -4.38221 0 7 0 1
gene 1 8 14 -0.239792 0 8 0 1
gene 1 9 14 3.81512 0 9 0 1
gene 1 10 14 8.21235 0 10 0 1
gene 1 11 14 5.33839 0 11 0 1
gene 1 12 14 -7.51171 0 12 0 1
gene 1 13 14 -3.89402 0 13 0 1
gene 1 1 15 0.907706 0 14 0 1
gene 1 2 15 -8.39667 0 15 0 1
gene 1 3 15 -4.47403 0 16 0 1
gene 1 4 15 8.82411 0 17 0 1
gene 1 5 15 -2.3077 0 18 0 1
gene 1 6 15 3.31514 0 19 0 1
gene 1 7 15 -6.21074 0 20 0 1
gene 1 8 15 2.49634 0 21 0 1
gene 1 9 15 -1.23667 0 22 0 1
gene 1 10 15 4.26823 0 23 0 1
gene 1 11 15 3.69919 0 24 0 1
gene 1 12 15 -4.37346 0 25 0 1
gene 1 13 15 -2.79185 0 26 0 1
genomeend 3
