genomestart 2
trait 1 0 0 0 0 0 0 0 0 
node 1 0 1 1
node 2 0 1 1
node 3 0 1 1
node 4 0 1 1
node 5 0 1 1
node 6 0 1 1
node 7 0 1 1
node 8 0 1 1
node 9 0 1 1
node 10 0 1 1
node 11 0 1 1
node 12 0 1 1
node 13 0 1 1
node 14 0 1 1
node 15 0 1 1
node 16 0 1 1
node 17 0 1 1
node 18 0 1 1
node 19 0 1 1
node 20 0 1 1
node 21 0 1 1
node 22 0 1 1
node 23 0 1 1
node 24 0 1 1
node 25 0 1 1
node 26 0 1 1
node 27 0 1 3
node 28 0 0 2
node 29 0 0 2
node 30 0 0 2
gene 1 1 28 -1.04971 0 1 0 1
gene 1 2 28 -1.00294 0 2 0 1
gene 1 3 28 0.827539 0 3 0 1
gene 1 4 28 0.457512 0 4 0 1
gene 1 5 28 -1.4196 0 5 0 1
gene 1 6 28 -0.616749 0 6 0 1
gene 1 7 28 -0.747171 0 7 0 1
gene 1 8 28 0.682461 0 8 0 1
gene 1 9 28 -3.33336 0 9 0 1
gene 1 10 28 0.271619 0 10 0 1
gene 1 11 28 0.0125762 0 11 0 1
gene 1 12 28 0.206364 0 12 0 1
gene 1 13 28 0.227224 0 13 0 1
gene 1 14 28 2.6792 0 14 0 1
gene 1 15 28 1.03479 0 15 0 1
gene 1 16 28 1.41817 0 16 0 1
gene 1 17 28 1.87908 0 17 0 1
gene 1 18 28 -0.293974 0 18 0 1
gene 1 19 28 -0.904363 0 19 0 1
gene 1 20 28 -0.342259 0 20 0 1
gene 1 21 28 0.406514 0 21 0 1
gene 1 22 28 -1.17761 0 22 0 1
gene 1 23 28 -2.15891 0 23 0 1
gene 1 24 28 0.678924 0 24 0 1
gene 1 25 28 2.50904 0 25 0 1
gene 1 26 28 0.834504 0 26 0 1
gene 1 27 28 -0.887683 0 27 0 1
gene 1 1 29 -0.466847 0 28 0 1
gene 1 2 29 0.357881 0 29 0 1
gene 1 3 29 -1.03823 0 30 0 1
gene 1 4 29 1.50963 0 31 0 1
gene 1 5 29 1.24824 0 32 0 1
gene 1 6 29 1.71844 0 33 0 1
gene 1 7 29 1.38868 0 34 0 1
gene 1 8 29 -1.19015 0 35 0 1
gene 1 9 29 1.2854 0 36 0 1
gene 1 10 29 -1.78872 0 37 0 1
gene 1 11 29 0.214469 0 38 0 1
gene 1 12 29 -1.43864 0 39 0 1
gene 1 13 29 -0.249438 0 40 0 1
gene 1 14 29 0.995936 0 41 0 1
gene 1 15 29 -0.242562 0 42 0 1
gene 1 16 29 1.7625 0 43 0 1
gene 1 17 29 0.0699959 0 44 0 1
gene 1 18 29 -1.06621 0 45 0 1
gene 1 19 29 0.0727969 0 46 0 1
gene 1 20 29 -1.803 0 47 0 1
gene 1 21 29 0.00812421 0 48 0 1
gene 1 22 29 0.591892 0 49 0 1
gene 1 23 29 -0.124199 0 50 0 1
gene 1 24 29 -0.582764 0 51 0 1
gene 1 25 29 1.18668 0 52 0 1
gene 1 26 29 1.75678 0 53 0 1
gene 1 27 29 1.96075 0 54 0 1
gene 1 1 30 -1.51073 0 55 0 1
gene 1 2 30 0.909145 0 56 0 1
gene 1 3 30 0.964405 0 57 0 1
gene 1 4 30 -1.78071 0 58 0 1
gene 1 5 30 -0.373466 0 59 0 1
gene 1 6 30 0.722342 0 60 0 1
gene 1 7 30 1.88469 0 61 0 1
gene 1 8 30 2.67534 0 62 0 1
gene 1 9 30 -0.970814 0 63 0 1
gene 1 10 30 0.985109 0 64 0 1
gene 1 11 30 -1.55278 0 65 0 1
gene 1 12 30 0.400498 0 66 0 1
gene 1 13 30 -1.3563 0 67 0 1
gene 1 14 30 1.01995 0 68 0 1
gene 1 15 30 2.00649 0 69 0 1
gene 1 16 30 -1.41018 0 70 0 1
gene 1 17 30 1.4265 0 71 0 1
gene 1 18 30 -2.4843 0 72 0 1
gene 1 19 30 -0.563676 0 73 0 1
gene 1 20 30 0.989591 0 74 0 1
gene 1 21 30 -1.25954 0 75 0 1
gene 1 22 30 -0.0604181 0 76 0 1
gene 1 23 30 0.591286 0 77 0 1
gene 1 24 30 0.900048 0 78 0 1
gene 1 25 30 1.34408 0 79 0 1
gene 1 26 30 -0.996485 0 80 0 1
gene 1 27 30 0.639091 0 81 0 1
genomeend 2
