genomestart 2
trait 1 0 0 0 0 0 0 0 0 
node 1 0 1 1
node 2 0 1 1
node 3 0 1 1
node 4 0 1 1
node 5 0 1 1
node 6 0 1 1
node 7 0 1 1
node 8 0 1 1
node 9 0 1 1
node 10 0 1 1
node 11 0 1 1
node 12 0 1 1
node 13 0 1 1
node 14 0 1 1
node 15 0 1 1
node 16 0 1 1
node 17 0 1 1
node 18 0 1 1
node 19 0 1 1
node 20 0 1 1
node 21 0 1 1
node 22 0 1 1
node 23 0 1 1
node 24 0 1 1
node 25 0 1 1
node 26 0 1 1
node 27 0 1 3
node 28 0 0 2
node 29 0 0 2
node 30 0 0 2
gene 1 1 28 -0.00988229 0 1 0 1
gene 1 2 28 -0.314655 0 2 0 1
gene 1 3 28 0.811276 0 3 0 1
gene 1 4 28 0.576616 0 4 0 1
gene 1 5 28 -0.732686 0 5 0 1
gene 1 6 28 -0.0769388 0 6 0 1
gene 1 7 28 -2.2199 0 7 0 1
gene 1 8 28 1.80846 0 8 0 1
gene 1 9 28 -2.30446 0 9 0 1
gene 1 10 28 -0.540974 0 10 0 1
gene 1 11 28 0.503682 0 11 0 1
gene 1 12 28 0.275223 0 12 0 1
gene 1 13 28 0.342911 0 13 0 1
gene 1 14 28 3.03974 0 14 0 1
gene 1 15 28 0.750521 0 15 0 1
gene 1 16 28 1.78362 0 16 0 1
gene 1 17 28 0.86956 0 17 0 1
gene 1 18 28 -0.629075 0 18 0 1
gene 1 19 28 -1.46693 0 19 0 1
gene 1 20 28 0.363041 0 20 0 1
gene 1 21 28 0.885296 0 21 0 1
gene 1 22 28 -0.77916 0 22 0 1
gene 1 23 28 -1.77931 0 23 0 1
gene 1 24 28 0.129241 0 24 0 1
gene 1 25 28 2.99694 0 25 0 1
gene 1 26 28 1.19773 0 26 0 1
gene 1 27 28 -0.951936 0 27 0 1
gene 1 1 29 -0.0216901 0 28 0 1
gene 1 2 29 0.415099 0 29 0 1
gene 1 3 29 -1.76105 0 30 0 1
gene 1 4 29 1.04456 0 31 0 1
gene 1 5 29 1.74213 0 32 0 1
gene 1 6 29 1.76344 0 33 0 1
gene 1 7 29 1.37614 0 34 0 1
gene 1 8 29 -2.18721 0 35 0 1
gene 1 9 29 0.814276 0 36 0 1
gene 1 10 29 -1.8649 0 37 0 1
gene 1 11 29 1.03079 0 38 0 1
gene 1 12 29 -2.10295 0 39 0 1
gene 1 13 29 0.994139 0 40 0 1
gene 1 14 29 1.76103 0 41 0 1
gene 1 15 29 -1.03992 0 42 0 1
gene 1 16 29 3.05427 0 43 0 1
gene 1 17 29 0.0579994 0 44 0 1
gene 1 18 29 -2.19623 0 45 0 1
gene 1 19 29 0.470945 0 46 0 1
gene 1 20 29 -1.28175 0 47 0 1
gene 1 21 29 0.331808 0 48 0 1
gene 1 22 29 -0.350775 0 49 0 1
gene 1 23 29 -0.221373 0 50 0 1
gene 1 24 29 -1.74601 0 51 0 1
gene 1 25 29 1.6134 0 52 0 1
gene 1 26 29 2.58455 0 53 0 1
gene 1 27 29 2.06122 0 54 0 1
gene 1 1 30 -1.72644 0 55 0 1
gene 1 2 30 1.40313 0 56 0 1
gene 1 3 30 1.45664 0 57 0 1
gene 1 4 30 -2.48666 0 58 0 1
gene 1 5 30 -0.357869 0 59 0 1
gene 1 6 30 -0.345162 0 60 0 1
gene 1 7 30 2.11546 0 61 0 1
gene 1 8 30 2.33804 0 62 0 1
gene 1 9 30 -1.23696 0 63 0 1
gene 1 10 30 -0.461307 0 64 0 1
gene 1 11 30 -0.967618 0 65 0 1
gene 1 12 30 -0.0152216 0 66 0 1
gene 1 13 30 -0.0806877 0 67 0 1
gene 1 14 30 0.624377 0 68 0 1
gene 1 15 30 2.3895 0 69 0 1
gene 1 16 30 -1.61888 0 70 0 1
gene 1 17 30 2.08183 0 71 0 1
gene 1 18 30 -2.28136 0 72 0 1
gene 1 19 30 -0.91353 0 73 0 1
gene 1 20 30 0.974377 0 74 0 1
gene 1 21 30 -0.603425 0 75 0 1
gene 1 22 30 -0.550794 0 76 0 1
gene 1 23 30 1.33755 0 77 0 1
gene 1 24 30 2.41537 0 78 0 1
gene 1 25 30 0.624519 0 79 0 1
gene 1 26 30 -1.64676 0 80 0 1
gene 1 27 30 0.942256 0 81 0 1
genomeend 2
