genomestart 2
trait 1 0 0 0 0 0 0 0 0 
node 1 0 1 1
node 2 0 1 1
node 3 0 1 1
node 4 0 1 1
node 5 0 1 1
node 6 0 1 1
node 7 0 1 1
node 8 0 1 1
node 9 0 1 1
node 10 0 1 1
node 11 0 1 1
node 12 0 1 1
node 13 0 1 1
node 14 0 1 1
node 15 0 1 1
node 16 0 1 1
node 17 0 1 1
node 18 0 1 1
node 19 0 1 1
node 20 0 1 1
node 21 0 1 1
node 22 0 1 1
node 23 0 1 1
node 24 0 1 1
node 25 0 1 1
node 26 0 1 1
node 27 0 1 3
node 28 0 0 2
node 29 0 0 2
node 30 0 0 2
gene 1 1 28 -1.65637 0 1 0 1
gene 1 2 28 0.454328 0 2 0 1
gene 1 3 28 1.10262 0 3 0 1
gene 1 4 28 0.840552 0 4 0 1
gene 1 5 28 0.601236 0 5 0 1
gene 1 6 28 -0.560941 0 6 0 1
gene 1 7 28 -1.20848 0 7 0 1
gene 1 8 28 3.85335 0 8 0 1
gene 1 9 28 -1.23833 0 9 0 1
gene 1 10 28 -0.312831 0 10 0 1
gene 1 11 28 -0.834253 0 11 0 1
gene 1 12 28 -0.411087 0 12 0 1
gene 1 13 28 -0.0815211 0 13 0 1
gene 1 14 28 4.03626 0 14 0 1
gene 1 15 28 0.23292 0 15 0 1
gene 1 16 28 0.821418 0 16 0 1
gene 1 17 28 1.34069 0 17 0 1
gene 1 18 28 -1.49182 0 18 0 1
gene 1 19 28 -0.408062 0 19 0 1
gene 1 20 28 0.868708 0 20 0 1
gene 1 21 28 0.85377 0 21 0 1
gene 1 22 28 -1.58959 0 22 0 1
gene 1 23 28 -2.24453 0 23 0 1
gene 1 24 28 0.312561 0 24 0 1
gene 1 25 28 1.62225 0 25 0 1
gene 1 26 28 0.76881 0 26 0 1
gene 1 27 28 -1.71158 0 27 0 1
gene 1 1 29 -0.629507 0 28 0 1
gene 1 2 29 2.12568 0 29 0 1
gene 1 3 29 -0.355851 0 30 0 1
gene 1 4 29 1.5064 0 31 0 1
gene 1 5 29 2.0221 0 32 0 1
gene 1 6 29 1.85911 0 33 0 1
gene 1 7 29 3.03554 0 34 0 1
gene 1 8 29 -3.52899 0 35 0 1
gene 1 9 29 0.728126 0 36 0 1
gene 1 10 29 -1.73557 0 37 0 1
gene 1 11 29 1.79027 0 38 0 1
gene 1 12 29 -1.69253 0 39 0 1
gene 1 13 29 0.424852 0 40 0 1
gene 1 14 29 0.396464 0 41 0 1
gene 1 15 29 -0.448141 0 42 0 1
gene 1 16 29 2.39451 0 43 0 1
gene 1 17 29 0.749039 0 44 0 1
gene 1 18 29 -2.81567 0 45 0 1
gene 1 19 29 -0.302524 0 46 0 1
gene 1 20 29 -2.2868 0 47 0 1
gene 1 21 29 1.31512 0 48 0 1
gene 1 22 29 -1.05778 0 49 0 1
gene 1 23 29 -0.243044 0 50 0 1
gene 1 24 29 -3.78553 0 51 0 1
gene 1 25 29 1.0035 0 52 0 1
gene 1 26 29 2.16163 0 53 0 1
gene 1 27 29 2.48703 0 54 0 1
gene 1 1 30 -1.82695 0 55 0 1
gene 1 2 30 0.857414 0 56 0 1
gene 1 3 30 3.22871 0 57 0 1
gene 1 4 30 -0.0823135 0 58 0 1
gene 1 5 30 0.158568 0 59 0 1
gene 1 6 30 0.344135 0 60 0 1
gene 1 7 30 3.48254 0 61 0 1
gene 1 8 30 0.98694 0 62 0 1
gene 1 9 30 0.333106 0 63 0 1
gene 1 10 30 -1.04115 0 64 0 1
gene 1 11 30 -2.65632 0 65 0 1
gene 1 12 30 -0.0949794 0 66 0 1
gene 1 13 30 0.188452 0 67 0 1
gene 1 14 30 -0.0774214 0 68 0 1
gene 1 15 30 2.75543 0 69 0 1
gene 1 16 30 -1.28287 0 70 0 1
gene 1 17 30 1.86314 0 71 0 1
gene 1 18 30 -0.956953 0 72 0 1
gene 1 19 30 -1.55553 0 73 0 1
gene 1 20 30 -1.95618 0 74 0 1
gene 1 21 30 1.73349 0 75 0 1
gene 1 22 30 -1.81276 0 76 0 1
gene 1 23 30 1.5489 0 77 0 1
gene 1 24 30 1.20508 0 78 0 1
gene 1 25 30 -0.194256 0 79 0 1
gene 1 26 30 -0.724429 0 80 0 1
gene 1 27 30 1.41168 0 81 0 1
genomeend 2
