genomestart 3
trait 1 0 0 0 0 0 0 0 0 
node 1 0 1 1
node 2 0 1 1
node 3 0 1 1
node 4 0 1 1
node 5 0 1 1
node 6 0 1 1
node 7 0 1 1
node 8 0 1 1
node 9 0 1 1
node 10 0 1 1
node 11 0 1 1
node 12 0 1 1
node 13 0 1 3
node 14 0 0 2
node 15 0 0 2
gene 1 1 14 1.33814 0 1 0 1
gene 1 2 14 2.28929 0 2 0 1
gene 1 3 14 -0.419443 0 3 0 1
gene 1 4 14 -3.15494 0 4 0 1
gene 1 5 14 -0.198167 0 5 0 1
gene 1 6 14 -2.64291 0 6 0 1
gene 1 7 14 -5.65101 0 7 0 1
gene 1 8 14 1.39323 0 8 0 1
gene 1 9 14 -2.27687 0 9 0 1
gene 1 10 14 8.11656 0 10 0 1
gene 1 11 14 4.68904 0 11 0 1
gene 1 12 14 -6.74199 0 12 0 1
gene 1 13 14 -5.51219 0 13 0 1
gene 1 1 15 4.16066 0 14 0 1
gene 1 2 15 -3.71092 0 15 0 1
gene 1 3 15 -1.29289 0 16 0 1
gene 1 4 15 6.71825 0 17 0 1
gene 1 5 15 -3.74773 0 18 0 1
gene 1 6 15 0.902147 0 19 0 1
gene 1 7 15 -3.74989 0 20 0 1
gene 1 8 15 2.6421 0 21 0 1
gene 1 9 15 1.03654 0 22 0 1
gene 1 10 15 -2.39872 0 23 0 1
gene 1 11 15 5.33454 0 24 0 1
gene 1 12 15 -1.82114 0 25 0 1
gene 1 13 15 -2.65868 0 26 0 1
genomeend 3
