genomestart 2
trait 1 0 0 0 0 0 0 0 0 
node 1 0 1 1
node 2 0 1 1
node 3 0 1 1
node 4 0 1 1
node 5 0 1 1
node 6 0 1 1
node 7 0 1 1
node 8 0 1 1
node 9 0 1 1
node 10 0 1 1
node 11 0 1 1
node 12 0 1 1
node 13 0 1 1
node 14 0 1 1
node 15 0 1 1
node 16 0 1 1
node 17 0 1 1
node 18 0 1 1
node 19 0 1 1
node 20 0 1 1
node 21 0 1 1
node 22 0 1 1
node 23 0 1 1
node 24 0 1 1
node 25 0 1 1
node 26 0 1 1
node 27 0 1 3
node 28 0 0 2
node 29 0 0 2
node 30 0 0 2
gene 1 1 28 -0.0851253 0 1 0 1
gene 1 2 28 -1.33966 0 2 0 1
gene 1 3 28 0.13079 0 3 0 1
gene 1 4 28 1.81858 0 4 0 1
gene 1 5 28 -2.01201 0 5 0 1
gene 1 6 28 -1.11203 0 6 0 1
gene 1 7 28 -0.627889 0 7 0 1
gene 1 8 28 0.267208 0 8 0 1
gene 1 9 28 -3.21244 0 9 0 1
gene 1 10 28 -0.748572 0 10 0 1
gene 1 11 28 0.978526 0 11 0 1
gene 1 12 28 -0.548987 0 12 0 1
gene 1 13 28 -1.15326 0 13 0 1
gene 1 14 28 3.8519 0 14 0 1
gene 1 15 28 0.630486 0 15 0 1
gene 1 16 28 1.0443 0 16 0 1
gene 1 17 28 0.625512 0 17 0 1
gene 1 18 28 -0.293225 0 18 0 1
gene 1 19 28 -2.01864 0 19 0 1
gene 1 20 28 -0.324418 0 20 0 1
gene 1 21 28 -0.323432 0 21 0 1
gene 1 22 28 -0.727572 0 22 0 1
gene 1 23 28 -1.49091 0 23 0 1
gene 1 24 28 1.44897 0 24 0 1
gene 1 25 28 2.4246 0 25 0 1
gene 1 26 28 0.851356 0 26 0 1
gene 1 27 28 -3.21513 0 27 0 1
gene 1 1 29 1.20107 0 28 0 1
gene 1 2 29 1.57699 0 29 0 1
gene 1 3 29 -1.06844 0 30 0 1
gene 1 4 29 0.627285 0 31 0 1
gene 1 5 29 -0.170107 0 32 0 1
gene 1 6 29 3.1649 0 33 0 1
gene 1 7 29 3.3861 0 34 0 1
gene 1 8 29 -3.03889 0 35 0 1
gene 1 9 29 -0.201467 0 36 0 1
gene 1 10 29 -1.68504 0 37 0 1
gene 1 11 29 2.1191 0 38 0 1
gene 1 12 29 0.106471 0 39 0 1
gene 1 13 29 0.786445 0 40 0 1
gene 1 14 29 2.60561 0 41 0 1
gene 1 15 29 0.0452915 0 42 0 1
gene 1 16 29 2.5188 0 43 0 1
gene 1 17 29 1.19907 0 44 0 1
gene 1 18 29 -2.3096 0 45 0 1
gene 1 19 29 -0.309232 0 46 0 1
gene 1 20 29 -1.10387 0 47 0 1
gene 1 21 29 1.51586 0 48 0 1
gene 1 22 29 0.931215 0 49 0 1
gene 1 23 29 -2.5788 0 50 0 1
gene 1 24 29 -3.62172 0 51 0 1
gene 1 25 29 2.99945 0 52 0 1
gene 1 26 29 2.32048 0 53 0 1
gene 1 27 29 2.74952 0 54 0 1
gene 1 1 30 -1.22745 0 55 0 1
gene 1 2 30 -0.130295 0 56 0 1
gene 1 3 30 3.72879 0 57 0 1
gene 1 4 30 -2.24409 0 58 0 1
gene 1 5 30 -0.943877 0 59 0 1
gene 1 6 30 -0.314185 0 60 0 1
gene 1 7 30 4.49898 0 61 0 1
gene 1 8 30 2.06166 0 62 0 1
gene 1 9 30 -1.56043 0 63 0 1
gene 1 10 30 0.103491 0 64 0 1
gene 1 11 30 -0.626038 0 65 0 1
gene 1 12 30 0.00563415 0 66 0 1
gene 1 13 30 0.579899 0 67 0 1
gene 1 14 30 1.75564 0 68 0 1
gene 1 15 30 2.28513 0 69 0 1
gene 1 16 30 -0.510461 0 70 0 1
gene 1 17 30 1.74192 0 71 0 1
gene 1 18 30 -1.83857 0 72 0 1
gene 1 19 30 -1.63314 0 73 0 1
gene 1 20 30 -1.56923 0 74 0 1
gene 1 21 30 1.18505 0 75 0 1
gene 1 22 30 1.48728 0 76 0 1
gene 1 23 30 -0.0524149 0 77 0 1
gene 1 24 30 2.03891 0 78 0 1
gene 1 25 30 1.47467 0 79 0 1
gene 1 26 30 -0.654005 0 80 0 1
gene 1 27 30 0.850953 0 81 0 1
genomeend 2
