genomestart 3
trait 1 0 0 0 0 0 0 0 0 
node 1 0 1 1
node 2 0 1 1
node 3 0 1 1
node 4 0 1 1
node 5 0 1 1
node 6 0 1 1
node 7 0 1 1
node 8 0 1 1
node 9 0 1 1
node 10 0 1 1
node 11 0 1 1
node 12 0 1 1
node 13 0 1 3
node 14 0 0 2
node 15 0 0 2
gene 1 1 14 1.88934 0 1 0 1
gene 1 2 14 1.72685 0 2 0 1
gene 1 3 14 -2.99908 0 3 0 1
gene 1 4 14 -3.72405 0 4 0 1
gene 1 5 14 -2.39023 0 5 0 1
gene 1 6 14 -2.6672 0 6 0 1
gene 1 7 14 -7.54074 0 7 0 1
gene 1 8 14 -1.02038 0 8 0 1
gene 1 9 14 -2.45268 0 9 0 1
gene 1 10 14 10.3067 0 10 0 1
gene 1 11 14 2.51195 0 11 0 1
gene 1 12 14 -4.43629 0 12 0 1
gene 1 13 14 -6.1587 0 13 0 1
gene 1 1 15 3.98197 0 14 0 1
gene 1 2 15 -4.21063 0 15 0 1
gene 1 3 15 -1.86992 0 16 0 1
gene 1 4 15 6.94585 0 17 0 1
gene 1 5 15 -4.40031 0 18 0 1
gene 1 6 15 1.121 0 19 0 1
gene 1 7 15 -4.83446 0 20 0 1
gene 1 8 15 1.83867 0 21 0 1
gene 1 9 15 0.599405 0 22 0 1
gene 1 10 15 0.241493 0 23 0 1
gene 1 11 15 4.58267 0 24 0 1
gene 1 12 15 -1.87873 0 25 0 1
gene 1 13 15 -1.70882 0 26 0 1
genomeend 3
