genomestart 2
trait 1 0 0 0 0 0 0 0 0 
node 1 0 1 1
node 2 0 1 1
node 3 0 1 1
node 4 0 1 1
node 5 0 1 1
node 6 0 1 1
node 7 0 1 1
node 8 0 1 1
node 9 0 1 1
node 10 0 1 1
node 11 0 1 1
node 12 0 1 1
node 13 0 1 1
node 14 0 1 1
node 15 0 1 1
node 16 0 1 1
node 17 0 1 1
node 18 0 1 1
node 19 0 1 1
node 20 0 1 1
node 21 0 1 1
node 22 0 1 1
node 23 0 1 1
node 24 0 1 1
node 25 0 1 1
node 26 0 1 1
node 27 0 1 3
node 28 0 0 2
node 29 0 0 2
node 30 0 0 2
gene 1 1 28 -0.120489 0 1 0 1
gene 1 2 28 -1.39359 0 2 0 1
gene 1 3 28 -0.0414764 0 3 0 1
gene 1 4 28 -0.239683 0 4 0 1
gene 1 5 28 0.255635 0 5 0 1
gene 1 6 28 -0.822236 0 6 0 1
gene 1 7 28 -0.549086 0 7 0 1
gene 1 8 28 1.42256 0 8 0 1
gene 1 9 28 0.0213558 0 9 0 1
gene 1 10 28 0.0855126 0 10 0 1
gene 1 11 28 0.376353 0 11 0 1
gene 1 12 28 0.0425775 0 12 0 1
gene 1 13 28 -0.611297 0 13 0 1
gene 1 14 28 -0.100137 0 14 0 1
gene 1 15 28 0.345929 0 15 0 1
gene 1 16 28 0.774671 0 16 0 1
gene 1 17 28 -0.564205 0 17 0 1
gene 1 18 28 1.35124 0 18 0 1
gene 1 19 28 0.911687 0 19 0 1
gene 1 20 28 -0.591409 0 20 0 1
gene 1 21 28 -0.0646517 0 21 0 1
gene 1 22 28 -0.384667 0 22 0 1
gene 1 23 28 0.471237 0 23 0 1
gene 1 24 28 0.437489 0 24 0 1
gene 1 25 28 1.38286 0 25 0 1
gene 1 26 28 -1.54874 0 26 0 1
gene 1 27 28 0.428895 0 27 0 1
gene 1 1 29 0.30509 0 28 0 1
gene 1 2 29 0.324163 0 29 0 1
gene 1 3 29 -1.05833 0 30 0 1
gene 1 4 29 -0.420728 0 31 0 1
gene 1 5 29 -0.934006 0 32 0 1
gene 1 6 29 0.148326 0 33 0 1
gene 1 7 29 -0.387907 0 34 0 1
gene 1 8 29 0.295537 0 35 0 1
gene 1 9 29 0.023529 0 36 0 1
gene 1 10 29 -0.613155 0 37 0 1
gene 1 11 29 -0.949267 0 38 0 1
gene 1 12 29 -0.17949 0 39 0 1
gene 1 13 29 1.04167 0 40 0 1
gene 1 14 29 1.93447 0 41 0 1
gene 1 15 29 -1.04479 0 42 0 1
gene 1 16 29 0.344749 0 43 0 1
gene 1 17 29 0.334966 0 44 0 1
gene 1 18 29 0.711095 0 45 0 1
gene 1 19 29 0.775305 0 46 0 1
gene 1 20 29 -0.984035 0 47 0 1
gene 1 21 29 -0.786437 0 48 0 1
gene 1 22 29 0.670839 0 49 0 1
gene 1 23 29 -0.293466 0 50 0 1
gene 1 24 29 0.836399 0 51 0 1
gene 1 25 29 -0.620453 0 52 0 1
gene 1 26 29 1.1291 0 53 0 1
gene 1 27 29 -0.956038 0 54 0 1
gene 1 1 30 -0.011967 0 55 0 1
gene 1 2 30 0.0233695 0 56 0 1
gene 1 3 30 0.842614 0 57 0 1
gene 1 4 30 0.670124 0 58 0 1
gene 1 5 30 -0.356754 0 59 0 1
gene 1 6 30 -0.00938029 0 60 0 1
gene 1 7 30 0.0303367 0 61 0 1
gene 1 8 30 0.718556 0 62 0 1
gene 1 9 30 1.10818 0 63 0 1
gene 1 10 30 0.132992 0 64 0 1
gene 1 11 30 0.0238814 0 65 0 1
gene 1 12 30 -0.166813 0 66 0 1
gene 1 13 30 -1.34334 0 67 0 1
gene 1 14 30 -0.211126 0 68 0 1
gene 1 15 30 0.578925 0 69 0 1
gene 1 16 30 -0.65558 0 70 0 1
gene 1 17 30 0.879527 0 71 0 1
gene 1 18 30 -0.159385 0 72 0 1
gene 1 19 30 0.587271 0 73 0 1
gene 1 20 30 0.221148 0 74 0 1
gene 1 21 30 0.308985 0 75 0 1
gene 1 22 30 -0.779798 0 76 0 1
gene 1 23 30 -0.694642 0 77 0 1
gene 1 24 30 0.237476 0 78 0 1
gene 1 25 30 0.481458 0 79 0 1
gene 1 26 30 0.345946 0 80 0 1
gene 1 27 30 -1.62962 0 81 0 1
genomeend 2
