genomestart 3
trait 1 0 0 0 0 0 0 0 0 
node 1 0 1 1
node 2 0 1 1
node 3 0 1 1
node 4 0 1 1
node 5 0 1 1
node 6 0 1 1
node 7 0 1 1
node 8 0 1 1
node 9 0 1 1
node 10 0 1 1
node 11 0 1 1
node 12 0 1 1
node 13 0 1 3
node 14 0 0 2
node 15 0 0 2
gene 1 1 14 -3.12884 0 1 0 1
gene 1 2 14 -4.6093 0 2 0 1
gene 1 3 14 1.75231 0 3 0 1
gene 1 4 14 -1.04195 0 4 0 1
gene 1 5 14 0.948995 0 5 0 1
gene 1 6 14 -1.39348 0 6 0 1
gene 1 7 14 -4.25835 0 7 0 1
gene 1 8 14 -3.03908 0 8 0 1
gene 1 9 14 3.38205 0 9 0 1
gene 1 10 14 2.74331 0 10 0 1
gene 1 11 14 5.59743 0 11 0 1
gene 1 12 14 -6.62011 0 12 0 1
gene 1 13 14 -2.51691 0 13 0 1
gene 1 1 15 3.46209 0 14 0 1
gene 1 2 15 -8.70725 0 15 0 1
gene 1 3 15 3.07353 0 16 0 1
gene 1 4 15 9.68916 0 17 0 1
gene 1 5 15 -2.53308 0 18 0 1
gene 1 6 15 1.64731 0 19 0 1
gene 1 7 15 -4.06613 0 20 0 1
gene 1 8 15 1.90562 0 21 0 1
gene 1 9 15 -0.17477 0 22 0 1
gene 1 10 15 1.65646 0 23 0 1
gene 1 11 15 2.43341 0 24 0 1
gene 1 12 15 -1.54862 0 25 0 1
gene 1 13 15 -3.71883 0 26 0 1
genomeend 3
