genomestart 0
trait 1 0 0 0 0 0 0 0 0 
node 1 0 1 1
node 2 0 1 1
node 3 0 1 1
node 4 0 1 1
node 5 0 1 1
node 6 0 1 1
node 7 0 1 1
node 8 0 1 1
node 9 0 1 1
node 10 0 1 1
node 11 0 1 1
node 12 0 1 1
node 13 0 1 1
node 14 0 1 1
node 15 0 1 1
node 16 0 1 1
node 17 0 1 1
node 18 0 1 1
node 19 0 1 1
node 20 0 1 1
node 21 0 1 1
node 22 0 1 1
node 23 0 1 1
node 24 0 1 1
node 25 0 1 1
node 26 0 1 1
node 27 0 1 3
node 28 0 0 2
node 29 0 0 2
node 30 0 0 2
gene 1 1 28 0.734165 0 1 0 1
gene 1 2 28 0.12699 0 2 0 1
gene 1 3 28 0.101708 0 3 0 1
gene 1 4 28 -0.253342 0 4 0 1
gene 1 5 28 -0.204443 0 5 0 1
gene 1 6 28 0.522285 0 6 0 1
gene 1 7 28 0.0866211 0 7 0 1
gene 1 8 28 -0.737985 0 8 0 1
gene 1 9 28 0.63842 0 9 0 1
gene 1 10 28 -1.1067 0 10 0 1
gene 1 11 28 0.0804273 0 11 0 1
gene 1 12 28 0.0193764 0 12 0 1
gene 1 13 28 -0.686872 0 13 0 1
gene 1 14 28 0.0198924 0 14 0 1
gene 1 15 28 -0.704151 0 15 0 1
gene 1 16 28 0.649925 0 16 0 1
gene 1 17 28 0.125097 0 17 0 1
gene 1 18 28 -0.290872 0 18 0 1
gene 1 19 28 0.214722 0 19 0 1
gene 1 20 28 -0.346179 0 20 0 1
gene 1 21 28 -0.041104 0 21 0 1
gene 1 22 28 -1.45885 0 22 0 1
gene 1 23 28 0.120953 0 23 0 1
gene 1 24 28 0.011807 0 24 0 1
gene 1 25 28 1.01022 0 25 0 1
gene 1 26 28 0.588102 0 26 0 1
gene 1 27 28 -0.360701 0 27 0 1
gene 1 1 29 -0.240705 0 28 0 1
gene 1 2 29 -0.168972 0 29 0 1
gene 1 3 29 0.444732 0 30 0 1
gene 1 4 29 0.284314 0 31 0 1
gene 1 5 29 -0.100624 0 32 0 1
gene 1 6 29 0.271874 0 33 0 1
gene 1 7 29 -0.567332 0 34 0 1
gene 1 8 29 0.420579 0 35 0 1
gene 1 9 29 -0.565922 0 36 0 1
gene 1 10 29 -0.585858 0 37 0 1
gene 1 11 29 -0.579 0 38 0 1
gene 1 12 29 0.205779 0 39 0 1
gene 1 13 29 -0.526794 0 40 0 1
gene 1 14 29 -0.401011 0 41 0 1
gene 1 15 29 0.268474 0 42 0 1
gene 1 16 29 -0.135429 0 43 0 1
gene 1 17 29 0.00398256 0 44 0 1
gene 1 18 29 0.618105 0 45 0 1
gene 1 19 29 0.349669 0 46 0 1
gene 1 20 29 -0.438778 0 47 0 1
gene 1 21 29 0.0994644 0 48 0 1
gene 1 22 29 -0.429236 0 49 0 1
gene 1 23 29 -0.537046 0 50 0 1
gene 1 24 29 -0.0619398 0 51 0 1
gene 1 25 29 -0.712474 0 52 0 1
gene 1 26 29 -0.302912 0 53 0 1
gene 1 27 29 -0.381069 0 54 0 1
gene 1 1 30 0.235008 0 55 0 1
gene 1 2 30 -0.128296 0 56 0 1
gene 1 3 30 -0.0217834 0 57 0 1
gene 1 4 30 -0.356038 0 58 0 1
gene 1 5 30 0.515351 0 59 0 1
gene 1 6 30 0.804417 0 60 0 1
gene 1 7 30 0.724124 0 61 0 1
gene 1 8 30 -0.0406076 0 62 0 1
gene 1 9 30 -0.78958 0 63 0 1
gene 1 10 30 0.0743308 0 64 0 1
gene 1 11 30 0.074651 0 65 0 1
gene 1 12 30 0.389762 0 66 0 1
gene 1 13 30 0.19086 0 67 0 1
gene 1 14 30 -0.194956 0 68 0 1
gene 1 15 30 -0.0789838 0 69 0 1
gene 1 16 30 -0.201233 0 70 0 1
gene 1 17 30 0.170633 0 71 0 1
gene 1 18 30 -0.262674 0 72 0 1
gene 1 19 30 0.75964 0 73 0 1
gene 1 20 30 0.428537 0 74 0 1
gene 1 21 30 -0.208171 0 75 0 1
gene 1 22 30 0.061537 0 76 0 1
gene 1 23 30 -0.300585 0 77 0 1
gene 1 24 30 0.517953 0 78 0 1
gene 1 25 30 0.39183 0 79 0 1
gene 1 26 30 -0.232722 0 80 0 1
gene 1 27 30 -0.0350761 0 81 0 1
genomeend 0
