genomestart 2
trait 1 0 0 0 0 0 0 0 0 
node 1 0 1 1
node 2 0 1 1
node 3 0 1 1
node 4 0 1 1
node 5 0 1 1
node 6 0 1 1
node 7 0 1 1
node 8 0 1 1
node 9 0 1 1
node 10 0 1 1
node 11 0 1 1
node 12 0 1 1
node 13 0 1 1
node 14 0 1 1
node 15 0 1 1
node 16 0 1 1
node 17 0 1 1
node 18 0 1 1
node 19 0 1 1
node 20 0 1 1
node 21 0 1 1
node 22 0 1 1
node 23 0 1 1
node 24 0 1 1
node 25 0 1 3
node 26 0 0 2
node 27 0 0 2
node 28 1 0 0
node 28 1 0 0
gene 1 1 26 -0.747589 0 1 -0.747589 1
gene 1 2 26 -1.01611 0 2 -1.01611 1
gene 1 3 26 0.773135 0 3 0.773135 1
gene 1 4 26 -0.413171 0 4 -0.413171 1
gene 1 5 26 0.154345 0 5 0.154345 1
gene 1 6 26 1.27017 0 6 1.27017 1
gene 1 7 26 0.263277 0 7 0.263277 1
gene 1 8 26 -0.454958 0 8 -0.454958 1
gene 1 9 26 1.04965 0 9 1.04965 1
gene 1 10 26 -0.563065 0 10 -0.563065 1
gene 1 11 26 -0.0461053 0 11 -0.0461053 1
gene 1 12 26 -0.234977 0 12 -0.234977 1
gene 1 13 26 0.227326 0 13 0.227326 1
gene 1 14 26 1.86676 0 14 1.86676 1
gene 1 15 26 0.25642 0 15 0.25642 1
gene 1 16 26 -1.10965 0 16 -1.10965 1
gene 1 17 26 -1.51981 0 17 -1.51981 1
gene 1 18 26 -0.510617 0 18 -0.510617 1
gene 1 19 26 0.77096 0 19 0.77096 1
gene 1 20 26 -0.00466397 0 20 -0.00466397 1
gene 1 21 26 0.510505 0 21 0.510505 1
gene 1 22 26 0.623511 0 22 0.623511 1
gene 1 23 26 0.387447 0 23 0.387447 0
gene 1 24 26 -1.68002 0 24 -1.68002 1
gene 1 25 26 -0.0925228 0 25 -0.0925228 1
gene 1 1 27 -0.0978867 0 26 -0.0978867 1
gene 1 2 27 0.13059 0 27 0.13059 1
gene 1 3 27 0.346727 0 28 0.346727 1
gene 1 4 27 0.753638 0 29 0.753638 1
gene 1 5 27 0.344876 0 30 0.344876 1
gene 1 6 27 -1.11697 0 31 -1.11697 1
gene 1 7 27 -1.17303 0 32 -1.17303 1
gene 1 8 27 -0.192876 0 33 -0.192876 0
gene 1 9 27 -0.282079 0 34 -0.282079 1
gene 1 10 27 -0.0200572 0 35 -0.0200572 1
gene 1 11 27 -0.856043 0 36 -0.856043 1
gene 1 12 27 -0.697275 0 37 -0.697275 1
gene 1 13 27 -0.846999 0 38 -0.846999 1
gene 1 14 27 1.77928 0 39 1.77928 1
gene 1 15 27 0.430853 0 40 0.430853 1
gene 1 16 27 0.122013 0 41 0.122013 1
gene 1 17 27 -0.227491 0 42 -0.227491 1
gene 1 18 27 -0.102542 0 43 -0.102542 1
gene 1 19 27 -1.11768 0 44 -1.11768 1
gene 1 20 27 -0.970321 0 45 -0.970321 1
gene 1 21 27 -0.932532 0 46 -0.932532 1
gene 1 22 27 0.770158 0 47 0.770158 1
gene 1 23 27 0.24878 0 48 0.24878 1
gene 1 24 27 -0.154478 0 49 -0.154478 1
gene 1 13 28 0.250708 0 50 0.250708 1
gene 1 8 28 0.334214 0 50 0.334214 1
gene 1 25 27 0.595783 0 50 0.595783 1
gene 1 23 28 1 0 51 0 1
gene 1 28 27 0.369036 0 51 0.369036 1
gene 1 28 26 0.387447 0 52 0 1
genomeend 2
