genomestart 3
trait 1 0 0 0 0 0 0 0 0 
node 1 0 1 1
node 2 0 1 1
node 3 0 1 1
node 4 0 1 1
node 5 0 1 1
node 6 0 1 1
node 7 0 1 1
node 8 0 1 1
node 9 0 1 1
node 10 0 1 1
node 11 0 1 1
node 12 0 1 1
node 13 0 1 3
node 14 0 0 2
node 15 0 0 2
gene 1 1 14 3.01771 0 1 0 1
gene 1 2 14 -2.90193 0 2 0 1
gene 1 3 14 -0.52626 0 3 0 1
gene 1 4 14 -3.75451 0 4 0 1
gene 1 5 14 -1.61589 0 5 0 1
gene 1 6 14 -4.44727 0 6 0 1
gene 1 7 14 -3.00715 0 7 0 1
gene 1 8 14 -1.98015 0 8 0 1
gene 1 9 14 0.0295053 0 9 0 1
gene 1 10 14 6.70468 0 10 0 1
gene 1 11 14 2.17315 0 11 0 1
gene 1 12 14 -4.59509 0 12 0 1
gene 1 13 14 -3.0939 0 13 0 1
gene 1 1 15 4.94956 0 14 0 1
gene 1 2 15 -1.93239 0 15 0 1
gene 1 3 15 -0.815776 0 16 0 1
gene 1 4 15 10.2324 0 17 0 1
gene 1 5 15 -3.28195 0 18 0 1
gene 1 6 15 -2.25586 0 19 0 1
gene 1 7 15 -1.77635 0 20 0 1
gene 1 8 15 3.91079 0 21 0 1
gene 1 9 15 -1.97238 0 22 0 1
gene 1 10 15 1.4479 0 23 0 1
gene 1 11 15 2.27246 0 24 0 1
gene 1 12 15 -2.8722 0 25 0 1
gene 1 13 15 -3.77594 0 26 0 1
genomeend 3
