genomestart 3
trait 1 0 0 0 0 0 0 0 0 
node 1 0 1 1
node 2 0 1 1
node 3 0 1 1
node 4 0 1 1
node 5 0 1 1
node 6 0 1 1
node 7 0 1 1
node 8 0 1 1
node 9 0 1 1
node 10 0 1 1
node 11 0 1 1
node 12 0 1 1
node 13 0 1 3
node 14 0 0 2
node 15 0 0 2
gene 1 1 14 2.62789 0 1 0 1
gene 1 2 14 -3.13001 0 2 0 1
gene 1 3 14 0.503454 0 3 0 1
gene 1 4 14 -1.28272 0 4 0 1
gene 1 5 14 -0.16011 0 5 0 1
gene 1 6 14 -5.61392 0 6 0 1
gene 1 7 14 -5.05739 0 7 0 1
gene 1 8 14 -1.70859 0 8 0 1
gene 1 9 14 -0.517528 0 9 0 1
gene 1 10 14 5.16943 0 10 0 1
gene 1 11 14 3.21799 0 11 0 1
gene 1 12 14 -4.26322 0 12 0 1
gene 1 13 14 -4.73151 0 13 0 1
gene 1 1 15 3.05888 0 14 0 1
gene 1 2 15 -4.50668 0 15 0 1
gene 1 3 15 0.0353856 0 16 0 1
gene 1 4 15 7.00665 0 17 0 1
gene 1 5 15 -2.26168 0 18 0 1
gene 1 6 15 0.965011 0 19 0 1
gene 1 7 15 -1.85537 0 20 0 1
gene 1 8 15 4.00598 0 21 0 1
gene 1 9 15 -1.86473 0 22 0 1
gene 1 10 15 1.3289 0 23 0 1
gene 1 11 15 3.12128 0 24 0 1
gene 1 12 15 -2.03969 0 25 0 1
gene 1 13 15 -1.17308 0 26 0 1
genomeend 3
