genomestart 2
trait 1 0 0 0 0 0 0 0 0 
node 1 0 1 1
node 2 0 1 1
node 3 0 1 1
node 4 0 1 1
node 5 0 1 1
node 6 0 1 1
node 7 0 1 1
node 8 0 1 1
node 9 0 1 1
node 10 0 1 1
node 11 0 1 1
node 12 0 1 1
node 13 0 1 1
node 14 0 1 1
node 15 0 1 1
node 16 0 1 1
node 17 0 1 1
node 18 0 1 1
node 19 0 1 1
node 20 0 1 1
node 21 0 1 1
node 22 0 1 1
node 23 0 1 1
node 24 0 1 1
node 25 0 1 1
node 26 0 1 1
node 27 0 1 3
node 28 0 0 2
node 29 0 0 2
node 30 0 0 2
gene 1 1 28 0.241058 0 1 0 1
gene 1 2 28 -1.21785 0 2 0 1
gene 1 3 28 -1.06564 0 3 0 1
gene 1 4 28 -1.20664 0 4 0 1
gene 1 5 28 1.55699 0 5 0 1
gene 1 6 28 0.26605 0 6 0 1
gene 1 7 28 -0.577009 0 7 0 1
gene 1 8 28 1.21747 0 8 0 1
gene 1 9 28 -0.728763 0 9 0 1
gene 1 10 28 1.238 0 10 0 1
gene 1 11 28 0.388488 0 11 0 1
gene 1 12 28 0.877625 0 12 0 1
gene 1 13 28 0.756745 0 13 0 1
gene 1 14 28 0.516714 0 14 0 1
gene 1 15 28 -0.289504 0 15 0 1
gene 1 16 28 1.09222 0 16 0 1
gene 1 17 28 -1.04251 0 17 0 1
gene 1 18 28 0.455881 0 18 0 1
gene 1 19 28 0.786809 0 19 0 1
gene 1 20 28 -1.67477 0 20 0 1
gene 1 21 28 0.00178409 0 21 0 1
gene 1 22 28 0.0522358 0 22 0 1
gene 1 23 28 -0.172176 0 23 0 1
gene 1 24 28 0.0338603 0 24 0 1
gene 1 25 28 3.12179 0 25 0 1
gene 1 26 28 -1.78859 0 26 0 1
gene 1 27 28 -0.869932 0 27 0 1
gene 1 1 29 0.312446 0 28 0 1
gene 1 2 29 1.03462 0 29 0 1
gene 1 3 29 -0.831582 0 30 0 1
gene 1 4 29 -0.213634 0 31 0 1
gene 1 5 29 -0.999049 0 32 0 1
gene 1 6 29 1.77159 0 33 0 1
gene 1 7 29 -0.10983 0 34 0 1
gene 1 8 29 -0.53866 0 35 0 1
gene 1 9 29 0.781777 0 36 0 1
gene 1 10 29 -0.999535 0 37 0 1
gene 1 11 29 -0.63353 0 38 0 1
gene 1 12 29 -0.682102 0 39 0 1
gene 1 13 29 2.7935 0 40 0 1
gene 1 14 29 2.23494 0 41 0 1
gene 1 15 29 0.397995 0 42 0 1
gene 1 16 29 -0.498045 0 43 0 1
gene 1 17 29 -0.190347 0 44 0 1
gene 1 18 29 0.365223 0 45 0 1
gene 1 19 29 0.13214 0 46 0 1
gene 1 20 29 -1.23638 0 47 0 1
gene 1 21 29 -0.544088 0 48 0 1
gene 1 22 29 -0.762918 0 49 0 1
gene 1 23 29 -0.531257 0 50 0 1
gene 1 24 29 -0.0694697 0 51 0 1
gene 1 25 29 -0.585286 0 52 0 1
gene 1 26 29 1.2035 0 53 0 1
gene 1 27 29 -0.905949 0 54 0 1
gene 1 1 30 0.917427 0 55 0 1
gene 1 2 30 0.5579 0 56 0 1
gene 1 3 30 0.336573 0 57 0 1
gene 1 4 30 0.972239 0 58 0 1
gene 1 5 30 -0.46939 0 59 0 1
gene 1 6 30 -0.430886 0 60 0 1
gene 1 7 30 0.13726 0 61 0 1
gene 1 8 30 1.32097 0 62 0 1
gene 1 9 30 0.703867 0 63 0 1
gene 1 10 30 -0.288766 0 64 0 1
gene 1 11 30 -0.0428512 0 65 0 1
gene 1 12 30 0.443226 0 66 0 1
gene 1 13 30 -1.70016 0 67 0 1
gene 1 14 30 -0.231412 0 68 0 1
gene 1 15 30 0.859219 0 69 0 1
gene 1 16 30 -1.07354 0 70 0 1
gene 1 17 30 0.820131 0 71 0 1
gene 1 18 30 0.114142 0 72 0 1
gene 1 19 30 1.35658 0 73 0 1
gene 1 20 30 -0.487986 0 74 0 1
gene 1 21 30 0.705257 0 75 0 1
gene 1 22 30 -1.08962 0 76 0 1
gene 1 23 30 -2.39989 0 77 0 1
gene 1 24 30 1.41867 0 78 0 1
gene 1 25 30 1.10288 0 79 0 1
gene 1 26 30 0.0107878 0 80 0 1
gene 1 27 30 -1.65553 0 81 0 1
genomeend 2
