genomestart 3
trait 1 0 0 0 0 0 0 0 0 
node 1 0 1 1
node 2 0 1 1
node 3 0 1 1
node 4 0 1 1
node 5 0 1 1
node 6 0 1 1
node 7 0 1 1
node 8 0 1 1
node 9 0 1 1
node 10 0 1 1
node 11 0 1 1
node 12 0 1 1
node 13 0 1 3
node 14 0 0 2
node 15 0 0 2
gene 1 1 14 0.542081 0 1 0 1
gene 1 2 14 -0.265301 0 2 0 1
gene 1 3 14 -0.754653 0 3 0 1
gene 1 4 14 -1.95386 0 4 0 1
gene 1 5 14 -0.141276 0 5 0 1
gene 1 6 14 -3.44478 0 6 0 1
gene 1 7 14 -4.48502 0 7 0 1
gene 1 8 14 0.608894 0 8 0 1
gene 1 9 14 -0.404777 0 9 0 1
gene 1 10 14 5.25993 0 10 0 1
gene 1 11 14 2.9259 0 11 0 1
gene 1 12 14 -5.40069 0 12 0 1
gene 1 13 14 -4.7332 0 13 0 1
gene 1 1 15 1.87498 0 14 0 1
gene 1 2 15 -5.21384 0 15 0 1
gene 1 3 15 -1.54624 0 16 0 1
gene 1 4 15 7.31893 0 17 0 1
gene 1 5 15 -4.00091 0 18 0 1
gene 1 6 15 0.400217 0 19 0 1
gene 1 7 15 -2.9318 0 20 0 1
gene 1 8 15 1.89321 0 21 0 1
gene 1 9 15 -1.698 0 22 0 1
gene 1 10 15 1.89295 0 23 0 1
gene 1 11 15 2.72465 0 24 0 1
gene 1 12 15 -3.0572 0 25 0 1
gene 1 13 15 -1.8527 0 26 0 1
genomeend 3
