genomestart 2
trait 1 0 0 0 0 0 0 0 0 
node 1 0 1 1
node 2 0 1 1
node 3 0 1 1
node 4 0 1 1
node 5 0 1 1
node 6 0 1 1
node 7 0 1 1
node 8 0 1 1
node 9 0 1 1
node 10 0 1 1
node 11 0 1 1
node 12 0 1 1
node 13 0 1 1
node 14 0 1 1
node 15 0 1 1
node 16 0 1 1
node 17 0 1 1
node 18 0 1 1
node 19 0 1 1
node 20 0 1 1
node 21 0 1 1
node 22 0 1 1
node 23 0 1 1
node 24 0 1 1
node 25 0 1 3
node 26 0 0 2
node 27 0 0 2
gene 1 1 26 -1.23319 0 1 -1.23319 1
gene 1 2 26 -0.240853 0 2 -0.240853 1
gene 1 3 26 0.427637 0 3 0.427637 1
gene 1 4 26 1.39984 0 4 1.39984 1
gene 1 5 26 -0.12298 0 5 -0.12298 1
gene 1 6 26 -0.376624 0 6 -0.376624 1
gene 1 7 26 0.358344 0 7 0.358344 1
gene 1 8 26 0.851254 0 8 0.851254 1
gene 1 9 26 -0.767342 0 9 -0.767342 1
gene 1 10 26 1.06192 0 10 1.06192 1
gene 1 11 26 0.21084 0 11 0.21084 1
gene 1 12 26 -0.707568 0 12 -0.707568 1
gene 1 13 26 -0.205722 0 13 -0.205722 1
gene 1 14 26 -0.342695 0 14 -0.342695 1
gene 1 15 26 1.17213 0 15 1.17213 1
gene 1 16 26 1.06628 0 16 1.06628 1
gene 1 17 26 -1.3594 0 17 -1.3594 1
gene 1 18 26 1.19598 0 18 1.19598 1
gene 1 19 26 0.989084 0 19 0.989084 1
gene 1 20 26 1.19455 0 20 1.19455 1
gene 1 21 26 -0.104267 0 21 -0.104267 1
gene 1 22 26 -0.849134 0 22 -0.849134 1
gene 1 23 26 0.826194 0 23 0.826194 1
gene 1 24 26 0.133358 0 24 0.133358 1
gene 1 25 26 -0.934183 0 25 -0.934183 1
gene 1 1 27 -1.00096 0 26 -1.00096 1
gene 1 2 27 1.14167 0 27 1.14167 1
gene 1 3 27 0.395599 0 28 0.395599 1
gene 1 4 27 1.5494 0 29 1.5494 1
gene 1 5 27 0.767741 0 30 0.767741 1
gene 1 6 27 0.295943 0 31 0.295943 1
gene 1 7 27 -0.901183 0 32 -0.901183 1
gene 1 8 27 -1.61778 0 33 -1.61778 1
gene 1 9 27 1.72208 0 34 1.72208 1
gene 1 10 27 -0.727555 0 35 -0.727555 1
gene 1 11 27 -0.910519 0 36 -0.910519 1
gene 1 12 27 0.184148 0 37 0.184148 1
gene 1 13 27 -0.932954 0 38 -0.932954 1
gene 1 14 27 -0.565682 0 39 -0.565682 1
gene 1 15 27 0.249457 0 40 0.249457 1
gene 1 16 27 1.69343 0 41 1.69343 1
gene 1 17 27 0.181814 0 42 0.181814 1
gene 1 18 27 -0.718678 0 43 -0.718678 1
gene 1 19 27 0.99439 0 44 0.99439 1
gene 1 20 27 -0.455747 0 45 -0.455747 1
gene 1 21 27 0.943275 0 46 0.943275 1
gene 1 22 27 0.0520236 0 47 0.0520236 1
gene 1 23 27 0.0365601 0 48 0.0365601 1
gene 1 24 27 0.602566 0 49 0.602566 1
gene 1 25 27 0.949349 0 50 0.949349 1
genomeend 2
