genomestart 3
trait 1 0 0 0 0 0 0 0 0 
node 1 0 1 1
node 2 0 1 1
node 3 0 1 1
node 4 0 1 1
node 5 0 1 1
node 6 0 1 1
node 7 0 1 1
node 8 0 1 1
node 9 0 1 1
node 10 0 1 1
node 11 0 1 1
node 12 0 1 1
node 13 0 1 3
node 14 0 0 2
node 15 0 0 2
gene 1 1 14 3.01661 0 1 0 1
gene 1 2 14 -3.22375 0 2 0 1
gene 1 3 14 0.0739967 0 3 0 1
gene 1 4 14 -1.68535 0 4 0 1
gene 1 5 14 -0.808633 0 5 0 1
gene 1 6 14 -5.81862 0 6 0 1
gene 1 7 14 -4.7438 0 7 0 1
gene 1 8 14 -1.63417 0 8 0 1
gene 1 9 14 -0.662224 0 9 0 1
gene 1 10 14 5.02928 0 10 0 1
gene 1 11 14 2.98202 0 11 0 1
gene 1 12 14 -3.97326 0 12 0 1
gene 1 13 14 -4.46388 0 13 0 1
gene 1 1 15 3.1546 0 14 0 1
gene 1 2 15 -4.64735 0 15 0 1
gene 1 3 15 0.204873 0 16 0 1
gene 1 4 15 7.09261 0 17 0 1
gene 1 5 15 -2.20074 0 18 0 1
gene 1 6 15 0.386511 0 19 0 1
gene 1 7 15 -2.29566 0 20 0 1
gene 1 8 15 4.51629 0 21 0 1
gene 1 9 15 -1.59801 0 22 0 1
gene 1 10 15 1.24008 0 23 0 1
gene 1 11 15 2.67795 0 24 0 1
gene 1 12 15 -2.64913 0 25 0 1
gene 1 13 15 -1.7925 0 26 0 1
genomeend 3
