genomestart 2
trait 1 0 0 0 0 0 0 0 0 
node 1 0 1 1
node 2 0 1 1
node 3 0 1 1
node 4 0 1 1
node 5 0 1 1
node 6 0 1 1
node 7 0 1 1
node 8 0 1 1
node 9 0 1 1
node 10 0 1 1
node 11 0 1 1
node 12 0 1 1
node 13 0 1 1
node 14 0 1 1
node 15 0 1 1
node 16 0 1 1
node 17 0 1 1
node 18 0 1 1
node 19 0 1 1
node 20 0 1 1
node 21 0 1 1
node 22 0 1 1
node 23 0 1 1
node 24 0 1 1
node 25 0 1 1
node 26 0 1 1
node 27 0 1 3
node 28 0 0 2
node 29 0 0 2
node 30 0 0 2
gene 1 1 28 -0.196941 0 1 0 1
gene 1 2 28 -0.673481 0 2 0 1
gene 1 3 28 -0.162911 0 3 0 1
gene 1 4 28 -0.996943 0 4 0 1
gene 1 5 28 2.14307 0 5 0 1
gene 1 6 28 0.164995 0 6 0 1
gene 1 7 28 -1.36898 0 7 0 1
gene 1 8 28 1.32519 0 8 0 1
gene 1 9 28 0.124207 0 9 0 1
gene 1 10 28 2.22584 0 10 0 1
gene 1 11 28 1.27562 0 11 0 1
gene 1 12 28 1.07027 0 12 0 1
gene 1 13 28 0.895412 0 13 0 1
gene 1 14 28 0.588997 0 14 0 1
gene 1 15 28 -0.33129 0 15 0 1
gene 1 16 28 0.416964 0 16 0 1
gene 1 17 28 -0.980135 0 17 0 1
gene 1 18 28 -0.324327 0 18 0 1
gene 1 19 28 0.249737 0 19 0 1
gene 1 20 28 -1.78406 0 20 0 1
gene 1 21 28 -0.550731 0 21 0 1
gene 1 22 28 -0.291504 0 22 0 1
gene 1 23 28 -0.621395 0 23 0 1
gene 1 24 28 -0.299326 0 24 0 1
gene 1 25 28 3.60094 0 25 0 1
gene 1 26 28 -2.69678 0 26 0 1
gene 1 27 28 -0.838129 0 27 0 1
gene 1 1 29 0.318878 0 28 0 1
gene 1 2 29 1.15661 0 29 0 1
gene 1 3 29 -0.565666 0 30 0 1
gene 1 4 29 -0.164181 0 31 0 1
gene 1 5 29 -0.846519 0 32 0 1
gene 1 6 29 1.88346 0 33 0 1
gene 1 7 29 -0.182172 0 34 0 1
gene 1 8 29 -0.236836 0 35 0 1
gene 1 9 29 0.65134 0 36 0 1
gene 1 10 29 -0.76513 0 37 0 1
gene 1 11 29 -0.785436 0 38 0 1
gene 1 12 29 -0.788239 0 39 0 1
gene 1 13 29 2.91326 0 40 0 1
gene 1 14 29 1.73731 0 41 0 1
gene 1 15 29 0.406724 0 42 0 1
gene 1 16 29 -0.255957 0 43 0 1
gene 1 17 29 -0.180654 0 44 0 1
gene 1 18 29 -0.338756 0 45 0 1
gene 1 19 29 -0.0334914 0 46 0 1
gene 1 20 29 -1.00442 0 47 0 1
gene 1 21 29 -0.635877 0 48 0 1
gene 1 22 29 0.0405219 0 49 0 1
gene 1 23 29 -0.561821 0 50 0 1
gene 1 24 29 0.148676 0 51 0 1
gene 1 25 29 -1.08445 0 52 0 1
gene 1 26 29 1.35473 0 53 0 1
gene 1 27 29 -1.20589 0 54 0 1
gene 1 1 30 0.610412 0 55 0 1
gene 1 2 30 -0.674068 0 56 0 1
gene 1 3 30 0.546377 0 57 0 1
gene 1 4 30 0.851715 0 58 0 1
gene 1 5 30 -0.603705 0 59 0 1
gene 1 6 30 0.12736 0 60 0 1
gene 1 7 30 -0.100889 0 61 0 1
gene 1 8 30 0.966668 0 62 0 1
gene 1 9 30 0.550388 0 63 0 1
gene 1 10 30 0.351364 0 64 0 1
gene 1 11 30 -0.187837 0 65 0 1
gene 1 12 30 0.924085 0 66 0 1
gene 1 13 30 -1.36788 0 67 0 1
gene 1 14 30 -0.0738464 0 68 0 1
gene 1 15 30 0.952448 0 69 0 1
gene 1 16 30 -0.957911 0 70 0 1
gene 1 17 30 0.964663 0 71 0 1
gene 1 18 30 0.410844 0 72 0 1
gene 1 19 30 2.2131 0 73 0 1
gene 1 20 30 -0.687686 0 74 0 1
gene 1 21 30 1.12726 0 75 0 1
gene 1 22 30 -1.60844 0 76 0 1
gene 1 23 30 -1.90261 0 77 0 1
gene 1 24 30 1.95173 0 78 0 1
gene 1 25 30 0.658263 0 79 0 1
gene 1 26 30 -0.0661609 0 80 0 1
gene 1 27 30 -1.43688 0 81 0 1
genomeend 2
