genomestart 3
trait 1 0 0 0 0 0 0 0 0 
node 1 0 1 1
node 2 0 1 1
node 3 0 1 1
node 4 0 1 1
node 5 0 1 1
node 6 0 1 1
node 7 0 1 1
node 8 0 1 1
node 9 0 1 1
node 10 0 1 1
node 11 0 1 1
node 12 0 1 1
node 13 0 1 3
node 14 0 0 2
node 15 0 0 2
gene 1 1 14 -3.35323 0 1 0 1
gene 1 2 14 -5.2816 0 2 0 1
gene 1 3 14 2.61511 0 3 0 1
gene 1 4 14 -1.51812 0 4 0 1
gene 1 5 14 1.1949 0 5 0 1
gene 1 6 14 -1.02113 0 6 0 1
gene 1 7 14 -4.07782 0 7 0 1
gene 1 8 14 -3.83044 0 8 0 1
gene 1 9 14 3.66436 0 9 0 1
gene 1 10 14 2.81637 0 10 0 1
gene 1 11 14 3.89662 0 11 0 1
gene 1 12 14 -6.80266 0 12 0 1
gene 1 13 14 -2.70654 0 13 0 1
gene 1 1 15 3.74978 0 14 0 1
gene 1 2 15 -8.84524 0 15 0 1
gene 1 3 15 1.26099 0 16 0 1
gene 1 4 15 8.38483 0 17 0 1
gene 1 5 15 -2.71491 0 18 0 1
gene 1 6 15 2.66696 0 19 0 1
gene 1 7 15 -3.66693 0 20 0 1
gene 1 8 15 2.0405 0 21 0 1
gene 1 9 15 -0.353669 0 22 0 1
gene 1 10 15 2.50296 0 23 0 1
gene 1 11 15 3.35413 0 24 0 1
gene 1 12 15 -1.08391 0 25 0 1
gene 1 13 15 -2.63026 0 26 0 1
genomeend 3
