genomestart 2
trait 1 0 0 0 0 0 0 0 0 
node 1 0 1 1
node 2 0 1 1
node 3 0 1 1
node 4 0 1 1
node 5 0 1 1
node 6 0 1 1
node 7 0 1 1
node 8 0 1 1
node 9 0 1 1
node 10 0 1 1
node 11 0 1 1
node 12 0 1 1
node 13 0 1 1
node 14 0 1 1
node 15 0 1 1
node 16 0 1 1
node 17 0 1 1
node 18 0 1 1
node 19 0 1 1
node 20 0 1 1
node 21 0 1 1
node 22 0 1 1
node 23 0 1 1
node 24 0 1 1
node 25 0 1 1
node 26 0 1 1
node 27 0 1 3
node 28 0 0 2
node 29 0 0 2
node 30 0 0 2
gene 1 1 28 -0.243335 0 1 0 1
gene 1 2 28 -1.43085 0 2 0 1
gene 1 3 28 -0.124543 0 3 0 1
gene 1 4 28 -0.422155 0 4 0 1
gene 1 5 28 1.01805 0 5 0 1
gene 1 6 28 0.00379589 0 6 0 1
gene 1 7 28 -0.467195 0 7 0 1
gene 1 8 28 1.67642 0 8 0 1
gene 1 9 28 -0.249537 0 9 0 1
gene 1 10 28 0.472336 0 10 0 1
gene 1 11 28 1.50286 0 11 0 1
gene 1 12 28 0.528058 0 12 0 1
gene 1 13 28 -0.566937 0 13 0 1
gene 1 14 28 0.0224377 0 14 0 1
gene 1 15 28 0.885037 0 15 0 1
gene 1 16 28 0.749092 0 16 0 1
gene 1 17 28 -1.07336 0 17 0 1
gene 1 18 28 0.871966 0 18 0 1
gene 1 19 28 0.225119 0 19 0 1
gene 1 20 28 -0.87032 0 20 0 1
gene 1 21 28 -0.0983593 0 21 0 1
gene 1 22 28 0.171046 0 22 0 1
gene 1 23 28 0.0229488 0 23 0 1
gene 1 24 28 0.808234 0 24 0 1
gene 1 25 28 1.70047 0 25 0 1
gene 1 26 28 -1.63353 0 26 0 1
gene 1 27 28 -0.400575 0 27 0 1
gene 1 1 29 0.801078 0 28 0 1
gene 1 2 29 0.484316 0 29 0 1
gene 1 3 29 -0.301904 0 30 0 1
gene 1 4 29 -0.563839 0 31 0 1
gene 1 5 29 0.04377 0 32 0 1
gene 1 6 29 0.655879 0 33 0 1
gene 1 7 29 -0.514557 0 34 0 1
gene 1 8 29 -0.24241 0 35 0 1
gene 1 9 29 0.224041 0 36 0 1
gene 1 10 29 -0.816904 0 37 0 1
gene 1 11 29 -0.117017 0 38 0 1
gene 1 12 29 -0.952269 0 39 0 1
gene 1 13 29 1.99021 0 40 0 1
gene 1 14 29 2.32724 0 41 0 1
gene 1 15 29 -0.463777 0 42 0 1
gene 1 16 29 -0.247247 0 43 0 1
gene 1 17 29 -0.0157763 0 44 0 1
gene 1 18 29 0.479873 0 45 0 1
gene 1 19 29 0.924385 0 46 0 1
gene 1 20 29 -0.885238 0 47 0 1
gene 1 21 29 -0.483937 0 48 0 1
gene 1 22 29 -0.397667 0 49 0 1
gene 1 23 29 -0.107839 0 50 0 1
gene 1 24 29 0.403617 0 51 0 1
gene 1 25 29 -0.816844 0 52 0 1
gene 1 26 29 1.12565 0 53 0 1
gene 1 27 29 -0.652915 0 54 0 1
gene 1 1 30 1.10909 0 55 0 1
gene 1 2 30 0.406831 0 56 0 1
gene 1 3 30 0.64189 0 57 0 1
gene 1 4 30 0.234558 0 58 0 1
gene 1 5 30 0.0190192 0 59 0 1
gene 1 6 30 -0.483173 0 60 0 1
gene 1 7 30 0.562529 0 61 0 1
gene 1 8 30 1.11417 0 62 0 1
gene 1 9 30 0.976756 0 63 0 1
gene 1 10 30 0.0943907 0 64 0 1
gene 1 11 30 -0.100359 0 65 0 1
gene 1 12 30 -0.233984 0 66 0 1
gene 1 13 30 -1.81718 0 67 0 1
gene 1 14 30 -0.160734 0 68 0 1
gene 1 15 30 0.897942 0 69 0 1
gene 1 16 30 -0.461906 0 70 0 1
gene 1 17 30 0.512834 0 71 0 1
gene 1 18 30 0.0236858 0 72 0 1
gene 1 19 30 0.779031 0 73 0 1
gene 1 20 30 -0.167816 0 74 0 1
gene 1 21 30 0.13703 0 75 0 1
gene 1 22 30 -1.19519 0 76 0 1
gene 1 23 30 -1.82885 0 77 0 1
gene 1 24 30 1.10715 0 78 0 1
gene 1 25 30 1.5025 0 79 0 1
gene 1 26 30 0.691557 0 80 0 1
gene 1 27 30 -1.36743 0 81 0 1
genomeend 2
