genomestart 2
trait 1 0 0 0 0 0 0 0 0 
node 1 0 1 1
node 2 0 1 1
node 3 0 1 1
node 4 0 1 1
node 5 0 1 1
node 6 0 1 1
node 7 0 1 1
node 8 0 1 1
node 9 0 1 1
node 10 0 1 1
node 11 0 1 1
node 12 0 1 1
node 13 0 1 1
node 14 0 1 1
node 15 0 1 1
node 16 0 1 1
node 17 0 1 1
node 18 0 1 1
node 19 0 1 1
node 20 0 1 1
node 21 0 1 1
node 22 0 1 1
node 23 0 1 1
node 24 0 1 1
node 25 0 1 1
node 26 0 1 1
node 27 0 1 3
node 28 0 0 2
node 29 0 0 2
node 30 0 0 2
gene 1 1 28 -0.349406 0 1 0 1
gene 1 2 28 -1.56749 0 2 0 1
gene 1 3 28 -0.255669 0 3 0 1
gene 1 4 28 0.040984 0 4 0 1
gene 1 5 28 0.274958 0 5 0 1
gene 1 6 28 -0.546563 0 6 0 1
gene 1 7 28 -0.336979 0 7 0 1
gene 1 8 28 1.16828 0 8 0 1
gene 1 9 28 -0.307543 0 9 0 1
gene 1 10 28 0.0633862 0 10 0 1
gene 1 11 28 0.388469 0 11 0 1
gene 1 12 28 0.756415 0 12 0 1
gene 1 13 28 0.192627 0 13 0 1
gene 1 14 28 0.122559 0 14 0 1
gene 1 15 28 0.412979 0 15 0 1
gene 1 16 28 0.170667 0 16 0 1
gene 1 17 28 -0.271965 0 17 0 1
gene 1 18 28 1.0696 0 18 0 1
gene 1 19 28 0.219124 0 19 0 1
gene 1 20 28 -0.463572 0 20 0 1
gene 1 21 28 0.204499 0 21 0 1
gene 1 22 28 -0.514171 0 22 0 1
gene 1 23 28 0.629297 0 23 0 1
gene 1 24 28 0.159781 0 24 0 1
gene 1 25 28 1.15889 0 25 0 1
gene 1 26 28 -1.1647 0 26 0 1
gene 1 27 28 0.589934 0 27 0 1
gene 1 1 29 0.0977232 0 28 0 1
gene 1 2 29 0.686071 0 29 0 1
gene 1 3 29 -1.02206 0 30 0 1
gene 1 4 29 -0.166349 0 31 0 1
gene 1 5 29 -0.549611 0 32 0 1
gene 1 6 29 0.196396 0 33 0 1
gene 1 7 29 -0.348092 0 34 0 1
gene 1 8 29 0.243256 0 35 0 1
gene 1 9 29 0.0389504 0 36 0 1
gene 1 10 29 -0.676934 0 37 0 1
gene 1 11 29 -0.955542 0 38 0 1
gene 1 12 29 0.059121 0 39 0 1
gene 1 13 29 1.02537 0 40 0 1
gene 1 14 29 1.72552 0 41 0 1
gene 1 15 29 -0.94811 0 42 0 1
gene 1 16 29 0.462051 0 43 0 1
gene 1 17 29 0.141254 0 44 0 1
gene 1 18 29 0.478304 0 45 0 1
gene 1 19 29 0.935943 0 46 0 1
gene 1 20 29 -0.729103 0 47 0 1
gene 1 21 29 -0.829344 0 48 0 1
gene 1 22 29 0.52694 0 49 0 1
gene 1 23 29 -0.372203 0 50 0 1
gene 1 24 29 0.555361 0 51 0 1
gene 1 25 29 -0.520107 0 52 0 1
gene 1 26 29 0.790373 0 53 0 1
gene 1 27 29 -0.372317 0 54 0 1
gene 1 1 30 -0.110276 0 55 0 1
gene 1 2 30 -0.23022 0 56 0 1
gene 1 3 30 1.02265 0 57 0 1
gene 1 4 30 0.356739 0 58 0 1
gene 1 5 30 -0.341234 0 59 0 1
gene 1 6 30 0.368685 0 60 0 1
gene 1 7 30 0.332652 0 61 0 1
gene 1 8 30 0.736532 0 62 0 1
gene 1 9 30 1.0829 0 63 0 1
gene 1 10 30 0.2216 0 64 0 1
gene 1 11 30 0.11261 0 65 0 1
gene 1 12 30 -0.0662412 0 66 0 1
gene 1 13 30 -0.969137 0 67 0 1
gene 1 14 30 -0.314221 0 68 0 1
gene 1 15 30 0.140956 0 69 0 1
gene 1 16 30 -0.392037 0 70 0 1
gene 1 17 30 0.683842 0 71 0 1
gene 1 18 30 -0.0576374 0 72 0 1
gene 1 19 30 0.226605 0 73 0 1
gene 1 20 30 0.0058526 0 74 0 1
gene 1 21 30 -0.0120782 0 75 0 1
gene 1 22 30 -0.654083 0 76 0 1
gene 1 23 30 -0.545737 0 77 0 1
gene 1 24 30 0.383106 0 78 0 1
gene 1 25 30 0.276786 0 79 0 1
gene 1 26 30 -0.0884315 0 80 0 1
gene 1 27 30 -1.57165 0 81 0 1
genomeend 2
