genomestart 2
trait 1 0 0 0 0 0 0 0 0 
node 1 0 1 1
node 2 0 1 1
node 3 0 1 1
node 4 0 1 1
node 5 0 1 1
node 6 0 1 1
node 7 0 1 1
node 8 0 1 1
node 9 0 1 1
node 10 0 1 1
node 11 0 1 1
node 12 0 1 1
node 13 0 1 1
node 14 0 1 1
node 15 0 1 1
node 16 0 1 1
node 17 0 1 1
node 18 0 1 1
node 19 0 1 1
node 20 0 1 1
node 21 0 1 1
node 22 0 1 1
node 23 0 1 1
node 24 0 1 1
node 25 0 1 3
node 26 0 0 2
node 27 0 0 2
gene 1 1 26 -3.5607 0 1 -3.5607 1
gene 1 2 26 -2.75363 0 2 -2.75363 1
gene 1 3 26 1.25583 0 3 1.25583 1
gene 1 4 26 -0.716398 0 4 -0.716398 1
gene 1 5 26 0.556467 0 5 0.556467 1
gene 1 6 26 0.546766 0 6 0.546766 1
gene 1 7 26 -0.895641 0 7 -0.895641 1
gene 1 8 26 -4.79698 0 8 -4.79698 1
gene 1 9 26 -0.301979 0 9 -0.301979 1
gene 1 10 26 -0.391781 0 10 -0.391781 1
gene 1 11 26 -1.83759 0 11 -1.83759 1
gene 1 12 26 -1.40878 0 12 -1.40878 1
gene 1 13 26 -0.410318 0 13 -0.410318 1
gene 1 14 26 0.0213109 0 14 0.0213109 1
gene 1 15 26 1.9815 0 15 1.9815 1
gene 1 16 26 -1.39944 0 16 -1.39944 1
gene 1 17 26 -1.12948 0 17 -1.12948 1
gene 1 18 26 -3.07855 0 18 -3.07855 1
gene 1 19 26 -2.78546 0 19 -2.78546 1
gene 1 20 26 3.77719 0 20 3.77719 1
gene 1 21 26 0.117527 0 21 0.117527 1
gene 1 22 26 0.430901 0 22 0.430901 1
gene 1 23 26 0.132326 0 23 0.132326 1
gene 1 24 26 -0.246565 0 24 -0.246565 1
gene 1 25 26 3.12311 0 25 3.12311 1
gene 1 1 27 0.60908 0 26 0.60908 1
gene 1 2 27 -0.557666 0 27 -0.557666 1
gene 1 3 27 0.267536 0 28 0.267536 1
gene 1 4 27 -1.34446 0 29 -1.34446 1
gene 1 5 27 0.334056 0 30 0.334056 1
gene 1 6 27 -0.808592 0 31 -0.808592 1
gene 1 7 27 0.0979662 0 32 0.0979662 1
gene 1 8 27 1.60154 0 33 1.60154 1
gene 1 9 27 -0.297671 0 34 -0.297671 1
gene 1 10 27 -0.686957 0 35 -0.686957 1
gene 1 11 27 -0.772236 0 36 -0.772236 1
gene 1 12 27 -2.7467 0 37 -2.7467 1
gene 1 13 27 2.16684 0 38 2.16684 1
gene 1 14 27 1.27064 0 39 1.27064 1
gene 1 15 27 0.140874 0 40 0.140874 1
gene 1 16 27 0.323594 0 41 0.323594 1
gene 1 17 27 -0.800945 0 42 -0.800945 1
gene 1 18 27 -0.716228 0 43 -0.716228 1
gene 1 19 27 -0.25469 0 44 -0.25469 1
gene 1 20 27 -0.198191 0 45 -0.198191 1
gene 1 21 27 1.09181 0 46 1.09181 1
gene 1 22 27 -0.338652 0 47 -0.338652 1
gene 1 23 27 0.812359 0 48 0.812359 1
gene 1 24 27 0.201903 0 49 0.201903 1
gene 1 27 26 0.248004 0 50 0.248004 1
gene 1 25 27 1.1831 0 50 1.1831 1
genomeend 2
