genomestart 3
trait 1 0 0 0 0 0 0 0 0 
node 1 0 1 1
node 2 0 1 1
node 3 0 1 1
node 4 0 1 1
node 5 0 1 1
node 6 0 1 1
node 7 0 1 1
node 8 0 1 1
node 9 0 1 1
node 10 0 1 1
node 11 0 1 1
node 12 0 1 1
node 13 0 1 3
node 14 0 0 2
node 15 0 0 2
gene 1 1 14 -3.39816 0 1 0 1
gene 1 2 14 -4.68641 0 2 0 1
gene 1 3 14 2.98117 0 3 0 1
gene 1 4 14 -1.52036 0 4 0 1
gene 1 5 14 2.06221 0 5 0 1
gene 1 6 14 -3.13085 0 6 0 1
gene 1 7 14 -3.87875 0 7 0 1
gene 1 8 14 -2.55271 0 8 0 1
gene 1 9 14 0.33951 0 9 0 1
gene 1 10 14 4.03512 0 10 0 1
gene 1 11 14 4.64594 0 11 0 1
gene 1 12 14 -7.28104 0 12 0 1
gene 1 13 14 -3.70763 0 13 0 1
gene 1 1 15 4.66894 0 14 0 1
gene 1 2 15 -6.88973 0 15 0 1
gene 1 3 15 0.186143 0 16 0 1
gene 1 4 15 8.46969 0 17 0 1
gene 1 5 15 -2.87816 0 18 0 1
gene 1 6 15 2.46503 0 19 0 1
gene 1 7 15 -2.10761 0 20 0 1
gene 1 8 15 2.59336 0 21 0 1
gene 1 9 15 -0.541408 0 22 0 1
gene 1 10 15 1.89681 0 23 0 1
gene 1 11 15 3.20655 0 24 0 1
gene 1 12 15 -1.09927 0 25 0 1
gene 1 13 15 -2.71095 0 26 0 1
genomeend 3
