genomestart 2
trait 1 0 0 0 0 0 0 0 0 
node 1 0 1 1
node 2 0 1 1
node 3 0 1 1
node 4 0 1 1
node 5 0 1 1
node 6 0 1 1
node 7 0 1 1
node 8 0 1 1
node 9 0 1 1
node 10 0 1 1
node 11 0 1 1
node 12 0 1 1
node 13 0 1 1
node 14 0 1 1
node 15 0 1 1
node 16 0 1 1
node 17 0 1 1
node 18 0 1 1
node 19 0 1 1
node 20 0 1 1
node 21 0 1 1
node 22 0 1 1
node 23 0 1 1
node 24 0 1 1
node 25 0 1 1
node 26 0 1 1
node 27 0 1 3
node 28 0 0 2
node 29 0 0 2
node 30 0 0 2
gene 1 1 28 -0.13988 0 1 0 1
gene 1 2 28 -1.55177 0 2 0 1
gene 1 3 28 0.688946 0 3 0 1
gene 1 4 28 1.75781 0 4 0 1
gene 1 5 28 -2.19087 0 5 0 1
gene 1 6 28 -1.44559 0 6 0 1
gene 1 7 28 -0.570377 0 7 0 1
gene 1 8 28 0.0391083 0 8 0 1
gene 1 9 28 -3.10555 0 9 0 1
gene 1 10 28 -0.637276 0 10 0 1
gene 1 11 28 0.949813 0 11 0 1
gene 1 12 28 -0.312335 0 12 0 1
gene 1 13 28 -1.21314 0 13 0 1
gene 1 14 28 3.84916 0 14 0 1
gene 1 15 28 0.714846 0 15 0 1
gene 1 16 28 1.10181 0 16 0 1
gene 1 17 28 0.63219 0 17 0 1
gene 1 18 28 -0.229102 0 18 0 1
gene 1 19 28 -2.07742 0 19 0 1
gene 1 20 28 -0.281896 0 20 0 1
gene 1 21 28 -0.328757 0 21 0 1
gene 1 22 28 -0.516218 0 22 0 1
gene 1 23 28 -0.936941 0 23 0 1
gene 1 24 28 1.44708 0 24 0 1
gene 1 25 28 2.32425 0 25 0 1
gene 1 26 28 0.480627 0 26 0 1
gene 1 27 28 -2.80361 0 27 0 1
gene 1 1 29 0.8361 0 28 0 1
gene 1 2 29 1.32835 0 29 0 1
gene 1 3 29 -1.0038 0 30 0 1
gene 1 4 29 0.552675 0 31 0 1
gene 1 5 29 0.108957 0 32 0 1
gene 1 6 29 2.86669 0 33 0 1
gene 1 7 29 3.66062 0 34 0 1
gene 1 8 29 -2.93797 0 35 0 1
gene 1 9 29 0.142598 0 36 0 1
gene 1 10 29 -1.47669 0 37 0 1
gene 1 11 29 2.32645 0 38 0 1
gene 1 12 29 -0.328562 0 39 0 1
gene 1 13 29 0.707605 0 40 0 1
gene 1 14 29 2.60464 0 41 0 1
gene 1 15 29 0.0582193 0 42 0 1
gene 1 16 29 2.44657 0 43 0 1
gene 1 17 29 1.15751 0 44 0 1
gene 1 18 29 -2.2399 0 45 0 1
gene 1 19 29 0.0761426 0 46 0 1
gene 1 20 29 -0.520265 0 47 0 1
gene 1 21 29 1.82319 0 48 0 1
gene 1 22 29 0.735076 0 49 0 1
gene 1 23 29 -2.28325 0 50 0 1
gene 1 24 29 -3.52659 0 51 0 1
gene 1 25 29 2.67243 0 52 0 1
gene 1 26 29 2.79174 0 53 0 1
gene 1 27 29 2.89273 0 54 0 1
gene 1 1 30 -1.85657 0 55 0 1
gene 1 2 30 0.231962 0 56 0 1
gene 1 3 30 3.06989 0 57 0 1
gene 1 4 30 -2.46423 0 58 0 1
gene 1 5 30 -0.762142 0 59 0 1
gene 1 6 30 -0.0114881 0 60 0 1
gene 1 7 30 4.22955 0 61 0 1
gene 1 8 30 2.30036 0 62 0 1
gene 1 9 30 -1.36759 0 63 0 1
gene 1 10 30 0.273189 0 64 0 1
gene 1 11 30 -0.613005 0 65 0 1
gene 1 12 30 -0.275812 0 66 0 1
gene 1 13 30 0.843522 0 67 0 1
gene 1 14 30 1.19983 0 68 0 1
gene 1 15 30 2.46782 0 69 0 1
gene 1 16 30 -0.472579 0 70 0 1
gene 1 17 30 1.35989 0 71 0 1
gene 1 18 30 -2.19015 0 72 0 1
gene 1 19 30 -1.95959 0 73 0 1
gene 1 20 30 -1.54287 0 74 0 1
gene 1 21 30 0.702614 0 75 0 1
gene 1 22 30 1.27869 0 76 0 1
gene 1 23 30 0.123273 0 77 0 1
gene 1 24 30 2.05551 0 78 0 1
gene 1 25 30 1.32655 0 79 0 1
gene 1 26 30 -0.667842 0 80 0 1
gene 1 27 30 0.848085 0 81 0 1
genomeend 2
