genomestart 3
trait 1 0 0 0 0 0 0 0 0 
node 1 0 1 1
node 2 0 1 1
node 3 0 1 1
node 4 0 1 1
node 5 0 1 1
node 6 0 1 1
node 7 0 1 1
node 8 0 1 1
node 9 0 1 1
node 10 0 1 1
node 11 0 1 1
node 12 0 1 1
node 13 0 1 3
node 14 0 0 2
node 15 0 0 2
gene 1 1 14 -3.12823 0 1 0 1
gene 1 2 14 -4.39899 0 2 0 1
gene 1 3 14 3.2703 0 3 0 1
gene 1 4 14 -2.45691 0 4 0 1
gene 1 5 14 1.64694 0 5 0 1
gene 1 6 14 -1.79069 0 6 0 1
gene 1 7 14 -3.86268 0 7 0 1
gene 1 8 14 -3.0176 0 8 0 1
gene 1 9 14 2.65547 0 9 0 1
gene 1 10 14 3.61564 0 10 0 1
gene 1 11 14 3.35704 0 11 0 1
gene 1 12 14 -6.95189 0 12 0 1
gene 1 13 14 -2.39438 0 13 0 1
gene 1 1 15 4.57439 0 14 0 1
gene 1 2 15 -8.09172 0 15 0 1
gene 1 3 15 0.887861 0 16 0 1
gene 1 4 15 8.27772 0 17 0 1
gene 1 5 15 -3.19303 0 18 0 1
gene 1 6 15 3.06289 0 19 0 1
gene 1 7 15 -3.08013 0 20 0 1
gene 1 8 15 1.60912 0 21 0 1
gene 1 9 15 -0.369238 0 22 0 1
gene 1 10 15 2.41643 0 23 0 1
gene 1 11 15 2.27602 0 24 0 1
gene 1 12 15 -1.81876 0 25 0 1
gene 1 13 15 -3.12248 0 26 0 1
genomeend 3
