genomestart 3
trait 1 0 0 0 0 0 0 0 0 
node 1 0 1 1
node 2 0 1 1
node 3 0 1 1
node 4 0 1 1
node 5 0 1 1
node 6 0 1 1
node 7 0 1 1
node 8 0 1 1
node 9 0 1 1
node 10 0 1 1
node 11 0 1 1
node 12 0 1 1
node 13 0 1 3
node 14 0 0 2
node 15 0 0 2
gene 1 1 14 1.6379 0 1 0 1
gene 1 2 14 2.16736 0 2 0 1
gene 1 3 14 -2.3561 0 3 0 1
gene 1 4 14 -2.49712 0 4 0 1
gene 1 5 14 -0.663398 0 5 0 1
gene 1 6 14 -2.35464 0 6 0 1
gene 1 7 14 -6.17048 0 7 0 1
gene 1 8 14 -1.89788 0 8 0 1
gene 1 9 14 -2.59292 0 9 0 1
gene 1 10 14 9.61957 0 10 0 1
gene 1 11 14 3.48579 0 11 0 1
gene 1 12 14 -3.93754 0 12 0 1
gene 1 13 14 -6.49099 0 13 0 1
gene 1 1 15 2.13201 0 14 0 1
gene 1 2 15 -4.63337 0 15 0 1
gene 1 3 15 -1.30871 0 16 0 1
gene 1 4 15 8.13029 0 17 0 1
gene 1 5 15 -4.93423 0 18 0 1
gene 1 6 15 0.203299 0 19 0 1
gene 1 7 15 -5.4855 0 20 0 1
gene 1 8 15 0.653383 0 21 0 1
gene 1 9 15 -1.44067 0 22 0 1
gene 1 10 15 0.254278 0 23 0 1
gene 1 11 15 5.25378 0 24 0 1
gene 1 12 15 -3.87422 0 25 0 1
gene 1 13 15 -0.362953 0 26 0 1
genomeend 3
