genomestart 2
trait 1 0 0 0 0 0 0 0 0 
node 1 0 1 1
node 2 0 1 1
node 3 0 1 1
node 4 0 1 1
node 5 0 1 1
node 6 0 1 1
node 7 0 1 1
node 8 0 1 1
node 9 0 1 1
node 10 0 1 1
node 11 0 1 1
node 12 0 1 1
node 13 0 1 1
node 14 0 1 1
node 15 0 1 1
node 16 0 1 1
node 17 0 1 1
node 18 0 1 1
node 19 0 1 1
node 20 0 1 1
node 21 0 1 1
node 22 0 1 1
node 23 0 1 1
node 24 0 1 1
node 25 0 1 1
node 26 0 1 1
node 27 0 1 3
node 28 0 0 2
node 29 0 0 2
node 30 0 0 2
gene 1 1 28 -0.0251452 0 1 0 1
gene 1 2 28 -0.953007 0 2 0 1
gene 1 3 28 -0.454618 0 3 0 1
gene 1 4 28 -0.881181 0 4 0 1
gene 1 5 28 1.54053 0 5 0 1
gene 1 6 28 0.38197 0 6 0 1
gene 1 7 28 -0.530804 0 7 0 1
gene 1 8 28 1.36289 0 8 0 1
gene 1 9 28 -0.647436 0 9 0 1
gene 1 10 28 0.861986 0 10 0 1
gene 1 11 28 1.11061 0 11 0 1
gene 1 12 28 0.600823 0 12 0 1
gene 1 13 28 0.365638 0 13 0 1
gene 1 14 28 0.0764854 0 14 0 1
gene 1 15 28 0.05265 0 15 0 1
gene 1 16 28 0.954647 0 16 0 1
gene 1 17 28 -0.954586 0 17 0 1
gene 1 18 28 0.5643 0 18 0 1
gene 1 19 28 0.782638 0 19 0 1
gene 1 20 28 -1.45265 0 20 0 1
gene 1 21 28 -0.214234 0 21 0 1
gene 1 22 28 0.10093 0 22 0 1
gene 1 23 28 -0.397759 0 23 0 1
gene 1 24 28 -0.0596328 0 24 0 1
gene 1 25 28 2.72627 0 25 0 1
gene 1 26 28 -1.76153 0 26 0 1
gene 1 27 28 -0.910657 0 27 0 1
gene 1 1 29 0.350509 0 28 0 1
gene 1 2 29 0.924506 0 29 0 1
gene 1 3 29 -0.592765 0 30 0 1
gene 1 4 29 -0.444527 0 31 0 1
gene 1 5 29 -0.976924 0 32 0 1
gene 1 6 29 1.69936 0 33 0 1
gene 1 7 29 -0.251579 0 34 0 1
gene 1 8 29 -0.35763 0 35 0 1
gene 1 9 29 0.387162 0 36 0 1
gene 1 10 29 -0.820534 0 37 0 1
gene 1 11 29 -0.418711 0 38 0 1
gene 1 12 29 -0.698612 0 39 0 1
gene 1 13 29 2.49683 0 40 0 1
gene 1 14 29 2.36219 0 41 0 1
gene 1 15 29 -0.0809578 0 42 0 1
gene 1 16 29 -0.284927 0 43 0 1
gene 1 17 29 -0.315007 0 44 0 1
gene 1 18 29 0.295773 0 45 0 1
gene 1 19 29 0.756229 0 46 0 1
gene 1 20 29 -1.15973 0 47 0 1
gene 1 21 29 -0.387503 0 48 0 1
gene 1 22 29 -0.360296 0 49 0 1
gene 1 23 29 -0.188825 0 50 0 1
gene 1 24 29 -0.409707 0 51 0 1
gene 1 25 29 -0.393032 0 52 0 1
gene 1 26 29 1.14107 0 53 0 1
gene 1 27 29 -0.733464 0 54 0 1
gene 1 1 30 0.842213 0 55 0 1
gene 1 2 30 0.368423 0 56 0 1
gene 1 3 30 -0.112288 0 57 0 1
gene 1 4 30 0.379015 0 58 0 1
gene 1 5 30 -0.0935215 0 59 0 1
gene 1 6 30 -0.345195 0 60 0 1
gene 1 7 30 0.796891 0 61 0 1
gene 1 8 30 1.18555 0 62 0 1
gene 1 9 30 0.885136 0 63 0 1
gene 1 10 30 -0.295612 0 64 0 1
gene 1 11 30 -0.0231051 0 65 0 1
gene 1 12 30 0.0198452 0 66 0 1
gene 1 13 30 -1.65081 0 67 0 1
gene 1 14 30 -0.219071 0 68 0 1
gene 1 15 30 0.686584 0 69 0 1
gene 1 16 30 -0.795404 0 70 0 1
gene 1 17 30 0.475209 0 71 0 1
gene 1 18 30 0.339083 0 72 0 1
gene 1 19 30 1.38204 0 73 0 1
gene 1 20 30 -0.618413 0 74 0 1
gene 1 21 30 0.10985 0 75 0 1
gene 1 22 30 -0.665641 0 76 0 1
gene 1 23 30 -2.04326 0 77 0 1
gene 1 24 30 1.92461 0 78 0 1
gene 1 25 30 1.19051 0 79 0 1
gene 1 26 30 -0.0708985 0 80 0 1
gene 1 27 30 -2.05851 0 81 0 1
genomeend 2
