genomestart 2
trait 1 0 0 0 0 0 0 0 0 
node 1 0 1 1
node 2 0 1 1
node 3 0 1 1
node 4 0 1 1
node 5 0 1 1
node 6 0 1 1
node 7 0 1 1
node 8 0 1 1
node 9 0 1 1
node 10 0 1 1
node 11 0 1 1
node 12 0 1 1
node 13 0 1 1
node 14 0 1 1
node 15 0 1 1
node 16 0 1 1
node 17 0 1 1
node 18 0 1 1
node 19 0 1 1
node 20 0 1 1
node 21 0 1 1
node 22 0 1 1
node 23 0 1 1
node 24 0 1 1
node 25 0 1 3
node 26 0 0 2
node 27 0 0 2
gene 1 1 26 -0.611662 0 1 -0.611662 1
gene 1 2 26 0.272013 0 2 0.272013 1
gene 1 3 26 0.323708 0 3 0.323708 1
gene 1 4 26 0.449403 0 4 0.449403 1
gene 1 5 26 0.797863 0 5 0.797863 1
gene 1 6 26 -0.973238 0 6 -0.973238 1
gene 1 7 26 0.892833 0 7 0.892833 1
gene 1 8 26 0.197461 0 8 0.197461 1
gene 1 9 26 -0.699495 0 9 -0.699495 1
gene 1 10 26 0.777045 0 10 0.777045 1
gene 1 11 26 -0.112943 0 11 -0.112943 1
gene 1 12 26 -0.0750588 0 12 -0.0750588 1
gene 1 13 26 -0.777847 0 13 -0.777847 1
gene 1 14 26 -0.522965 0 14 -0.522965 1
gene 1 15 26 0.758157 0 15 0.758157 1
gene 1 16 26 0.87956 0 16 0.87956 1
gene 1 17 26 -0.40117 0 17 -0.40117 1
gene 1 18 26 0.496945 0 18 0.496945 1
gene 1 19 26 0.999092 0 19 0.999092 1
gene 1 20 26 0.215117 0 20 0.215117 1
gene 1 21 26 -0.59776 0 21 -0.59776 1
gene 1 22 26 -0.964763 0 22 -0.964763 1
gene 1 23 26 -0.116471 0 23 -0.116471 1
gene 1 24 26 0.615726 0 24 0.615726 1
gene 1 25 26 -0.564248 0 25 -0.564248 1
gene 1 1 27 -0.391359 0 26 -0.391359 1
gene 1 2 27 0.874186 0 27 0.874186 1
gene 1 3 27 -0.101148 0 28 -0.101148 1
gene 1 4 27 0.584795 0 29 0.584795 1
gene 1 5 27 -0.186663 0 30 -0.186663 1
gene 1 6 27 0.627378 0 31 0.627378 1
gene 1 7 27 -0.851731 0 32 -0.851731 1
gene 1 8 27 -0.787997 0 33 -0.787997 1
gene 1 9 27 0.992078 0 34 0.992078 1
gene 1 10 27 -0.720306 0 35 -0.720306 1
gene 1 11 27 -0.17434 0 36 -0.17434 1
gene 1 12 27 0.231493 0 37 0.231493 1
gene 1 13 27 -0.77045 0 38 -0.77045 1
gene 1 14 27 -0.74389 0 39 -0.74389 1
gene 1 15 27 0.862665 0 40 0.862665 1
gene 1 16 27 0.925533 0 41 0.925533 1
gene 1 17 27 0.181814 0 42 0.181814 1
gene 1 18 27 -0.718678 0 43 -0.718678 1
gene 1 19 27 0.817461 0 44 0.817461 1
gene 1 20 27 0.248048 0 45 0.248048 1
gene 1 21 27 0.943275 0 46 0.943275 1
gene 1 22 27 0.0520236 0 47 0.0520236 1
gene 1 23 27 -0.856082 0 48 -0.856082 1
gene 1 24 27 0.602566 0 49 0.602566 1
gene 1 25 27 0.949349 0 50 0.949349 1
genomeend 2
