genomestart 2
trait 1 0 0 0 0 0 0 0 0 
node 1 0 1 1
node 2 0 1 1
node 3 0 1 1
node 4 0 1 1
node 5 0 1 1
node 6 0 1 1
node 7 0 1 1
node 8 0 1 1
node 9 0 1 1
node 10 0 1 1
node 11 0 1 1
node 12 0 1 1
node 13 0 1 1
node 14 0 1 1
node 15 0 1 1
node 16 0 1 1
node 17 0 1 1
node 18 0 1 1
node 19 0 1 1
node 20 0 1 1
node 21 0 1 1
node 22 0 1 1
node 23 0 1 1
node 24 0 1 1
node 25 0 1 1
node 26 0 1 1
node 27 0 1 3
node 28 0 0 2
node 29 0 0 2
node 30 0 0 2
gene 1 1 28 -0.299011 0 1 0 1
gene 1 2 28 -1.36492 0 2 0 1
gene 1 3 28 -0.254075 0 3 0 1
gene 1 4 28 -0.673281 0 4 0 1
gene 1 5 28 1.06285 0 5 0 1
gene 1 6 28 -0.356956 0 6 0 1
gene 1 7 28 -0.368362 0 7 0 1
gene 1 8 28 1.27074 0 8 0 1
gene 1 9 28 -0.277486 0 9 0 1
gene 1 10 28 0.829022 0 10 0 1
gene 1 11 28 1.07055 0 11 0 1
gene 1 12 28 0.956638 0 12 0 1
gene 1 13 28 -0.490314 0 13 0 1
gene 1 14 28 -0.0800029 0 14 0 1
gene 1 15 28 0.846241 0 15 0 1
gene 1 16 28 0.63521 0 16 0 1
gene 1 17 28 -0.98945 0 17 0 1
gene 1 18 28 1.14397 0 18 0 1
gene 1 19 28 0.602542 0 19 0 1
gene 1 20 28 -0.870621 0 20 0 1
gene 1 21 28 0.321207 0 21 0 1
gene 1 22 28 0.406003 0 22 0 1
gene 1 23 28 -0.0387679 0 23 0 1
gene 1 24 28 0.267448 0 24 0 1
gene 1 25 28 1.3912 0 25 0 1
gene 1 26 28 -1.42723 0 26 0 1
gene 1 27 28 -0.308867 0 27 0 1
gene 1 1 29 0.653348 0 28 0 1
gene 1 2 29 0.833567 0 29 0 1
gene 1 3 29 -0.809824 0 30 0 1
gene 1 4 29 -0.97802 0 31 0 1
gene 1 5 29 -0.394786 0 32 0 1
gene 1 6 29 0.382146 0 33 0 1
gene 1 7 29 -0.00595174 0 34 0 1
gene 1 8 29 0.179778 0 35 0 1
gene 1 9 29 0.0848681 0 36 0 1
gene 1 10 29 -0.680327 0 37 0 1
gene 1 11 29 -0.117967 0 38 0 1
gene 1 12 29 -0.641086 0 39 0 1
gene 1 13 29 1.86773 0 40 0 1
gene 1 14 29 2.34664 0 41 0 1
gene 1 15 29 -0.469972 0 42 0 1
gene 1 16 29 0.0352615 0 43 0 1
gene 1 17 29 0.425033 0 44 0 1
gene 1 18 29 0.769002 0 45 0 1
gene 1 19 29 0.62703 0 46 0 1
gene 1 20 29 -1.21704 0 47 0 1
gene 1 21 29 -0.959442 0 48 0 1
gene 1 22 29 0.149233 0 49 0 1
gene 1 23 29 0.0612059 0 50 0 1
gene 1 24 29 0.301373 0 51 0 1
gene 1 25 29 -1.30256 0 52 0 1
gene 1 26 29 1.29315 0 53 0 1
gene 1 27 29 -1.11497 0 54 0 1
gene 1 1 30 0.425181 0 55 0 1
gene 1 2 30 0.510364 0 56 0 1
gene 1 3 30 0.624088 0 57 0 1
gene 1 4 30 0.0736763 0 58 0 1
gene 1 5 30 -0.359547 0 59 0 1
gene 1 6 30 0.213788 0 60 0 1
gene 1 7 30 0.563314 0 61 0 1
gene 1 8 30 1.00732 0 62 0 1
gene 1 9 30 1.62845 0 63 0 1
gene 1 10 30 0.429695 0 64 0 1
gene 1 11 30 -0.207119 0 65 0 1
gene 1 12 30 -0.120918 0 66 0 1
gene 1 13 30 -1.81406 0 67 0 1
gene 1 14 30 -0.239367 0 68 0 1
gene 1 15 30 0.722318 0 69 0 1
gene 1 16 30 -0.605881 0 70 0 1
gene 1 17 30 0.798152 0 71 0 1
gene 1 18 30 0.238604 0 72 0 1
gene 1 19 30 1.04268 0 73 0 1
gene 1 20 30 0.100204 0 74 0 1
gene 1 21 30 -0.0184184 0 75 0 1
gene 1 22 30 -1.65352 0 76 0 1
gene 1 23 30 -1.68062 0 77 0 1
gene 1 24 30 0.620544 0 78 0 1
gene 1 25 30 1.31514 0 79 0 1
gene 1 26 30 0.789259 0 80 0 1
gene 1 27 30 -1.1073 0 81 0 1
genomeend 2
