genomestart 2
trait 1 0 0 0 0 0 0 0 0 
node 1 0 1 1
node 2 0 1 1
node 3 0 1 1
node 4 0 1 1
node 5 0 1 1
node 6 0 1 1
node 7 0 1 1
node 8 0 1 1
node 9 0 1 1
node 10 0 1 1
node 11 0 1 1
node 12 0 1 1
node 13 0 1 1
node 14 0 1 1
node 15 0 1 1
node 16 0 1 1
node 17 0 1 1
node 18 0 1 1
node 19 0 1 1
node 20 0 1 1
node 21 0 1 1
node 22 0 1 1
node 23 0 1 1
node 24 0 1 1
node 25 0 1 1
node 26 0 1 1
node 27 0 1 3
node 28 0 0 2
node 29 0 0 2
node 30 0 0 2
gene 1 1 28 -0.920967 0 1 0 1
gene 1 2 28 -0.390866 0 2 0 1
gene 1 3 28 0.689635 0 3 0 1
gene 1 4 28 0.143743 0 4 0 1
gene 1 5 28 -0.80581 0 5 0 1
gene 1 6 28 -0.691809 0 6 0 1
gene 1 7 28 -1.92403 0 7 0 1
gene 1 8 28 1.28957 0 8 0 1
gene 1 9 28 -3.21997 0 9 0 1
gene 1 10 28 -0.447366 0 10 0 1
gene 1 11 28 0.426216 0 11 0 1
gene 1 12 28 -0.573884 0 12 0 1
gene 1 13 28 -0.115587 0 13 0 1
gene 1 14 28 3.4296 0 14 0 1
gene 1 15 28 -0.264572 0 15 0 1
gene 1 16 28 1.6312 0 16 0 1
gene 1 17 28 0.184715 0 17 0 1
gene 1 18 28 0.132934 0 18 0 1
gene 1 19 28 -1.74466 0 19 0 1
gene 1 20 28 0.37744 0 20 0 1
gene 1 21 28 0.115601 0 21 0 1
gene 1 22 28 -1.15053 0 22 0 1
gene 1 23 28 -1.23756 0 23 0 1
gene 1 24 28 1.68196 0 24 0 1
gene 1 25 28 1.57313 0 25 0 1
gene 1 26 28 0.777637 0 26 0 1
gene 1 27 28 -1.96641 0 27 0 1
gene 1 1 29 0.451786 0 28 0 1
gene 1 2 29 0.943658 0 29 0 1
gene 1 3 29 -1.89176 0 30 0 1
gene 1 4 29 1.13058 0 31 0 1
gene 1 5 29 1.078 0 32 0 1
gene 1 6 29 2.83238 0 33 0 1
gene 1 7 29 3.31021 0 34 0 1
gene 1 8 29 -2.81204 0 35 0 1
gene 1 9 29 1.23265 0 36 0 1
gene 1 10 29 -2.21687 0 37 0 1
gene 1 11 29 1.47907 0 38 0 1
gene 1 12 29 -1.45468 0 39 0 1
gene 1 13 29 -0.0534385 0 40 0 1
gene 1 14 29 1.85356 0 41 0 1
gene 1 15 29 0.249509 0 42 0 1
gene 1 16 29 2.81135 0 43 0 1
gene 1 17 29 1.17808 0 44 0 1
gene 1 18 29 -2.44174 0 45 0 1
gene 1 19 29 1.1482 0 46 0 1
gene 1 20 29 -0.889508 0 47 0 1
gene 1 21 29 2.13238 0 48 0 1
gene 1 22 29 0.526363 0 49 0 1
gene 1 23 29 -0.869365 0 50 0 1
gene 1 24 29 -2.77657 0 51 0 1
gene 1 25 29 1.71419 0 52 0 1
gene 1 26 29 2.442 0 53 0 1
gene 1 27 29 2.87239 0 54 0 1
gene 1 1 30 -2.85713 0 55 0 1
gene 1 2 30 0.19173 0 56 0 1
gene 1 3 30 1.67825 0 57 0 1
gene 1 4 30 -2.41915 0 58 0 1
gene 1 5 30 -0.923226 0 59 0 1
gene 1 6 30 -0.3669 0 60 0 1
gene 1 7 30 2.35101 0 61 0 1
gene 1 8 30 1.28727 0 62 0 1
gene 1 9 30 -1.50647 0 63 0 1
gene 1 10 30 0.287273 0 64 0 1
gene 1 11 30 -0.317595 0 65 0 1
gene 1 12 30 0.106011 0 66 0 1
gene 1 13 30 0.064166 0 67 0 1
gene 1 14 30 1.18409 0 68 0 1
gene 1 15 30 2.48668 0 69 0 1
gene 1 16 30 -0.915929 0 70 0 1
gene 1 17 30 1.99608 0 71 0 1
gene 1 18 30 -1.57814 0 72 0 1
gene 1 19 30 -1.71403 0 73 0 1
gene 1 20 30 -0.630371 0 74 0 1
gene 1 21 30 0.341305 0 75 0 1
gene 1 22 30 -0.278224 0 76 0 1
gene 1 23 30 0.536559 0 77 0 1
gene 1 24 30 1.99799 0 78 0 1
gene 1 25 30 0.822758 0 79 0 1
gene 1 26 30 -1.59149 0 80 0 1
gene 1 27 30 1.22168 0 81 0 1
genomeend 2
