genomestart 2
trait 1 0 0 0 0 0 0 0 0 
node 1 0 1 1
node 2 0 1 1
node 3 0 1 1
node 4 0 1 1
node 5 0 1 1
node 6 0 1 1
node 7 0 1 1
node 8 0 1 1
node 9 0 1 1
node 10 0 1 1
node 11 0 1 1
node 12 0 1 1
node 13 0 1 1
node 14 0 1 1
node 15 0 1 1
node 16 0 1 1
node 17 0 1 1
node 18 0 1 1
node 19 0 1 1
node 20 0 1 1
node 21 0 1 1
node 22 0 1 1
node 23 0 1 1
node 24 0 1 1
node 25 0 1 1
node 26 0 1 1
node 27 0 1 3
node 28 0 0 2
node 29 0 0 2
node 30 0 0 2
gene 1 1 28 -0.557124 0 1 0 1
gene 1 2 28 0.264537 0 2 0 1
gene 1 3 28 0.965631 0 3 0 1
gene 1 4 28 0.314002 0 4 0 1
gene 1 5 28 -0.970118 0 5 0 1
gene 1 6 28 0.0541212 0 6 0 1
gene 1 7 28 -1.22698 0 7 0 1
gene 1 8 28 3.90977 0 8 0 1
gene 1 9 28 -2.86924 0 9 0 1
gene 1 10 28 -0.389782 0 10 0 1
gene 1 11 28 0.45265 0 11 0 1
gene 1 12 28 -1.03357 0 12 0 1
gene 1 13 28 -0.213394 0 13 0 1
gene 1 14 28 4.70788 0 14 0 1
gene 1 15 28 0.706494 0 15 0 1
gene 1 16 28 1.26506 0 16 0 1
gene 1 17 28 -0.759697 0 17 0 1
gene 1 18 28 -1.10738 0 18 0 1
gene 1 19 28 -1.60912 0 19 0 1
gene 1 20 28 0.669171 0 20 0 1
gene 1 21 28 0.597805 0 21 0 1
gene 1 22 28 -0.835811 0 22 0 1
gene 1 23 28 -2.71643 0 23 0 1
gene 1 24 28 -0.0866184 0 24 0 1
gene 1 25 28 1.24881 0 25 0 1
gene 1 26 28 0.140536 0 26 0 1
gene 1 27 28 -1.92493 0 27 0 1
gene 1 1 29 0.569378 0 28 0 1
gene 1 2 29 1.22395 0 29 0 1
gene 1 3 29 -0.720467 0 30 0 1
gene 1 4 29 1.57238 0 31 0 1
gene 1 5 29 2.25386 0 32 0 1
gene 1 6 29 1.51957 0 33 0 1
gene 1 7 29 1.48873 0 34 0 1
gene 1 8 29 -1.86791 0 35 0 1
gene 1 9 29 0.4965 0 36 0 1
gene 1 10 29 -3.63438 0 37 0 1
gene 1 11 29 0.996744 0 38 0 1
gene 1 12 29 -2.71795 0 39 0 1
gene 1 13 29 1.31614 0 40 0 1
gene 1 14 29 1.58941 0 41 0 1
gene 1 15 29 0.0075019 0 42 0 1
gene 1 16 29 2.19382 0 43 0 1
gene 1 17 29 0.369697 0 44 0 1
gene 1 18 29 -3.88957 0 45 0 1
gene 1 19 29 1.08752 0 46 0 1
gene 1 20 29 -0.788861 0 47 0 1
gene 1 21 29 0.899783 0 48 0 1
gene 1 22 29 -0.0527801 0 49 0 1
gene 1 23 29 -0.0234448 0 50 0 1
gene 1 24 29 -3.43891 0 51 0 1
gene 1 25 29 1.56304 0 52 0 1
gene 1 26 29 2.28316 0 53 0 1
gene 1 27 29 0.989226 0 54 0 1
gene 1 1 30 -2.26936 0 55 0 1
gene 1 2 30 0.434898 0 56 0 1
gene 1 3 30 2.79793 0 57 0 1
gene 1 4 30 -0.954641 0 58 0 1
gene 1 5 30 -0.414012 0 59 0 1
gene 1 6 30 -0.272882 0 60 0 1
gene 1 7 30 4.03051 0 61 0 1
gene 1 8 30 1.4312 0 62 0 1
gene 1 9 30 0.264793 0 63 0 1
gene 1 10 30 -1.25898 0 64 0 1
gene 1 11 30 -0.628205 0 65 0 1
gene 1 12 30 -1.07482 0 66 0 1
gene 1 13 30 -0.155437 0 67 0 1
gene 1 14 30 -0.533285 0 68 0 1
gene 1 15 30 3.79723 0 69 0 1
gene 1 16 30 -0.650005 0 70 0 1
gene 1 17 30 1.18846 0 71 0 1
gene 1 18 30 -1.21348 0 72 0 1
gene 1 19 30 -2.29865 0 73 0 1
gene 1 20 30 -1.2752 0 74 0 1
gene 1 21 30 0.931277 0 75 0 1
gene 1 22 30 -1.90815 0 76 0 1
gene 1 23 30 1.75508 0 77 0 1
gene 1 24 30 2.40733 0 78 0 1
gene 1 25 30 -0.194078 0 79 0 1
gene 1 26 30 -1.15348 0 80 0 1
gene 1 27 30 3.15427 0 81 0 1
genomeend 2
