genomestart 2
trait 1 0 0 0 0 0 0 0 0 
node 1 0 1 1
node 2 0 1 1
node 3 0 1 1
node 4 0 1 1
node 5 0 1 1
node 6 0 1 1
node 7 0 1 1
node 8 0 1 1
node 9 0 1 1
node 10 0 1 1
node 11 0 1 1
node 12 0 1 1
node 13 0 1 1
node 14 0 1 1
node 15 0 1 1
node 16 0 1 1
node 17 0 1 1
node 18 0 1 1
node 19 0 1 1
node 20 0 1 1
node 21 0 1 1
node 22 0 1 1
node 23 0 1 1
node 24 0 1 1
node 25 0 1 1
node 26 0 1 1
node 27 0 1 3
node 28 0 0 2
node 29 0 0 2
node 30 0 0 2
gene 1 1 28 -1.40857 0 1 0 1
gene 1 2 28 -1.20064 0 2 0 1
gene 1 3 28 1.0072 0 3 0 1
gene 1 4 28 1.37899 0 4 0 1
gene 1 5 28 -1.77018 0 5 0 1
gene 1 6 28 1.16173 0 6 0 1
gene 1 7 28 0.398988 0 7 0 1
gene 1 8 28 -0.585583 0 8 0 1
gene 1 9 28 -2.20273 0 9 0 1
gene 1 10 28 0.370711 0 10 0 1
gene 1 11 28 0.239069 0 11 0 1
gene 1 12 28 1.24897 0 12 0 1
gene 1 13 28 -1.37673 0 13 0 1
gene 1 14 28 2.96944 0 14 0 1
gene 1 15 28 0.91975 0 15 0 1
gene 1 16 28 -0.253003 0 16 0 1
gene 1 17 28 0.394057 0 17 0 1
gene 1 18 28 -0.60943 0 18 0 1
gene 1 19 28 -0.994515 0 19 0 1
gene 1 20 28 -1.15958 0 20 0 1
gene 1 21 28 0.142229 0 21 0 1
gene 1 22 28 -0.150964 0 22 0 1
gene 1 23 28 -2.76995 0 23 0 1
gene 1 24 28 2.11345 0 24 0 1
gene 1 25 28 1.56438 0 25 0 1
gene 1 26 28 0.46218 0 26 0 1
gene 1 27 28 -1.29377 0 27 0 1
gene 1 1 29 1.42807 0 28 0 1
gene 1 2 29 2.05072 0 29 0 1
gene 1 3 29 -1.02261 0 30 0 1
gene 1 4 29 0.115359 0 31 0 1
gene 1 5 29 -0.0864088 0 32 0 1
gene 1 6 29 3.77969 0 33 0 1
gene 1 7 29 3.7276 0 34 0 1
gene 1 8 29 -0.467271 0 35 0 1
gene 1 9 29 2.57567 0 36 0 1
gene 1 10 29 -1.75096 0 37 0 1
gene 1 11 29 1.57615 0 38 0 1
gene 1 12 29 -0.0837185 0 39 0 1
gene 1 13 29 1.31934 0 40 0 1
gene 1 14 29 0.318023 0 41 0 1
gene 1 15 29 1.34513 0 42 0 1
gene 1 16 29 1.76727 0 43 0 1
gene 1 17 29 1.6714 0 44 0 1
gene 1 18 29 -2.79036 0 45 0 1
gene 1 19 29 -0.338159 0 46 0 1
gene 1 20 29 -2.96344 0 47 0 1
gene 1 21 29 1.5008 0 48 0 1
gene 1 22 29 -0.385091 0 49 0 1
gene 1 23 29 -3.36184 0 50 0 1
gene 1 24 29 -2.99438 0 51 0 1
gene 1 25 29 0.392199 0 52 0 1
gene 1 26 29 2.4245 0 53 0 1
gene 1 27 29 2.75796 0 54 0 1
gene 1 1 30 -1.49457 0 55 0 1
gene 1 2 30 -0.270831 0 56 0 1
gene 1 3 30 3.20359 0 57 0 1
gene 1 4 30 -2.65349 0 58 0 1
gene 1 5 30 -1.03836 0 59 0 1
gene 1 6 30 0.518755 0 60 0 1
gene 1 7 30 3.34892 0 61 0 1
gene 1 8 30 0.899703 0 62 0 1
gene 1 9 30 -2.16019 0 63 0 1
gene 1 10 30 -1.25124 0 64 0 1
gene 1 11 30 -1.43515 0 65 0 1
gene 1 12 30 1.0118 0 66 0 1
gene 1 13 30 -0.351717 0 67 0 1
gene 1 14 30 -0.108555 0 68 0 1
gene 1 15 30 1.61002 0 69 0 1
gene 1 16 30 -2.89048 0 70 0 1
gene 1 17 30 2.05018 0 71 0 1
gene 1 18 30 -3.41985 0 72 0 1
gene 1 19 30 -0.508083 0 73 0 1
gene 1 20 30 -3.41572 0 74 0 1
gene 1 21 30 0.932092 0 75 0 1
gene 1 22 30 -0.161613 0 76 0 1
gene 1 23 30 -0.309311 0 77 0 1
gene 1 24 30 -0.487289 0 78 0 1
gene 1 25 30 0.232641 0 79 0 1
gene 1 26 30 0.061389 0 80 0 1
gene 1 27 30 2.80405 0 81 0 1
genomeend 2
