genomestart 2
trait 1 0 0 0 0 0 0 0 0 
node 1 0 1 1
node 2 0 1 1
node 3 0 1 1
node 4 0 1 1
node 5 0 1 1
node 6 0 1 1
node 7 0 1 1
node 8 0 1 1
node 9 0 1 1
node 10 0 1 1
node 11 0 1 1
node 12 0 1 1
node 13 0 1 1
node 14 0 1 1
node 15 0 1 1
node 16 0 1 1
node 17 0 1 1
node 18 0 1 1
node 19 0 1 1
node 20 0 1 1
node 21 0 1 1
node 22 0 1 1
node 23 0 1 1
node 24 0 1 1
node 25 0 1 1
node 26 0 1 1
node 27 0 1 3
node 28 0 0 2
node 29 0 0 2
node 30 0 0 2
gene 1 1 28 -0.57142 0 1 0 1
gene 1 2 28 -1.05968 0 2 0 1
gene 1 3 28 0.600285 0 3 0 1
gene 1 4 28 0.930397 0 4 0 1
gene 1 5 28 -1.33796 0 5 0 1
gene 1 6 28 -0.0618395 0 6 0 1
gene 1 7 28 -1.67153 0 7 0 1
gene 1 8 28 1.02139 0 8 0 1
gene 1 9 28 -2.20131 0 9 0 1
gene 1 10 28 0.0608258 0 10 0 1
gene 1 11 28 0.336291 0 11 0 1
gene 1 12 28 0.333847 0 12 0 1
gene 1 13 28 -0.512193 0 13 0 1
gene 1 14 28 3.27637 0 14 0 1
gene 1 15 28 1.42646 0 15 0 1
gene 1 16 28 1.83595 0 16 0 1
gene 1 17 28 1.27773 0 17 0 1
gene 1 18 28 -0.347728 0 18 0 1
gene 1 19 28 -0.859185 0 19 0 1
gene 1 20 28 0.552036 0 20 0 1
gene 1 21 28 1.23327 0 21 0 1
gene 1 22 28 -1.06379 0 22 0 1
gene 1 23 28 -1.59709 0 23 0 1
gene 1 24 28 0.206492 0 24 0 1
gene 1 25 28 2.44231 0 25 0 1
gene 1 26 28 0.623794 0 26 0 1
gene 1 27 28 -1.2324 0 27 0 1
gene 1 1 29 -0.152639 0 28 0 1
gene 1 2 29 0.965668 0 29 0 1
gene 1 3 29 -0.122547 0 30 0 1
gene 1 4 29 1.80227 0 31 0 1
gene 1 5 29 2.2639 0 32 0 1
gene 1 6 29 1.98212 0 33 0 1
gene 1 7 29 2.16769 0 34 0 1
gene 1 8 29 -1.57516 0 35 0 1
gene 1 9 29 1.44337 0 36 0 1
gene 1 10 29 -1.17216 0 37 0 1
gene 1 11 29 1.01244 0 38 0 1
gene 1 12 29 -1.5522 0 39 0 1
gene 1 13 29 -0.606654 0 40 0 1
gene 1 14 29 0.884108 0 41 0 1
gene 1 15 29 -0.559734 0 42 0 1
gene 1 16 29 2.78893 0 43 0 1
gene 1 17 29 -0.148678 0 44 0 1
gene 1 18 29 -1.81317 0 45 0 1
gene 1 19 29 0.653687 0 46 0 1
gene 1 20 29 -1.25678 0 47 0 1
gene 1 21 29 0.221157 0 48 0 1
gene 1 22 29 0.0478042 0 49 0 1
gene 1 23 29 0.23358 0 50 0 1
gene 1 24 29 -1.71514 0 51 0 1
gene 1 25 29 1.86491 0 52 0 1
gene 1 26 29 2.05678 0 53 0 1
gene 1 27 29 2.36602 0 54 0 1
gene 1 1 30 -1.99159 0 55 0 1
gene 1 2 30 1.04041 0 56 0 1
gene 1 3 30 2.17113 0 57 0 1
gene 1 4 30 -2.28421 0 58 0 1
gene 1 5 30 -0.47083 0 59 0 1
gene 1 6 30 -0.189203 0 60 0 1
gene 1 7 30 2.51065 0 61 0 1
gene 1 8 30 2.71365 0 62 0 1
gene 1 9 30 -0.763443 0 63 0 1
gene 1 10 30 0.101784 0 64 0 1
gene 1 11 30 -1.37051 0 65 0 1
gene 1 12 30 0.151421 0 66 0 1
gene 1 13 30 -1.50669 0 67 0 1
gene 1 14 30 0.564579 0 68 0 1
gene 1 15 30 1.96188 0 69 0 1
gene 1 16 30 -0.479477 0 70 0 1
gene 1 17 30 1.48736 0 71 0 1
gene 1 18 30 -2.53569 0 72 0 1
gene 1 19 30 0.288949 0 73 0 1
gene 1 20 30 0.198437 0 74 0 1
gene 1 21 30 -0.429316 0 75 0 1
gene 1 22 30 -0.072542 0 76 0 1
gene 1 23 30 0.641605 0 77 0 1
gene 1 24 30 2.09777 0 78 0 1
gene 1 25 30 0.84391 0 79 0 1
gene 1 26 30 -1.92818 0 80 0 1
gene 1 27 30 0.661985 0 81 0 1
genomeend 2
