genomestart 2
trait 1 0 0 0 0 0 0 0 0 
node 1 0 1 1
node 2 0 1 1
node 3 0 1 1
node 4 0 1 1
node 5 0 1 1
node 6 0 1 1
node 7 0 1 1
node 8 0 1 1
node 9 0 1 1
node 10 0 1 1
node 11 0 1 1
node 12 0 1 1
node 13 0 1 1
node 14 0 1 1
node 15 0 1 1
node 16 0 1 1
node 17 0 1 1
node 18 0 1 1
node 19 0 1 1
node 20 0 1 1
node 21 0 1 1
node 22 0 1 1
node 23 0 1 1
node 24 0 1 1
node 25 0 1 1
node 26 0 1 1
node 27 0 1 3
node 28 0 0 2
node 29 0 0 2
node 30 0 0 2
gene 1 1 28 -0.118487 0 1 0 1
gene 1 2 28 -0.805687 0 2 0 1
gene 1 3 28 -0.592523 0 3 0 1
gene 1 4 28 -1.76893 0 4 0 1
gene 1 5 28 1.78607 0 5 0 1
gene 1 6 28 0.715862 0 6 0 1
gene 1 7 28 -0.140908 0 7 0 1
gene 1 8 28 0.266097 0 8 0 1
gene 1 9 28 0.49797 0 9 0 1
gene 1 10 28 2.5649 0 10 0 1
gene 1 11 28 0.82919 0 11 0 1
gene 1 12 28 2.498 0 12 0 1
gene 1 13 28 0.804205 0 13 0 1
gene 1 14 28 0.787359 0 14 0 1
gene 1 15 28 0.0270033 0 15 0 1
gene 1 16 28 -0.0925784 0 16 0 1
gene 1 17 28 -0.759831 0 17 0 1
gene 1 18 28 -0.695201 0 18 0 1
gene 1 19 28 -0.61355 0 19 0 1
gene 1 20 28 -2.8395 0 20 0 1
gene 1 21 28 -0.166475 0 21 0 1
gene 1 22 28 -1.19538 0 22 0 1
gene 1 23 28 -0.516297 0 23 0 1
gene 1 24 28 -0.995809 0 24 0 1
gene 1 25 28 2.42979 0 25 0 1
gene 1 26 28 -2.20552 0 26 0 1
gene 1 27 28 -0.932703 0 27 0 1
gene 1 1 29 0.608422 0 28 0 1
gene 1 2 29 3.13601 0 29 0 1
gene 1 3 29 0.78354 0 30 0 1
gene 1 4 29 0.54988 0 31 0 1
gene 1 5 29 0.192812 0 32 0 1
gene 1 6 29 1.55654 0 33 0 1
gene 1 7 29 -0.846659 0 34 0 1
gene 1 8 29 0.18167 0 35 0 1
gene 1 9 29 0.87709 0 36 0 1
gene 1 10 29 -1.30414 0 37 0 1
gene 1 11 29 -0.881095 0 38 0 1
gene 1 12 29 -0.971729 0 39 0 1
gene 1 13 29 3.26239 0 40 0 1
gene 1 14 29 1.97515 0 41 0 1
gene 1 15 29 -0.461259 0 42 0 1
gene 1 16 29 -0.0339215 0 43 0 1
gene 1 17 29 -0.00256257 0 44 0 1
gene 1 18 29 1.33004 0 45 0 1
gene 1 19 29 0.0625226 0 46 0 1
gene 1 20 29 -0.815389 0 47 0 1
gene 1 21 29 -0.111193 0 48 0 1
gene 1 22 29 -0.360344 0 49 0 1
gene 1 23 29 0.501638 0 50 0 1
gene 1 24 29 0.529592 0 51 0 1
gene 1 25 29 -0.0647672 0 52 0 1
gene 1 26 29 0.754841 0 53 0 1
gene 1 27 29 -1.27389 0 54 0 1
gene 1 1 30 1.46583 0 55 0 1
gene 1 2 30 -0.0925863 0 56 0 1
gene 1 3 30 -0.115562 0 57 0 1
gene 1 4 30 1.70466 0 58 0 1
gene 1 5 30 -1.70293 0 59 0 1
gene 1 6 30 0.337616 0 60 0 1
gene 1 7 30 -0.2191 0 61 0 1
gene 1 8 30 0.94771 0 62 0 1
gene 1 9 30 0.265749 0 63 0 1
gene 1 10 30 0.450063 0 64 0 1
gene 1 11 30 -0.701057 0 65 0 1
gene 1 12 30 1.17157 0 66 0 1
gene 1 13 30 -0.581378 0 67 0 1
gene 1 14 30 0.769857 0 68 0 1
gene 1 15 30 1.71227 0 69 0 1
gene 1 16 30 -1.16578 0 70 0 1
gene 1 17 30 1.1628 0 71 0 1
gene 1 18 30 0.732683 0 72 0 1
gene 1 19 30 2.51766 0 73 0 1
gene 1 20 30 -0.0758863 0 74 0 1
gene 1 21 30 2.10745 0 75 0 1
gene 1 22 30 -1.8107 0 76 0 1
gene 1 23 30 -1.69556 0 77 0 1
gene 1 24 30 2.02334 0 78 0 1
gene 1 25 30 0.103439 0 79 0 1
gene 1 26 30 0.134114 0 80 0 1
gene 1 27 30 -1.38837 0 81 0 1
genomeend 2
