genomestart 3
trait 1 0 0 0 0 0 0 0 0 
node 1 0 1 1
node 2 0 1 1
node 3 0 1 1
node 4 0 1 1
node 5 0 1 1
node 6 0 1 1
node 7 0 1 1
node 8 0 1 1
node 9 0 1 1
node 10 0 1 1
node 11 0 1 1
node 12 0 1 1
node 13 0 1 3
node 14 0 0 2
node 15 0 0 2
gene 1 1 14 4.22451 0 1 0 1
gene 1 2 14 1.96671 0 2 0 1
gene 1 3 14 -2.24584 0 3 0 1
gene 1 4 14 -5.47648 0 4 0 1
gene 1 5 14 -1.6771 0 5 0 1
gene 1 6 14 -2.75706 0 6 0 1
gene 1 7 14 -8.57855 0 7 0 1
gene 1 8 14 2.41002 0 8 0 1
gene 1 9 14 -1.37505 0 9 0 1
gene 1 10 14 8.44955 0 10 0 1
gene 1 11 14 2.51992 0 11 0 1
gene 1 12 14 -5.42621 0 12 0 1
gene 1 13 14 -7.85368 0 13 0 1
gene 1 1 15 3.03304 0 14 0 1
gene 1 2 15 -1.37008 0 15 0 1
gene 1 3 15 -5.04305 0 16 0 1
gene 1 4 15 10.0421 0 17 0 1
gene 1 5 15 -4.88936 0 18 0 1
gene 1 6 15 1.94688 0 19 0 1
gene 1 7 15 -3.95632 0 20 0 1
gene 1 8 15 0.370678 0 21 0 1
gene 1 9 15 -1.44083 0 22 0 1
gene 1 10 15 -1.73207 0 23 0 1
gene 1 11 15 5.2576 0 24 0 1
gene 1 12 15 -2.5341 0 25 0 1
gene 1 13 15 -3.75502 0 26 0 1
genomeend 3
