genomestart 3
trait 1 0 0 0 0 0 0 0 0 
node 1 0 1 1
node 2 0 1 1
node 3 0 1 1
node 4 0 1 1
node 5 0 1 1
node 6 0 1 1
node 7 0 1 1
node 8 0 1 1
node 9 0 1 1
node 10 0 1 1
node 11 0 1 1
node 12 0 1 1
node 13 0 1 3
node 14 0 0 2
node 15 0 0 2
gene 1 1 14 2.29389 0 1 0 1
gene 1 2 14 0.102263 0 2 0 1
gene 1 3 14 -1.95084 0 3 0 1
gene 1 4 14 -1.78266 0 4 0 1
gene 1 5 14 0.328506 0 5 0 1
gene 1 6 14 -1.3018 0 6 0 1
gene 1 7 14 -9.36404 0 7 0 1
gene 1 8 14 1.72016 0 8 0 1
gene 1 9 14 0.273808 0 9 0 1
gene 1 10 14 6.86854 0 10 0 1
gene 1 11 14 7.95378 0 11 0 1
gene 1 12 14 -7.70112 0 12 0 1
gene 1 13 14 -8.03153 0 13 0 1
gene 1 1 15 2.53535 0 14 0 1
gene 1 2 15 -3.68315 0 15 0 1
gene 1 3 15 -3.55764 0 16 0 1
gene 1 4 15 10.5616 0 17 0 1
gene 1 5 15 -3.56374 0 18 0 1
gene 1 6 15 1.96219 0 19 0 1
gene 1 7 15 -3.82835 0 20 0 1
gene 1 8 15 1.82584 0 21 0 1
gene 1 9 15 -1.46964 0 22 0 1
gene 1 10 15 -1.56194 0 23 0 1
gene 1 11 15 3.60091 0 24 0 1
gene 1 12 15 -0.604548 0 25 0 1
gene 1 13 15 -1.67654 0 26 0 1
genomeend 3
