genomestart 3
trait 1 0 0 0 0 0 0 0 0 
node 1 0 1 1
node 2 0 1 1
node 3 0 1 1
node 4 0 1 1
node 5 0 1 1
node 6 0 1 1
node 7 0 1 1
node 8 0 1 1
node 9 0 1 1
node 10 0 1 1
node 11 0 1 1
node 12 0 1 1
node 13 0 1 3
node 14 0 0 2
node 15 0 0 2
gene 1 1 14 -3.10404 0 1 0 1
gene 1 2 14 -4.64746 0 2 0 1
gene 1 3 14 2.22713 0 3 0 1
gene 1 4 14 -1.56226 0 4 0 1
gene 1 5 14 1.23837 0 5 0 1
gene 1 6 14 -0.953877 0 6 0 1
gene 1 7 14 -3.58783 0 7 0 1
gene 1 8 14 -3.50805 0 8 0 1
gene 1 9 14 2.86958 0 9 0 1
gene 1 10 14 2.37382 0 10 0 1
gene 1 11 14 3.84573 0 11 0 1
gene 1 12 14 -6.60533 0 12 0 1
gene 1 13 14 -2.52613 0 13 0 1
gene 1 1 15 3.90446 0 14 0 1
gene 1 2 15 -7.98967 0 15 0 1
gene 1 3 15 1.73421 0 16 0 1
gene 1 4 15 8.68332 0 17 0 1
gene 1 5 15 -3.23645 0 18 0 1
gene 1 6 15 2.49989 0 19 0 1
gene 1 7 15 -3.23991 0 20 0 1
gene 1 8 15 2.32996 0 21 0 1
gene 1 9 15 0.350477 0 22 0 1
gene 1 10 15 1.70527 0 23 0 1
gene 1 11 15 2.69924 0 24 0 1
gene 1 12 15 -1.81315 0 25 0 1
gene 1 13 15 -3.17696 0 26 0 1
genomeend 3
