genomestart 2
trait 1 0 0 0 0 0 0 0 0 
node 1 0 1 1
node 2 0 1 1
node 3 0 1 1
node 4 0 1 1
node 5 0 1 1
node 6 0 1 1
node 7 0 1 1
node 8 0 1 1
node 9 0 1 1
node 10 0 1 1
node 11 0 1 1
node 12 0 1 1
node 13 0 1 1
node 14 0 1 1
node 15 0 1 1
node 16 0 1 1
node 17 0 1 1
node 18 0 1 1
node 19 0 1 1
node 20 0 1 1
node 21 0 1 1
node 22 0 1 1
node 23 0 1 1
node 24 0 1 1
node 25 0 1 1
node 26 0 1 1
node 27 0 1 3
node 28 0 0 2
node 29 0 0 2
node 30 0 0 2
gene 1 1 28 -0.775734 0 1 0 1
gene 1 2 28 -0.430334 0 2 0 1
gene 1 3 28 0.449982 0 3 0 1
gene 1 4 28 0.0878876 0 4 0 1
gene 1 5 28 -1.27523 0 5 0 1
gene 1 6 28 -1.00732 0 6 0 1
gene 1 7 28 -1.86922 0 7 0 1
gene 1 8 28 1.19406 0 8 0 1
gene 1 9 28 -3.50967 0 9 0 1
gene 1 10 28 -0.204418 0 10 0 1
gene 1 11 28 0.479151 0 11 0 1
gene 1 12 28 -0.442091 0 12 0 1
gene 1 13 28 -0.0975504 0 13 0 1
gene 1 14 28 3.55235 0 14 0 1
gene 1 15 28 0.293763 0 15 0 1
gene 1 16 28 1.73094 0 16 0 1
gene 1 17 28 -0.273455 0 17 0 1
gene 1 18 28 0.12509 0 18 0 1
gene 1 19 28 -2.19358 0 19 0 1
gene 1 20 28 0.462324 0 20 0 1
gene 1 21 28 0.488884 0 21 0 1
gene 1 22 28 -1.00608 0 22 0 1
gene 1 23 28 -0.918399 0 23 0 1
gene 1 24 28 1.58238 0 24 0 1
gene 1 25 28 2.04849 0 25 0 1
gene 1 26 28 0.527272 0 26 0 1
gene 1 27 28 -2.09206 0 27 0 1
gene 1 1 29 0.489671 0 28 0 1
gene 1 2 29 0.835796 0 29 0 1
gene 1 3 29 -1.99578 0 30 0 1
gene 1 4 29 0.900208 0 31 0 1
gene 1 5 29 1.24634 0 32 0 1
gene 1 6 29 2.57045 0 33 0 1
gene 1 7 29 3.18083 0 34 0 1
gene 1 8 29 -3.15632 0 35 0 1
gene 1 9 29 0.996572 0 36 0 1
gene 1 10 29 -1.74332 0 37 0 1
gene 1 11 29 1.7188 0 38 0 1
gene 1 12 29 -1.24549 0 39 0 1
gene 1 13 29 0.109401 0 40 0 1
gene 1 14 29 1.98866 0 41 0 1
gene 1 15 29 0.303293 0 42 0 1
gene 1 16 29 2.73075 0 43 0 1
gene 1 17 29 1.36678 0 44 0 1
gene 1 18 29 -2.29152 0 45 0 1
gene 1 19 29 0.72852 0 46 0 1
gene 1 20 29 -0.485604 0 47 0 1
gene 1 21 29 1.61987 0 48 0 1
gene 1 22 29 0.434766 0 49 0 1
gene 1 23 29 -0.904019 0 50 0 1
gene 1 24 29 -2.91015 0 51 0 1
gene 1 25 29 1.65295 0 52 0 1
gene 1 26 29 2.41876 0 53 0 1
gene 1 27 29 2.91106 0 54 0 1
gene 1 1 30 -2.67414 0 55 0 1
gene 1 2 30 0.658441 0 56 0 1
gene 1 3 30 1.91403 0 57 0 1
gene 1 4 30 -1.89272 0 58 0 1
gene 1 5 30 -1.01889 0 59 0 1
gene 1 6 30 -0.30833 0 60 0 1
gene 1 7 30 2.79713 0 61 0 1
gene 1 8 30 1.39066 0 62 0 1
gene 1 9 30 -1.62562 0 63 0 1
gene 1 10 30 0.322003 0 64 0 1
gene 1 11 30 -0.196963 0 65 0 1
gene 1 12 30 0.499408 0 66 0 1
gene 1 13 30 -0.414985 0 67 0 1
gene 1 14 30 0.826226 0 68 0 1
gene 1 15 30 2.47531 0 69 0 1
gene 1 16 30 -1.10616 0 70 0 1
gene 1 17 30 2.19027 0 71 0 1
gene 1 18 30 -1.6082 0 72 0 1
gene 1 19 30 -1.67087 0 73 0 1
gene 1 20 30 -0.915244 0 74 0 1
gene 1 21 30 0.369072 0 75 0 1
gene 1 22 30 -0.261593 0 76 0 1
gene 1 23 30 0.586158 0 77 0 1
gene 1 24 30 1.87151 0 78 0 1
gene 1 25 30 1.29289 0 79 0 1
gene 1 26 30 -1.66728 0 80 0 1
gene 1 27 30 0.989881 0 81 0 1
genomeend 2
