genomestart 2
trait 1 0 0 0 0 0 0 0 0 
node 1 0 1 1
node 2 0 1 1
node 3 0 1 1
node 4 0 1 1
node 5 0 1 1
node 6 0 1 1
node 7 0 1 1
node 8 0 1 1
node 9 0 1 1
node 10 0 1 1
node 11 0 1 1
node 12 0 1 1
node 13 0 1 1
node 14 0 1 1
node 15 0 1 1
node 16 0 1 1
node 17 0 1 1
node 18 0 1 1
node 19 0 1 1
node 20 0 1 1
node 21 0 1 1
node 22 0 1 1
node 23 0 1 1
node 24 0 1 1
node 25 0 1 1
node 26 0 1 1
node 27 0 1 3
node 28 0 0 2
node 29 0 0 2
node 30 0 0 2
gene 1 1 28 -0.242852 0 1 0 1
gene 1 2 28 -1.4867 0 2 0 1
gene 1 3 28 0.341132 0 3 0 1
gene 1 4 28 1.80998 0 4 0 1
gene 1 5 28 -2.28642 0 5 0 1
gene 1 6 28 -0.768562 0 6 0 1
gene 1 7 28 -0.758084 0 7 0 1
gene 1 8 28 0.550296 0 8 0 1
gene 1 9 28 -3.3419 0 9 0 1
gene 1 10 28 -0.717383 0 10 0 1
gene 1 11 28 0.844178 0 11 0 1
gene 1 12 28 -0.655771 0 12 0 1
gene 1 13 28 -1.32268 0 13 0 1
gene 1 14 28 4.31539 0 14 0 1
gene 1 15 28 0.756927 0 15 0 1
gene 1 16 28 0.885883 0 16 0 1
gene 1 17 28 1.03955 0 17 0 1
gene 1 18 28 -0.706989 0 18 0 1
gene 1 19 28 -2.46987 0 19 0 1
gene 1 20 28 -0.72899 0 20 0 1
gene 1 21 28 -0.647202 0 21 0 1
gene 1 22 28 -0.788422 0 22 0 1
gene 1 23 28 -1.2263 0 23 0 1
gene 1 24 28 1.71654 0 24 0 1
gene 1 25 28 2.68563 0 25 0 1
gene 1 26 28 0.552257 0 26 0 1
gene 1 27 28 -3.14787 0 27 0 1
gene 1 1 29 1.26768 0 28 0 1
gene 1 2 29 1.85345 0 29 0 1
gene 1 3 29 -1.03739 0 30 0 1
gene 1 4 29 0.13627 0 31 0 1
gene 1 5 29 -0.418945 0 32 0 1
gene 1 6 29 2.99618 0 33 0 1
gene 1 7 29 3.87967 0 34 0 1
gene 1 8 29 -3.21365 0 35 0 1
gene 1 9 29 0.191123 0 36 0 1
gene 1 10 29 -1.64122 0 37 0 1
gene 1 11 29 2.20244 0 38 0 1
gene 1 12 29 -0.00849584 0 39 0 1
gene 1 13 29 0.311958 0 40 0 1
gene 1 14 29 2.32348 0 41 0 1
gene 1 15 29 0.146612 0 42 0 1
gene 1 16 29 2.4606 0 43 0 1
gene 1 17 29 1.37956 0 44 0 1
gene 1 18 29 -2.6439 0 45 0 1
gene 1 19 29 -0.983437 0 46 0 1
gene 1 20 29 -0.784643 0 47 0 1
gene 1 21 29 1.48721 0 48 0 1
gene 1 22 29 1.19289 0 49 0 1
gene 1 23 29 -2.68891 0 50 0 1
gene 1 24 29 -3.90021 0 51 0 1
gene 1 25 29 3.31864 0 52 0 1
gene 1 26 29 2.4547 0 53 0 1
gene 1 27 29 2.27146 0 54 0 1
gene 1 1 30 -1.11474 0 55 0 1
gene 1 2 30 -0.292981 0 56 0 1
gene 1 3 30 3.83423 0 57 0 1
gene 1 4 30 -2.13372 0 58 0 1
gene 1 5 30 -0.976929 0 59 0 1
gene 1 6 30 -0.598906 0 60 0 1
gene 1 7 30 4.4918 0 61 0 1
gene 1 8 30 1.97164 0 62 0 1
gene 1 9 30 -1.32412 0 63 0 1
gene 1 10 30 -0.069163 0 64 0 1
gene 1 11 30 -1.17984 0 65 0 1
gene 1 12 30 -0.173215 0 66 0 1
gene 1 13 30 0.52662 0 67 0 1
gene 1 14 30 1.77007 0 68 0 1
gene 1 15 30 1.97005 0 69 0 1
gene 1 16 30 -0.250228 0 70 0 1
gene 1 17 30 1.35767 0 71 0 1
gene 1 18 30 -1.61149 0 72 0 1
gene 1 19 30 -1.51834 0 73 0 1
gene 1 20 30 -1.54836 0 74 0 1
gene 1 21 30 1.20693 0 75 0 1
gene 1 22 30 1.31834 0 76 0 1
gene 1 23 30 -0.116189 0 77 0 1
gene 1 24 30 2.60704 0 78 0 1
gene 1 25 30 1.2543 0 79 0 1
gene 1 26 30 -1.00126 0 80 0 1
gene 1 27 30 0.985032 0 81 0 1
genomeend 2
