genomestart 2
trait 1 0 0 0 0 0 0 0 0 
node 1 0 1 1
node 2 0 1 1
node 3 0 1 1
node 4 0 1 1
node 5 0 1 1
node 6 0 1 1
node 7 0 1 1
node 8 0 1 1
node 9 0 1 1
node 10 0 1 1
node 11 0 1 1
node 12 0 1 1
node 13 0 1 1
node 14 0 1 1
node 15 0 1 1
node 16 0 1 1
node 17 0 1 1
node 18 0 1 1
node 19 0 1 1
node 20 0 1 1
node 21 0 1 1
node 22 0 1 1
node 23 0 1 1
node 24 0 1 1
node 25 0 1 1
node 26 0 1 1
node 27 0 1 3
node 28 0 0 2
node 29 0 0 2
node 30 0 0 2
gene 1 1 28 -1.11802 0 1 0 1
gene 1 2 28 -1.03604 0 2 0 1
gene 1 3 28 0.939093 0 3 0 1
gene 1 4 28 1.92764 0 4 0 1
gene 1 5 28 -2.46536 0 5 0 1
gene 1 6 28 0.34058 0 6 0 1
gene 1 7 28 0.176938 0 7 0 1
gene 1 8 28 0.305923 0 8 0 1
gene 1 9 28 -1.52569 0 9 0 1
gene 1 10 28 0.959572 0 10 0 1
gene 1 11 28 2.80843 0 11 0 1
gene 1 12 28 1.74949 0 12 0 1
gene 1 13 28 -1.19303 0 13 0 1
gene 1 14 28 1.63951 0 14 0 1
gene 1 15 28 0.49318 0 15 0 1
gene 1 16 28 2.05902 0 16 0 1
gene 1 17 28 1.48017 0 17 0 1
gene 1 18 28 0.00428149 0 18 0 1
gene 1 19 28 -1.09191 0 19 0 1
gene 1 20 28 -1.41723 0 20 0 1
gene 1 21 28 -0.255191 0 21 0 1
gene 1 22 28 -0.796189 0 22 0 1
gene 1 23 28 -2.32713 0 23 0 1
gene 1 24 28 0.557376 0 24 0 1
gene 1 25 28 3.89274 0 25 0 1
gene 1 26 28 0.07368 0 26 0 1
gene 1 27 28 -1.96513 0 27 0 1
gene 1 1 29 -1.02256 0 28 0 1
gene 1 2 29 0.716681 0 29 0 1
gene 1 3 29 -0.0635851 0 30 0 1
gene 1 4 29 -0.115041 0 31 0 1
gene 1 5 29 0.676626 0 32 0 1
gene 1 6 29 2.75 0 33 0 1
gene 1 7 29 0.330525 0 34 0 1
gene 1 8 29 1.23242 0 35 0 1
gene 1 9 29 0.775851 0 36 0 1
gene 1 10 29 0.470434 0 37 0 1
gene 1 11 29 -0.515973 0 38 0 1
gene 1 12 29 -0.123802 0 39 0 1
gene 1 13 29 1.54169 0 40 0 1
gene 1 14 29 0.630266 0 41 0 1
gene 1 15 29 -2.8068 0 42 0 1
gene 1 16 29 1.58589 0 43 0 1
gene 1 17 29 0.856816 0 44 0 1
gene 1 18 29 -1.12644 0 45 0 1
gene 1 19 29 -0.794523 0 46 0 1
gene 1 20 29 -0.267293 0 47 0 1
gene 1 21 29 -1.22615 0 48 0 1
gene 1 22 29 0.369251 0 49 0 1
gene 1 23 29 -0.921775 0 50 0 1
gene 1 24 29 -0.763215 0 51 0 1
gene 1 25 29 1.64562 0 52 0 1
gene 1 26 29 0.841073 0 53 0 1
gene 1 27 29 0.43735 0 54 0 1
gene 1 1 30 -2.02948 0 55 0 1
gene 1 2 30 0.5309 0 56 0 1
gene 1 3 30 1.52055 0 57 0 1
gene 1 4 30 0.363816 0 58 0 1
gene 1 5 30 1.85277 0 59 0 1
gene 1 6 30 1.31972 0 60 0 1
gene 1 7 30 -0.887175 0 61 0 1
gene 1 8 30 1.74347 0 62 0 1
gene 1 9 30 0.1503 0 63 0 1
gene 1 10 30 -0.199842 0 64 0 1
gene 1 11 30 -2.3069 0 65 0 1
gene 1 12 30 -0.165851 0 66 0 1
gene 1 13 30 -1.7929 0 67 0 1
gene 1 14 30 -3.05775 0 68 0 1
gene 1 15 30 1.55495 0 69 0 1
gene 1 16 30 -1.06536 0 70 0 1
gene 1 17 30 -0.321477 0 71 0 1
gene 1 18 30 0.876943 0 72 0 1
gene 1 19 30 -2.42015 0 73 0 1
gene 1 20 30 0.808275 0 74 0 1
gene 1 21 30 0.269763 0 75 0 1
gene 1 22 30 -1.61738 0 76 0 1
gene 1 23 30 0.629233 0 77 0 1
gene 1 24 30 1.48105 0 78 0 1
gene 1 25 30 2.61633 0 79 0 1
gene 1 26 30 -0.0459251 0 80 0 1
gene 1 27 30 1.62334 0 81 0 1
genomeend 2
