genomestart 3
trait 1 0 0 0 0 0 0 0 0 
node 1 0 1 1
node 2 0 1 1
node 3 0 1 1
node 4 0 1 1
node 5 0 1 1
node 6 0 1 1
node 7 0 1 1
node 8 0 1 1
node 9 0 1 1
node 10 0 1 1
node 11 0 1 1
node 12 0 1 1
node 13 0 1 3
node 14 0 0 2
node 15 0 0 2
gene 1 1 14 0.0922914 0 1 0 1
gene 1 2 14 -0.899421 0 2 0 1
gene 1 3 14 -0.264925 0 3 0 1
gene 1 4 14 -1.82322 0 4 0 1
gene 1 5 14 -0.327279 0 5 0 1
gene 1 6 14 -2.78933 0 6 0 1
gene 1 7 14 -4.84634 0 7 0 1
gene 1 8 14 2.11804 0 8 0 1
gene 1 9 14 -0.935916 0 9 0 1
gene 1 10 14 5.45815 0 10 0 1
gene 1 11 14 3.35332 0 11 0 1
gene 1 12 14 -5.23514 0 12 0 1
gene 1 13 14 -5.32576 0 13 0 1
gene 1 1 15 2.63264 0 14 0 1
gene 1 2 15 -4.80953 0 15 0 1
gene 1 3 15 -1.03498 0 16 0 1
gene 1 4 15 6.69945 0 17 0 1
gene 1 5 15 -5.13609 0 18 0 1
gene 1 6 15 0.219691 0 19 0 1
gene 1 7 15 -5.03032 0 20 0 1
gene 1 8 15 1.76491 0 21 0 1
gene 1 9 15 -1.77085 0 22 0 1
gene 1 10 15 3.19344 0 23 0 1
gene 1 11 15 3.21993 0 24 0 1
gene 1 12 15 -0.880605 0 25 0 1
gene 1 13 15 -2.58109 0 26 0 1
genomeend 3
