genomestart 2
trait 1 0 0 0 0 0 0 0 0 
node 1 0 1 1
node 2 0 1 1
node 3 0 1 1
node 4 0 1 1
node 5 0 1 1
node 6 0 1 1
node 7 0 1 1
node 8 0 1 1
node 9 0 1 1
node 10 0 1 1
node 11 0 1 1
node 12 0 1 1
node 13 0 1 1
node 14 0 1 1
node 15 0 1 1
node 16 0 1 1
node 17 0 1 1
node 18 0 1 1
node 19 0 1 1
node 20 0 1 1
node 21 0 1 1
node 22 0 1 1
node 23 0 1 1
node 24 0 1 1
node 25 0 1 3
node 26 0 0 2
node 27 0 0 2
gene 1 1 26 -2.63866 0 1 -2.63866 1
gene 1 2 26 -3.02285 0 2 -3.02285 1
gene 1 3 26 0.544643 0 3 0.544643 1
gene 1 4 26 -0.711998 0 4 -0.711998 1
gene 1 5 26 -0.309055 0 5 -0.309055 1
gene 1 6 26 1.07118 0 6 1.07118 1
gene 1 7 26 -1.57331 0 7 -1.57331 1
gene 1 8 26 -4.26584 0 8 -4.26584 1
gene 1 9 26 -0.773843 0 9 -0.773843 1
gene 1 10 26 -1.06625 0 10 -1.06625 1
gene 1 11 26 -1.36632 0 11 -1.36632 1
gene 1 12 26 -0.483741 0 12 -0.483741 1
gene 1 13 26 -0.958277 0 13 -0.958277 1
gene 1 14 26 -0.166837 0 14 -0.166837 1
gene 1 15 26 1.23022 0 15 1.23022 1
gene 1 16 26 -1.30315 0 16 -1.30315 1
gene 1 17 26 -0.731135 0 17 -0.731135 1
gene 1 18 26 -3.1885 0 18 -3.1885 1
gene 1 19 26 -1.96377 0 19 -1.96377 1
gene 1 20 26 3.56284 0 20 3.56284 1
gene 1 21 26 -0.175671 0 21 -0.175671 1
gene 1 22 26 0.694856 0 22 0.694856 1
gene 1 23 26 -0.632891 0 23 -0.632891 1
gene 1 24 26 -0.144419 0 24 -0.144419 1
gene 1 25 26 2.54734 0 25 2.54734 1
gene 1 1 27 0.673826 0 26 0.673826 1
gene 1 2 27 -1.0443 0 27 -1.0443 1
gene 1 3 27 0.774211 0 28 0.774211 1
gene 1 4 27 -1.20064 0 29 -1.20064 1
gene 1 5 27 1.30854 0 30 1.30854 1
gene 1 6 27 -1.10322 0 31 -1.10322 1
gene 1 7 27 -0.659978 0 32 -0.659978 1
gene 1 8 27 0.867681 0 33 0.867681 1
gene 1 9 27 -0.925505 0 34 -0.925505 1
gene 1 10 27 0.133822 0 35 0.133822 1
gene 1 11 27 -1.55432 0 36 -1.55432 1
gene 1 12 27 -2.1166 0 37 -2.1166 1
gene 1 13 27 1.24932 0 38 1.24932 1
gene 1 14 27 2.18425 0 39 2.18425 1
gene 1 15 27 1.06847 0 40 1.06847 1
gene 1 16 27 0.988089 0 41 0.988089 1
gene 1 17 27 -0.800945 0 42 -0.800945 1
gene 1 18 27 -0.716228 0 43 -0.716228 1
gene 1 19 27 -0.25469 0 44 -0.25469 1
gene 1 20 27 -0.198191 0 45 -0.198191 1
gene 1 21 27 0.364103 0 46 0.364103 1
gene 1 22 27 -0.611216 0 47 -0.611216 1
gene 1 23 27 0.755644 0 48 0.755644 1
gene 1 24 27 -0.246877 0 49 -0.246877 1
gene 1 27 26 -0.0220961 0 50 -0.0220961 1
gene 1 25 27 1.1831 0 50 1.1831 1
genomeend 2
