genomestart 2
trait 1 0 0 0 0 0 0 0 0 
node 1 0 1 1
node 2 0 1 1
node 3 0 1 1
node 4 0 1 1
node 5 0 1 1
node 6 0 1 1
node 7 0 1 1
node 8 0 1 1
node 9 0 1 1
node 10 0 1 1
node 11 0 1 1
node 12 0 1 1
node 13 0 1 1
node 14 0 1 1
node 15 0 1 1
node 16 0 1 1
node 17 0 1 1
node 18 0 1 1
node 19 0 1 1
node 20 0 1 1
node 21 0 1 1
node 22 0 1 1
node 23 0 1 1
node 24 0 1 1
node 25 0 1 1
node 26 0 1 1
node 27 0 1 3
node 28 0 0 2
node 29 0 0 2
node 30 0 0 2
gene 1 1 28 -0.629769 0 1 0 1
gene 1 2 28 -1.37481 0 2 0 1
gene 1 3 28 1.17554 0 3 0 1
gene 1 4 28 1.11912 0 4 0 1
gene 1 5 28 -1.74746 0 5 0 1
gene 1 6 28 -1.17593 0 6 0 1
gene 1 7 28 -1.02974 0 7 0 1
gene 1 8 28 0.58758 0 8 0 1
gene 1 9 28 -2.58865 0 9 0 1
gene 1 10 28 -0.214629 0 10 0 1
gene 1 11 28 0.563162 0 11 0 1
gene 1 12 28 -0.382419 0 12 0 1
gene 1 13 28 -1.25421 0 13 0 1
gene 1 14 28 3.77102 0 14 0 1
gene 1 15 28 -0.167985 0 15 0 1
gene 1 16 28 1.75625 0 16 0 1
gene 1 17 28 0.633797 0 17 0 1
gene 1 18 28 -1.43221 0 18 0 1
gene 1 19 28 -2.18768 0 19 0 1
gene 1 20 28 -0.449096 0 20 0 1
gene 1 21 28 0.303716 0 21 0 1
gene 1 22 28 0.632713 0 22 0 1
gene 1 23 28 -1.30485 0 23 0 1
gene 1 24 28 1.1333 0 24 0 1
gene 1 25 28 1.39053 0 25 0 1
gene 1 26 28 0.868937 0 26 0 1
gene 1 27 28 -2.25736 0 27 0 1
gene 1 1 29 -0.314047 0 28 0 1
gene 1 2 29 1.225 0 29 0 1
gene 1 3 29 -1.42238 0 30 0 1
gene 1 4 29 0.220853 0 31 0 1
gene 1 5 29 0.102167 0 32 0 1
gene 1 6 29 3.4237 0 33 0 1
gene 1 7 29 3.40191 0 34 0 1
gene 1 8 29 -2.41094 0 35 0 1
gene 1 9 29 0.936349 0 36 0 1
gene 1 10 29 -1.68537 0 37 0 1
gene 1 11 29 2.43122 0 38 0 1
gene 1 12 29 -0.86246 0 39 0 1
gene 1 13 29 0.476013 0 40 0 1
gene 1 14 29 2.28053 0 41 0 1
gene 1 15 29 0.375893 0 42 0 1
gene 1 16 29 2.76187 0 43 0 1
gene 1 17 29 1.3166 0 44 0 1
gene 1 18 29 -1.83867 0 45 0 1
gene 1 19 29 -0.432602 0 46 0 1
gene 1 20 29 -0.429047 0 47 0 1
gene 1 21 29 1.94014 0 48 0 1
gene 1 22 29 0.815374 0 49 0 1
gene 1 23 29 -2.04907 0 50 0 1
gene 1 24 29 -3.05807 0 51 0 1
gene 1 25 29 1.79136 0 52 0 1
gene 1 26 29 3.80692 0 53 0 1
gene 1 27 29 3.3262 0 54 0 1
gene 1 1 30 -1.60263 0 55 0 1
gene 1 2 30 -0.138538 0 56 0 1
gene 1 3 30 2.41796 0 57 0 1
gene 1 4 30 -3.01622 0 58 0 1
gene 1 5 30 -0.267027 0 59 0 1
gene 1 6 30 -0.501687 0 60 0 1
gene 1 7 30 4.08311 0 61 0 1
gene 1 8 30 1.27432 0 62 0 1
gene 1 9 30 -1.39639 0 63 0 1
gene 1 10 30 -0.147048 0 64 0 1
gene 1 11 30 -0.778803 0 65 0 1
gene 1 12 30 0.85311 0 66 0 1
gene 1 13 30 -0.0782122 0 67 0 1
gene 1 14 30 0.949053 0 68 0 1
gene 1 15 30 2.36265 0 69 0 1
gene 1 16 30 -0.596228 0 70 0 1
gene 1 17 30 1.82556 0 71 0 1
gene 1 18 30 -2.08283 0 72 0 1
gene 1 19 30 -2.24867 0 73 0 1
gene 1 20 30 -0.72073 0 74 0 1
gene 1 21 30 0.17627 0 75 0 1
gene 1 22 30 0.0807159 0 76 0 1
gene 1 23 30 1.16074 0 77 0 1
gene 1 24 30 2.2303 0 78 0 1
gene 1 25 30 0.619937 0 79 0 1
gene 1 26 30 -0.190323 0 80 0 1
gene 1 27 30 0.858042 0 81 0 1
genomeend 2
