genomestart 2
trait 1 0 0 0 0 0 0 0 0 
node 1 0 1 1
node 2 0 1 1
node 3 0 1 1
node 4 0 1 1
node 5 0 1 1
node 6 0 1 1
node 7 0 1 1
node 8 0 1 1
node 9 0 1 1
node 10 0 1 1
node 11 0 1 1
node 12 0 1 1
node 13 0 1 1
node 14 0 1 1
node 15 0 1 1
node 16 0 1 1
node 17 0 1 1
node 18 0 1 1
node 19 0 1 1
node 20 0 1 1
node 21 0 1 1
node 22 0 1 1
node 23 0 1 1
node 24 0 1 1
node 25 0 1 1
node 26 0 1 1
node 27 0 1 3
node 28 0 0 2
node 29 0 0 2
node 30 0 0 2
gene 1 1 28 -1.07424 0 1 0 1
gene 1 2 28 -1.19925 0 2 0 1
gene 1 3 28 0.808542 0 3 0 1
gene 1 4 28 0.82868 0 4 0 1
gene 1 5 28 -1.26505 0 5 0 1
gene 1 6 28 -0.362288 0 6 0 1
gene 1 7 28 -1.72233 0 7 0 1
gene 1 8 28 0.541882 0 8 0 1
gene 1 9 28 -2.62983 0 9 0 1
gene 1 10 28 0.231357 0 10 0 1
gene 1 11 28 0.684271 0 11 0 1
gene 1 12 28 0.342473 0 12 0 1
gene 1 13 28 0.0736803 0 13 0 1
gene 1 14 28 2.83452 0 14 0 1
gene 1 15 28 0.713694 0 15 0 1
gene 1 16 28 1.49728 0 16 0 1
gene 1 17 28 1.46903 0 17 0 1
gene 1 18 28 -0.206602 0 18 0 1
gene 1 19 28 -1.09396 0 19 0 1
gene 1 20 28 -0.118607 0 20 0 1
gene 1 21 28 0.399881 0 21 0 1
gene 1 22 28 -1.19751 0 22 0 1
gene 1 23 28 -1.8977 0 23 0 1
gene 1 24 28 0.427663 0 24 0 1
gene 1 25 28 2.83917 0 25 0 1
gene 1 26 28 0.723178 0 26 0 1
gene 1 27 28 -0.739257 0 27 0 1
gene 1 1 29 -0.294135 0 28 0 1
gene 1 2 29 0.631498 0 29 0 1
gene 1 3 29 -1.20886 0 30 0 1
gene 1 4 29 1.46075 0 31 0 1
gene 1 5 29 1.12961 0 32 0 1
gene 1 6 29 1.62251 0 33 0 1
gene 1 7 29 2.13863 0 34 0 1
gene 1 8 29 -1.65389 0 35 0 1
gene 1 9 29 1.12554 0 36 0 1
gene 1 10 29 -1.40548 0 37 0 1
gene 1 11 29 0.325896 0 38 0 1
gene 1 12 29 -1.06992 0 39 0 1
gene 1 13 29 -0.466043 0 40 0 1
gene 1 14 29 0.566758 0 41 0 1
gene 1 15 29 -0.528129 0 42 0 1
gene 1 16 29 1.61549 0 43 0 1
gene 1 17 29 0.429857 0 44 0 1
gene 1 18 29 -1.6816 0 45 0 1
gene 1 19 29 -0.0274356 0 46 0 1
gene 1 20 29 -1.35692 0 47 0 1
gene 1 21 29 0.330027 0 48 0 1
gene 1 22 29 0.472606 0 49 0 1
gene 1 23 29 -0.0332476 0 50 0 1
gene 1 24 29 -1.18763 0 51 0 1
gene 1 25 29 1.11188 0 52 0 1
gene 1 26 29 1.7514 0 53 0 1
gene 1 27 29 1.6802 0 54 0 1
gene 1 1 30 -1.75282 0 55 0 1
gene 1 2 30 0.975324 0 56 0 1
gene 1 3 30 1.45918 0 57 0 1
gene 1 4 30 -1.50044 0 58 0 1
gene 1 5 30 -0.424176 0 59 0 1
gene 1 6 30 0.250452 0 60 0 1
gene 1 7 30 1.65853 0 61 0 1
gene 1 8 30 2.36344 0 62 0 1
gene 1 9 30 -0.751677 0 63 0 1
gene 1 10 30 1.00088 0 64 0 1
gene 1 11 30 -1.95067 0 65 0 1
gene 1 12 30 0.449551 0 66 0 1
gene 1 13 30 -1.4908 0 67 0 1
gene 1 14 30 0.428667 0 68 0 1
gene 1 15 30 2.36313 0 69 0 1
gene 1 16 30 -1.26733 0 70 0 1
gene 1 17 30 1.01991 0 71 0 1
gene 1 18 30 -2.46276 0 72 0 1
gene 1 19 30 -0.571114 0 73 0 1
gene 1 20 30 0.692289 0 74 0 1
gene 1 21 30 -1.18252 0 75 0 1
gene 1 22 30 -0.487537 0 76 0 1
gene 1 23 30 0.611495 0 77 0 1
gene 1 24 30 1.02318 0 78 0 1
gene 1 25 30 1.19553 0 79 0 1
gene 1 26 30 -1.0338 0 80 0 1
gene 1 27 30 0.370132 0 81 0 1
genomeend 2
