genomestart 7
trait 1 0 0 0 0 0 0 0 0 
node 1 0 1 1
node 2 0 1 1
node 3 0 1 1
node 4 0 1 1
node 5 0 1 1
node 6 0 1 1
node 7 0 1 1
node 8 0 1 1
node 9 0 1 1
node 10 0 1 1
node 11 0 1 1
node 12 0 1 1
node 13 0 1 3
node 14 0 0 2
node 15 0 0 2
gene 1 1 14 0.836784 0 1 0 1
gene 1 2 14 2.04911 0 2 0 1
gene 1 3 14 -1.81837 0 3 0 1
gene 1 4 14 3.93289 0 4 0 1
gene 1 5 14 5.53722 0 5 0 1
gene 1 6 14 3.17885 0 6 0 1
gene 1 7 14 -5.88262 0 7 0 1
gene 1 8 14 -8.44579 0 8 0 1
gene 1 9 14 3.54592 0 9 0 1
gene 1 10 14 -3.48392 0 10 0 1
gene 1 11 14 3.80873 0 11 0 1
gene 1 12 14 4.89374 0 12 0 1
gene 1 13 14 -3.56822 0 13 0 1
gene 1 1 15 1.71905 0 14 0 1
gene 1 2 15 0.946296 0 15 0 1
gene 1 3 15 2.92848 0 16 0 1
gene 1 4 15 5.52054 0 17 0 1
gene 1 5 15 -1.55251 0 18 0 1
gene 1 6 15 2.7578 0 19 0 1
gene 1 7 15 4.13057 0 20 0 1
gene 1 8 15 -4.18482 0 21 0 1
gene 1 9 15 3.86288 0 22 0 1
gene 1 10 15 0.139065 0 23 0 1
gene 1 11 15 1.50901 0 24 0 1
gene 1 12 15 3.59162 0 25 0 1
gene 1 13 15 -6.45353 0 26 0 1
genomeend 7
