genomestart 2
trait 1 0 0 0 0 0 0 0 0 
node 1 0 1 1
node 2 0 1 1
node 3 0 1 1
node 4 0 1 1
node 5 0 1 1
node 6 0 1 1
node 7 0 1 1
node 8 0 1 1
node 9 0 1 1
node 10 0 1 1
node 11 0 1 1
node 12 0 1 1
node 13 0 1 1
node 14 0 1 1
node 15 0 1 1
node 16 0 1 1
node 17 0 1 1
node 18 0 1 1
node 19 0 1 1
node 20 0 1 1
node 21 0 1 1
node 22 0 1 1
node 23 0 1 1
node 24 0 1 1
node 25 0 1 1
node 26 0 1 1
node 27 0 1 3
node 28 0 0 2
node 29 0 0 2
node 30 0 0 2
gene 1 1 28 -1.09571 0 1 0 1
gene 1 2 28 -0.744714 0 2 0 1
gene 1 3 28 0.977643 0 3 0 1
gene 1 4 28 0.343719 0 4 0 1
gene 1 5 28 -0.952054 0 5 0 1
gene 1 6 28 -0.11701 0 6 0 1
gene 1 7 28 -1.36882 0 7 0 1
gene 1 8 28 1.95951 0 8 0 1
gene 1 9 28 -2.39444 0 9 0 1
gene 1 10 28 -0.276001 0 10 0 1
gene 1 11 28 0.868122 0 11 0 1
gene 1 12 28 0.255923 0 12 0 1
gene 1 13 28 0.610222 0 13 0 1
gene 1 14 28 3.31966 0 14 0 1
gene 1 15 28 0.632717 0 15 0 1
gene 1 16 28 2.13449 0 16 0 1
gene 1 17 28 0.971821 0 17 0 1
gene 1 18 28 -0.651186 0 18 0 1
gene 1 19 28 -1.42 0 19 0 1
gene 1 20 28 0.383643 0 20 0 1
gene 1 21 28 0.547939 0 21 0 1
gene 1 22 28 -1.01723 0 22 0 1
gene 1 23 28 -1.36012 0 23 0 1
gene 1 24 28 0.418195 0 24 0 1
gene 1 25 28 2.26153 0 25 0 1
gene 1 26 28 1.20875 0 26 0 1
gene 1 27 28 -1.29472 0 27 0 1
gene 1 1 29 0.0178938 0 28 0 1
gene 1 2 29 0.361296 0 29 0 1
gene 1 3 29 -1.32654 0 30 0 1
gene 1 4 29 0.903952 0 31 0 1
gene 1 5 29 1.99246 0 32 0 1
gene 1 6 29 1.99637 0 33 0 1
gene 1 7 29 1.96214 0 34 0 1
gene 1 8 29 -2.36645 0 35 0 1
gene 1 9 29 0.727553 0 36 0 1
gene 1 10 29 -2.16188 0 37 0 1
gene 1 11 29 0.634566 0 38 0 1
gene 1 12 29 -2.10244 0 39 0 1
gene 1 13 29 0.70564 0 40 0 1
gene 1 14 29 1.89322 0 41 0 1
gene 1 15 29 -0.268989 0 42 0 1
gene 1 16 29 2.65942 0 43 0 1
gene 1 17 29 -0.0153538 0 44 0 1
gene 1 18 29 -2.87299 0 45 0 1
gene 1 19 29 0.844798 0 46 0 1
gene 1 20 29 -0.83601 0 47 0 1
gene 1 21 29 1.55028 0 48 0 1
gene 1 22 29 0.302401 0 49 0 1
gene 1 23 29 -0.454286 0 50 0 1
gene 1 24 29 -2.18982 0 51 0 1
gene 1 25 29 1.89248 0 52 0 1
gene 1 26 29 2.73324 0 53 0 1
gene 1 27 29 2.36048 0 54 0 1
gene 1 1 30 -2.52746 0 55 0 1
gene 1 2 30 0.681286 0 56 0 1
gene 1 3 30 1.31554 0 57 0 1
gene 1 4 30 -2.23311 0 58 0 1
gene 1 5 30 -0.847637 0 59 0 1
gene 1 6 30 -0.650508 0 60 0 1
gene 1 7 30 3.19244 0 61 0 1
gene 1 8 30 1.77275 0 62 0 1
gene 1 9 30 -0.621911 0 63 0 1
gene 1 10 30 0.498364 0 64 0 1
gene 1 11 30 -0.628409 0 65 0 1
gene 1 12 30 0.0945759 0 66 0 1
gene 1 13 30 -0.810804 0 67 0 1
gene 1 14 30 0.212542 0 68 0 1
gene 1 15 30 3.31058 0 69 0 1
gene 1 16 30 -1.35031 0 70 0 1
gene 1 17 30 1.54825 0 71 0 1
gene 1 18 30 -2.40147 0 72 0 1
gene 1 19 30 -1.28807 0 73 0 1
gene 1 20 30 0.20589 0 74 0 1
gene 1 21 30 -0.210938 0 75 0 1
gene 1 22 30 -0.221397 0 76 0 1
gene 1 23 30 0.99442 0 77 0 1
gene 1 24 30 2.54397 0 78 0 1
gene 1 25 30 0.629823 0 79 0 1
gene 1 26 30 -1.15869 0 80 0 1
gene 1 27 30 1.04624 0 81 0 1
genomeend 2
