genomestart 3
trait 1 0 0 0 0 0 0 0 0 
node 1 0 1 1
node 2 0 1 1
node 3 0 1 1
node 4 0 1 1
node 5 0 1 1
node 6 0 1 1
node 7 0 1 1
node 8 0 1 1
node 9 0 1 1
node 10 0 1 1
node 11 0 1 1
node 12 0 1 1
node 13 0 1 3
node 14 0 0 2
node 15 0 0 2
gene 1 1 14 3.35953 0 1 0 1
gene 1 2 14 1.15028 0 2 0 1
gene 1 3 14 -2.75846 0 3 0 1
gene 1 4 14 -5.74008 0 4 0 1
gene 1 5 14 -1.11617 0 5 0 1
gene 1 6 14 -1.56065 0 6 0 1
gene 1 7 14 -8.47524 0 7 0 1
gene 1 8 14 2.05823 0 8 0 1
gene 1 9 14 -1.42019 0 9 0 1
gene 1 10 14 7.36834 0 10 0 1
gene 1 11 14 3.26524 0 11 0 1
gene 1 12 14 -6.3931 0 12 0 1
gene 1 13 14 -6.14407 0 13 0 1
gene 1 1 15 2.90409 0 14 0 1
gene 1 2 15 -2.3344 0 15 0 1
gene 1 3 15 -4.39557 0 16 0 1
gene 1 4 15 10.6195 0 17 0 1
gene 1 5 15 -3.26362 0 18 0 1
gene 1 6 15 1.53363 0 19 0 1
gene 1 7 15 -3.56041 0 20 0 1
gene 1 8 15 -0.748318 0 21 0 1
gene 1 9 15 -1.1622 0 22 0 1
gene 1 10 15 -0.645798 0 23 0 1
gene 1 11 15 5.15567 0 24 0 1
gene 1 12 15 -3.43149 0 25 0 1
gene 1 13 15 -2.69444 0 26 0 1
genomeend 3
