genomestart 3
trait 1 0 0 0 0 0 0 0 0 
node 1 0 1 1
node 2 0 1 1
node 3 0 1 1
node 4 0 1 1
node 5 0 1 1
node 6 0 1 1
node 7 0 1 1
node 8 0 1 1
node 9 0 1 1
node 10 0 1 1
node 11 0 1 1
node 12 0 1 1
node 13 0 1 3
node 14 0 0 2
node 15 0 0 2
gene 1 1 14 2.24229 0 1 0 1
gene 1 2 14 -1.68481 0 2 0 1
gene 1 3 14 -2.14739 0 3 0 1
gene 1 4 14 -1.11845 0 4 0 1
gene 1 5 14 1.02301 0 5 0 1
gene 1 6 14 -0.881067 0 6 0 1
gene 1 7 14 -8.92453 0 7 0 1
gene 1 8 14 1.41035 0 8 0 1
gene 1 9 14 -1.27687 0 9 0 1
gene 1 10 14 7.57994 0 10 0 1
gene 1 11 14 7.74472 0 11 0 1
gene 1 12 14 -7.26903 0 12 0 1
gene 1 13 14 -6.94291 0 13 0 1
gene 1 1 15 1.6667 0 14 0 1
gene 1 2 15 -2.40834 0 15 0 1
gene 1 3 15 -2.48767 0 16 0 1
gene 1 4 15 10.2486 0 17 0 1
gene 1 5 15 -2.51884 0 18 0 1
gene 1 6 15 2.01964 0 19 0 1
gene 1 7 15 -3.56828 0 20 0 1
gene 1 8 15 2.54234 0 21 0 1
gene 1 9 15 -2.52242 0 22 0 1
gene 1 10 15 -1.48199 0 23 0 1
gene 1 11 15 2.68463 0 24 0 1
gene 1 12 15 -1.75802 0 25 0 1
gene 1 13 15 -2.28617 0 26 0 1
genomeend 3
