genomestart 2
trait 1 0 0 0 0 0 0 0 0 
node 1 0 1 1
node 2 0 1 1
node 3 0 1 1
node 4 0 1 1
node 5 0 1 1
node 6 0 1 1
node 7 0 1 1
node 8 0 1 1
node 9 0 1 1
node 10 0 1 1
node 11 0 1 1
node 12 0 1 1
node 13 0 1 1
node 14 0 1 1
node 15 0 1 1
node 16 0 1 1
node 17 0 1 1
node 18 0 1 1
node 19 0 1 1
node 20 0 1 1
node 21 0 1 1
node 22 0 1 1
node 23 0 1 1
node 24 0 1 1
node 25 0 1 1
node 26 0 1 1
node 27 0 1 3
node 28 0 0 2
node 29 0 0 2
node 30 0 0 2
gene 1 1 28 -0.435955 0 1 0 1
gene 1 2 28 -1.26315 0 2 0 1
gene 1 3 28 0.459817 0 3 0 1
gene 1 4 28 0.954475 0 4 0 1
gene 1 5 28 -2.72262 0 5 0 1
gene 1 6 28 0.639012 0 6 0 1
gene 1 7 28 -0.253606 0 7 0 1
gene 1 8 28 -0.348125 0 8 0 1
gene 1 9 28 -2.57661 0 9 0 1
gene 1 10 28 0.316978 0 10 0 1
gene 1 11 28 1.24222 0 11 0 1
gene 1 12 28 0.723008 0 12 0 1
gene 1 13 28 -0.945174 0 13 0 1
gene 1 14 28 2.10031 0 14 0 1
gene 1 15 28 0.0249916 0 15 0 1
gene 1 16 28 -0.703659 0 16 0 1
gene 1 17 28 -0.501908 0 17 0 1
gene 1 18 28 -0.634827 0 18 0 1
gene 1 19 28 -2.30868 0 19 0 1
gene 1 20 28 -1.78255 0 20 0 1
gene 1 21 28 0.577157 0 21 0 1
gene 1 22 28 0.444983 0 22 0 1
gene 1 23 28 -2.83826 0 23 0 1
gene 1 24 28 2.13178 0 24 0 1
gene 1 25 28 1.93344 0 25 0 1
gene 1 26 28 -0.0249368 0 26 0 1
gene 1 27 28 -1.70506 0 27 0 1
gene 1 1 29 0.709916 0 28 0 1
gene 1 2 29 0.921926 0 29 0 1
gene 1 3 29 -1.34425 0 30 0 1
gene 1 4 29 0.978727 0 31 0 1
gene 1 5 29 0.231882 0 32 0 1
gene 1 6 29 3.39825 0 33 0 1
gene 1 7 29 3.01198 0 34 0 1
gene 1 8 29 -1.69678 0 35 0 1
gene 1 9 29 1.82846 0 36 0 1
gene 1 10 29 -1.5686 0 37 0 1
gene 1 11 29 1.68058 0 38 0 1
gene 1 12 29 0.0102099 0 39 0 1
gene 1 13 29 1.02671 0 40 0 1
gene 1 14 29 2.13694 0 41 0 1
gene 1 15 29 1.46686 0 42 0 1
gene 1 16 29 1.57467 0 43 0 1
gene 1 17 29 1.74426 0 44 0 1
gene 1 18 29 -2.54112 0 45 0 1
gene 1 19 29 -0.600687 0 46 0 1
gene 1 20 29 -1.74884 0 47 0 1
gene 1 21 29 2.30255 0 48 0 1
gene 1 22 29 -0.210941 0 49 0 1
gene 1 23 29 -1.5701 0 50 0 1
gene 1 24 29 -3.91735 0 51 0 1
gene 1 25 29 0.425838 0 52 0 1
gene 1 26 29 2.33505 0 53 0 1
gene 1 27 29 2.73297 0 54 0 1
gene 1 1 30 -2.14672 0 55 0 1
gene 1 2 30 -0.411157 0 56 0 1
gene 1 3 30 3.06794 0 57 0 1
gene 1 4 30 -2.66893 0 58 0 1
gene 1 5 30 -0.49573 0 59 0 1
gene 1 6 30 1.36703 0 60 0 1
gene 1 7 30 4.35848 0 61 0 1
gene 1 8 30 0.832312 0 62 0 1
gene 1 9 30 -1.7837 0 63 0 1
gene 1 10 30 -0.236252 0 64 0 1
gene 1 11 30 -2.05924 0 65 0 1
gene 1 12 30 0.717201 0 66 0 1
gene 1 13 30 0.672232 0 67 0 1
gene 1 14 30 1.44603 0 68 0 1
gene 1 15 30 2.77783 0 69 0 1
gene 1 16 30 -2.55102 0 70 0 1
gene 1 17 30 1.82804 0 71 0 1
gene 1 18 30 -2.469 0 72 0 1
gene 1 19 30 -1.14068 0 73 0 1
gene 1 20 30 -2.57552 0 74 0 1
gene 1 21 30 0.61968 0 75 0 1
gene 1 22 30 0.166815 0 76 0 1
gene 1 23 30 -0.0445849 0 77 0 1
gene 1 24 30 0.721035 0 78 0 1
gene 1 25 30 1.17729 0 79 0 1
gene 1 26 30 -0.00306688 0 80 0 1
gene 1 27 30 2.13904 0 81 0 1
genomeend 2
