genomestart 3
trait 1 0 0 0 0 0 0 0 0 
node 1 0 1 1
node 2 0 1 1
node 3 0 1 1
node 4 0 1 1
node 5 0 1 1
node 6 0 1 1
node 7 0 1 1
node 8 0 1 1
node 9 0 1 1
node 10 0 1 1
node 11 0 1 1
node 12 0 1 1
node 13 0 1 3
node 14 0 0 2
node 15 0 0 2
gene 1 1 14 -3.90001 0 1 0 1
gene 1 2 14 -4.28306 0 2 0 1
gene 1 3 14 1.85432 0 3 0 1
gene 1 4 14 -2.47251 0 4 0 1
gene 1 5 14 1.4539 0 5 0 1
gene 1 6 14 -0.325623 0 6 0 1
gene 1 7 14 -3.79361 0 7 0 1
gene 1 8 14 -3.41263 0 8 0 1
gene 1 9 14 2.71405 0 9 0 1
gene 1 10 14 2.75675 0 10 0 1
gene 1 11 14 3.73227 0 11 0 1
gene 1 12 14 -6.51345 0 12 0 1
gene 1 13 14 -2.60858 0 13 0 1
gene 1 1 15 3.74404 0 14 0 1
gene 1 2 15 -7.42545 0 15 0 1
gene 1 3 15 1.96445 0 16 0 1
gene 1 4 15 8.11599 0 17 0 1
gene 1 5 15 -2.8867 0 18 0 1
gene 1 6 15 2.09278 0 19 0 1
gene 1 7 15 -3.38298 0 20 0 1
gene 1 8 15 3.25158 0 21 0 1
gene 1 9 15 0.514194 0 22 0 1
gene 1 10 15 2.25966 0 23 0 1
gene 1 11 15 2.13268 0 24 0 1
gene 1 12 15 -2.18959 0 25 0 1
gene 1 13 15 -2.57293 0 26 0 1
genomeend 3
