genomestart 7
trait 1 0 0 0 0 0 0 0 0 
node 1 0 1 1
node 2 0 1 1
node 3 0 1 1
node 4 0 1 1
node 5 0 1 1
node 6 0 1 1
node 7 0 1 1
node 8 0 1 1
node 9 0 1 1
node 10 0 1 1
node 11 0 1 1
node 12 0 1 1
node 13 0 1 3
node 14 0 0 2
node 15 0 0 2
gene 1 1 14 1.14523 0 1 0 1
gene 1 2 14 1.0163 0 2 0 1
gene 1 3 14 -0.889188 0 3 0 1
gene 1 4 14 3.66579 0 4 0 1
gene 1 5 14 5.12806 0 5 0 1
gene 1 6 14 5.01586 0 6 0 1
gene 1 7 14 -4.77676 0 7 0 1
gene 1 8 14 -8.25162 0 8 0 1
gene 1 9 14 3.08141 0 9 0 1
gene 1 10 14 -1.74475 0 10 0 1
gene 1 11 14 4.23235 0 11 0 1
gene 1 12 14 4.48664 0 12 0 1
gene 1 13 14 -1.74022 0 13 0 1
gene 1 1 15 0.0421946 0 14 0 1
gene 1 2 15 2.50567 0 15 0 1
gene 1 3 15 1.27296 0 16 0 1
gene 1 4 15 4.97102 0 17 0 1
gene 1 5 15 -0.192518 0 18 0 1
gene 1 6 15 1.31451 0 19 0 1
gene 1 7 15 4.35782 0 20 0 1
gene 1 8 15 -1.01799 0 21 0 1
gene 1 9 15 5.3811 0 22 0 1
gene 1 10 15 1.64635 0 23 0 1
gene 1 11 15 3.01942 0 24 0 1
gene 1 12 15 5.19923 0 25 0 1
gene 1 13 15 -6.71136 0 26 0 1
genomeend 7
