genomestart 2
trait 1 0 0 0 0 0 0 0 0 
node 1 0 1 1
node 2 0 1 1
node 3 0 1 1
node 4 0 1 1
node 5 0 1 1
node 6 0 1 1
node 7 0 1 1
node 8 0 1 1
node 9 0 1 1
node 10 0 1 1
node 11 0 1 1
node 12 0 1 1
node 13 0 1 1
node 14 0 1 1
node 15 0 1 1
node 16 0 1 1
node 17 0 1 1
node 18 0 1 1
node 19 0 1 1
node 20 0 1 1
node 21 0 1 1
node 22 0 1 1
node 23 0 1 1
node 24 0 1 1
node 25 0 1 1
node 26 0 1 1
node 27 0 1 3
node 28 0 0 2
node 29 0 0 2
node 30 0 0 2
gene 1 1 28 -0.0815561 0 1 0 1
gene 1 2 28 -0.40108 0 2 0 1
gene 1 3 28 -0.362248 0 3 0 1
gene 1 4 28 -1.23439 0 4 0 1
gene 1 5 28 2.34511 0 5 0 1
gene 1 6 28 0.310621 0 6 0 1
gene 1 7 28 -0.993006 0 7 0 1
gene 1 8 28 1.08225 0 8 0 1
gene 1 9 28 0.393241 0 9 0 1
gene 1 10 28 2.56176 0 10 0 1
gene 1 11 28 0.908326 0 11 0 1
gene 1 12 28 1.78823 0 12 0 1
gene 1 13 28 0.561073 0 13 0 1
gene 1 14 28 0.341228 0 14 0 1
gene 1 15 28 -0.643241 0 15 0 1
gene 1 16 28 0.303562 0 16 0 1
gene 1 17 28 -0.532578 0 17 0 1
gene 1 18 28 -0.332937 0 18 0 1
gene 1 19 28 0.00882613 0 19 0 1
gene 1 20 28 -2.22207 0 20 0 1
gene 1 21 28 -0.368319 0 21 0 1
gene 1 22 28 -0.490099 0 22 0 1
gene 1 23 28 -0.76881 0 23 0 1
gene 1 24 28 -0.30598 0 24 0 1
gene 1 25 28 3.48898 0 25 0 1
gene 1 26 28 -2.31545 0 26 0 1
gene 1 27 28 -0.813577 0 27 0 1
gene 1 1 29 -0.0368296 0 28 0 1
gene 1 2 29 1.71351 0 29 0 1
gene 1 3 29 -0.720955 0 30 0 1
gene 1 4 29 -0.089457 0 31 0 1
gene 1 5 29 -0.416592 0 32 0 1
gene 1 6 29 1.98976 0 33 0 1
gene 1 7 29 -0.522076 0 34 0 1
gene 1 8 29 0.0676651 0 35 0 1
gene 1 9 29 0.951703 0 36 0 1
gene 1 10 29 -1.01749 0 37 0 1
gene 1 11 29 -0.88372 0 38 0 1
gene 1 12 29 -0.916776 0 39 0 1
gene 1 13 29 2.73334 0 40 0 1
gene 1 14 29 1.60906 0 41 0 1
gene 1 15 29 0.168987 0 42 0 1
gene 1 16 29 0.225709 0 43 0 1
gene 1 17 29 0.270789 0 44 0 1
gene 1 18 29 0.25742 0 45 0 1
gene 1 19 29 0.441601 0 46 0 1
gene 1 20 29 -0.56538 0 47 0 1
gene 1 21 29 -0.502362 0 48 0 1
gene 1 22 29 0.016358 0 49 0 1
gene 1 23 29 0.354371 0 50 0 1
gene 1 24 29 0.402239 0 51 0 1
gene 1 25 29 -0.53156 0 52 0 1
gene 1 26 29 0.95167 0 53 0 1
gene 1 27 29 -1.06628 0 54 0 1
gene 1 1 30 0.518739 0 55 0 1
gene 1 2 30 -0.567534 0 56 0 1
gene 1 3 30 0.479322 0 57 0 1
gene 1 4 30 0.716201 0 58 0 1
gene 1 5 30 -1.20561 0 59 0 1
gene 1 6 30 0.169899 0 60 0 1
gene 1 7 30 -0.218823 0 61 0 1
gene 1 8 30 0.835125 0 62 0 1
gene 1 9 30 0.729351 0 63 0 1
gene 1 10 30 0.366537 0 64 0 1
gene 1 11 30 -0.32775 0 65 0 1
gene 1 12 30 1.29452 0 66 0 1
gene 1 13 30 -1.83077 0 67 0 1
gene 1 14 30 -0.0321718 0 68 0 1
gene 1 15 30 0.870887 0 69 0 1
gene 1 16 30 -0.368624 0 70 0 1
gene 1 17 30 1.23426 0 71 0 1
gene 1 18 30 0.244192 0 72 0 1
gene 1 19 30 2.56037 0 73 0 1
gene 1 20 30 -0.156326 0 74 0 1
gene 1 21 30 1.20074 0 75 0 1
gene 1 22 30 -1.28222 0 76 0 1
gene 1 23 30 -1.72959 0 77 0 1
gene 1 24 30 1.93738 0 78 0 1
gene 1 25 30 0.435555 0 79 0 1
gene 1 26 30 0.417854 0 80 0 1
gene 1 27 30 -1.31144 0 81 0 1
genomeend 2
