genomestart 3
trait 1 0 0 0 0 0 0 0 0 
node 1 0 1 1
node 2 0 1 1
node 3 0 1 1
node 4 0 1 1
node 5 0 1 1
node 6 0 1 1
node 7 0 1 1
node 8 0 1 1
node 9 0 1 1
node 10 0 1 1
node 11 0 1 1
node 12 0 1 1
node 13 0 1 3
node 14 0 0 2
node 15 0 0 2
gene 1 1 14 3.60281 0 1 0 1
gene 1 2 14 -3.45182 0 2 0 1
gene 1 3 14 0.250078 0 3 0 1
gene 1 4 14 -3.85195 0 4 0 1
gene 1 5 14 -1.60517 0 5 0 1
gene 1 6 14 -4.12183 0 6 0 1
gene 1 7 14 -3.03213 0 7 0 1
gene 1 8 14 -1.42644 0 8 0 1
gene 1 9 14 -0.443587 0 9 0 1
gene 1 10 14 5.97099 0 10 0 1
gene 1 11 14 1.626 0 11 0 1
gene 1 12 14 -3.76842 0 12 0 1
gene 1 13 14 -3.07389 0 13 0 1
gene 1 1 15 4.21617 0 14 0 1
gene 1 2 15 -2.31306 0 15 0 1
gene 1 3 15 -0.0610577 0 16 0 1
gene 1 4 15 10.419 0 17 0 1
gene 1 5 15 -3.63927 0 18 0 1
gene 1 6 15 -1.07654 0 19 0 1
gene 1 7 15 -1.34201 0 20 0 1
gene 1 8 15 3.59163 0 21 0 1
gene 1 9 15 -1.18651 0 22 0 1
gene 1 10 15 1.51544 0 23 0 1
gene 1 11 15 2.85151 0 24 0 1
gene 1 12 15 -3.46833 0 25 0 1
gene 1 13 15 -4.03189 0 26 0 1
genomeend 3
