genomestart 3
trait 1 0 0 0 0 0 0 0 0 
node 1 0 1 1
node 2 0 1 1
node 3 0 1 1
node 4 0 1 1
node 5 0 1 1
node 6 0 1 1
node 7 0 1 1
node 8 0 1 1
node 9 0 1 1
node 10 0 1 1
node 11 0 1 1
node 12 0 1 1
node 13 0 1 3
node 14 0 0 2
node 15 0 0 2
gene 1 1 14 1.19064 0 1 0 1
gene 1 2 14 2.31296 0 2 0 1
gene 1 3 14 -2.83015 0 3 0 1
gene 1 4 14 -3.28454 0 4 0 1
gene 1 5 14 -1.9377 0 5 0 1
gene 1 6 14 -1.93062 0 6 0 1
gene 1 7 14 -5.01842 0 7 0 1
gene 1 8 14 -1.03649 0 8 0 1
gene 1 9 14 -2.81981 0 9 0 1
gene 1 10 14 9.65111 0 10 0 1
gene 1 11 14 2.84432 0 11 0 1
gene 1 12 14 -4.06745 0 12 0 1
gene 1 13 14 -5.61122 0 13 0 1
gene 1 1 15 3.52758 0 14 0 1
gene 1 2 15 -4.8928 0 15 0 1
gene 1 3 15 -0.515791 0 16 0 1
gene 1 4 15 6.59998 0 17 0 1
gene 1 5 15 -4.59176 0 18 0 1
gene 1 6 15 0.96249 0 19 0 1
gene 1 7 15 -4.73023 0 20 0 1
gene 1 8 15 1.50756 0 21 0 1
gene 1 9 15 0.228902 0 22 0 1
gene 1 10 15 -0.455533 0 23 0 1
gene 1 11 15 4.08478 0 24 0 1
gene 1 12 15 -2.95555 0 25 0 1
gene 1 13 15 -2.55844 0 26 0 1
genomeend 3
