genomestart 2
trait 1 0 0 0 0 0 0 0 0 
node 1 0 1 1
node 2 0 1 1
node 3 0 1 1
node 4 0 1 1
node 5 0 1 1
node 6 0 1 1
node 7 0 1 1
node 8 0 1 1
node 9 0 1 1
node 10 0 1 1
node 11 0 1 1
node 12 0 1 1
node 13 0 1 1
node 14 0 1 1
node 15 0 1 1
node 16 0 1 1
node 17 0 1 1
node 18 0 1 1
node 19 0 1 1
node 20 0 1 1
node 21 0 1 1
node 22 0 1 1
node 23 0 1 1
node 24 0 1 1
node 25 0 1 1
node 26 0 1 1
node 27 0 1 3
node 28 0 0 2
node 29 0 0 2
node 30 0 0 2
gene 1 1 28 -0.838523 0 1 0 1
gene 1 2 28 -0.873013 0 2 0 1
gene 1 3 28 0.518173 0 3 0 1
gene 1 4 28 0.790725 0 4 0 1
gene 1 5 28 -1.52373 0 5 0 1
gene 1 6 28 -1.05208 0 6 0 1
gene 1 7 28 -1.46207 0 7 0 1
gene 1 8 28 0.843797 0 8 0 1
gene 1 9 28 -3.59211 0 9 0 1
gene 1 10 28 -0.127204 0 10 0 1
gene 1 11 28 0.249842 0 11 0 1
gene 1 12 28 -0.174282 0 12 0 1
gene 1 13 28 -0.231166 0 13 0 1
gene 1 14 28 3.37569 0 14 0 1
gene 1 15 28 0.0702031 0 15 0 1
gene 1 16 28 1.94192 0 16 0 1
gene 1 17 28 0.0630818 0 17 0 1
gene 1 18 28 0.0556908 0 18 0 1
gene 1 19 28 -2.46489 0 19 0 1
gene 1 20 28 0.235148 0 20 0 1
gene 1 21 28 0.472124 0 21 0 1
gene 1 22 28 -1.09659 0 22 0 1
gene 1 23 28 -0.335097 0 23 0 1
gene 1 24 28 1.70253 0 24 0 1
gene 1 25 28 1.95978 0 25 0 1
gene 1 26 28 1.01671 0 26 0 1
gene 1 27 28 -2.25515 0 27 0 1
gene 1 1 29 0.230633 0 28 0 1
gene 1 2 29 1.17778 0 29 0 1
gene 1 3 29 -2.20872 0 30 0 1
gene 1 4 29 1.67114 0 31 0 1
gene 1 5 29 0.750929 0 32 0 1
gene 1 6 29 3.17143 0 33 0 1
gene 1 7 29 3.17525 0 34 0 1
gene 1 8 29 -3.06792 0 35 0 1
gene 1 9 29 0.938714 0 36 0 1
gene 1 10 29 -1.87411 0 37 0 1
gene 1 11 29 1.7371 0 38 0 1
gene 1 12 29 -1.27468 0 39 0 1
gene 1 13 29 -0.0576329 0 40 0 1
gene 1 14 29 1.55876 0 41 0 1
gene 1 15 29 0.759626 0 42 0 1
gene 1 16 29 2.29811 0 43 0 1
gene 1 17 29 1.16813 0 44 0 1
gene 1 18 29 -2.56387 0 45 0 1
gene 1 19 29 0.859535 0 46 0 1
gene 1 20 29 -0.775789 0 47 0 1
gene 1 21 29 1.55804 0 48 0 1
gene 1 22 29 0.188119 0 49 0 1
gene 1 23 29 -1.04549 0 50 0 1
gene 1 24 29 -3.12196 0 51 0 1
gene 1 25 29 2.05732 0 52 0 1
gene 1 26 29 2.31338 0 53 0 1
gene 1 27 29 2.6863 0 54 0 1
gene 1 1 30 -2.51622 0 55 0 1
gene 1 2 30 0.586151 0 56 0 1
gene 1 3 30 2.29432 0 57 0 1
gene 1 4 30 -1.60676 0 58 0 1
gene 1 5 30 -1.53086 0 59 0 1
gene 1 6 30 0.0808368 0 60 0 1
gene 1 7 30 3.26463 0 61 0 1
gene 1 8 30 1.09197 0 62 0 1
gene 1 9 30 -1.76926 0 63 0 1
gene 1 10 30 0.213049 0 64 0 1
gene 1 11 30 -0.741401 0 65 0 1
gene 1 12 30 0.254384 0 66 0 1
gene 1 13 30 -0.664777 0 67 0 1
gene 1 14 30 0.658352 0 68 0 1
gene 1 15 30 2.78606 0 69 0 1
gene 1 16 30 -0.91572 0 70 0 1
gene 1 17 30 2.36515 0 71 0 1
gene 1 18 30 -1.16603 0 72 0 1
gene 1 19 30 -1.585 0 73 0 1
gene 1 20 30 -1.40372 0 74 0 1
gene 1 21 30 -0.0718346 0 75 0 1
gene 1 22 30 -0.312077 0 76 0 1
gene 1 23 30 0.469476 0 77 0 1
gene 1 24 30 2.1379 0 78 0 1
gene 1 25 30 0.784068 0 79 0 1
gene 1 26 30 -1.79605 0 80 0 1
gene 1 27 30 0.419235 0 81 0 1
genomeend 2
