genomestart 2
trait 1 0 0 0 0 0 0 0 0 
node 1 0 1 1
node 2 0 1 1
node 3 0 1 1
node 4 0 1 1
node 5 0 1 1
node 6 0 1 1
node 7 0 1 1
node 8 0 1 1
node 9 0 1 1
node 10 0 1 1
node 11 0 1 1
node 12 0 1 1
node 13 0 1 1
node 14 0 1 1
node 15 0 1 1
node 16 0 1 1
node 17 0 1 1
node 18 0 1 1
node 19 0 1 1
node 20 0 1 1
node 21 0 1 1
node 22 0 1 1
node 23 0 1 1
node 24 0 1 1
node 25 0 1 1
node 26 0 1 1
node 27 0 1 3
node 28 0 0 2
node 29 0 0 2
node 30 0 0 2
gene 1 1 28 -0.288937 0 1 0 1
gene 1 2 28 -0.546927 0 2 0 1
gene 1 3 28 -0.114626 0 3 0 1
gene 1 4 28 -0.512839 0 4 0 1
gene 1 5 28 0.134533 0 5 0 1
gene 1 6 28 -0.255942 0 6 0 1
gene 1 7 28 0.0553607 0 7 0 1
gene 1 8 28 0.265636 0 8 0 1
gene 1 9 28 0.0590204 0 9 0 1
gene 1 10 28 0.225833 0 10 0 1
gene 1 11 28 0.488473 0 11 0 1
gene 1 12 28 0.0571558 0 12 0 1
gene 1 13 28 -0.0728886 0 13 0 1
gene 1 14 28 0.162794 0 14 0 1
gene 1 15 28 0.0217909 0 15 0 1
gene 1 16 28 -0.109086 0 16 0 1
gene 1 17 28 -0.467366 0 17 0 1
gene 1 18 28 0.158642 0 18 0 1
gene 1 19 28 -0.00716879 0 19 0 1
gene 1 20 28 -0.621335 0 20 0 1
gene 1 21 28 -0.16701 0 21 0 1
gene 1 22 28 -0.843704 0 22 0 1
gene 1 23 28 -0.649804 0 23 0 1
gene 1 24 28 0.109251 0 24 0 1
gene 1 25 28 0.611023 0 25 0 1
gene 1 26 28 -0.296175 0 26 0 1
gene 1 27 28 0.274782 0 27 0 1
gene 1 1 29 0.229752 0 28 0 1
gene 1 2 29 0.0876353 0 29 0 1
gene 1 3 29 -0.455164 0 30 0 1
gene 1 4 29 -0.0668987 0 31 0 1
gene 1 5 29 -0.138993 0 32 0 1
gene 1 6 29 0.137082 0 33 0 1
gene 1 7 29 0.177717 0 34 0 1
gene 1 8 29 0.284009 0 35 0 1
gene 1 9 29 0.476374 0 36 0 1
gene 1 10 29 0.049613 0 37 0 1
gene 1 11 29 -0.0137965 0 38 0 1
gene 1 12 29 0.070571 0 39 0 1
gene 1 13 29 -0.303314 0 40 0 1
gene 1 14 29 0.00872664 0 41 0 1
gene 1 15 29 -0.403301 0 42 0 1
gene 1 16 29 -0.407624 0 43 0 1
gene 1 17 29 0.23975 0 44 0 1
gene 1 18 29 0.128796 0 45 0 1
gene 1 19 29 0.53177 0 46 0 1
gene 1 20 29 -0.508321 0 47 0 1
gene 1 21 29 0.0392684 0 48 0 1
gene 1 22 29 0.0512016 0 49 0 1
gene 1 23 29 -0.0344051 0 50 0 1
gene 1 24 29 -0.00544602 0 51 0 1
gene 1 25 29 0.23654 0 52 0 1
gene 1 26 29 0.171258 0 53 0 1
gene 1 27 29 -0.114371 0 54 0 1
gene 1 1 30 -0.133645 0 55 0 1
gene 1 2 30 0.0804644 0 56 0 1
gene 1 3 30 0.476769 0 57 0 1
gene 1 4 30 -0.185433 0 58 0 1
gene 1 5 30 0.368211 0 59 0 1
gene 1 6 30 0.142226 0 60 0 1
gene 1 7 30 0.568985 0 61 0 1
gene 1 8 30 0.157908 0 62 0 1
gene 1 9 30 0.53003 0 63 0 1
gene 1 10 30 0.373256 0 64 0 1
gene 1 11 30 -0.262581 0 65 0 1
gene 1 12 30 -0.167785 0 66 0 1
gene 1 13 30 -0.0833751 0 67 0 1
gene 1 14 30 -0.26722 0 68 0 1
gene 1 15 30 0.182999 0 69 0 1
gene 1 16 30 -0.63181 0 70 0 1
gene 1 17 30 0.22176 0 71 0 1
gene 1 18 30 0.113494 0 72 0 1
gene 1 19 30 0.18041 0 73 0 1
gene 1 20 30 -0.178945 0 74 0 1
gene 1 21 30 0.0713355 0 75 0 1
gene 1 22 30 -0.599465 0 76 0 1
gene 1 23 30 -0.081705 0 77 0 1
gene 1 24 30 0.243951 0 78 0 1
gene 1 25 30 0.242496 0 79 0 1
gene 1 26 30 -0.313557 0 80 0 1
gene 1 27 30 -0.0305064 0 81 0 1
genomeend 2
