genomestart 2
trait 1 0 0 0 0 0 0 0 0 
node 1 0 1 1
node 2 0 1 1
node 3 0 1 1
node 4 0 1 1
node 5 0 1 1
node 6 0 1 1
node 7 0 1 1
node 8 0 1 1
node 9 0 1 1
node 10 0 1 1
node 11 0 1 1
node 12 0 1 1
node 13 0 1 1
node 14 0 1 1
node 15 0 1 1
node 16 0 1 1
node 17 0 1 1
node 18 0 1 1
node 19 0 1 1
node 20 0 1 1
node 21 0 1 1
node 22 0 1 1
node 23 0 1 1
node 24 0 1 1
node 25 0 1 1
node 26 0 1 1
node 27 0 1 3
node 28 0 0 2
node 29 0 0 2
node 30 0 0 2
gene 1 1 28 -0.650401 0 1 0 1
gene 1 2 28 -0.972373 0 2 0 1
gene 1 3 28 0.133001 0 3 0 1
gene 1 4 28 -0.422429 0 4 0 1
gene 1 5 28 0.201343 0 5 0 1
gene 1 6 28 -0.283868 0 6 0 1
gene 1 7 28 -0.319647 0 7 0 1
gene 1 8 28 0.227739 0 8 0 1
gene 1 9 28 -0.364008 0 9 0 1
gene 1 10 28 -0.391159 0 10 0 1
gene 1 11 28 0.618205 0 11 0 1
gene 1 12 28 0.381306 0 12 0 1
gene 1 13 28 0.288158 0 13 0 1
gene 1 14 28 0.314491 0 14 0 1
gene 1 15 28 0.175329 0 15 0 1
gene 1 16 28 0.139913 0 16 0 1
gene 1 17 28 -0.265916 0 17 0 1
gene 1 18 28 0.175478 0 18 0 1
gene 1 19 28 0.637357 0 19 0 1
gene 1 20 28 -0.429755 0 20 0 1
gene 1 21 28 -0.202858 0 21 0 1
gene 1 22 28 -0.429392 0 22 0 1
gene 1 23 28 -0.271096 0 23 0 1
gene 1 24 28 -0.00172144 0 24 0 1
gene 1 25 28 1.36491 0 25 0 1
gene 1 26 28 -0.94481 0 26 0 1
gene 1 27 28 0.774207 0 27 0 1
gene 1 1 29 -0.026909 0 28 0 1
gene 1 2 29 0.522824 0 29 0 1
gene 1 3 29 -0.428883 0 30 0 1
gene 1 4 29 0.173943 0 31 0 1
gene 1 5 29 -0.0874329 0 32 0 1
gene 1 6 29 0.342183 0 33 0 1
gene 1 7 29 -0.302839 0 34 0 1
gene 1 8 29 0.479605 0 35 0 1
gene 1 9 29 0.63955 0 36 0 1
gene 1 10 29 -0.165444 0 37 0 1
gene 1 11 29 -0.564961 0 38 0 1
gene 1 12 29 -0.0743624 0 39 0 1
gene 1 13 29 -0.0147591 0 40 0 1
gene 1 14 29 0.912282 0 41 0 1
gene 1 15 29 -0.680855 0 42 0 1
gene 1 16 29 -0.219102 0 43 0 1
gene 1 17 29 0.760923 0 44 0 1
gene 1 18 29 0.275937 0 45 0 1
gene 1 19 29 0.851917 0 46 0 1
gene 1 20 29 -1.2541 0 47 0 1
gene 1 21 29 -0.528197 0 48 0 1
gene 1 22 29 -0.305948 0 49 0 1
gene 1 23 29 0.0278068 0 50 0 1
gene 1 24 29 0.545617 0 51 0 1
gene 1 25 29 0.186024 0 52 0 1
gene 1 26 29 0.337511 0 53 0 1
gene 1 27 29 -0.25215 0 54 0 1
gene 1 1 30 0.0129296 0 55 0 1
gene 1 2 30 0.0945776 0 56 0 1
gene 1 3 30 0.651197 0 57 0 1
gene 1 4 30 -0.110338 0 58 0 1
gene 1 5 30 -0.0285208 0 59 0 1
gene 1 6 30 0.216788 0 60 0 1
gene 1 7 30 0.467635 0 61 0 1
gene 1 8 30 0.260634 0 62 0 1
gene 1 9 30 0.731997 0 63 0 1
gene 1 10 30 0.187798 0 64 0 1
gene 1 11 30 -0.0856329 0 65 0 1
gene 1 12 30 0.197659 0 66 0 1
gene 1 13 30 -0.287551 0 67 0 1
gene 1 14 30 -0.331169 0 68 0 1
gene 1 15 30 0.395625 0 69 0 1
gene 1 16 30 -0.652578 0 70 0 1
gene 1 17 30 0.317013 0 71 0 1
gene 1 18 30 0.283945 0 72 0 1
gene 1 19 30 0.128042 0 73 0 1
gene 1 20 30 -0.301966 0 74 0 1
gene 1 21 30 0.180607 0 75 0 1
gene 1 22 30 -0.348663 0 76 0 1
gene 1 23 30 -0.00507153 0 77 0 1
gene 1 24 30 0.173495 0 78 0 1
gene 1 25 30 0.294928 0 79 0 1
gene 1 26 30 -0.384994 0 80 0 1
gene 1 27 30 -0.749257 0 81 0 1
genomeend 2
