genomestart 2
trait 1 0 0 0 0 0 0 0 0 
node 1 0 1 1
node 2 0 1 1
node 3 0 1 1
node 4 0 1 1
node 5 0 1 1
node 6 0 1 1
node 7 0 1 1
node 8 0 1 1
node 9 0 1 1
node 10 0 1 1
node 11 0 1 1
node 12 0 1 1
node 13 0 1 1
node 14 0 1 1
node 15 0 1 1
node 16 0 1 1
node 17 0 1 1
node 18 0 1 1
node 19 0 1 1
node 20 0 1 1
node 21 0 1 1
node 22 0 1 1
node 23 0 1 1
node 24 0 1 1
node 25 0 1 1
node 26 0 1 1
node 27 0 1 3
node 28 0 0 2
node 29 0 0 2
node 30 0 0 2
gene 1 1 28 -0.900635 0 1 0 1
gene 1 2 28 -1.01548 0 2 0 1
gene 1 3 28 1.21481 0 3 0 1
gene 1 4 28 -0.0577692 0 4 0 1
gene 1 5 28 -0.612725 0 5 0 1
gene 1 6 28 -0.332854 0 6 0 1
gene 1 7 28 -1.22368 0 7 0 1
gene 1 8 28 1.44673 0 8 0 1
gene 1 9 28 -2.70525 0 9 0 1
gene 1 10 28 -0.61353 0 10 0 1
gene 1 11 28 0.802003 0 11 0 1
gene 1 12 28 0.243041 0 12 0 1
gene 1 13 28 0.314285 0 13 0 1
gene 1 14 28 3.65123 0 14 0 1
gene 1 15 28 -0.123083 0 15 0 1
gene 1 16 28 1.40327 0 16 0 1
gene 1 17 28 0.678951 0 17 0 1
gene 1 18 28 -0.514832 0 18 0 1
gene 1 19 28 -1.38921 0 19 0 1
gene 1 20 28 0.198217 0 20 0 1
gene 1 21 28 0.0328775 0 21 0 1
gene 1 22 28 -1.24614 0 22 0 1
gene 1 23 28 -1.44459 0 23 0 1
gene 1 24 28 0.461467 0 24 0 1
gene 1 25 28 2.16298 0 25 0 1
gene 1 26 28 1.44277 0 26 0 1
gene 1 27 28 -1.01805 0 27 0 1
gene 1 1 29 0.0838568 0 28 0 1
gene 1 2 29 0.554134 0 29 0 1
gene 1 3 29 -1.31946 0 30 0 1
gene 1 4 29 0.816511 0 31 0 1
gene 1 5 29 2.06693 0 32 0 1
gene 1 6 29 2.44211 0 33 0 1
gene 1 7 29 2.48274 0 34 0 1
gene 1 8 29 -1.94965 0 35 0 1
gene 1 9 29 0.698192 0 36 0 1
gene 1 10 29 -2.52237 0 37 0 1
gene 1 11 29 0.793281 0 38 0 1
gene 1 12 29 -1.67186 0 39 0 1
gene 1 13 29 0.438346 0 40 0 1
gene 1 14 29 2.33565 0 41 0 1
gene 1 15 29 -0.00976684 0 42 0 1
gene 1 16 29 2.43586 0 43 0 1
gene 1 17 29 -0.476462 0 44 0 1
gene 1 18 29 -2.2907 0 45 0 1
gene 1 19 29 0.909053 0 46 0 1
gene 1 20 29 -0.486986 0 47 0 1
gene 1 21 29 1.34434 0 48 0 1
gene 1 22 29 -0.0432692 0 49 0 1
gene 1 23 29 -0.361429 0 50 0 1
gene 1 24 29 -2.47272 0 51 0 1
gene 1 25 29 1.80531 0 52 0 1
gene 1 26 29 2.8344 0 53 0 1
gene 1 27 29 2.41859 0 54 0 1
gene 1 1 30 -2.58598 0 55 0 1
gene 1 2 30 0.142285 0 56 0 1
gene 1 3 30 1.46833 0 57 0 1
gene 1 4 30 -1.7199 0 58 0 1
gene 1 5 30 -0.390756 0 59 0 1
gene 1 6 30 -0.505267 0 60 0 1
gene 1 7 30 3.19692 0 61 0 1
gene 1 8 30 1.83441 0 62 0 1
gene 1 9 30 -0.670434 0 63 0 1
gene 1 10 30 -0.167532 0 64 0 1
gene 1 11 30 -0.103556 0 65 0 1
gene 1 12 30 0.332285 0 66 0 1
gene 1 13 30 -0.482309 0 67 0 1
gene 1 14 30 -0.084811 0 68 0 1
gene 1 15 30 2.68024 0 69 0 1
gene 1 16 30 -1.37032 0 70 0 1
gene 1 17 30 1.80695 0 71 0 1
gene 1 18 30 -2.07205 0 72 0 1
gene 1 19 30 -1.12818 0 73 0 1
gene 1 20 30 -0.278354 0 74 0 1
gene 1 21 30 0.233924 0 75 0 1
gene 1 22 30 -0.12186 0 76 0 1
gene 1 23 30 0.975014 0 77 0 1
gene 1 24 30 2.64551 0 78 0 1
gene 1 25 30 0.417125 0 79 0 1
gene 1 26 30 -1.26228 0 80 0 1
gene 1 27 30 1.1722 0 81 0 1
genomeend 2
