genomestart 2
trait 1 0 0 0 0 0 0 0 0 
node 1 0 1 1
node 2 0 1 1
node 3 0 1 1
node 4 0 1 1
node 5 0 1 1
node 6 0 1 1
node 7 0 1 1
node 8 0 1 1
node 9 0 1 1
node 10 0 1 1
node 11 0 1 1
node 12 0 1 1
node 13 0 1 1
node 14 0 1 1
node 15 0 1 1
node 16 0 1 1
node 17 0 1 1
node 18 0 1 1
node 19 0 1 1
node 20 0 1 1
node 21 0 1 1
node 22 0 1 1
node 23 0 1 1
node 24 0 1 1
node 25 0 1 1
node 26 0 1 1
node 27 0 1 3
node 28 0 0 2
node 29 0 0 2
node 30 0 0 2
gene 1 1 28 -0.262009 0 1 0 1
gene 1 2 28 -0.545056 0 2 0 1
gene 1 3 28 -0.788912 0 3 0 1
gene 1 4 28 -2.48602 0 4 0 1
gene 1 5 28 1.67286 0 5 0 1
gene 1 6 28 0.126926 0 6 0 1
gene 1 7 28 -0.443601 0 7 0 1
gene 1 8 28 0.0424234 0 8 0 1
gene 1 9 28 0.567632 0 9 0 1
gene 1 10 28 2.42279 0 10 0 1
gene 1 11 28 0.971863 0 11 0 1
gene 1 12 28 2.28795 0 12 0 1
gene 1 13 28 0.663056 0 13 0 1
gene 1 14 28 0.356771 0 14 0 1
gene 1 15 28 0.0278351 0 15 0 1
gene 1 16 28 -0.33317 0 16 0 1
gene 1 17 28 -0.567919 0 17 0 1
gene 1 18 28 -0.663074 0 18 0 1
gene 1 19 28 -0.957273 0 19 0 1
gene 1 20 28 -2.77089 0 20 0 1
gene 1 21 28 -0.593551 0 21 0 1
gene 1 22 28 -1.38543 0 22 0 1
gene 1 23 28 -0.864417 0 23 0 1
gene 1 24 28 -0.807548 0 24 0 1
gene 1 25 28 2.17692 0 25 0 1
gene 1 26 28 -1.906 0 26 0 1
gene 1 27 28 -0.79881 0 27 0 1
gene 1 1 29 0.654298 0 28 0 1
gene 1 2 29 3.22492 0 29 0 1
gene 1 3 29 0.942481 0 30 0 1
gene 1 4 29 0.371955 0 31 0 1
gene 1 5 29 0.376985 0 32 0 1
gene 1 6 29 1.49579 0 33 0 1
gene 1 7 29 -1.24152 0 34 0 1
gene 1 8 29 0.08301 0 35 0 1
gene 1 9 29 0.925567 0 36 0 1
gene 1 10 29 -1.4127 0 37 0 1
gene 1 11 29 -0.68727 0 38 0 1
gene 1 12 29 -1.20941 0 39 0 1
gene 1 13 29 3.20528 0 40 0 1
gene 1 14 29 2.22191 0 41 0 1
gene 1 15 29 -0.54868 0 42 0 1
gene 1 16 29 -0.182784 0 43 0 1
gene 1 17 29 0.234099 0 44 0 1
gene 1 18 29 1.42988 0 45 0 1
gene 1 19 29 0.196528 0 46 0 1
gene 1 20 29 -0.904894 0 47 0 1
gene 1 21 29 0.0437636 0 48 0 1
gene 1 22 29 -0.219037 0 49 0 1
gene 1 23 29 0.964817 0 50 0 1
gene 1 24 29 0.342218 0 51 0 1
gene 1 25 29 -0.173611 0 52 0 1
gene 1 26 29 0.925406 0 53 0 1
gene 1 27 29 -1.38161 0 54 0 1
gene 1 1 30 1.42942 0 55 0 1
gene 1 2 30 -0.0669604 0 56 0 1
gene 1 3 30 -0.472494 0 57 0 1
gene 1 4 30 1.71158 0 58 0 1
gene 1 5 30 -2.03375 0 59 0 1
gene 1 6 30 0.196637 0 60 0 1
gene 1 7 30 -0.122976 0 61 0 1
gene 1 8 30 1.20656 0 62 0 1
gene 1 9 30 0.0489564 0 63 0 1
gene 1 10 30 0.126175 0 64 0 1
gene 1 11 30 -1.00284 0 65 0 1
gene 1 12 30 1.69369 0 66 0 1
gene 1 13 30 -0.684678 0 67 0 1
gene 1 14 30 0.485325 0 68 0 1
gene 1 15 30 1.88173 0 69 0 1
gene 1 16 30 -1.63426 0 70 0 1
gene 1 17 30 0.839892 0 71 0 1
gene 1 18 30 0.831608 0 72 0 1
gene 1 19 30 2.97833 0 73 0 1
gene 1 20 30 -0.100086 0 74 0 1
gene 1 21 30 1.94254 0 75 0 1
gene 1 22 30 -1.71285 0 76 0 1
gene 1 23 30 -1.274 0 77 0 1
gene 1 24 30 1.87391 0 78 0 1
gene 1 25 30 -0.590169 0 79 0 1
gene 1 26 30 0.122143 0 80 0 1
gene 1 27 30 -1.30593 0 81 0 1
genomeend 2
