genomestart 3
trait 1 0 0 0 0 0 0 0 0 
node 1 0 1 1
node 2 0 1 1
node 3 0 1 1
node 4 0 1 1
node 5 0 1 1
node 6 0 1 1
node 7 0 1 1
node 8 0 1 1
node 9 0 1 1
node 10 0 1 1
node 11 0 1 1
node 12 0 1 1
node 13 0 1 3
node 14 0 0 2
node 15 0 0 2
gene 1 1 14 2.44016 0 1 0 1
gene 1 2 14 -4.36657 0 2 0 1
gene 1 3 14 -0.520897 0 3 0 1
gene 1 4 14 -2.94378 0 4 0 1
gene 1 5 14 0.419117 0 5 0 1
gene 1 6 14 -3.06239 0 6 0 1
gene 1 7 14 -3.84623 0 7 0 1
gene 1 8 14 -0.96976 0 8 0 1
gene 1 9 14 -1.80221 0 9 0 1
gene 1 10 14 6.52386 0 10 0 1
gene 1 11 14 2.58334 0 11 0 1
gene 1 12 14 -4.95109 0 12 0 1
gene 1 13 14 -5.85752 0 13 0 1
gene 1 1 15 4.46456 0 14 0 1
gene 1 2 15 -4.09671 0 15 0 1
gene 1 3 15 -0.776601 0 16 0 1
gene 1 4 15 5.93314 0 17 0 1
gene 1 5 15 -1.84208 0 18 0 1
gene 1 6 15 -1.39279 0 19 0 1
gene 1 7 15 -2.43012 0 20 0 1
gene 1 8 15 3.18954 0 21 0 1
gene 1 9 15 -2.4048 0 22 0 1
gene 1 10 15 1.30367 0 23 0 1
gene 1 11 15 3.22743 0 24 0 1
gene 1 12 15 -3.18054 0 25 0 1
gene 1 13 15 -2.60177 0 26 0 1
genomeend 3
