genomestart 3
trait 1 0 0 0 0 0 0 0 0 
node 1 0 1 1
node 2 0 1 1
node 3 0 1 1
node 4 0 1 1
node 5 0 1 1
node 6 0 1 1
node 7 0 1 1
node 8 0 1 1
node 9 0 1 1
node 10 0 1 1
node 11 0 1 1
node 12 0 1 1
node 13 0 1 3
node 14 0 0 2
node 15 0 0 2
gene 1 1 14 3.44751 0 1 0 1
gene 1 2 14 1.78638 0 2 0 1
gene 1 3 14 -2.83893 0 3 0 1
gene 1 4 14 -5.92997 0 4 0 1
gene 1 5 14 -1.35621 0 5 0 1
gene 1 6 14 -1.92017 0 6 0 1
gene 1 7 14 -8.92941 0 7 0 1
gene 1 8 14 2.53721 0 8 0 1
gene 1 9 14 -1.23013 0 9 0 1
gene 1 10 14 8.11999 0 10 0 1
gene 1 11 14 3.44032 0 11 0 1
gene 1 12 14 -5.98712 0 12 0 1
gene 1 13 14 -6.26531 0 13 0 1
gene 1 1 15 3.32825 0 14 0 1
gene 1 2 15 -1.11742 0 15 0 1
gene 1 3 15 -4.85938 0 16 0 1
gene 1 4 15 10.3208 0 17 0 1
gene 1 5 15 -3.98532 0 18 0 1
gene 1 6 15 1.67927 0 19 0 1
gene 1 7 15 -3.27066 0 20 0 1
gene 1 8 15 -0.63622 0 21 0 1
gene 1 9 15 -0.831034 0 22 0 1
gene 1 10 15 -1.10144 0 23 0 1
gene 1 11 15 5.5699 0 24 0 1
gene 1 12 15 -3.00762 0 25 0 1
gene 1 13 15 -3.7055 0 26 0 1
genomeend 3
