genomestart 2
trait 1 0 0 0 0 0 0 0 0 
node 1 0 1 1
node 2 0 1 1
node 3 0 1 1
node 4 0 1 1
node 5 0 1 1
node 6 0 1 1
node 7 0 1 1
node 8 0 1 1
node 9 0 1 1
node 10 0 1 1
node 11 0 1 1
node 12 0 1 1
node 13 0 1 1
node 14 0 1 1
node 15 0 1 1
node 16 0 1 1
node 17 0 1 1
node 18 0 1 1
node 19 0 1 1
node 20 0 1 1
node 21 0 1 1
node 22 0 1 1
node 23 0 1 1
node 24 0 1 1
node 25 0 1 1
node 26 0 1 1
node 27 0 1 3
node 28 0 0 2
node 29 0 0 2
node 30 0 0 2
gene 1 1 28 -1.39772 0 1 0 1
gene 1 2 28 -0.924165 0 2 0 1
gene 1 3 28 1.51055 0 3 0 1
gene 1 4 28 0.234655 0 4 0 1
gene 1 5 28 -0.889416 0 5 0 1
gene 1 6 28 -1.02856 0 6 0 1
gene 1 7 28 -1.29716 0 7 0 1
gene 1 8 28 2.5734 0 8 0 1
gene 1 9 28 -2.83098 0 9 0 1
gene 1 10 28 0.154103 0 10 0 1
gene 1 11 28 0.0300544 0 11 0 1
gene 1 12 28 0.137316 0 12 0 1
gene 1 13 28 0.630979 0 13 0 1
gene 1 14 28 4.1896 0 14 0 1
gene 1 15 28 0.194284 0 15 0 1
gene 1 16 28 1.90204 0 16 0 1
gene 1 17 28 0.431941 0 17 0 1
gene 1 18 28 -0.387361 0 18 0 1
gene 1 19 28 -1.34392 0 19 0 1
gene 1 20 28 0.054967 0 20 0 1
gene 1 21 28 0.794824 0 21 0 1
gene 1 22 28 -1.21682 0 22 0 1
gene 1 23 28 -2.08514 0 23 0 1
gene 1 24 28 1.22427 0 24 0 1
gene 1 25 28 1.92021 0 25 0 1
gene 1 26 28 1.16342 0 26 0 1
gene 1 27 28 -1.10684 0 27 0 1
gene 1 1 29 0.180657 0 28 0 1
gene 1 2 29 0.443098 0 29 0 1
gene 1 3 29 -0.859001 0 30 0 1
gene 1 4 29 0.797052 0 31 0 1
gene 1 5 29 2.00049 0 32 0 1
gene 1 6 29 2.41029 0 33 0 1
gene 1 7 29 2.70232 0 34 0 1
gene 1 8 29 -2.70233 0 35 0 1
gene 1 9 29 0.77673 0 36 0 1
gene 1 10 29 -2.25277 0 37 0 1
gene 1 11 29 0.639435 0 38 0 1
gene 1 12 29 -1.9847 0 39 0 1
gene 1 13 29 0.0744108 0 40 0 1
gene 1 14 29 2.1048 0 41 0 1
gene 1 15 29 0.280237 0 42 0 1
gene 1 16 29 1.90345 0 43 0 1
gene 1 17 29 0.300811 0 44 0 1
gene 1 18 29 -2.38263 0 45 0 1
gene 1 19 29 0.809471 0 46 0 1
gene 1 20 29 -0.670561 0 47 0 1
gene 1 21 29 1.35105 0 48 0 1
gene 1 22 29 0.129116 0 49 0 1
gene 1 23 29 -0.740578 0 50 0 1
gene 1 24 29 -2.63122 0 51 0 1
gene 1 25 29 2.04502 0 52 0 1
gene 1 26 29 2.36622 0 53 0 1
gene 1 27 29 2.31475 0 54 0 1
gene 1 1 30 -2.63685 0 55 0 1
gene 1 2 30 1.00219 0 56 0 1
gene 1 3 30 2.04617 0 57 0 1
gene 1 4 30 -1.75859 0 58 0 1
gene 1 5 30 -0.52952 0 59 0 1
gene 1 6 30 -0.492142 0 60 0 1
gene 1 7 30 3.04584 0 61 0 1
gene 1 8 30 1.39118 0 62 0 1
gene 1 9 30 -0.42894 0 63 0 1
gene 1 10 30 -0.237116 0 64 0 1
gene 1 11 30 -1.18038 0 65 0 1
gene 1 12 30 -0.225372 0 66 0 1
gene 1 13 30 0.23398 0 67 0 1
gene 1 14 30 0.745478 0 68 0 1
gene 1 15 30 2.48822 0 69 0 1
gene 1 16 30 -1.71449 0 70 0 1
gene 1 17 30 1.34218 0 71 0 1
gene 1 18 30 -1.5339 0 72 0 1
gene 1 19 30 -1.34752 0 73 0 1
gene 1 20 30 -0.0458347 0 74 0 1
gene 1 21 30 0.356188 0 75 0 1
gene 1 22 30 -0.455021 0 76 0 1
gene 1 23 30 1.17834 0 77 0 1
gene 1 24 30 2.36499 0 78 0 1
gene 1 25 30 -0.00272377 0 79 0 1
gene 1 26 30 -0.963482 0 80 0 1
gene 1 27 30 1.28072 0 81 0 1
genomeend 2
