genomestart 2
trait 1 0 0 0 0 0 0 0 0 
node 1 0 1 1
node 2 0 1 1
node 3 0 1 1
node 4 0 1 1
node 5 0 1 1
node 6 0 1 1
node 7 0 1 1
node 8 0 1 1
node 9 0 1 1
node 10 0 1 1
node 11 0 1 1
node 12 0 1 1
node 13 0 1 1
node 14 0 1 1
node 15 0 1 1
node 16 0 1 1
node 17 0 1 1
node 18 0 1 1
node 19 0 1 1
node 20 0 1 1
node 21 0 1 1
node 22 0 1 1
node 23 0 1 1
node 24 0 1 1
node 25 0 1 3
node 26 0 0 2
node 27 0 0 2
node 28 1 0 0
node 29 1 0 0
node 30 1 0 0
node 31 1 0 0
node 31 1 0 0
node 32 1 0 0
node 32 1 0 0
gene 1 1 26 -0.509704 0 1 -0.509704 1
gene 1 2 26 -1.11377 0 2 -1.11377 0
gene 1 3 26 1.79128 0 3 1.79128 1
gene 1 4 26 1.07036 0 4 1.07036 0
gene 1 5 26 0.901723 0 5 0.901723 0
gene 1 6 26 1.00241 0 6 1.00241 1
gene 1 7 26 1.24379 0 7 1.24379 1
gene 1 8 26 -0.105329 0 8 -0.105329 1
gene 1 9 26 0.37625 0 9 0.37625 1
gene 1 10 26 0.66325 0 10 0.66325 1
gene 1 11 26 0.519167 0 11 0.519167 1
gene 1 12 26 -0.636122 0 12 -0.636122 0
gene 1 13 26 0.331838 0 13 0.331838 1
gene 1 14 26 0.443856 0 14 0.443856 1
gene 1 15 26 0.510664 0 15 0.510664 1
gene 1 16 26 -0.275059 0 16 -0.275059 1
gene 1 17 26 -0.389775 0 17 -0.389775 1
gene 1 18 26 -1.43182 0 18 -1.43182 0
gene 1 19 26 0.391197 0 19 0.391197 1
gene 1 20 26 0.969795 0 20 0.969795 1
gene 1 21 26 -0.252498 0 21 -0.252498 1
gene 1 22 26 -0.243929 0 22 -0.243929 1
gene 1 23 26 -0.865895 0 23 -0.865895 1
gene 1 24 26 0.0598955 0 24 0.0598955 1
gene 1 25 26 0.460633 0 25 0.460633 1
gene 1 1 27 0.489377 0 26 0.489377 1
gene 1 2 27 -0.767622 0 27 -0.767622 1
gene 1 3 27 0.957639 0 28 0.957639 0
gene 1 4 27 0.65732 0 29 0.65732 1
gene 1 5 27 0.277982 0 30 0.277982 1
gene 1 6 27 -0.85388 0 31 -0.85388 1
gene 1 7 27 0.204409 0 32 0.204409 1
gene 1 8 27 -0.912599 0 33 -0.912599 0
gene 1 9 27 -1.21395 0 34 -1.21395 1
gene 1 10 27 1.21752 0 35 1.21752 1
gene 1 11 27 0.0811056 0 36 0.0811056 1
gene 1 12 27 0.0572919 0 37 0.0572919 1
gene 1 13 27 -0.895465 0 38 -0.895465 1
gene 1 14 27 0.22343 0 39 0.22343 1
gene 1 15 27 -0.170849 0 40 -0.170849 1
gene 1 16 27 0.26286 0 41 0.26286 1
gene 1 17 27 0.831586 0 42 0.831586 1
gene 1 18 27 0.779217 0 43 0.779217 1
gene 1 19 27 0.0946262 0 44 0.0946262 1
gene 1 20 27 -1.0725 0 45 -1.0725 0
gene 1 21 27 -0.754907 0 46 -0.754907 1
gene 1 22 27 0.644904 0 47 0.644904 1
gene 1 23 27 -0.476619 0 48 -0.476619 1
gene 1 24 27 1.38733 0 49 1.38733 1
gene 1 8 28 1 0 50 1 1
gene 1 25 27 0.18446 0 50 0.18446 1
gene 1 28 27 0.087278 0 51 0.087278 1
gene 1 12 29 1 0 52 1 1
gene 1 29 26 0.203964 0 53 0.203964 1
gene 1 5 30 0.601385 0 54 0.601385 1
gene 1 30 26 1.05621 0 55 1.05621 1
gene 1 3 31 0.303879 0 56 0.303879 1
gene 1 20 31 1 0 57 0 1
gene 1 31 27 -0.942611 0 57 -0.942611 1
gene 1 31 27 -1.0725 0 58 0 1
gene 1 4 32 1.85735 0 58 1.85735 1
gene 1 2 32 1 0 59 0 1
gene 1 32 26 0.391373 0 59 0.391373 1
gene 1 32 26 -1.11377 0 60 0 1
genomeend 2
