genomestart 2
trait 1 0 0 0 0 0 0 0 0 
node 1 0 1 1
node 2 0 1 1
node 3 0 1 1
node 4 0 1 1
node 5 0 1 1
node 6 0 1 1
node 7 0 1 1
node 8 0 1 1
node 9 0 1 1
node 10 0 1 1
node 11 0 1 1
node 12 0 1 1
node 13 0 1 1
node 14 0 1 1
node 15 0 1 1
node 16 0 1 1
node 17 0 1 1
node 18 0 1 1
node 19 0 1 1
node 20 0 1 1
node 21 0 1 1
node 22 0 1 1
node 23 0 1 1
node 24 0 1 1
node 25 0 1 1
node 26 0 1 1
node 27 0 1 3
node 28 0 0 2
node 29 0 0 2
node 30 0 0 2
gene 1 1 28 -1.17343 0 1 0 1
gene 1 2 28 -1.41805 0 2 0 1
gene 1 3 28 0.600367 0 3 0 1
gene 1 4 28 0.907809 0 4 0 1
gene 1 5 28 -1.46709 0 5 0 1
gene 1 6 28 0.301203 0 6 0 1
gene 1 7 28 -0.220089 0 7 0 1
gene 1 8 28 -0.808076 0 8 0 1
gene 1 9 28 -2.14191 0 9 0 1
gene 1 10 28 -0.19824 0 10 0 1
gene 1 11 28 0.943387 0 11 0 1
gene 1 12 28 0.695979 0 12 0 1
gene 1 13 28 -1.8775 0 13 0 1
gene 1 14 28 3.34497 0 14 0 1
gene 1 15 28 1.03656 0 15 0 1
gene 1 16 28 -0.376006 0 16 0 1
gene 1 17 28 0.663531 0 17 0 1
gene 1 18 28 0.0622088 0 18 0 1
gene 1 19 28 -1.7832 0 19 0 1
gene 1 20 28 -1.36093 0 20 0 1
gene 1 21 28 -0.4827 0 21 0 1
gene 1 22 28 0.347317 0 22 0 1
gene 1 23 28 -2.70003 0 23 0 1
gene 1 24 28 2.75271 0 24 0 1
gene 1 25 28 1.79721 0 25 0 1
gene 1 26 28 0.0697116 0 26 0 1
gene 1 27 28 -1.9446 0 27 0 1
gene 1 1 29 1.13137 0 28 0 1
gene 1 2 29 1.12591 0 29 0 1
gene 1 3 29 -0.59882 0 30 0 1
gene 1 4 29 -0.109771 0 31 0 1
gene 1 5 29 -0.125317 0 32 0 1
gene 1 6 29 3.48873 0 33 0 1
gene 1 7 29 4.83898 0 34 0 1
gene 1 8 29 -1.06208 0 35 0 1
gene 1 9 29 2.08189 0 36 0 1
gene 1 10 29 -1.35911 0 37 0 1
gene 1 11 29 2.2753 0 38 0 1
gene 1 12 29 0.273715 0 39 0 1
gene 1 13 29 0.937834 0 40 0 1
gene 1 14 29 1.82106 0 41 0 1
gene 1 15 29 0.46164 0 42 0 1
gene 1 16 29 2.21266 0 43 0 1
gene 1 17 29 1.62958 0 44 0 1
gene 1 18 29 -3.45043 0 45 0 1
gene 1 19 29 -0.797551 0 46 0 1
gene 1 20 29 -2.86073 0 47 0 1
gene 1 21 29 2.24986 0 48 0 1
gene 1 22 29 -0.232592 0 49 0 1
gene 1 23 29 -2.97752 0 50 0 1
gene 1 24 29 -3.20283 0 51 0 1
gene 1 25 29 0.0496028 0 52 0 1
gene 1 26 29 2.21411 0 53 0 1
gene 1 27 29 1.97923 0 54 0 1
gene 1 1 30 -1.68369 0 55 0 1
gene 1 2 30 -0.241639 0 56 0 1
gene 1 3 30 3.71307 0 57 0 1
gene 1 4 30 -2.63863 0 58 0 1
gene 1 5 30 0.403507 0 59 0 1
gene 1 6 30 0.980978 0 60 0 1
gene 1 7 30 4.32106 0 61 0 1
gene 1 8 30 0.599503 0 62 0 1
gene 1 9 30 -2.29061 0 63 0 1
gene 1 10 30 -1.01873 0 64 0 1
gene 1 11 30 -2.10177 0 65 0 1
gene 1 12 30 1.11997 0 66 0 1
gene 1 13 30 -0.136629 0 67 0 1
gene 1 14 30 0.706708 0 68 0 1
gene 1 15 30 1.55462 0 69 0 1
gene 1 16 30 -2.40864 0 70 0 1
gene 1 17 30 1.84367 0 71 0 1
gene 1 18 30 -2.6907 0 72 0 1
gene 1 19 30 -0.612016 0 73 0 1
gene 1 20 30 -2.54337 0 74 0 1
gene 1 21 30 1.16406 0 75 0 1
gene 1 22 30 0.541507 0 76 0 1
gene 1 23 30 0.596881 0 77 0 1
gene 1 24 30 1.11171 0 78 0 1
gene 1 25 30 1.96005 0 79 0 1
gene 1 26 30 0.107496 0 80 0 1
gene 1 27 30 2.59252 0 81 0 1
genomeend 2
