genomestart 3
trait 1 0 0 0 0 0 0 0 0 
node 1 0 1 1
node 2 0 1 1
node 3 0 1 1
node 4 0 1 1
node 5 0 1 1
node 6 0 1 1
node 7 0 1 1
node 8 0 1 1
node 9 0 1 1
node 10 0 1 1
node 11 0 1 1
node 12 0 1 1
node 13 0 1 3
node 14 0 0 2
node 15 0 0 2
gene 1 1 14 1.44539 0 1 0 1
gene 1 2 14 -4.49353 0 2 0 1
gene 1 3 14 -0.312706 0 3 0 1
gene 1 4 14 -2.97443 0 4 0 1
gene 1 5 14 0.247279 0 5 0 1
gene 1 6 14 -2.74553 0 6 0 1
gene 1 7 14 -4.50879 0 7 0 1
gene 1 8 14 -0.908857 0 8 0 1
gene 1 9 14 -2.17627 0 9 0 1
gene 1 10 14 6.38119 0 10 0 1
gene 1 11 14 2.5878 0 11 0 1
gene 1 12 14 -4.51572 0 12 0 1
gene 1 13 14 -6.39444 0 13 0 1
gene 1 1 15 3.85989 0 14 0 1
gene 1 2 15 -4.24108 0 15 0 1
gene 1 3 15 0.309019 0 16 0 1
gene 1 4 15 5.9909 0 17 0 1
gene 1 5 15 -1.97187 0 18 0 1
gene 1 6 15 -1.15729 0 19 0 1
gene 1 7 15 -3.05946 0 20 0 1
gene 1 8 15 3.29452 0 21 0 1
gene 1 9 15 -2.46569 0 22 0 1
gene 1 10 15 1.74705 0 23 0 1
gene 1 11 15 3.10654 0 24 0 1
gene 1 12 15 -2.50439 0 25 0 1
gene 1 13 15 -2.70622 0 26 0 1
genomeend 3
