genomestart 2
trait 1 0 0 0 0 0 0 0 0 
node 1 0 1 1
node 2 0 1 1
node 3 0 1 1
node 4 0 1 1
node 5 0 1 1
node 6 0 1 1
node 7 0 1 1
node 8 0 1 1
node 9 0 1 1
node 10 0 1 1
node 11 0 1 1
node 12 0 1 1
node 13 0 1 1
node 14 0 1 1
node 15 0 1 1
node 16 0 1 1
node 17 0 1 1
node 18 0 1 1
node 19 0 1 1
node 20 0 1 1
node 21 0 1 1
node 22 0 1 1
node 23 0 1 1
node 24 0 1 1
node 25 0 1 1
node 26 0 1 1
node 27 0 1 3
node 28 0 0 2
node 29 0 0 2
node 30 0 0 2
gene 1 1 28 -0.333551 0 1 0 1
gene 1 2 28 -2.15027 0 2 0 1
gene 1 3 28 0.562779 0 3 0 1
gene 1 4 28 2.23006 0 4 0 1
gene 1 5 28 -2.64215 0 5 0 1
gene 1 6 28 -0.662576 0 6 0 1
gene 1 7 28 -0.364722 0 7 0 1
gene 1 8 28 0.513528 0 8 0 1
gene 1 9 28 -3.48174 0 9 0 1
gene 1 10 28 -0.65664 0 10 0 1
gene 1 11 28 0.888646 0 11 0 1
gene 1 12 28 -1.03125 0 12 0 1
gene 1 13 28 -1.71805 0 13 0 1
gene 1 14 28 4.43248 0 14 0 1
gene 1 15 28 0.74426 0 15 0 1
gene 1 16 28 1.24104 0 16 0 1
gene 1 17 28 1.20568 0 17 0 1
gene 1 18 28 -0.440932 0 18 0 1
gene 1 19 28 -1.59486 0 19 0 1
gene 1 20 28 -0.934646 0 20 0 1
gene 1 21 28 -0.16752 0 21 0 1
gene 1 22 28 -1.27697 0 22 0 1
gene 1 23 28 -1.27345 0 23 0 1
gene 1 24 28 1.61765 0 24 0 1
gene 1 25 28 2.56814 0 25 0 1
gene 1 26 28 0.565846 0 26 0 1
gene 1 27 28 -3.22531 0 27 0 1
gene 1 1 29 0.788046 0 28 0 1
gene 1 2 29 1.43575 0 29 0 1
gene 1 3 29 -0.00159941 0 30 0 1
gene 1 4 29 0.316855 0 31 0 1
gene 1 5 29 -1.0206 0 32 0 1
gene 1 6 29 2.64941 0 33 0 1
gene 1 7 29 4.20418 0 34 0 1
gene 1 8 29 -3.25681 0 35 0 1
gene 1 9 29 0.0827161 0 36 0 1
gene 1 10 29 -1.63476 0 37 0 1
gene 1 11 29 2.21792 0 38 0 1
gene 1 12 29 0.444696 0 39 0 1
gene 1 13 29 0.594188 0 40 0 1
gene 1 14 29 3.08676 0 41 0 1
gene 1 15 29 0.15554 0 42 0 1
gene 1 16 29 2.3105 0 43 0 1
gene 1 17 29 1.7967 0 44 0 1
gene 1 18 29 -2.32833 0 45 0 1
gene 1 19 29 -0.851705 0 46 0 1
gene 1 20 29 -1.12778 0 47 0 1
gene 1 21 29 1.10113 0 48 0 1
gene 1 22 29 1.43094 0 49 0 1
gene 1 23 29 -3.08498 0 50 0 1
gene 1 24 29 -4.28225 0 51 0 1
gene 1 25 29 3.43783 0 52 0 1
gene 1 26 29 2.19616 0 53 0 1
gene 1 27 29 2.15569 0 54 0 1
gene 1 1 30 -0.794861 0 55 0 1
gene 1 2 30 0.0930672 0 56 0 1
gene 1 3 30 3.80369 0 57 0 1
gene 1 4 30 -1.89116 0 58 0 1
gene 1 5 30 -1.26737 0 59 0 1
gene 1 6 30 -0.49293 0 60 0 1
gene 1 7 30 3.99212 0 61 0 1
gene 1 8 30 1.467 0 62 0 1
gene 1 9 30 -1.50763 0 63 0 1
gene 1 10 30 0.118669 0 64 0 1
gene 1 11 30 -1.09513 0 65 0 1
gene 1 12 30 0.229211 0 66 0 1
gene 1 13 30 0.578953 0 67 0 1
gene 1 14 30 2.04998 0 68 0 1
gene 1 15 30 1.84067 0 69 0 1
gene 1 16 30 0.109554 0 70 0 1
gene 1 17 30 1.7298 0 71 0 1
gene 1 18 30 -0.811401 0 72 0 1
gene 1 19 30 -2.03726 0 73 0 1
gene 1 20 30 -1.31333 0 74 0 1
gene 1 21 30 0.814855 0 75 0 1
gene 1 22 30 0.794128 0 76 0 1
gene 1 23 30 0.269981 0 77 0 1
gene 1 24 30 3.35584 0 78 0 1
gene 1 25 30 0.885025 0 79 0 1
gene 1 26 30 -1.32568 0 80 0 1
gene 1 27 30 0.835779 0 81 0 1
genomeend 2
