genomestart 2
trait 1 0 0 0 0 0 0 0 0 
node 1 0 1 1
node 2 0 1 1
node 3 0 1 1
node 4 0 1 1
node 5 0 1 1
node 6 0 1 1
node 7 0 1 1
node 8 0 1 1
node 9 0 1 1
node 10 0 1 1
node 11 0 1 1
node 12 0 1 1
node 13 0 1 1
node 14 0 1 1
node 15 0 1 1
node 16 0 1 1
node 17 0 1 1
node 18 0 1 1
node 19 0 1 1
node 20 0 1 1
node 21 0 1 1
node 22 0 1 1
node 23 0 1 1
node 24 0 1 1
node 25 0 1 1
node 26 0 1 1
node 27 0 1 3
node 28 0 0 2
node 29 0 0 2
node 30 0 0 2
gene 1 1 28 -1.12316 0 1 0 1
gene 1 2 28 -1.77678 0 2 0 1
gene 1 3 28 1.10769 0 3 0 1
gene 1 4 28 1.32209 0 4 0 1
gene 1 5 28 -2.39315 0 5 0 1
gene 1 6 28 0.0606665 0 6 0 1
gene 1 7 28 -0.241784 0 7 0 1
gene 1 8 28 -0.536699 0 8 0 1
gene 1 9 28 -2.62872 0 9 0 1
gene 1 10 28 0.822637 0 10 0 1
gene 1 11 28 -0.241733 0 11 0 1
gene 1 12 28 0.000923326 0 12 0 1
gene 1 13 28 -1.25857 0 13 0 1
gene 1 14 28 2.46831 0 14 0 1
gene 1 15 28 0.524373 0 15 0 1
gene 1 16 28 -0.395072 0 16 0 1
gene 1 17 28 0.469323 0 17 0 1
gene 1 18 28 -0.281106 0 18 0 1
gene 1 19 28 -1.77409 0 19 0 1
gene 1 20 28 -1.23615 0 20 0 1
gene 1 21 28 -0.199736 0 21 0 1
gene 1 22 28 0.25579 0 22 0 1
gene 1 23 28 -2.63245 0 23 0 1
gene 1 24 28 2.46759 0 24 0 1
gene 1 25 28 1.58233 0 25 0 1
gene 1 26 28 0.952295 0 26 0 1
gene 1 27 28 -1.31329 0 27 0 1
gene 1 1 29 0.684599 0 28 0 1
gene 1 2 29 1.16581 0 29 0 1
gene 1 3 29 -1.55663 0 30 0 1
gene 1 4 29 0.0595615 0 31 0 1
gene 1 5 29 -0.0531842 0 32 0 1
gene 1 6 29 3.30673 0 33 0 1
gene 1 7 29 3.92812 0 34 0 1
gene 1 8 29 -0.890829 0 35 0 1
gene 1 9 29 1.86508 0 36 0 1
gene 1 10 29 -1.22797 0 37 0 1
gene 1 11 29 2.84539 0 38 0 1
gene 1 12 29 -0.465701 0 39 0 1
gene 1 13 29 1.26727 0 40 0 1
gene 1 14 29 1.58903 0 41 0 1
gene 1 15 29 1.38648 0 42 0 1
gene 1 16 29 1.4801 0 43 0 1
gene 1 17 29 1.23555 0 44 0 1
gene 1 18 29 -2.22731 0 45 0 1
gene 1 19 29 -0.845476 0 46 0 1
gene 1 20 29 -2.30629 0 47 0 1
gene 1 21 29 2.07783 0 48 0 1
gene 1 22 29 -0.25702 0 49 0 1
gene 1 23 29 -2.75703 0 50 0 1
gene 1 24 29 -3.1169 0 51 0 1
gene 1 25 29 0.394482 0 52 0 1
gene 1 26 29 2.74856 0 53 0 1
gene 1 27 29 2.74948 0 54 0 1
gene 1 1 30 -2.46696 0 55 0 1
gene 1 2 30 -0.453179 0 56 0 1
gene 1 3 30 2.89955 0 57 0 1
gene 1 4 30 -3.11338 0 58 0 1
gene 1 5 30 -0.732181 0 59 0 1
gene 1 6 30 0.658025 0 60 0 1
gene 1 7 30 3.82868 0 61 0 1
gene 1 8 30 1.45089 0 62 0 1
gene 1 9 30 -2.93125 0 63 0 1
gene 1 10 30 -1.44754 0 64 0 1
gene 1 11 30 -2.48026 0 65 0 1
gene 1 12 30 0.752286 0 66 0 1
gene 1 13 30 0.158242 0 67 0 1
gene 1 14 30 0.286849 0 68 0 1
gene 1 15 30 1.47435 0 69 0 1
gene 1 16 30 -2.00085 0 70 0 1
gene 1 17 30 1.48269 0 71 0 1
gene 1 18 30 -2.20755 0 72 0 1
gene 1 19 30 -1.22695 0 73 0 1
gene 1 20 30 -2.5589 0 74 0 1
gene 1 21 30 0.34417 0 75 0 1
gene 1 22 30 0.646751 0 76 0 1
gene 1 23 30 0.318741 0 77 0 1
gene 1 24 30 0.779006 0 78 0 1
gene 1 25 30 0.50837 0 79 0 1
gene 1 26 30 0.0906546 0 80 0 1
gene 1 27 30 2.30379 0 81 0 1
genomeend 2
