genomestart 2
trait 1 0 0 0 0 0 0 0 0 
node 1 0 1 1
node 2 0 1 1
node 3 0 1 1
node 4 0 1 1
node 5 0 1 1
node 6 0 1 1
node 7 0 1 1
node 8 0 1 1
node 9 0 1 1
node 10 0 1 1
node 11 0 1 1
node 12 0 1 1
node 13 0 1 1
node 14 0 1 1
node 15 0 1 1
node 16 0 1 1
node 17 0 1 1
node 18 0 1 1
node 19 0 1 1
node 20 0 1 1
node 21 0 1 1
node 22 0 1 1
node 23 0 1 1
node 24 0 1 1
node 25 0 1 1
node 26 0 1 1
node 27 0 1 3
node 28 0 0 2
node 29 0 0 2
node 30 0 0 2
gene 1 1 28 -0.1957 0 1 0 1
gene 1 2 28 -1.17999 0 2 0 1
gene 1 3 28 0.822852 0 3 0 1
gene 1 4 28 2.18678 0 4 0 1
gene 1 5 28 -2.74517 0 5 0 1
gene 1 6 28 -0.594483 0 6 0 1
gene 1 7 28 -0.569737 0 7 0 1
gene 1 8 28 0.482733 0 8 0 1
gene 1 9 28 -3.44442 0 9 0 1
gene 1 10 28 -0.748904 0 10 0 1
gene 1 11 28 0.966411 0 11 0 1
gene 1 12 28 -0.678369 0 12 0 1
gene 1 13 28 -1.65978 0 13 0 1
gene 1 14 28 4.16197 0 14 0 1
gene 1 15 28 0.70734 0 15 0 1
gene 1 16 28 1.02886 0 16 0 1
gene 1 17 28 1.07551 0 17 0 1
gene 1 18 28 -0.641151 0 18 0 1
gene 1 19 28 -2.0417 0 19 0 1
gene 1 20 28 -0.739255 0 20 0 1
gene 1 21 28 -0.151155 0 21 0 1
gene 1 22 28 -0.688472 0 22 0 1
gene 1 23 28 -1.10571 0 23 0 1
gene 1 24 28 1.69511 0 24 0 1
gene 1 25 28 2.73552 0 25 0 1
gene 1 26 28 0.822592 0 26 0 1
gene 1 27 28 -3.25096 0 27 0 1
gene 1 1 29 0.656024 0 28 0 1
gene 1 2 29 1.64123 0 29 0 1
gene 1 3 29 -0.651824 0 30 0 1
gene 1 4 29 0.406635 0 31 0 1
gene 1 5 29 -0.608684 0 32 0 1
gene 1 6 29 2.67846 0 33 0 1
gene 1 7 29 3.93042 0 34 0 1
gene 1 8 29 -3.57468 0 35 0 1
gene 1 9 29 0.364383 0 36 0 1
gene 1 10 29 -1.66083 0 37 0 1
gene 1 11 29 2.16508 0 38 0 1
gene 1 12 29 0.558971 0 39 0 1
gene 1 13 29 0.278947 0 40 0 1
gene 1 14 29 2.39044 0 41 0 1
gene 1 15 29 -0.0603041 0 42 0 1
gene 1 16 29 2.35758 0 43 0 1
gene 1 17 29 1.78848 0 44 0 1
gene 1 18 29 -2.86059 0 45 0 1
gene 1 19 29 -0.68734 0 46 0 1
gene 1 20 29 -1.04141 0 47 0 1
gene 1 21 29 1.35457 0 48 0 1
gene 1 22 29 1.32798 0 49 0 1
gene 1 23 29 -2.67757 0 50 0 1
gene 1 24 29 -4.11953 0 51 0 1
gene 1 25 29 3.25429 0 52 0 1
gene 1 26 29 1.87826 0 53 0 1
gene 1 27 29 2.09509 0 54 0 1
gene 1 1 30 -0.89928 0 55 0 1
gene 1 2 30 0.00879085 0 56 0 1
gene 1 3 30 3.56361 0 57 0 1
gene 1 4 30 -1.97397 0 58 0 1
gene 1 5 30 -0.892773 0 59 0 1
gene 1 6 30 -0.667151 0 60 0 1
gene 1 7 30 4.48247 0 61 0 1
gene 1 8 30 1.8519 0 62 0 1
gene 1 9 30 -1.43183 0 63 0 1
gene 1 10 30 -0.248921 0 64 0 1
gene 1 11 30 -1.37459 0 65 0 1
gene 1 12 30 -0.205603 0 66 0 1
gene 1 13 30 0.883502 0 67 0 1
gene 1 14 30 2.26899 0 68 0 1
gene 1 15 30 1.75527 0 69 0 1
gene 1 16 30 -0.279548 0 70 0 1
gene 1 17 30 1.55489 0 71 0 1
gene 1 18 30 -1.55712 0 72 0 1
gene 1 19 30 -1.73757 0 73 0 1
gene 1 20 30 -1.23061 0 74 0 1
gene 1 21 30 1.05475 0 75 0 1
gene 1 22 30 0.871203 0 76 0 1
gene 1 23 30 -0.246403 0 77 0 1
gene 1 24 30 2.71213 0 78 0 1
gene 1 25 30 0.967838 0 79 0 1
gene 1 26 30 -1.08216 0 80 0 1
gene 1 27 30 1.01102 0 81 0 1
genomeend 2
