genomestart 7
trait 1 0 0 0 0 0 0 0 0 
node 1 0 1 1
node 2 0 1 1
node 3 0 1 1
node 4 0 1 1
node 5 0 1 1
node 6 0 1 1
node 7 0 1 1
node 8 0 1 1
node 9 0 1 1
node 10 0 1 1
node 11 0 1 1
node 12 0 1 1
node 13 0 1 3
node 14 0 0 2
node 15 0 0 2
gene 1 1 14 0.908123 0 1 0 1
gene 1 2 14 1.93913 0 2 0 1
gene 1 3 14 -0.0845179 0 3 0 1
gene 1 4 14 4.3728 0 4 0 1
gene 1 5 14 4.48567 0 5 0 1
gene 1 6 14 4.91923 0 6 0 1
gene 1 7 14 -6.44693 0 7 0 1
gene 1 8 14 -8.11869 0 8 0 1
gene 1 9 14 1.46184 0 9 0 1
gene 1 10 14 -1.16855 0 10 0 1
gene 1 11 14 4.00068 0 11 0 1
gene 1 12 14 3.70365 0 12 0 1
gene 1 13 14 -3.05444 0 13 0 1
gene 1 1 15 0.318975 0 14 0 1
gene 1 2 15 1.86046 0 15 0 1
gene 1 3 15 3.08932 0 16 0 1
gene 1 4 15 4.29982 0 17 0 1
gene 1 5 15 -1.09427 0 18 0 1
gene 1 6 15 1.46914 0 19 0 1
gene 1 7 15 4.1253 0 20 0 1
gene 1 8 15 -1.68722 0 21 0 1
gene 1 9 15 3.52637 0 22 0 1
gene 1 10 15 3.17416 0 23 0 1
gene 1 11 15 4.45367 0 24 0 1
gene 1 12 15 6.1972 0 25 0 1
gene 1 13 15 -5.81636 0 26 0 1
genomeend 7
