genomestart 2
trait 1 0 0 0 0 0 0 0 0 
node 1 0 1 1
node 2 0 1 1
node 3 0 1 1
node 4 0 1 1
node 5 0 1 1
node 6 0 1 1
node 7 0 1 1
node 8 0 1 1
node 9 0 1 1
node 10 0 1 1
node 11 0 1 1
node 12 0 1 1
node 13 0 1 1
node 14 0 1 1
node 15 0 1 1
node 16 0 1 1
node 17 0 1 1
node 18 0 1 1
node 19 0 1 1
node 20 0 1 1
node 21 0 1 1
node 22 0 1 1
node 23 0 1 1
node 24 0 1 1
node 25 0 1 3
node 26 0 0 2
node 27 0 0 2
node 28 1 0 0
node 29 1 0 0
node 30 1 0 0
node 31 1 0 0
node 31 1 0 0
node 32 1 0 0
node 32 1 0 0
node 33 1 0 0
gene 1 1 26 -0.207425 0 1 -0.207425 1
gene 1 2 26 -1.62178 0 2 -1.62178 0
gene 1 3 26 2.41138 0 3 2.41138 1
gene 1 4 26 1.99505 0 4 1.99505 0
gene 1 5 26 0.0676883 0 5 0.0676883 0
gene 1 6 26 0.32123 0 6 0.32123 1
gene 1 7 26 0.926205 0 7 0.926205 1
gene 1 8 26 -0.464293 0 8 -0.464293 1
gene 1 9 26 -0.500714 0 9 -0.500714 1
gene 1 10 26 0.377596 0 10 0.377596 1
gene 1 11 26 0.272468 0 11 0.272468 1
gene 1 12 26 -1.18473 0 12 -1.18473 0
gene 1 13 26 0.480813 0 13 0.480813 1
gene 1 14 26 -0.115047 0 14 -0.115047 1
gene 1 15 26 0.79889 0 15 0.79889 1
gene 1 16 26 0.653994 0 16 0.653994 1
gene 1 17 26 -1.08171 0 17 -1.08171 1
gene 1 18 26 -1.00089 0 18 -1.00089 0
gene 1 19 26 0.718896 0 19 0.718896 1
gene 1 20 26 0.883613 0 20 0.883613 1
gene 1 21 26 0.421367 0 21 0.421367 1
gene 1 22 26 -1.13441 0 22 -1.13441 1
gene 1 23 26 -0.683071 0 23 -0.683071 1
gene 1 24 26 0.259728 0 24 0.259728 1
gene 1 25 26 0.175688 0 25 0.175688 1
gene 1 1 27 -0.0317118 0 26 -0.0317118 1
gene 1 2 27 -1.45761 0 27 -1.45761 1
gene 1 3 27 0.985181 0 28 0.985181 0
gene 1 4 27 1.28871 0 29 1.28871 1
gene 1 5 27 -0.228453 0 30 -0.228453 1
gene 1 6 27 0.0522969 0 31 0.0522969 1
gene 1 7 27 0.196196 0 32 0.196196 1
gene 1 8 27 -1.75091 0 33 -1.75091 0
gene 1 9 27 -1.3069 0 34 -1.3069 1
gene 1 10 27 1.93332 0 35 1.93332 1
gene 1 11 27 0.0300056 0 36 0.0300056 1
gene 1 12 27 0.371287 0 37 0.371287 1
gene 1 13 27 -0.657576 0 38 -0.657576 1
gene 1 14 27 0.597249 0 39 0.597249 1
gene 1 15 27 -0.0133586 0 40 -0.0133586 1
gene 1 16 27 0.96345 0 41 0.96345 1
gene 1 17 27 0.462963 0 42 0.462963 1
gene 1 18 27 1.51146 0 43 1.51146 1
gene 1 19 27 0.178508 0 44 0.178508 1
gene 1 20 27 -0.373065 0 45 -0.373065 0
gene 1 21 27 -0.553075 0 46 -0.553075 1
gene 1 22 27 0.636395 0 47 0.636395 1
gene 1 23 27 -1.12191 0 48 -1.12191 1
gene 1 24 27 0.726758 0 49 0.726758 1
gene 1 8 28 1.75916 0 50 1.75916 1
gene 1 25 27 -0.728402 0 50 -0.728402 1
gene 1 28 27 -0.386895 0 51 -0.386895 1
gene 1 12 29 0.287047 0 52 0.287047 1
gene 1 29 26 0.957895 0 53 0.957895 1
gene 1 5 30 -0.751615 0 54 -0.751615 1
gene 1 30 26 0.591949 0 55 0.591949 1
gene 1 3 31 -0.480911 0 56 -0.480911 1
gene 1 20 31 1 0 57 1 1
gene 1 31 27 -1.72651 0 57 -1.72651 1
gene 1 31 27 -0.183306 0 58 -0.183306 1
gene 1 4 32 -0.391226 0 58 -0.391226 1
gene 1 2 32 1.96219 0 59 1.96219 1
gene 1 32 26 0.914475 0 59 0.914475 1
gene 1 32 26 -1.11377 0 60 -1.11377 1
gene 1 7 32 0.514693 0 61 0.514693 1
gene 1 30 33 1 0 62 1 1
gene 1 33 26 1.76953 0 63 1.76953 1
genomeend 2
