genomestart 2
trait 1 0 0 0 0 0 0 0 0 
node 1 0 1 1
node 2 0 1 1
node 3 0 1 1
node 4 0 1 1
node 5 0 1 1
node 6 0 1 1
node 7 0 1 1
node 8 0 1 1
node 9 0 1 1
node 10 0 1 1
node 11 0 1 1
node 12 0 1 1
node 13 0 1 1
node 14 0 1 1
node 15 0 1 1
node 16 0 1 1
node 17 0 1 1
node 18 0 1 1
node 19 0 1 1
node 20 0 1 1
node 21 0 1 1
node 22 0 1 1
node 23 0 1 1
node 24 0 1 1
node 25 0 1 1
node 26 0 1 1
node 27 0 1 3
node 28 0 0 2
node 29 0 0 2
node 30 0 0 2
gene 1 1 28 -0.713429 0 1 0 1
gene 1 2 28 0.128924 0 2 0 1
gene 1 3 28 1.19871 0 3 0 1
gene 1 4 28 -0.0279215 0 4 0 1
gene 1 5 28 -0.454301 0 5 0 1
gene 1 6 28 -0.556726 0 6 0 1
gene 1 7 28 -1.00208 0 7 0 1
gene 1 8 28 3.82334 0 8 0 1
gene 1 9 28 -2.63578 0 9 0 1
gene 1 10 28 0.00392158 0 10 0 1
gene 1 11 28 0.113153 0 11 0 1
gene 1 12 28 -0.755292 0 12 0 1
gene 1 13 28 0.489355 0 13 0 1
gene 1 14 28 5.10889 0 14 0 1
gene 1 15 28 0.120412 0 15 0 1
gene 1 16 28 1.59121 0 16 0 1
gene 1 17 28 -0.35305 0 17 0 1
gene 1 18 28 -1.14224 0 18 0 1
gene 1 19 28 -0.660813 0 19 0 1
gene 1 20 28 -0.137019 0 20 0 1
gene 1 21 28 0.739577 0 21 0 1
gene 1 22 28 -1.0177 0 22 0 1
gene 1 23 28 -3.2089 0 23 0 1
gene 1 24 28 0.240647 0 24 0 1
gene 1 25 28 2.1234 0 25 0 1
gene 1 26 28 0.736514 0 26 0 1
gene 1 27 28 -2.00336 0 27 0 1
gene 1 1 29 0.566686 0 28 0 1
gene 1 2 29 1.01477 0 29 0 1
gene 1 3 29 -0.708821 0 30 0 1
gene 1 4 29 1.18562 0 31 0 1
gene 1 5 29 2.32306 0 32 0 1
gene 1 6 29 2.45175 0 33 0 1
gene 1 7 29 2.43064 0 34 0 1
gene 1 8 29 -1.36585 0 35 0 1
gene 1 9 29 0.23952 0 36 0 1
gene 1 10 29 -2.58516 0 37 0 1
gene 1 11 29 0.603059 0 38 0 1
gene 1 12 29 -2.33596 0 39 0 1
gene 1 13 29 0.339377 0 40 0 1
gene 1 14 29 1.94072 0 41 0 1
gene 1 15 29 0.203416 0 42 0 1
gene 1 16 29 1.86695 0 43 0 1
gene 1 17 29 0.81317 0 44 0 1
gene 1 18 29 -3.3786 0 45 0 1
gene 1 19 29 0.627941 0 46 0 1
gene 1 20 29 -0.744758 0 47 0 1
gene 1 21 29 0.886141 0 48 0 1
gene 1 22 29 -0.539095 0 49 0 1
gene 1 23 29 -0.13724 0 50 0 1
gene 1 24 29 -3.35077 0 51 0 1
gene 1 25 29 1.64769 0 52 0 1
gene 1 26 29 2.25332 0 53 0 1
gene 1 27 29 1.76646 0 54 0 1
gene 1 1 30 -2.75949 0 55 0 1
gene 1 2 30 0.827235 0 56 0 1
gene 1 3 30 2.79673 0 57 0 1
gene 1 4 30 -0.718766 0 58 0 1
gene 1 5 30 -0.253056 0 59 0 1
gene 1 6 30 -0.490144 0 60 0 1
gene 1 7 30 3.52276 0 61 0 1
gene 1 8 30 1.60851 0 62 0 1
gene 1 9 30 0.207668 0 63 0 1
gene 1 10 30 -1.30144 0 64 0 1
gene 1 11 30 -0.923964 0 65 0 1
gene 1 12 30 -0.333435 0 66 0 1
gene 1 13 30 -0.0694094 0 67 0 1
gene 1 14 30 0.227293 0 68 0 1
gene 1 15 30 3.47229 0 69 0 1
gene 1 16 30 -1.32177 0 70 0 1
gene 1 17 30 0.841226 0 71 0 1
gene 1 18 30 -1.10899 0 72 0 1
gene 1 19 30 -2.30074 0 73 0 1
gene 1 20 30 -0.914023 0 74 0 1
gene 1 21 30 1.5318 0 75 0 1
gene 1 22 30 -1.55211 0 76 0 1
gene 1 23 30 1.51321 0 77 0 1
gene 1 24 30 2.54572 0 78 0 1
gene 1 25 30 -0.199896 0 79 0 1
gene 1 26 30 -0.90097 0 80 0 1
gene 1 27 30 2.64391 0 81 0 1
genomeend 2
