genomestart 2
trait 1 0 0 0 0 0 0 0 0 
node 1 0 1 1
node 2 0 1 1
node 3 0 1 1
node 4 0 1 1
node 5 0 1 1
node 6 0 1 1
node 7 0 1 1
node 8 0 1 1
node 9 0 1 1
node 10 0 1 1
node 11 0 1 1
node 12 0 1 1
node 13 0 1 1
node 14 0 1 1
node 15 0 1 1
node 16 0 1 1
node 17 0 1 1
node 18 0 1 1
node 19 0 1 1
node 20 0 1 1
node 21 0 1 1
node 22 0 1 1
node 23 0 1 1
node 24 0 1 1
node 25 0 1 1
node 26 0 1 1
node 27 0 1 3
node 28 0 0 2
node 29 0 0 2
node 30 0 0 2
gene 1 1 28 -0.0324568 0 1 0 1
gene 1 2 28 -0.640926 0 2 0 1
gene 1 3 28 -0.416764 0 3 0 1
gene 1 4 28 -2.86 0 4 0 1
gene 1 5 28 1.48959 0 5 0 1
gene 1 6 28 0.188525 0 6 0 1
gene 1 7 28 -0.482723 0 7 0 1
gene 1 8 28 -0.699621 0 8 0 1
gene 1 9 28 0.0771174 0 9 0 1
gene 1 10 28 2.708 0 10 0 1
gene 1 11 28 2.36679 0 11 0 1
gene 1 12 28 2.07979 0 12 0 1
gene 1 13 28 0.618017 0 13 0 1
gene 1 14 28 0.138478 0 14 0 1
gene 1 15 28 -0.287988 0 15 0 1
gene 1 16 28 0.129033 0 16 0 1
gene 1 17 28 -0.200802 0 17 0 1
gene 1 18 28 -0.154093 0 18 0 1
gene 1 19 28 -0.687179 0 19 0 1
gene 1 20 28 -2.904 0 20 0 1
gene 1 21 28 -0.788527 0 21 0 1
gene 1 22 28 -1.03929 0 22 0 1
gene 1 23 28 -1.11141 0 23 0 1
gene 1 24 28 -0.732851 0 24 0 1
gene 1 25 28 2.05272 0 25 0 1
gene 1 26 28 -1.66167 0 26 0 1
gene 1 27 28 -1.25391 0 27 0 1
gene 1 1 29 -0.0370517 0 28 0 1
gene 1 2 29 2.79123 0 29 0 1
gene 1 3 29 0.590837 0 30 0 1
gene 1 4 29 -0.0730187 0 31 0 1
gene 1 5 29 0.652768 0 32 0 1
gene 1 6 29 1.06204 0 33 0 1
gene 1 7 29 -0.734414 0 34 0 1
gene 1 8 29 0.578025 0 35 0 1
gene 1 9 29 1.10688 0 36 0 1
gene 1 10 29 -1.23911 0 37 0 1
gene 1 11 29 0.296872 0 38 0 1
gene 1 12 29 -0.680383 0 39 0 1
gene 1 13 29 3.19282 0 40 0 1
gene 1 14 29 2.25856 0 41 0 1
gene 1 15 29 -0.965701 0 42 0 1
gene 1 16 29 -0.86776 0 43 0 1
gene 1 17 29 0.558665 0 44 0 1
gene 1 18 29 1.68425 0 45 0 1
gene 1 19 29 -0.137117 0 46 0 1
gene 1 20 29 -1.48879 0 47 0 1
gene 1 21 29 0.154473 0 48 0 1
gene 1 22 29 -0.0711781 0 49 0 1
gene 1 23 29 0.827069 0 50 0 1
gene 1 24 29 0.458835 0 51 0 1
gene 1 25 29 -0.72342 0 52 0 1
gene 1 26 29 0.845223 0 53 0 1
gene 1 27 29 -1.46044 0 54 0 1
gene 1 1 30 1.5396 0 55 0 1
gene 1 2 30 -0.177121 0 56 0 1
gene 1 3 30 -0.249552 0 57 0 1
gene 1 4 30 1.87478 0 58 0 1
gene 1 5 30 -2.38824 0 59 0 1
gene 1 6 30 -0.30378 0 60 0 1
gene 1 7 30 0.847663 0 61 0 1
gene 1 8 30 1.62087 0 62 0 1
gene 1 9 30 0.876087 0 63 0 1
gene 1 10 30 -0.631851 0 64 0 1
gene 1 11 30 -1.26051 0 65 0 1
gene 1 12 30 1.56718 0 66 0 1
gene 1 13 30 -0.513963 0 67 0 1
gene 1 14 30 0.230351 0 68 0 1
gene 1 15 30 1.52673 0 69 0 1
gene 1 16 30 -1.25408 0 70 0 1
gene 1 17 30 0.682116 0 71 0 1
gene 1 18 30 -0.00290503 0 72 0 1
gene 1 19 30 3.07908 0 73 0 1
gene 1 20 30 0.258369 0 74 0 1
gene 1 21 30 1.79053 0 75 0 1
gene 1 22 30 -1.26833 0 76 0 1
gene 1 23 30 -0.789896 0 77 0 1
gene 1 24 30 1.79402 0 78 0 1
gene 1 25 30 -1.13077 0 79 0 1
gene 1 26 30 -0.630831 0 80 0 1
gene 1 27 30 -1.19011 0 81 0 1
genomeend 2
