genomestart 2
trait 1 0 0 0 0 0 0 0 0 
node 1 0 1 1
node 2 0 1 1
node 3 0 1 1
node 4 0 1 1
node 5 0 1 1
node 6 0 1 1
node 7 0 1 1
node 8 0 1 1
node 9 0 1 1
node 10 0 1 1
node 11 0 1 1
node 12 0 1 1
node 13 0 1 1
node 14 0 1 1
node 15 0 1 1
node 16 0 1 1
node 17 0 1 1
node 18 0 1 1
node 19 0 1 1
node 20 0 1 1
node 21 0 1 1
node 22 0 1 1
node 23 0 1 1
node 24 0 1 1
node 25 0 1 1
node 26 0 1 1
node 27 0 1 3
node 28 0 0 2
node 29 0 0 2
node 30 0 0 2
gene 1 1 28 -0.365243 0 1 0 1
gene 1 2 28 -0.148955 0 2 0 1
gene 1 3 28 -0.881626 0 3 0 1
gene 1 4 28 -2.61244 0 4 0 1
gene 1 5 28 1.59967 0 5 0 1
gene 1 6 28 0.142983 0 6 0 1
gene 1 7 28 -0.398818 0 7 0 1
gene 1 8 28 -0.576935 0 8 0 1
gene 1 9 28 0.607049 0 9 0 1
gene 1 10 28 2.48753 0 10 0 1
gene 1 11 28 1.23852 0 11 0 1
gene 1 12 28 2.40532 0 12 0 1
gene 1 13 28 0.160448 0 13 0 1
gene 1 14 28 0.371284 0 14 0 1
gene 1 15 28 -0.50331 0 15 0 1
gene 1 16 28 -0.13328 0 16 0 1
gene 1 17 28 -0.34841 0 17 0 1
gene 1 18 28 -0.617292 0 18 0 1
gene 1 19 28 -0.47472 0 19 0 1
gene 1 20 28 -2.86809 0 20 0 1
gene 1 21 28 -0.347213 0 21 0 1
gene 1 22 28 -0.948188 0 22 0 1
gene 1 23 28 -1.06113 0 23 0 1
gene 1 24 28 -0.588497 0 24 0 1
gene 1 25 28 2.02225 0 25 0 1
gene 1 26 28 -1.33012 0 26 0 1
gene 1 27 28 -0.978311 0 27 0 1
gene 1 1 29 0.164645 0 28 0 1
gene 1 2 29 2.85158 0 29 0 1
gene 1 3 29 0.637234 0 30 0 1
gene 1 4 29 0.279635 0 31 0 1
gene 1 5 29 0.072719 0 32 0 1
gene 1 6 29 0.902253 0 33 0 1
gene 1 7 29 -1.36332 0 34 0 1
gene 1 8 29 0.197987 0 35 0 1
gene 1 9 29 1.4046 0 36 0 1
gene 1 10 29 -1.78091 0 37 0 1
gene 1 11 29 -0.183275 0 38 0 1
gene 1 12 29 -1.22137 0 39 0 1
gene 1 13 29 2.82361 0 40 0 1
gene 1 14 29 2.21441 0 41 0 1
gene 1 15 29 -0.843627 0 42 0 1
gene 1 16 29 -0.796081 0 43 0 1
gene 1 17 29 0.198518 0 44 0 1
gene 1 18 29 1.63578 0 45 0 1
gene 1 19 29 0.199856 0 46 0 1
gene 1 20 29 -1.33065 0 47 0 1
gene 1 21 29 0.168349 0 48 0 1
gene 1 22 29 -0.0731671 0 49 0 1
gene 1 23 29 1.00678 0 50 0 1
gene 1 24 29 0.198726 0 51 0 1
gene 1 25 29 -0.346594 0 52 0 1
gene 1 26 29 0.659731 0 53 0 1
gene 1 27 29 -1.26047 0 54 0 1
gene 1 1 30 1.64711 0 55 0 1
gene 1 2 30 0.00731981 0 56 0 1
gene 1 3 30 -0.317045 0 57 0 1
gene 1 4 30 1.94661 0 58 0 1
gene 1 5 30 -2.29843 0 59 0 1
gene 1 6 30 0.348491 0 60 0 1
gene 1 7 30 0.148368 0 61 0 1
gene 1 8 30 1.44131 0 62 0 1
gene 1 9 30 0.773859 0 63 0 1
gene 1 10 30 -0.209961 0 64 0 1
gene 1 11 30 -0.973511 0 65 0 1
gene 1 12 30 1.80095 0 66 0 1
gene 1 13 30 -0.685396 0 67 0 1
gene 1 14 30 0.27816 0 68 0 1
gene 1 15 30 1.85517 0 69 0 1
gene 1 16 30 -1.45244 0 70 0 1
gene 1 17 30 0.736063 0 71 0 1
gene 1 18 30 0.678368 0 72 0 1
gene 1 19 30 2.9891 0 73 0 1
gene 1 20 30 0.0841087 0 74 0 1
gene 1 21 30 1.90161 0 75 0 1
gene 1 22 30 -1.31249 0 76 0 1
gene 1 23 30 -0.962286 0 77 0 1
gene 1 24 30 1.96665 0 78 0 1
gene 1 25 30 -1.13426 0 79 0 1
gene 1 26 30 -0.530881 0 80 0 1
gene 1 27 30 -1.05099 0 81 0 1
genomeend 2
