genomestart 2
trait 1 0 0 0 0 0 0 0 0 
node 1 0 1 1
node 2 0 1 1
node 3 0 1 1
node 4 0 1 1
node 5 0 1 1
node 6 0 1 1
node 7 0 1 1
node 8 0 1 1
node 9 0 1 1
node 10 0 1 1
node 11 0 1 1
node 12 0 1 1
node 13 0 1 1
node 14 0 1 1
node 15 0 1 1
node 16 0 1 1
node 17 0 1 1
node 18 0 1 1
node 19 0 1 1
node 20 0 1 1
node 21 0 1 1
node 22 0 1 1
node 23 0 1 1
node 24 0 1 1
node 25 0 1 1
node 26 0 1 1
node 27 0 1 3
node 28 0 0 2
node 29 0 0 2
node 30 0 0 2
gene 1 1 28 -0.57568 0 1 0 1
gene 1 2 28 -0.988998 0 2 0 1
gene 1 3 28 0.913918 0 3 0 1
gene 1 4 28 0.973838 0 4 0 1
gene 1 5 28 -3.05758 0 5 0 1
gene 1 6 28 -0.191094 0 6 0 1
gene 1 7 28 0.110765 0 7 0 1
gene 1 8 28 -0.434917 0 8 0 1
gene 1 9 28 -2.49579 0 9 0 1
gene 1 10 28 0.436706 0 10 0 1
gene 1 11 28 1.10912 0 11 0 1
gene 1 12 28 -0.0994244 0 12 0 1
gene 1 13 28 -1.43314 0 13 0 1
gene 1 14 28 3.25345 0 14 0 1
gene 1 15 28 0.110952 0 15 0 1
gene 1 16 28 0.0636616 0 16 0 1
gene 1 17 28 0.0658943 0 17 0 1
gene 1 18 28 -0.453199 0 18 0 1
gene 1 19 28 -1.86407 0 19 0 1
gene 1 20 28 -0.286295 0 20 0 1
gene 1 21 28 0.693191 0 21 0 1
gene 1 22 28 -0.174294 0 22 0 1
gene 1 23 28 -2.23365 0 23 0 1
gene 1 24 28 1.99671 0 24 0 1
gene 1 25 28 2.21259 0 25 0 1
gene 1 26 28 0.638041 0 26 0 1
gene 1 27 28 -2.82346 0 27 0 1
gene 1 1 29 0.523104 0 28 0 1
gene 1 2 29 0.877969 0 29 0 1
gene 1 3 29 -1.30131 0 30 0 1
gene 1 4 29 0.541875 0 31 0 1
gene 1 5 29 0.0286199 0 32 0 1
gene 1 6 29 2.5998 0 33 0 1
gene 1 7 29 3.72644 0 34 0 1
gene 1 8 29 -1.5994 0 35 0 1
gene 1 9 29 1.70136 0 36 0 1
gene 1 10 29 -1.29608 0 37 0 1
gene 1 11 29 2.22727 0 38 0 1
gene 1 12 29 -0.0360286 0 39 0 1
gene 1 13 29 1.15906 0 40 0 1
gene 1 14 29 2.16822 0 41 0 1
gene 1 15 29 1.32977 0 42 0 1
gene 1 16 29 1.71003 0 43 0 1
gene 1 17 29 2.86816 0 44 0 1
gene 1 18 29 -2.30285 0 45 0 1
gene 1 19 29 0.859331 0 46 0 1
gene 1 20 29 -2.2753 0 47 0 1
gene 1 21 29 2.11698 0 48 0 1
gene 1 22 29 -0.697847 0 49 0 1
gene 1 23 29 -1.8726 0 50 0 1
gene 1 24 29 -3.66315 0 51 0 1
gene 1 25 29 1.22605 0 52 0 1
gene 1 26 29 2.36899 0 53 0 1
gene 1 27 29 2.35339 0 54 0 1
gene 1 1 30 -1.86586 0 55 0 1
gene 1 2 30 -0.496265 0 56 0 1
gene 1 3 30 2.55433 0 57 0 1
gene 1 4 30 -3.01032 0 58 0 1
gene 1 5 30 -0.296125 0 59 0 1
gene 1 6 30 1.13728 0 60 0 1
gene 1 7 30 3.54188 0 61 0 1
gene 1 8 30 1.4722 0 62 0 1
gene 1 9 30 -2.22787 0 63 0 1
gene 1 10 30 0.0603146 0 64 0 1
gene 1 11 30 -1.69344 0 65 0 1
gene 1 12 30 0.0851352 0 66 0 1
gene 1 13 30 0.0765468 0 67 0 1
gene 1 14 30 1.33482 0 68 0 1
gene 1 15 30 1.82771 0 69 0 1
gene 1 16 30 -2.57216 0 70 0 1
gene 1 17 30 1.66948 0 71 0 1
gene 1 18 30 -2.82796 0 72 0 1
gene 1 19 30 -0.531796 0 73 0 1
gene 1 20 30 -2.3157 0 74 0 1
gene 1 21 30 0.0460044 0 75 0 1
gene 1 22 30 0.469183 0 76 0 1
gene 1 23 30 -0.864495 0 77 0 1
gene 1 24 30 2.22203 0 78 0 1
gene 1 25 30 0.777758 0 79 0 1
gene 1 26 30 -0.0722561 0 80 0 1
gene 1 27 30 1.75065 0 81 0 1
genomeend 2
