genomestart 2
trait 1 0 0 0 0 0 0 0 0 
node 1 0 1 1
node 2 0 1 1
node 3 0 1 1
node 4 0 1 1
node 5 0 1 1
node 6 0 1 1
node 7 0 1 1
node 8 0 1 1
node 9 0 1 1
node 10 0 1 1
node 11 0 1 1
node 12 0 1 1
node 13 0 1 1
node 14 0 1 1
node 15 0 1 1
node 16 0 1 1
node 17 0 1 1
node 18 0 1 1
node 19 0 1 1
node 20 0 1 1
node 21 0 1 1
node 22 0 1 1
node 23 0 1 1
node 24 0 1 1
node 25 0 1 1
node 26 0 1 1
node 27 0 1 3
node 28 0 0 2
node 29 0 0 2
node 30 0 0 2
gene 1 1 28 -0.611763 0 1 0 1
gene 1 2 28 0.0306579 0 2 0 1
gene 1 3 28 0.960922 0 3 0 1
gene 1 4 28 0.0477556 0 4 0 1
gene 1 5 28 -0.790216 0 5 0 1
gene 1 6 28 -0.0571974 0 6 0 1
gene 1 7 28 -1.08106 0 7 0 1
gene 1 8 28 3.87609 0 8 0 1
gene 1 9 28 -2.86113 0 9 0 1
gene 1 10 28 -0.168879 0 10 0 1
gene 1 11 28 0.561316 0 11 0 1
gene 1 12 28 -0.954472 0 12 0 1
gene 1 13 28 0.123489 0 13 0 1
gene 1 14 28 5.43945 0 14 0 1
gene 1 15 28 0.389182 0 15 0 1
gene 1 16 28 1.62314 0 16 0 1
gene 1 17 28 -0.756508 0 17 0 1
gene 1 18 28 -0.910682 0 18 0 1
gene 1 19 28 -1.53498 0 19 0 1
gene 1 20 28 0.598387 0 20 0 1
gene 1 21 28 0.673679 0 21 0 1
gene 1 22 28 -0.971715 0 22 0 1
gene 1 23 28 -2.78159 0 23 0 1
gene 1 24 28 0.195067 0 24 0 1
gene 1 25 28 1.79057 0 25 0 1
gene 1 26 28 -0.103348 0 26 0 1
gene 1 27 28 -1.63386 0 27 0 1
gene 1 1 29 0.739582 0 28 0 1
gene 1 2 29 1.06609 0 29 0 1
gene 1 3 29 -1.06367 0 30 0 1
gene 1 4 29 1.12624 0 31 0 1
gene 1 5 29 2.2308 0 32 0 1
gene 1 6 29 1.88268 0 33 0 1
gene 1 7 29 1.90865 0 34 0 1
gene 1 8 29 -1.53896 0 35 0 1
gene 1 9 29 0.424656 0 36 0 1
gene 1 10 29 -2.89016 0 37 0 1
gene 1 11 29 0.669593 0 38 0 1
gene 1 12 29 -2.86467 0 39 0 1
gene 1 13 29 0.900989 0 40 0 1
gene 1 14 29 2.04464 0 41 0 1
gene 1 15 29 0.12185 0 42 0 1
gene 1 16 29 2.0778 0 43 0 1
gene 1 17 29 1.02459 0 44 0 1
gene 1 18 29 -3.71941 0 45 0 1
gene 1 19 29 1.3245 0 46 0 1
gene 1 20 29 -0.836956 0 47 0 1
gene 1 21 29 1.24756 0 48 0 1
gene 1 22 29 -0.210831 0 49 0 1
gene 1 23 29 -0.345724 0 50 0 1
gene 1 24 29 -2.98389 0 51 0 1
gene 1 25 29 1.8031 0 52 0 1
gene 1 26 29 2.42993 0 53 0 1
gene 1 27 29 1.22303 0 54 0 1
gene 1 1 30 -2.88306 0 55 0 1
gene 1 2 30 0.552424 0 56 0 1
gene 1 3 30 3.16575 0 57 0 1
gene 1 4 30 -0.482897 0 58 0 1
gene 1 5 30 -0.234458 0 59 0 1
gene 1 6 30 -0.230051 0 60 0 1
gene 1 7 30 3.54938 0 61 0 1
gene 1 8 30 1.42027 0 62 0 1
gene 1 9 30 -0.056532 0 63 0 1
gene 1 10 30 -1.48653 0 64 0 1
gene 1 11 30 -0.675528 0 65 0 1
gene 1 12 30 -0.808801 0 66 0 1
gene 1 13 30 -0.0201093 0 67 0 1
gene 1 14 30 0.0808069 0 68 0 1
gene 1 15 30 3.35975 0 69 0 1
gene 1 16 30 -0.93792 0 70 0 1
gene 1 17 30 0.804135 0 71 0 1
gene 1 18 30 -0.622505 0 72 0 1
gene 1 19 30 -2.2955 0 73 0 1
gene 1 20 30 -1.27826 0 74 0 1
gene 1 21 30 0.996945 0 75 0 1
gene 1 22 30 -1.45845 0 76 0 1
gene 1 23 30 1.52842 0 77 0 1
gene 1 24 30 3.0949 0 78 0 1
gene 1 25 30 -0.356576 0 79 0 1
gene 1 26 30 -1.18696 0 80 0 1
gene 1 27 30 2.9176 0 81 0 1
genomeend 2
