genomestart 3
trait 1 0 0 0 0 0 0 0 0 
node 1 0 1 1
node 2 0 1 1
node 3 0 1 1
node 4 0 1 1
node 5 0 1 1
node 6 0 1 1
node 7 0 1 1
node 8 0 1 1
node 9 0 1 1
node 10 0 1 1
node 11 0 1 1
node 12 0 1 1
node 13 0 1 3
node 14 0 0 2
node 15 0 0 2
gene 1 1 14 1.54369 0 1 0 1
gene 1 2 14 -4.05026 0 2 0 1
gene 1 3 14 0.444195 0 3 0 1
gene 1 4 14 -3.53074 0 4 0 1
gene 1 5 14 -0.824506 0 5 0 1
gene 1 6 14 -4.79014 0 6 0 1
gene 1 7 14 -4.00342 0 7 0 1
gene 1 8 14 -0.991492 0 8 0 1
gene 1 9 14 -0.57749 0 9 0 1
gene 1 10 14 5.65289 0 10 0 1
gene 1 11 14 2.22284 0 11 0 1
gene 1 12 14 -1.70907 0 12 0 1
gene 1 13 14 -4.0411 0 13 0 1
gene 1 1 15 4.44602 0 14 0 1
gene 1 2 15 -2.89677 0 15 0 1
gene 1 3 15 0.530168 0 16 0 1
gene 1 4 15 8.21827 0 17 0 1
gene 1 5 15 -2.67345 0 18 0 1
gene 1 6 15 -0.580576 0 19 0 1
gene 1 7 15 -2.62366 0 20 0 1
gene 1 8 15 3.24082 0 21 0 1
gene 1 9 15 -2.69065 0 22 0 1
gene 1 10 15 1.99865 0 23 0 1
gene 1 11 15 5.20301 0 24 0 1
gene 1 12 15 -3.27011 0 25 0 1
gene 1 13 15 -3.85953 0 26 0 1
genomeend 3
