genomestart 3
trait 1 0 0 0 0 0 0 0 0 
node 1 0 1 1
node 2 0 1 1
node 3 0 1 1
node 4 0 1 1
node 5 0 1 1
node 6 0 1 1
node 7 0 1 1
node 8 0 1 1
node 9 0 1 1
node 10 0 1 1
node 11 0 1 1
node 12 0 1 1
node 13 0 1 3
node 14 0 0 2
node 15 0 0 2
gene 1 1 14 0.4701 0 1 0 1
gene 1 2 14 -0.609613 0 2 0 1
gene 1 3 14 -0.972217 0 3 0 1
gene 1 4 14 -1.63982 0 4 0 1
gene 1 5 14 -0.698936 0 5 0 1
gene 1 6 14 -3.51809 0 6 0 1
gene 1 7 14 -4.24636 0 7 0 1
gene 1 8 14 1.48575 0 8 0 1
gene 1 9 14 -1.33315 0 9 0 1
gene 1 10 14 5.55111 0 10 0 1
gene 1 11 14 3.18544 0 11 0 1
gene 1 12 14 -4.81341 0 12 0 1
gene 1 13 14 -5.43485 0 13 0 1
gene 1 1 15 2.37903 0 14 0 1
gene 1 2 15 -4.80486 0 15 0 1
gene 1 3 15 -1.66622 0 16 0 1
gene 1 4 15 7.36792 0 17 0 1
gene 1 5 15 -4.8801 0 18 0 1
gene 1 6 15 0.302284 0 19 0 1
gene 1 7 15 -4.45407 0 20 0 1
gene 1 8 15 2.14653 0 21 0 1
gene 1 9 15 -1.26038 0 22 0 1
gene 1 10 15 3.1224 0 23 0 1
gene 1 11 15 2.81827 0 24 0 1
gene 1 12 15 -0.769087 0 25 0 1
gene 1 13 15 -2.88191 0 26 0 1
genomeend 3
