genomestart 3
trait 1 0 0 0 0 0 0 0 0 
node 1 0 1 1
node 2 0 1 1
node 3 0 1 1
node 4 0 1 1
node 5 0 1 1
node 6 0 1 1
node 7 0 1 1
node 8 0 1 1
node 9 0 1 1
node 10 0 1 1
node 11 0 1 1
node 12 0 1 1
node 13 0 1 3
node 14 0 0 2
node 15 0 0 2
gene 1 1 14 -0.286475 0 1 0 1
gene 1 2 14 -0.490605 0 2 0 1
gene 1 3 14 1.02174 0 3 0 1
gene 1 4 14 -2.10227 0 4 0 1
gene 1 5 14 -1.89551 0 5 0 1
gene 1 6 14 -2.4941 0 6 0 1
gene 1 7 14 -4.75158 0 7 0 1
gene 1 8 14 2.23753 0 8 0 1
gene 1 9 14 -1.90778 0 9 0 1
gene 1 10 14 5.51167 0 10 0 1
gene 1 11 14 4.18227 0 11 0 1
gene 1 12 14 -5.70976 0 12 0 1
gene 1 13 14 -4.78448 0 13 0 1
gene 1 1 15 3.06727 0 14 0 1
gene 1 2 15 -2.92519 0 15 0 1
gene 1 3 15 -1.20292 0 16 0 1
gene 1 4 15 6.46414 0 17 0 1
gene 1 5 15 -4.54735 0 18 0 1
gene 1 6 15 -0.529809 0 19 0 1
gene 1 7 15 -4.74277 0 20 0 1
gene 1 8 15 2.47458 0 21 0 1
gene 1 9 15 -2.53549 0 22 0 1
gene 1 10 15 2.99118 0 23 0 1
gene 1 11 15 3.74894 0 24 0 1
gene 1 12 15 0.276472 0 25 0 1
gene 1 13 15 -2.33914 0 26 0 1
genomeend 3
