genomestart 3
trait 1 0 0 0 0 0 0 0 0 
node 1 0 1 1
node 2 0 1 1
node 3 0 1 1
node 4 0 1 1
node 5 0 1 1
node 6 0 1 1
node 7 0 1 1
node 8 0 1 1
node 9 0 1 1
node 10 0 1 1
node 11 0 1 1
node 12 0 1 1
node 13 0 1 3
node 14 0 0 2
node 15 0 0 2
gene 1 1 14 1.6035 0 1 0 1
gene 1 2 14 1.92971 0 2 0 1
gene 1 3 14 -2.30836 0 3 0 1
gene 1 4 14 -3.15109 0 4 0 1
gene 1 5 14 -1.02183 0 5 0 1
gene 1 6 14 -2.25448 0 6 0 1
gene 1 7 14 -6.20156 0 7 0 1
gene 1 8 14 -1.87487 0 8 0 1
gene 1 9 14 -2.91942 0 9 0 1
gene 1 10 14 10.4868 0 10 0 1
gene 1 11 14 3.13974 0 11 0 1
gene 1 12 14 -3.9765 0 12 0 1
gene 1 13 14 -6.85424 0 13 0 1
gene 1 1 15 1.89934 0 14 0 1
gene 1 2 15 -4.82047 0 15 0 1
gene 1 3 15 -1.51124 0 16 0 1
gene 1 4 15 7.70987 0 17 0 1
gene 1 5 15 -4.46279 0 18 0 1
gene 1 6 15 0.738202 0 19 0 1
gene 1 7 15 -5.17659 0 20 0 1
gene 1 8 15 1.2893 0 21 0 1
gene 1 9 15 -1.45925 0 22 0 1
gene 1 10 15 0.143694 0 23 0 1
gene 1 11 15 4.91282 0 24 0 1
gene 1 12 15 -2.99272 0 25 0 1
gene 1 13 15 -0.730736 0 26 0 1
genomeend 3
