genomestart 2
trait 1 0 0 0 0 0 0 0 0 
node 1 0 1 1
node 2 0 1 1
node 3 0 1 1
node 4 0 1 1
node 5 0 1 1
node 6 0 1 1
node 7 0 1 1
node 8 0 1 1
node 9 0 1 1
node 10 0 1 1
node 11 0 1 1
node 12 0 1 1
node 13 0 1 1
node 14 0 1 1
node 15 0 1 1
node 16 0 1 1
node 17 0 1 1
node 18 0 1 1
node 19 0 1 1
node 20 0 1 1
node 21 0 1 1
node 22 0 1 1
node 23 0 1 1
node 24 0 1 1
node 25 0 1 1
node 26 0 1 1
node 27 0 1 3
node 28 0 0 2
node 29 0 0 2
node 30 0 0 2
gene 1 1 28 -0.778955 0 1 0 1
gene 1 2 28 -1.08756 0 2 0 1
gene 1 3 28 1.2387 0 3 0 1
gene 1 4 28 1.2805 0 4 0 1
gene 1 5 28 -2.04466 0 5 0 1
gene 1 6 28 -0.899949 0 6 0 1
gene 1 7 28 -1.48176 0 7 0 1
gene 1 8 28 0.71011 0 8 0 1
gene 1 9 28 -1.36897 0 9 0 1
gene 1 10 28 0.105493 0 10 0 1
gene 1 11 28 0.594339 0 11 0 1
gene 1 12 28 1.08132 0 12 0 1
gene 1 13 28 -0.173187 0 13 0 1
gene 1 14 28 2.58423 0 14 0 1
gene 1 15 28 0.378261 0 15 0 1
gene 1 16 28 1.49338 0 16 0 1
gene 1 17 28 1.20881 0 17 0 1
gene 1 18 28 -0.383201 0 18 0 1
gene 1 19 28 -1.03544 0 19 0 1
gene 1 20 28 -0.0787429 0 20 0 1
gene 1 21 28 0.679071 0 21 0 1
gene 1 22 28 -1.11996 0 22 0 1
gene 1 23 28 -1.43591 0 23 0 1
gene 1 24 28 0.395424 0 24 0 1
gene 1 25 28 2.97055 0 25 0 1
gene 1 26 28 0.423682 0 26 0 1
gene 1 27 28 -0.124602 0 27 0 1
gene 1 1 29 -1.17589 0 28 0 1
gene 1 2 29 0.769616 0 29 0 1
gene 1 3 29 -1.18162 0 30 0 1
gene 1 4 29 0.664104 0 31 0 1
gene 1 5 29 1.38313 0 32 0 1
gene 1 6 29 2.04459 0 33 0 1
gene 1 7 29 1.46686 0 34 0 1
gene 1 8 29 -1.47784 0 35 0 1
gene 1 9 29 0.336969 0 36 0 1
gene 1 10 29 -0.980786 0 37 0 1
gene 1 11 29 -0.16848 0 38 0 1
gene 1 12 29 -0.669104 0 39 0 1
gene 1 13 29 -0.977728 0 40 0 1
gene 1 14 29 0.469179 0 41 0 1
gene 1 15 29 -0.180902 0 42 0 1
gene 1 16 29 2.04789 0 43 0 1
gene 1 17 29 0.32903 0 44 0 1
gene 1 18 29 -1.54276 0 45 0 1
gene 1 19 29 -0.512718 0 46 0 1
gene 1 20 29 -1.23261 0 47 0 1
gene 1 21 29 0.760987 0 48 0 1
gene 1 22 29 -0.376712 0 49 0 1
gene 1 23 29 0.430496 0 50 0 1
gene 1 24 29 -1.49628 0 51 0 1
gene 1 25 29 1.43685 0 52 0 1
gene 1 26 29 2.05591 0 53 0 1
gene 1 27 29 0.657914 0 54 0 1
gene 1 1 30 -2.01279 0 55 0 1
gene 1 2 30 -0.0298549 0 56 0 1
gene 1 3 30 2.13253 0 57 0 1
gene 1 4 30 -1.4376 0 58 0 1
gene 1 5 30 -0.3949 0 59 0 1
gene 1 6 30 0.613803 0 60 0 1
gene 1 7 30 1.06413 0 61 0 1
gene 1 8 30 1.93219 0 62 0 1
gene 1 9 30 -1.05493 0 63 0 1
gene 1 10 30 0.631991 0 64 0 1
gene 1 11 30 -1.82787 0 65 0 1
gene 1 12 30 0.294562 0 66 0 1
gene 1 13 30 -1.17703 0 67 0 1
gene 1 14 30 0.0519371 0 68 0 1
gene 1 15 30 1.76558 0 69 0 1
gene 1 16 30 -1.50499 0 70 0 1
gene 1 17 30 0.512223 0 71 0 1
gene 1 18 30 -1.92865 0 72 0 1
gene 1 19 30 -0.376101 0 73 0 1
gene 1 20 30 0.544997 0 74 0 1
gene 1 21 30 -1.07454 0 75 0 1
gene 1 22 30 -0.64171 0 76 0 1
gene 1 23 30 -0.0134814 0 77 0 1
gene 1 24 30 0.943175 0 78 0 1
gene 1 25 30 1.0379 0 79 0 1
gene 1 26 30 -1.36089 0 80 0 1
gene 1 27 30 1.06454 0 81 0 1
genomeend 2
