genomestart 2
trait 1 0 0 0 0 0 0 0 0 
node 1 0 1 1
node 2 0 1 1
node 3 0 1 1
node 4 0 1 1
node 5 0 1 1
node 6 0 1 1
node 7 0 1 1
node 8 0 1 1
node 9 0 1 1
node 10 0 1 1
node 11 0 1 1
node 12 0 1 1
node 13 0 1 1
node 14 0 1 1
node 15 0 1 1
node 16 0 1 1
node 17 0 1 1
node 18 0 1 1
node 19 0 1 1
node 20 0 1 1
node 21 0 1 1
node 22 0 1 1
node 23 0 1 1
node 24 0 1 1
node 25 0 1 1
node 26 0 1 1
node 27 0 1 3
node 28 0 0 2
node 29 0 0 2
node 30 0 0 2
gene 1 1 28 -0.148873 0 1 0 1
gene 1 2 28 -0.886883 0 2 0 1
gene 1 3 28 -0.218371 0 3 0 1
gene 1 4 28 -1.40403 0 4 0 1
gene 1 5 28 2.33525 0 5 0 1
gene 1 6 28 0.457782 0 6 0 1
gene 1 7 28 -0.57325 0 7 0 1
gene 1 8 28 0.435062 0 8 0 1
gene 1 9 28 0.68915 0 9 0 1
gene 1 10 28 2.80559 0 10 0 1
gene 1 11 28 0.864254 0 11 0 1
gene 1 12 28 2.5367 0 12 0 1
gene 1 13 28 0.244042 0 13 0 1
gene 1 14 28 1.29779 0 14 0 1
gene 1 15 28 0.190494 0 15 0 1
gene 1 16 28 0.394369 0 16 0 1
gene 1 17 28 -0.799214 0 17 0 1
gene 1 18 28 -0.291115 0 18 0 1
gene 1 19 28 -0.132551 0 19 0 1
gene 1 20 28 -2.55874 0 20 0 1
gene 1 21 28 -0.177245 0 21 0 1
gene 1 22 28 -0.943299 0 22 0 1
gene 1 23 28 -0.397958 0 23 0 1
gene 1 24 28 -0.558153 0 24 0 1
gene 1 25 28 2.81899 0 25 0 1
gene 1 26 28 -2.46256 0 26 0 1
gene 1 27 28 -0.843093 0 27 0 1
gene 1 1 29 0.514914 0 28 0 1
gene 1 2 29 2.7948 0 29 0 1
gene 1 3 29 0.235429 0 30 0 1
gene 1 4 29 0.500076 0 31 0 1
gene 1 5 29 -0.0105858 0 32 0 1
gene 1 6 29 1.53723 0 33 0 1
gene 1 7 29 -0.480508 0 34 0 1
gene 1 8 29 -0.0160484 0 35 0 1
gene 1 9 29 0.778819 0 36 0 1
gene 1 10 29 -1.27735 0 37 0 1
gene 1 11 29 -0.611128 0 38 0 1
gene 1 12 29 -0.883362 0 39 0 1
gene 1 13 29 3.42794 0 40 0 1
gene 1 14 29 1.83965 0 41 0 1
gene 1 15 29 -0.352353 0 42 0 1
gene 1 16 29 -0.197856 0 43 0 1
gene 1 17 29 0.0552643 0 44 0 1
gene 1 18 29 1.46155 0 45 0 1
gene 1 19 29 0.146781 0 46 0 1
gene 1 20 29 -0.626929 0 47 0 1
gene 1 21 29 -0.310048 0 48 0 1
gene 1 22 29 -0.0329313 0 49 0 1
gene 1 23 29 0.51235 0 50 0 1
gene 1 24 29 0.391869 0 51 0 1
gene 1 25 29 -0.658937 0 52 0 1
gene 1 26 29 1.15342 0 53 0 1
gene 1 27 29 -0.879024 0 54 0 1
gene 1 1 30 1.14244 0 55 0 1
gene 1 2 30 -0.606367 0 56 0 1
gene 1 3 30 0.464462 0 57 0 1
gene 1 4 30 1.3543 0 58 0 1
gene 1 5 30 -1.23291 0 59 0 1
gene 1 6 30 0.204322 0 60 0 1
gene 1 7 30 -0.375094 0 61 0 1
gene 1 8 30 1.03257 0 62 0 1
gene 1 9 30 0.229164 0 63 0 1
gene 1 10 30 0.698133 0 64 0 1
gene 1 11 30 -0.519321 0 65 0 1
gene 1 12 30 1.36997 0 66 0 1
gene 1 13 30 -0.964774 0 67 0 1
gene 1 14 30 0.225793 0 68 0 1
gene 1 15 30 1.52275 0 69 0 1
gene 1 16 30 -0.775575 0 70 0 1
gene 1 17 30 1.02655 0 71 0 1
gene 1 18 30 0.401626 0 72 0 1
gene 1 19 30 2.33596 0 73 0 1
gene 1 20 30 -0.19592 0 74 0 1
gene 1 21 30 1.77804 0 75 0 1
gene 1 22 30 -1.7675 0 76 0 1
gene 1 23 30 -1.46104 0 77 0 1
gene 1 24 30 1.5835 0 78 0 1
gene 1 25 30 0.160563 0 79 0 1
gene 1 26 30 0.214978 0 80 0 1
gene 1 27 30 -1.15908 0 81 0 1
genomeend 2
