genomestart 2
trait 1 0 0 0 0 0 0 0 0 
node 1 0 1 1
node 2 0 1 1
node 3 0 1 1
node 4 0 1 1
node 5 0 1 1
node 6 0 1 1
node 7 0 1 1
node 8 0 1 1
node 9 0 1 1
node 10 0 1 1
node 11 0 1 1
node 12 0 1 1
node 13 0 1 1
node 14 0 1 1
node 15 0 1 1
node 16 0 1 1
node 17 0 1 1
node 18 0 1 1
node 19 0 1 1
node 20 0 1 1
node 21 0 1 1
node 22 0 1 1
node 23 0 1 1
node 24 0 1 1
node 25 0 1 1
node 26 0 1 1
node 27 0 1 3
node 28 0 0 2
node 29 0 0 2
node 30 0 0 2
gene 1 1 28 0.0244362 0 1 0 1
gene 1 2 28 -0.392646 0 2 0 1
gene 1 3 28 -0.409178 0 3 0 1
gene 1 4 28 -0.937259 0 4 0 1
gene 1 5 28 1.92703 0 5 0 1
gene 1 6 28 0.31362 0 6 0 1
gene 1 7 28 -0.871744 0 7 0 1
gene 1 8 28 0.708071 0 8 0 1
gene 1 9 28 0.512222 0 9 0 1
gene 1 10 28 2.53774 0 10 0 1
gene 1 11 28 0.351116 0 11 0 1
gene 1 12 28 2.09377 0 12 0 1
gene 1 13 28 0.487519 0 13 0 1
gene 1 14 28 0.854545 0 14 0 1
gene 1 15 28 -0.334274 0 15 0 1
gene 1 16 28 0.3503 0 16 0 1
gene 1 17 28 -0.167355 0 17 0 1
gene 1 18 28 -0.43387 0 18 0 1
gene 1 19 28 -0.196172 0 19 0 1
gene 1 20 28 -2.44497 0 20 0 1
gene 1 21 28 -0.397606 0 21 0 1
gene 1 22 28 -0.518245 0 22 0 1
gene 1 23 28 -1.15499 0 23 0 1
gene 1 24 28 -0.369862 0 24 0 1
gene 1 25 28 3.23019 0 25 0 1
gene 1 26 28 -2.8204 0 26 0 1
gene 1 27 28 -0.2964 0 27 0 1
gene 1 1 29 0.339492 0 28 0 1
gene 1 2 29 2.45484 0 29 0 1
gene 1 3 29 -0.351337 0 30 0 1
gene 1 4 29 0.0709888 0 31 0 1
gene 1 5 29 -0.666759 0 32 0 1
gene 1 6 29 2.19651 0 33 0 1
gene 1 7 29 -0.381026 0 34 0 1
gene 1 8 29 -0.116061 0 35 0 1
gene 1 9 29 0.8861 0 36 0 1
gene 1 10 29 -1.31877 0 37 0 1
gene 1 11 29 -0.955856 0 38 0 1
gene 1 12 29 -0.775627 0 39 0 1
gene 1 13 29 3.13191 0 40 0 1
gene 1 14 29 1.53019 0 41 0 1
gene 1 15 29 -0.174423 0 42 0 1
gene 1 16 29 -0.190357 0 43 0 1
gene 1 17 29 0.249402 0 44 0 1
gene 1 18 29 0.52925 0 45 0 1
gene 1 19 29 0.262347 0 46 0 1
gene 1 20 29 -0.604504 0 47 0 1
gene 1 21 29 -0.736329 0 48 0 1
gene 1 22 29 -0.000281366 0 49 0 1
gene 1 23 29 0.552132 0 50 0 1
gene 1 24 29 0.4577 0 51 0 1
gene 1 25 29 -0.283509 0 52 0 1
gene 1 26 29 0.455603 0 53 0 1
gene 1 27 29 -0.909119 0 54 0 1
gene 1 1 30 0.957516 0 55 0 1
gene 1 2 30 -0.598764 0 56 0 1
gene 1 3 30 0.71128 0 57 0 1
gene 1 4 30 0.829204 0 58 0 1
gene 1 5 30 -1.18438 0 59 0 1
gene 1 6 30 0.393785 0 60 0 1
gene 1 7 30 -0.107287 0 61 0 1
gene 1 8 30 0.768898 0 62 0 1
gene 1 9 30 0.357398 0 63 0 1
gene 1 10 30 0.460905 0 64 0 1
gene 1 11 30 -0.594924 0 65 0 1
gene 1 12 30 0.977058 0 66 0 1
gene 1 13 30 -1.67884 0 67 0 1
gene 1 14 30 -0.0522494 0 68 0 1
gene 1 15 30 1.23495 0 69 0 1
gene 1 16 30 -0.40791 0 70 0 1
gene 1 17 30 1.09455 0 71 0 1
gene 1 18 30 0.443007 0 72 0 1
gene 1 19 30 2.26418 0 73 0 1
gene 1 20 30 -0.156316 0 74 0 1
gene 1 21 30 1.49446 0 75 0 1
gene 1 22 30 -1.54909 0 76 0 1
gene 1 23 30 -1.34186 0 77 0 1
gene 1 24 30 1.72133 0 78 0 1
gene 1 25 30 0.246171 0 79 0 1
gene 1 26 30 0.524012 0 80 0 1
gene 1 27 30 -1.74876 0 81 0 1
genomeend 2
