genomestart 2
trait 1 0 0 0 0 0 0 0 0 
node 1 0 1 1
node 2 0 1 1
node 3 0 1 1
node 4 0 1 1
node 5 0 1 1
node 6 0 1 1
node 7 0 1 1
node 8 0 1 1
node 9 0 1 1
node 10 0 1 1
node 11 0 1 1
node 12 0 1 1
node 13 0 1 1
node 14 0 1 1
node 15 0 1 1
node 16 0 1 1
node 17 0 1 1
node 18 0 1 1
node 19 0 1 1
node 20 0 1 1
node 21 0 1 1
node 22 0 1 1
node 23 0 1 1
node 24 0 1 1
node 25 0 1 1
node 26 0 1 1
node 27 0 1 3
node 28 0 0 2
node 29 0 0 2
node 30 0 0 2
gene 1 1 28 -0.340759 0 1 0 1
gene 1 2 28 -1.23549 0 2 0 1
gene 1 3 28 0.246829 0 3 0 1
gene 1 4 28 -0.768753 0 4 0 1
gene 1 5 28 0.795073 0 5 0 1
gene 1 6 28 -0.849398 0 6 0 1
gene 1 7 28 -0.537586 0 7 0 1
gene 1 8 28 1.54084 0 8 0 1
gene 1 9 28 0.000270194 0 9 0 1
gene 1 10 28 0.679216 0 10 0 1
gene 1 11 28 0.702858 0 11 0 1
gene 1 12 28 0.454105 0 12 0 1
gene 1 13 28 -0.466629 0 13 0 1
gene 1 14 28 -0.453943 0 14 0 1
gene 1 15 28 0.619432 0 15 0 1
gene 1 16 28 0.733505 0 16 0 1
gene 1 17 28 -1.04119 0 17 0 1
gene 1 18 28 1.61719 0 18 0 1
gene 1 19 28 0.752082 0 19 0 1
gene 1 20 28 -0.901138 0 20 0 1
gene 1 21 28 0.281096 0 21 0 1
gene 1 22 28 -0.214538 0 22 0 1
gene 1 23 28 0.175815 0 23 0 1
gene 1 24 28 0.423265 0 24 0 1
gene 1 25 28 1.29876 0 25 0 1
gene 1 26 28 -1.58402 0 26 0 1
gene 1 27 28 0.204245 0 27 0 1
gene 1 1 29 0.759856 0 28 0 1
gene 1 2 29 0.82833 0 29 0 1
gene 1 3 29 -1.0144 0 30 0 1
gene 1 4 29 -1.09857 0 31 0 1
gene 1 5 29 -0.594676 0 32 0 1
gene 1 6 29 -0.00502626 0 33 0 1
gene 1 7 29 0.0812668 0 34 0 1
gene 1 8 29 0.281676 0 35 0 1
gene 1 9 29 0.182147 0 36 0 1
gene 1 10 29 -0.54488 0 37 0 1
gene 1 11 29 -0.828502 0 38 0 1
gene 1 12 29 -0.295516 0 39 0 1
gene 1 13 29 1.43024 0 40 0 1
gene 1 14 29 2.14186 0 41 0 1
gene 1 15 29 -0.865668 0 42 0 1
gene 1 16 29 0.504854 0 43 0 1
gene 1 17 29 0.0736584 0 44 0 1
gene 1 18 29 0.47634 0 45 0 1
gene 1 19 29 0.638276 0 46 0 1
gene 1 20 29 -1.09365 0 47 0 1
gene 1 21 29 -0.796502 0 48 0 1
gene 1 22 29 0.454291 0 49 0 1
gene 1 23 29 -0.446425 0 50 0 1
gene 1 24 29 0.498933 0 51 0 1
gene 1 25 29 -1.03278 0 52 0 1
gene 1 26 29 0.989361 0 53 0 1
gene 1 27 29 -1.4672 0 54 0 1
gene 1 1 30 0.133353 0 55 0 1
gene 1 2 30 -0.451901 0 56 0 1
gene 1 3 30 0.734399 0 57 0 1
gene 1 4 30 0.291106 0 58 0 1
gene 1 5 30 -0.19889 0 59 0 1
gene 1 6 30 -0.218188 0 60 0 1
gene 1 7 30 0.568646 0 61 0 1
gene 1 8 30 0.962874 0 62 0 1
gene 1 9 30 1.45424 0 63 0 1
gene 1 10 30 0.295534 0 64 0 1
gene 1 11 30 -0.198729 0 65 0 1
gene 1 12 30 0.0341855 0 66 0 1
gene 1 13 30 -1.43106 0 67 0 1
gene 1 14 30 -0.00717557 0 68 0 1
gene 1 15 30 0.985232 0 69 0 1
gene 1 16 30 -0.663568 0 70 0 1
gene 1 17 30 0.916832 0 71 0 1
gene 1 18 30 0.0974146 0 72 0 1
gene 1 19 30 1.19696 0 73 0 1
gene 1 20 30 0.290994 0 74 0 1
gene 1 21 30 0.132964 0 75 0 1
gene 1 22 30 -1.03264 0 76 0 1
gene 1 23 30 -0.714809 0 77 0 1
gene 1 24 30 0.723536 0 78 0 1
gene 1 25 30 0.748935 0 79 0 1
gene 1 26 30 0.559301 0 80 0 1
gene 1 27 30 -0.951349 0 81 0 1
genomeend 2
